digraph Tree {
node [shape=box] ;
0 [label="my_board_nb_creatures <= 1.5\ngini = 0.494\nsamples = 1434\nvalue = [641, 793]"] ;
1 [label="opponent_board_total_attack <= 4.5\ngini = 0.431\nsamples = 624\nvalue = [428, 196]"] ;
0 -> 1 [labeldistance=2.5, labelangle=45, headlabel="True"] ;
2 [label="opponent_health <= 21.5\ngini = 0.499\nsamples = 260\nvalue = [125, 135]"] ;
1 -> 2 ;
3 [label="my_hand <= 2.5\ngini = 0.444\nsamples = 120\nvalue = [40, 80]"] ;
2 -> 3 ;
4 [label="opponent_board_total_health <= 2.5\ngini = 0.466\nsamples = 27\nvalue = [17, 10]"] ;
3 -> 4 ;
5 [label="my_board_total_attack <= 2.5\ngini = 0.291\nsamples = 17\nvalue = [14, 3]"] ;
4 -> 5 ;
6 [label="opponent_board_total_attack <= 0.5\ngini = 0.231\nsamples = 15\nvalue = [13, 2]"] ;
5 -> 6 ;
7 [label="gini = 0.0\nsamples = 9\nvalue = [9, 0]"] ;
6 -> 7 ;
8 [label="my_hand <= 1.5\ngini = 0.444\nsamples = 6\nvalue = [4, 2]"] ;
6 -> 8 ;
9 [label="gini = 0.0\nsamples = 3\nvalue = [3, 0]"] ;
8 -> 9 ;
10 [label="opponent_health <= 16.0\ngini = 0.444\nsamples = 3\nvalue = [1, 2]"] ;
8 -> 10 ;
11 [label="gini = 0.0\nsamples = 2\nvalue = [0, 2]"] ;
10 -> 11 ;
12 [label="gini = 0.0\nsamples = 1\nvalue = [1, 0]"] ;
10 -> 12 ;
13 [label="opponent_hand <= 4.0\ngini = 0.5\nsamples = 2\nvalue = [1, 1]"] ;
5 -> 13 ;
14 [label="gini = 0.0\nsamples = 1\nvalue = [0, 1]"] ;
13 -> 14 ;
15 [label="gini = 0.0\nsamples = 1\nvalue = [1, 0]"] ;
13 -> 15 ;
16 [label="opponent_board_total_attack <= 3.5\ngini = 0.42\nsamples = 10\nvalue = [3, 7]"] ;
4 -> 16 ;
17 [label="gini = 0.0\nsamples = 6\nvalue = [0, 6]"] ;
16 -> 17 ;
18 [label="opponent_health <= 10.0\ngini = 0.375\nsamples = 4\nvalue = [3, 1]"] ;
16 -> 18 ;
19 [label="gini = 0.0\nsamples = 1\nvalue = [0, 1]"] ;
18 -> 19 ;
20 [label="gini = 0.0\nsamples = 3\nvalue = [3, 0]"] ;
18 -> 20 ;
21 [label="my_board_total_attack <= 1.5\ngini = 0.372\nsamples = 93\nvalue = [23, 70]"] ;
3 -> 21 ;
22 [label="opponent_health <= 10.5\ngini = 0.485\nsamples = 41\nvalue = [17, 24]"] ;
21 -> 22 ;
23 [label="gini = 0.0\nsamples = 8\nvalue = [0, 8]"] ;
22 -> 23 ;
24 [label="opponent_hand <= 6.5\ngini = 0.5\nsamples = 33\nvalue = [17, 16]"] ;
22 -> 24 ;
25 [label="my_health <= 20.5\ngini = 0.49\nsamples = 28\nvalue = [12, 16]"] ;
24 -> 25 ;
26 [label="opponent_health <= 19.5\ngini = 0.475\nsamples = 18\nvalue = [11, 7]"] ;
25 -> 26 ;
27 [label="my_health <= 13.5\ngini = 0.5\nsamples = 12\nvalue = [6, 6]"] ;
26 -> 27 ;
28 [label="opponent_board_total_health <= 1.5\ngini = 0.32\nsamples = 5\nvalue = [4, 1]"] ;
27 -> 28 ;
29 [label="gini = 0.0\nsamples = 4\nvalue = [4, 0]"] ;
28 -> 29 ;
30 [label="gini = 0.0\nsamples = 1\nvalue = [0, 1]"] ;
28 -> 30 ;
31 [label="my_hand <= 6.5\ngini = 0.408\nsamples = 7\nvalue = [2, 5]"] ;
27 -> 31 ;
32 [label="opponent_board_total_attack <= 3.5\ngini = 0.278\nsamples = 6\nvalue = [1, 5]"] ;
31 -> 32 ;
33 [label="gini = 0.0\nsamples = 5\nvalue = [0, 5]"] ;
32 -> 33 ;
34 [label="gini = 0.0\nsamples = 1\nvalue = [1, 0]"] ;
32 -> 34 ;
35 [label="gini = 0.0\nsamples = 1\nvalue = [1, 0]"] ;
31 -> 35 ;
36 [label="my_health <= 11.0\ngini = 0.278\nsamples = 6\nvalue = [5, 1]"] ;
26 -> 36 ;
37 [label="gini = 0.0\nsamples = 1\nvalue = [0, 1]"] ;
36 -> 37 ;
38 [label="gini = 0.0\nsamples = 5\nvalue = [5, 0]"] ;
36 -> 38 ;
39 [label="opponent_health <= 14.5\ngini = 0.18\nsamples = 10\nvalue = [1, 9]"] ;
25 -> 39 ;
40 [label="gini = 0.0\nsamples = 1\nvalue = [1, 0]"] ;
39 -> 40 ;
41 [label="gini = 0.0\nsamples = 9\nvalue = [0, 9]"] ;
39 -> 41 ;
42 [label="gini = 0.0\nsamples = 5\nvalue = [5, 0]"] ;
24 -> 42 ;
43 [label="opponent_board_total_health <= 8.5\ngini = 0.204\nsamples = 52\nvalue = [6, 46]"] ;
21 -> 43 ;
44 [label="my_hand <= 5.5\ngini = 0.147\nsamples = 50\nvalue = [4, 46]"] ;
43 -> 44 ;
45 [label="my_health <= 12.0\ngini = 0.048\nsamples = 41\nvalue = [1, 40]"] ;
44 -> 45 ;
46 [label="my_board_total_health <= 2.5\ngini = 0.5\nsamples = 2\nvalue = [1, 1]"] ;
45 -> 46 ;
47 [label="gini = 0.0\nsamples = 1\nvalue = [0, 1]"] ;
46 -> 47 ;
48 [label="gini = 0.0\nsamples = 1\nvalue = [1, 0]"] ;
46 -> 48 ;
49 [label="gini = 0.0\nsamples = 39\nvalue = [0, 39]"] ;
45 -> 49 ;
50 [label="opponent_board_total_attack <= 3.0\ngini = 0.444\nsamples = 9\nvalue = [3, 6]"] ;
44 -> 50 ;
51 [label="my_health <= 16.5\ngini = 0.5\nsamples = 6\nvalue = [3, 3]"] ;
50 -> 51 ;
52 [label="gini = 0.0\nsamples = 2\nvalue = [0, 2]"] ;
51 -> 52 ;
53 [label="my_hand <= 8.0\ngini = 0.375\nsamples = 4\nvalue = [3, 1]"] ;
51 -> 53 ;
54 [label="gini = 0.0\nsamples = 3\nvalue = [3, 0]"] ;
53 -> 54 ;
55 [label="gini = 0.0\nsamples = 1\nvalue = [0, 1]"] ;
53 -> 55 ;
56 [label="gini = 0.0\nsamples = 3\nvalue = [0, 3]"] ;
50 -> 56 ;
57 [label="gini = 0.0\nsamples = 2\nvalue = [2, 0]"] ;
43 -> 57 ;
58 [label="my_board_total_health <= 1.5\ngini = 0.477\nsamples = 140\nvalue = [85, 55]"] ;
2 -> 58 ;
59 [label="my_hand <= 7.5\ngini = 0.366\nsamples = 58\nvalue = [44, 14]"] ;
58 -> 59 ;
60 [label="opponent_hand <= 0.5\ngini = 0.306\nsamples = 53\nvalue = [43, 10]"] ;
59 -> 60 ;
61 [label="gini = 0.0\nsamples = 2\nvalue = [0, 2]"] ;
60 -> 61 ;
62 [label="my_health <= 26.0\ngini = 0.265\nsamples = 51\nvalue = [43, 8]"] ;
60 -> 62 ;
63 [label="my_health <= 5.5\ngini = 0.153\nsamples = 36\nvalue = [33, 3]"] ;
62 -> 63 ;
64 [label="me_playing <= 0.5\ngini = 0.444\nsamples = 3\nvalue = [2, 1]"] ;
63 -> 64 ;
65 [label="gini = 0.0\nsamples = 2\nvalue = [2, 0]"] ;
64 -> 65 ;
66 [label="gini = 0.0\nsamples = 1\nvalue = [0, 1]"] ;
64 -> 66 ;
67 [label="opponent_health <= 28.5\ngini = 0.114\nsamples = 33\nvalue = [31, 2]"] ;
63 -> 67 ;
68 [label="gini = 0.0\nsamples = 21\nvalue = [21, 0]"] ;
67 -> 68 ;
69 [label="opponent_board_total_attack <= 2.5\ngini = 0.278\nsamples = 12\nvalue = [10, 2]"] ;
67 -> 69 ;
70 [label="my_hand <= 5.0\ngini = 0.48\nsamples = 5\nvalue = [3, 2]"] ;
69 -> 70 ;
71 [label="gini = 0.0\nsamples = 2\nvalue = [2, 0]"] ;
70 -> 71 ;
72 [label="opponent_health <= 29.5\ngini = 0.444\nsamples = 3\nvalue = [1, 2]"] ;
70 -> 72 ;
73 [label="gini = 0.0\nsamples = 1\nvalue = [0, 1]"] ;
72 -> 73 ;
74 [label="my_health <= 22.0\ngini = 0.5\nsamples = 2\nvalue = [1, 1]"] ;
72 -> 74 ;
75 [label="gini = 0.0\nsamples = 1\nvalue = [1, 0]"] ;
74 -> 75 ;
76 [label="gini = 0.0\nsamples = 1\nvalue = [0, 1]"] ;
74 -> 76 ;
77 [label="gini = 0.0\nsamples = 7\nvalue = [7, 0]"] ;
69 -> 77 ;
78 [label="me_playing <= 0.5\ngini = 0.444\nsamples = 15\nvalue = [10, 5]"] ;
62 -> 78 ;
79 [label="opponent_health <= 24.5\ngini = 0.469\nsamples = 8\nvalue = [3, 5]"] ;
78 -> 79 ;
80 [label="gini = 0.0\nsamples = 2\nvalue = [2, 0]"] ;
79 -> 80 ;
81 [label="opponent_hand <= 5.5\ngini = 0.278\nsamples = 6\nvalue = [1, 5]"] ;
79 -> 81 ;
82 [label="gini = 0.0\nsamples = 4\nvalue = [0, 4]"] ;
81 -> 82 ;
83 [label="my_hand <= 5.5\ngini = 0.5\nsamples = 2\nvalue = [1, 1]"] ;
81 -> 83 ;
84 [label="gini = 0.0\nsamples = 1\nvalue = [1, 0]"] ;
83 -> 84 ;
85 [label="gini = 0.0\nsamples = 1\nvalue = [0, 1]"] ;
83 -> 85 ;
86 [label="gini = 0.0\nsamples = 7\nvalue = [7, 0]"] ;
78 -> 86 ;
87 [label="my_health <= 25.5\ngini = 0.32\nsamples = 5\nvalue = [1, 4]"] ;
59 -> 87 ;
88 [label="gini = 0.0\nsamples = 4\nvalue = [0, 4]"] ;
87 -> 88 ;
89 [label="gini = 0.0\nsamples = 1\nvalue = [1, 0]"] ;
87 -> 89 ;
90 [label="my_health <= 13.5\ngini = 0.5\nsamples = 82\nvalue = [41, 41]"] ;
58 -> 90 ;
91 [label="opponent_hand <= 4.5\ngini = 0.36\nsamples = 17\nvalue = [13, 4]"] ;
90 -> 91 ;
92 [label="opponent_hand <= 0.5\ngini = 0.153\nsamples = 12\nvalue = [11, 1]"] ;
91 -> 92 ;
93 [label="gini = 0.0\nsamples = 1\nvalue = [0, 1]"] ;
92 -> 93 ;
94 [label="gini = 0.0\nsamples = 11\nvalue = [11, 0]"] ;
92 -> 94 ;
95 [label="opponent_board_total_attack <= 2.0\ngini = 0.48\nsamples = 5\nvalue = [2, 3]"] ;
91 -> 95 ;
96 [label="gini = 0.0\nsamples = 3\nvalue = [0, 3]"] ;
95 -> 96 ;
97 [label="gini = 0.0\nsamples = 2\nvalue = [2, 0]"] ;
95 -> 97 ;
98 [label="my_hand <= 6.5\ngini = 0.49\nsamples = 65\nvalue = [28, 37]"] ;
90 -> 98 ;
99 [label="me_playing <= 0.5\ngini = 0.5\nsamples = 55\nvalue = [27, 28]"] ;
98 -> 99 ;
100 [label="my_board_total_health <= 3.5\ngini = 0.388\nsamples = 19\nvalue = [5, 14]"] ;
99 -> 100 ;
101 [label="opponent_board_total_health <= 3.5\ngini = 0.5\nsamples = 8\nvalue = [4, 4]"] ;
100 -> 101 ;
102 [label="my_health <= 22.5\ngini = 0.32\nsamples = 5\nvalue = [1, 4]"] ;
101 -> 102 ;
103 [label="gini = 0.0\nsamples = 1\nvalue = [1, 0]"] ;
102 -> 103 ;
104 [label="gini = 0.0\nsamples = 4\nvalue = [0, 4]"] ;
102 -> 104 ;
105 [label="gini = 0.0\nsamples = 3\nvalue = [3, 0]"] ;
101 -> 105 ;
106 [label="opponent_hand <= 5.5\ngini = 0.165\nsamples = 11\nvalue = [1, 10]"] ;
100 -> 106 ;
107 [label="gini = 0.0\nsamples = 9\nvalue = [0, 9]"] ;
106 -> 107 ;
108 [label="my_health <= 26.0\ngini = 0.5\nsamples = 2\nvalue = [1, 1]"] ;
106 -> 108 ;
109 [label="gini = 0.0\nsamples = 1\nvalue = [1, 0]"] ;
108 -> 109 ;
110 [label="gini = 0.0\nsamples = 1\nvalue = [0, 1]"] ;
108 -> 110 ;
111 [label="opponent_board_total_health <= 6.5\ngini = 0.475\nsamples = 36\nvalue = [22, 14]"] ;
99 -> 111 ;
112 [label="opponent_health <= 25.5\ngini = 0.457\nsamples = 34\nvalue = [22, 12]"] ;
111 -> 112 ;
113 [label="opponent_hand <= 5.5\ngini = 0.5\nsamples = 14\nvalue = [7, 7]"] ;
112 -> 113 ;
114 [label="my_hand <= 4.5\ngini = 0.463\nsamples = 11\nvalue = [7, 4]"] ;
113 -> 114 ;
115 [label="my_health <= 28.5\ngini = 0.5\nsamples = 8\nvalue = [4, 4]"] ;
114 -> 115 ;
116 [label="my_board_total_attack <= 1.5\ngini = 0.444\nsamples = 6\nvalue = [2, 4]"] ;
115 -> 116 ;
117 [label="gini = 0.0\nsamples = 1\nvalue = [1, 0]"] ;
116 -> 117 ;
118 [label="opponent_board_total_health <= 5.5\ngini = 0.32\nsamples = 5\nvalue = [1, 4]"] ;
116 -> 118 ;
119 [label="gini = 0.0\nsamples = 4\nvalue = [0, 4]"] ;
118 -> 119 ;
120 [label="gini = 0.0\nsamples = 1\nvalue = [1, 0]"] ;
118 -> 120 ;
121 [label="gini = 0.0\nsamples = 2\nvalue = [2, 0]"] ;
115 -> 121 ;
122 [label="gini = 0.0\nsamples = 3\nvalue = [3, 0]"] ;
114 -> 122 ;
123 [label="gini = 0.0\nsamples = 3\nvalue = [0, 3]"] ;
113 -> 123 ;
124 [label="opponent_hand <= 2.5\ngini = 0.375\nsamples = 20\nvalue = [15, 5]"] ;
112 -> 124 ;
125 [label="gini = 0.0\nsamples = 2\nvalue = [0, 2]"] ;
124 -> 125 ;
126 [label="opponent_board_nb_creatures <= 0.5\ngini = 0.278\nsamples = 18\nvalue = [15, 3]"] ;
124 -> 126 ;
127 [label="my_board_total_attack <= 3.5\ngini = 0.5\nsamples = 6\nvalue = [3, 3]"] ;
126 -> 127 ;
128 [label="gini = 0.0\nsamples = 2\nvalue = [0, 2]"] ;
127 -> 128 ;
129 [label="my_health <= 24.5\ngini = 0.375\nsamples = 4\nvalue = [3, 1]"] ;
127 -> 129 ;
130 [label="gini = 0.0\nsamples = 1\nvalue = [0, 1]"] ;
129 -> 130 ;
131 [label="gini = 0.0\nsamples = 3\nvalue = [3, 0]"] ;
129 -> 131 ;
132 [label="gini = 0.0\nsamples = 12\nvalue = [12, 0]"] ;
126 -> 132 ;
133 [label="gini = 0.0\nsamples = 2\nvalue = [0, 2]"] ;
111 -> 133 ;
134 [label="my_board_total_attack <= 6.0\ngini = 0.18\nsamples = 10\nvalue = [1, 9]"] ;
98 -> 134 ;
135 [label="gini = 0.0\nsamples = 9\nvalue = [0, 9]"] ;
134 -> 135 ;
136 [label="gini = 0.0\nsamples = 1\nvalue = [1, 0]"] ;
134 -> 136 ;
137 [label="opponent_board_total_health <= 5.5\ngini = 0.279\nsamples = 364\nvalue = [303, 61]"] ;
1 -> 137 ;
138 [label="my_health <= 12.5\ngini = 0.424\nsamples = 82\nvalue = [57, 25]"] ;
137 -> 138 ;
139 [label="gini = 0.0\nsamples = 15\nvalue = [15, 0]"] ;
138 -> 139 ;
140 [label="my_board_total_health <= 1.5\ngini = 0.468\nsamples = 67\nvalue = [42, 25]"] ;
138 -> 140 ;
141 [label="opponent_board_total_attack <= 5.5\ngini = 0.353\nsamples = 35\nvalue = [27, 8]"] ;
140 -> 141 ;
142 [label="gini = 0.0\nsamples = 15\nvalue = [15, 0]"] ;
141 -> 142 ;
143 [label="my_board_total_attack <= 0.5\ngini = 0.48\nsamples = 20\nvalue = [12, 8]"] ;
141 -> 143 ;
144 [label="opponent_health <= 27.5\ngini = 0.5\nsamples = 16\nvalue = [8, 8]"] ;
143 -> 144 ;
145 [label="opponent_health <= 15.0\ngini = 0.473\nsamples = 13\nvalue = [8, 5]"] ;
144 -> 145 ;
146 [label="gini = 0.0\nsamples = 2\nvalue = [0, 2]"] ;
145 -> 146 ;
147 [label="opponent_board_nb_creatures <= 2.5\ngini = 0.397\nsamples = 11\nvalue = [8, 3]"] ;
145 -> 147 ;
148 [label="gini = 0.0\nsamples = 6\nvalue = [6, 0]"] ;
147 -> 148 ;
149 [label="opponent_health <= 25.5\ngini = 0.48\nsamples = 5\nvalue = [2, 3]"] ;
147 -> 149 ;
150 [label="gini = 0.0\nsamples = 3\nvalue = [0, 3]"] ;
149 -> 150 ;
151 [label="gini = 0.0\nsamples = 2\nvalue = [2, 0]"] ;
149 -> 151 ;
152 [label="gini = 0.0\nsamples = 3\nvalue = [0, 3]"] ;
144 -> 152 ;
153 [label="gini = 0.0\nsamples = 4\nvalue = [4, 0]"] ;
143 -> 153 ;
154 [label="me_playing <= 0.5\ngini = 0.498\nsamples = 32\nvalue = [15, 17]"] ;
140 -> 154 ;
155 [label="opponent_hand <= 5.5\ngini = 0.415\nsamples = 17\nvalue = [5, 12]"] ;
154 -> 155 ;
156 [label="opponent_board_nb_creatures <= 2.5\ngini = 0.32\nsamples = 15\nvalue = [3, 12]"] ;
155 -> 156 ;
157 [label="gini = 0.0\nsamples = 10\nvalue = [0, 10]"] ;
156 -> 157 ;
158 [label="opponent_board_total_attack <= 7.5\ngini = 0.48\nsamples = 5\nvalue = [3, 2]"] ;
156 -> 158 ;
159 [label="gini = 0.0\nsamples = 2\nvalue = [2, 0]"] ;
158 -> 159 ;
160 [label="my_board_total_attack <= 0.5\ngini = 0.444\nsamples = 3\nvalue = [1, 2]"] ;
158 -> 160 ;
161 [label="gini = 0.0\nsamples = 1\nvalue = [1, 0]"] ;
160 -> 161 ;
162 [label="gini = 0.0\nsamples = 2\nvalue = [0, 2]"] ;
160 -> 162 ;
163 [label="gini = 0.0\nsamples = 2\nvalue = [2, 0]"] ;
155 -> 163 ;
164 [label="my_hand <= 4.5\ngini = 0.444\nsamples = 15\nvalue = [10, 5]"] ;
154 -> 164 ;
165 [label="opponent_health <= 16.0\ngini = 0.198\nsamples = 9\nvalue = [8, 1]"] ;
164 -> 165 ;
166 [label="gini = 0.0\nsamples = 1\nvalue = [0, 1]"] ;
165 -> 166 ;
167 [label="gini = 0.0\nsamples = 8\nvalue = [8, 0]"] ;
165 -> 167 ;
168 [label="opponent_board_nb_creatures <= 1.5\ngini = 0.444\nsamples = 6\nvalue = [2, 4]"] ;
164 -> 168 ;
169 [label="gini = 0.0\nsamples = 3\nvalue = [0, 3]"] ;
168 -> 169 ;
170 [label="opponent_hand <= 3.5\ngini = 0.444\nsamples = 3\nvalue = [2, 1]"] ;
168 -> 170 ;
171 [label="gini = 0.0\nsamples = 2\nvalue = [2, 0]"] ;
170 -> 171 ;
172 [label="gini = 0.0\nsamples = 1\nvalue = [0, 1]"] ;
170 -> 172 ;
173 [label="my_board_total_health <= 4.5\ngini = 0.223\nsamples = 282\nvalue = [246, 36]"] ;
137 -> 173 ;
174 [label="opponent_board_total_attack <= 9.5\ngini = 0.167\nsamples = 228\nvalue = [207, 21]"] ;
173 -> 174 ;
175 [label="opponent_board_total_health <= 9.5\ngini = 0.278\nsamples = 108\nvalue = [90, 18]"] ;
174 -> 175 ;
176 [label="my_health <= 29.5\ngini = 0.215\nsamples = 90\nvalue = [79, 11]"] ;
175 -> 176 ;
177 [label="opponent_hand <= 1.5\ngini = 0.185\nsamples = 87\nvalue = [78, 9]"] ;
176 -> 177 ;
178 [label="opponent_board_total_attack <= 7.5\ngini = 0.5\nsamples = 6\nvalue = [3, 3]"] ;
177 -> 178 ;
179 [label="gini = 0.0\nsamples = 3\nvalue = [3, 0]"] ;
178 -> 179 ;
180 [label="gini = 0.0\nsamples = 3\nvalue = [0, 3]"] ;
178 -> 180 ;
181 [label="my_hand <= 8.5\ngini = 0.137\nsamples = 81\nvalue = [75, 6]"] ;
177 -> 181 ;
182 [label="opponent_health <= 18.5\ngini = 0.117\nsamples = 80\nvalue = [75, 5]"] ;
181 -> 182 ;
183 [label="opponent_board_nb_creatures <= 4.5\ngini = 0.269\nsamples = 25\nvalue = [21, 4]"] ;
182 -> 183 ;
184 [label="my_hand <= 3.5\ngini = 0.219\nsamples = 24\nvalue = [21, 3]"] ;
183 -> 184 ;
185 [label="opponent_health <= 16.5\ngini = 0.1\nsamples = 19\nvalue = [18, 1]"] ;
184 -> 185 ;
186 [label="gini = 0.0\nsamples = 16\nvalue = [16, 0]"] ;
185 -> 186 ;
187 [label="my_health <= 24.0\ngini = 0.444\nsamples = 3\nvalue = [2, 1]"] ;
185 -> 187 ;
188 [label="gini = 0.0\nsamples = 2\nvalue = [2, 0]"] ;
187 -> 188 ;
189 [label="gini = 0.0\nsamples = 1\nvalue = [0, 1]"] ;
187 -> 189 ;
190 [label="my_health <= 19.5\ngini = 0.48\nsamples = 5\nvalue = [3, 2]"] ;
184 -> 190 ;
191 [label="gini = 0.0\nsamples = 2\nvalue = [2, 0]"] ;
190 -> 191 ;
192 [label="opponent_hand <= 4.5\ngini = 0.444\nsamples = 3\nvalue = [1, 2]"] ;
190 -> 192 ;
193 [label="gini = 0.0\nsamples = 2\nvalue = [0, 2]"] ;
192 -> 193 ;
194 [label="gini = 0.0\nsamples = 1\nvalue = [1, 0]"] ;
192 -> 194 ;
195 [label="gini = 0.0\nsamples = 1\nvalue = [0, 1]"] ;
183 -> 195 ;
196 [label="opponent_health <= 24.5\ngini = 0.036\nsamples = 55\nvalue = [54, 1]"] ;
182 -> 196 ;
197 [label="opponent_health <= 23.0\ngini = 0.124\nsamples = 15\nvalue = [14, 1]"] ;
196 -> 197 ;
198 [label="gini = 0.0\nsamples = 9\nvalue = [9, 0]"] ;
197 -> 198 ;
199 [label="opponent_board_total_health <= 8.0\ngini = 0.278\nsamples = 6\nvalue = [5, 1]"] ;
197 -> 199 ;
200 [label="gini = 0.0\nsamples = 3\nvalue = [3, 0]"] ;
199 -> 200 ;
201 [label="my_hand <= 5.5\ngini = 0.444\nsamples = 3\nvalue = [2, 1]"] ;
199 -> 201 ;
202 [label="gini = 0.0\nsamples = 1\nvalue = [0, 1]"] ;
201 -> 202 ;
203 [label="gini = 0.0\nsamples = 2\nvalue = [2, 0]"] ;
201 -> 203 ;
204 [label="gini = 0.0\nsamples = 40\nvalue = [40, 0]"] ;
196 -> 204 ;
205 [label="gini = 0.0\nsamples = 1\nvalue = [0, 1]"] ;
181 -> 205 ;
206 [label="opponent_board_total_health <= 7.5\ngini = 0.444\nsamples = 3\nvalue = [1, 2]"] ;
176 -> 206 ;
207 [label="gini = 0.0\nsamples = 2\nvalue = [0, 2]"] ;
206 -> 207 ;
208 [label="gini = 0.0\nsamples = 1\nvalue = [1, 0]"] ;
206 -> 208 ;
209 [label="me_playing <= 0.5\ngini = 0.475\nsamples = 18\nvalue = [11, 7]"] ;
175 -> 209 ;
210 [label="opponent_health <= 6.5\ngini = 0.43\nsamples = 16\nvalue = [11, 5]"] ;
209 -> 210 ;
211 [label="gini = 0.0\nsamples = 1\nvalue = [0, 1]"] ;
210 -> 211 ;
212 [label="opponent_board_total_attack <= 6.0\ngini = 0.391\nsamples = 15\nvalue = [11, 4]"] ;
210 -> 212 ;
213 [label="gini = 0.0\nsamples = 1\nvalue = [0, 1]"] ;
212 -> 213 ;
214 [label="my_hand <= 6.5\ngini = 0.337\nsamples = 14\nvalue = [11, 3]"] ;
212 -> 214 ;
215 [label="gini = 0.0\nsamples = 8\nvalue = [8, 0]"] ;
214 -> 215 ;
216 [label="my_health <= 17.5\ngini = 0.5\nsamples = 6\nvalue = [3, 3]"] ;
214 -> 216 ;
217 [label="gini = 0.0\nsamples = 2\nvalue = [0, 2]"] ;
216 -> 217 ;
218 [label="my_health <= 23.5\ngini = 0.375\nsamples = 4\nvalue = [3, 1]"] ;
216 -> 218 ;
219 [label="gini = 0.0\nsamples = 3\nvalue = [3, 0]"] ;
218 -> 219 ;
220 [label="gini = 0.0\nsamples = 1\nvalue = [0, 1]"] ;
218 -> 220 ;
221 [label="gini = 0.0\nsamples = 2\nvalue = [0, 2]"] ;
209 -> 221 ;
222 [label="opponent_health <= 4.5\ngini = 0.049\nsamples = 120\nvalue = [117, 3]"] ;
174 -> 222 ;
223 [label="gini = 0.0\nsamples = 2\nvalue = [0, 2]"] ;
222 -> 223 ;
224 [label="my_health <= 1.5\ngini = 0.017\nsamples = 118\nvalue = [117, 1]"] ;
222 -> 224 ;
225 [label="my_hand <= 4.5\ngini = 0.375\nsamples = 4\nvalue = [3, 1]"] ;
224 -> 225 ;
226 [label="gini = 0.0\nsamples = 1\nvalue = [0, 1]"] ;
225 -> 226 ;
227 [label="gini = 0.0\nsamples = 3\nvalue = [3, 0]"] ;
225 -> 227 ;
228 [label="gini = 0.0\nsamples = 114\nvalue = [114, 0]"] ;
224 -> 228 ;
229 [label="opponent_health <= 23.5\ngini = 0.401\nsamples = 54\nvalue = [39, 15]"] ;
173 -> 229 ;
230 [label="opponent_board_total_health <= 10.5\ngini = 0.484\nsamples = 34\nvalue = [20, 14]"] ;
229 -> 230 ;
231 [label="me_playing <= 0.5\ngini = 0.488\nsamples = 19\nvalue = [8, 11]"] ;
230 -> 231 ;
232 [label="my_health <= 9.5\ngini = 0.219\nsamples = 8\nvalue = [1, 7]"] ;
231 -> 232 ;
233 [label="gini = 0.0\nsamples = 1\nvalue = [1, 0]"] ;
232 -> 233 ;
234 [label="gini = 0.0\nsamples = 7\nvalue = [0, 7]"] ;
232 -> 234 ;
235 [label="opponent_health <= 17.5\ngini = 0.463\nsamples = 11\nvalue = [7, 4]"] ;
231 -> 235 ;
236 [label="my_board_total_health <= 5.5\ngini = 0.444\nsamples = 6\nvalue = [2, 4]"] ;
235 -> 236 ;
237 [label="gini = 0.0\nsamples = 2\nvalue = [2, 0]"] ;
236 -> 237 ;
238 [label="gini = 0.0\nsamples = 4\nvalue = [0, 4]"] ;
236 -> 238 ;
239 [label="gini = 0.0\nsamples = 5\nvalue = [5, 0]"] ;
235 -> 239 ;
240 [label="my_board_total_health <= 5.5\ngini = 0.32\nsamples = 15\nvalue = [12, 3]"] ;
230 -> 240 ;
241 [label="opponent_health <= 19.5\ngini = 0.5\nsamples = 6\nvalue = [3, 3]"] ;
240 -> 241 ;
242 [label="opponent_health <= 16.5\ngini = 0.375\nsamples = 4\nvalue = [3, 1]"] ;
241 -> 242 ;
243 [label="gini = 0.0\nsamples = 1\nvalue = [0, 1]"] ;
242 -> 243 ;
244 [label="gini = 0.0\nsamples = 3\nvalue = [3, 0]"] ;
242 -> 244 ;
245 [label="gini = 0.0\nsamples = 2\nvalue = [0, 2]"] ;
241 -> 245 ;
246 [label="gini = 0.0\nsamples = 9\nvalue = [9, 0]"] ;
240 -> 246 ;
247 [label="my_board_total_attack <= 0.5\ngini = 0.095\nsamples = 20\nvalue = [19, 1]"] ;
229 -> 247 ;
248 [label="gini = 0.0\nsamples = 1\nvalue = [0, 1]"] ;
247 -> 248 ;
249 [label="gini = 0.0\nsamples = 19\nvalue = [19, 0]"] ;
247 -> 249 ;
250 [label="opponent_board_total_attack <= 7.5\ngini = 0.388\nsamples = 810\nvalue = [213, 597]"] ;
0 -> 250 [labeldistance=2.5, labelangle=-45, headlabel="False"] ;
251 [label="opponent_board_total_attack <= 1.5\ngini = 0.31\nsamples = 651\nvalue = [125, 526]"] ;
250 -> 251 ;
252 [label="my_hand <= 0.5\ngini = 0.182\nsamples = 335\nvalue = [34, 301]"] ;
251 -> 252 ;
253 [label="my_board_nb_creatures <= 6.0\ngini = 0.278\nsamples = 6\nvalue = [5, 1]"] ;
252 -> 253 ;
254 [label="gini = 0.0\nsamples = 4\nvalue = [4, 0]"] ;
253 -> 254 ;
255 [label="my_board_total_health <= 9.0\ngini = 0.5\nsamples = 2\nvalue = [1, 1]"] ;
253 -> 255 ;
256 [label="gini = 0.0\nsamples = 1\nvalue = [0, 1]"] ;
255 -> 256 ;
257 [label="gini = 0.0\nsamples = 1\nvalue = [1, 0]"] ;
255 -> 257 ;
258 [label="opponent_health <= 7.5\ngini = 0.161\nsamples = 329\nvalue = [29, 300]"] ;
252 -> 258 ;
259 [label="my_board_total_attack <= 4.0\ngini = 0.48\nsamples = 15\nvalue = [6, 9]"] ;
258 -> 259 ;
260 [label="gini = 0.0\nsamples = 3\nvalue = [3, 0]"] ;
259 -> 260 ;
261 [label="my_health <= 16.0\ngini = 0.375\nsamples = 12\nvalue = [3, 9]"] ;
259 -> 261 ;
262 [label="my_hand <= 4.5\ngini = 0.444\nsamples = 3\nvalue = [2, 1]"] ;
261 -> 262 ;
263 [label="gini = 0.0\nsamples = 1\nvalue = [0, 1]"] ;
262 -> 263 ;
264 [label="gini = 0.0\nsamples = 2\nvalue = [2, 0]"] ;
262 -> 264 ;
265 [label="my_board_total_health <= 5.5\ngini = 0.198\nsamples = 9\nvalue = [1, 8]"] ;
261 -> 265 ;
266 [label="my_board_total_health <= 3.5\ngini = 0.5\nsamples = 2\nvalue = [1, 1]"] ;
265 -> 266 ;
267 [label="gini = 0.0\nsamples = 1\nvalue = [0, 1]"] ;
266 -> 267 ;
268 [label="gini = 0.0\nsamples = 1\nvalue = [1, 0]"] ;
266 -> 268 ;
269 [label="gini = 0.0\nsamples = 7\nvalue = [0, 7]"] ;
265 -> 269 ;
270 [label="my_health <= 16.5\ngini = 0.136\nsamples = 314\nvalue = [23, 291]"] ;
258 -> 270 ;
271 [label="opponent_hand <= 4.5\ngini = 0.284\nsamples = 70\nvalue = [12, 58]"] ;
270 -> 271 ;
272 [label="my_board_total_attack <= 6.5\ngini = 0.239\nsamples = 65\nvalue = [9, 56]"] ;
271 -> 272 ;
273 [label="opponent_health <= 24.0\ngini = 0.432\nsamples = 19\nvalue = [6, 13]"] ;
272 -> 273 ;
274 [label="opponent_health <= 16.0\ngini = 0.32\nsamples = 15\nvalue = [3, 12]"] ;
273 -> 274 ;
275 [label="opponent_health <= 13.5\ngini = 0.444\nsamples = 9\nvalue = [3, 6]"] ;
274 -> 275 ;
276 [label="my_hand <= 5.5\ngini = 0.375\nsamples = 8\nvalue = [2, 6]"] ;
275 -> 276 ;
277 [label="my_health <= 12.0\ngini = 0.245\nsamples = 7\nvalue = [1, 6]"] ;
276 -> 277 ;
278 [label="gini = 0.0\nsamples = 5\nvalue = [0, 5]"] ;
277 -> 278 ;
279 [label="my_health <= 14.0\ngini = 0.5\nsamples = 2\nvalue = [1, 1]"] ;
277 -> 279 ;
280 [label="gini = 0.0\nsamples = 1\nvalue = [1, 0]"] ;
279 -> 280 ;
281 [label="gini = 0.0\nsamples = 1\nvalue = [0, 1]"] ;
279 -> 281 ;
282 [label="gini = 0.0\nsamples = 1\nvalue = [1, 0]"] ;
276 -> 282 ;
283 [label="gini = 0.0\nsamples = 1\nvalue = [1, 0]"] ;
275 -> 283 ;
284 [label="gini = 0.0\nsamples = 6\nvalue = [0, 6]"] ;
274 -> 284 ;
285 [label="my_health <= 13.0\ngini = 0.375\nsamples = 4\nvalue = [3, 1]"] ;
273 -> 285 ;
286 [label="gini = 0.0\nsamples = 3\nvalue = [3, 0]"] ;
285 -> 286 ;
287 [label="gini = 0.0\nsamples = 1\nvalue = [0, 1]"] ;
285 -> 287 ;
288 [label="my_board_total_health <= 4.5\ngini = 0.122\nsamples = 46\nvalue = [3, 43]"] ;
272 -> 288 ;
289 [label="gini = 0.0\nsamples = 1\nvalue = [1, 0]"] ;
288 -> 289 ;
290 [label="opponent_board_nb_creatures <= 1.5\ngini = 0.085\nsamples = 45\nvalue = [2, 43]"] ;
288 -> 290 ;
291 [label="opponent_health <= 26.5\ngini = 0.044\nsamples = 44\nvalue = [1, 43]"] ;
290 -> 291 ;
292 [label="gini = 0.0\nsamples = 37\nvalue = [0, 37]"] ;
291 -> 292 ;
293 [label="opponent_health <= 27.5\ngini = 0.245\nsamples = 7\nvalue = [1, 6]"] ;
291 -> 293 ;
294 [label="my_board_total_health <= 13.5\ngini = 0.5\nsamples = 2\nvalue = [1, 1]"] ;
293 -> 294 ;
295 [label="gini = 0.0\nsamples = 1\nvalue = [1, 0]"] ;
294 -> 295 ;
296 [label="gini = 0.0\nsamples = 1\nvalue = [0, 1]"] ;
294 -> 296 ;
297 [label="gini = 0.0\nsamples = 5\nvalue = [0, 5]"] ;
293 -> 297 ;
298 [label="gini = 0.0\nsamples = 1\nvalue = [1, 0]"] ;
290 -> 298 ;
299 [label="my_board_total_attack <= 10.5\ngini = 0.48\nsamples = 5\nvalue = [3, 2]"] ;
271 -> 299 ;
300 [label="gini = 0.0\nsamples = 3\nvalue = [3, 0]"] ;
299 -> 300 ;
301 [label="gini = 0.0\nsamples = 2\nvalue = [0, 2]"] ;
299 -> 301 ;
302 [label="my_board_total_attack <= 18.5\ngini = 0.086\nsamples = 244\nvalue = [11, 233]"] ;
270 -> 302 ;
303 [label="my_board_total_health <= 6.5\ngini = 0.072\nsamples = 241\nvalue = [9, 232]"] ;
302 -> 303 ;
304 [label="opponent_hand <= 6.5\ngini = 0.163\nsamples = 78\nvalue = [7, 71]"] ;
303 -> 304 ;
305 [label="my_board_total_health <= 5.5\ngini = 0.111\nsamples = 68\nvalue = [4, 64]"] ;
304 -> 305 ;
306 [label="my_health <= 17.5\ngini = 0.037\nsamples = 53\nvalue = [1, 52]"] ;
305 -> 306 ;
307 [label="my_board_total_attack <= 4.5\ngini = 0.444\nsamples = 3\nvalue = [1, 2]"] ;
306 -> 307 ;
308 [label="gini = 0.0\nsamples = 1\nvalue = [1, 0]"] ;
307 -> 308 ;
309 [label="gini = 0.0\nsamples = 2\nvalue = [0, 2]"] ;
307 -> 309 ;
310 [label="gini = 0.0\nsamples = 50\nvalue = [0, 50]"] ;
306 -> 310 ;
311 [label="my_board_total_attack <= 7.5\ngini = 0.32\nsamples = 15\nvalue = [3, 12]"] ;
305 -> 311 ;
312 [label="opponent_health <= 22.5\ngini = 0.42\nsamples = 10\nvalue = [3, 7]"] ;
311 -> 312 ;
313 [label="my_board_total_attack <= 3.5\ngini = 0.245\nsamples = 7\nvalue = [1, 6]"] ;
312 -> 313 ;
314 [label="gini = 0.0\nsamples = 1\nvalue = [1, 0]"] ;
313 -> 314 ;
315 [label="gini = 0.0\nsamples = 6\nvalue = [0, 6]"] ;
313 -> 315 ;
316 [label="my_board_total_attack <= 4.5\ngini = 0.444\nsamples = 3\nvalue = [2, 1]"] ;
312 -> 316 ;
317 [label="gini = 0.0\nsamples = 1\nvalue = [0, 1]"] ;
316 -> 317 ;
318 [label="gini = 0.0\nsamples = 2\nvalue = [2, 0]"] ;
316 -> 318 ;
319 [label="gini = 0.0\nsamples = 5\nvalue = [0, 5]"] ;
311 -> 319 ;
320 [label="opponent_health <= 20.5\ngini = 0.42\nsamples = 10\nvalue = [3, 7]"] ;
304 -> 320 ;
321 [label="gini = 0.0\nsamples = 4\nvalue = [0, 4]"] ;
320 -> 321 ;
322 [label="opponent_hand <= 7.5\ngini = 0.5\nsamples = 6\nvalue = [3, 3]"] ;
320 -> 322 ;
323 [label="my_board_total_attack <= 2.5\ngini = 0.375\nsamples = 4\nvalue = [1, 3]"] ;
322 -> 323 ;
324 [label="gini = 0.0\nsamples = 1\nvalue = [1, 0]"] ;
323 -> 324 ;
325 [label="gini = 0.0\nsamples = 3\nvalue = [0, 3]"] ;
323 -> 325 ;
326 [label="gini = 0.0\nsamples = 2\nvalue = [2, 0]"] ;
322 -> 326 ;
327 [label="my_health <= 29.5\ngini = 0.024\nsamples = 163\nvalue = [2, 161]"] ;
303 -> 327 ;
328 [label="gini = 0.0\nsamples = 115\nvalue = [0, 115]"] ;
327 -> 328 ;
329 [label="my_board_total_health <= 7.5\ngini = 0.08\nsamples = 48\nvalue = [2, 46]"] ;
327 -> 329 ;
330 [label="opponent_health <= 22.5\ngini = 0.278\nsamples = 6\nvalue = [1, 5]"] ;
329 -> 330 ;
331 [label="gini = 0.0\nsamples = 1\nvalue = [1, 0]"] ;
330 -> 331 ;
332 [label="gini = 0.0\nsamples = 5\nvalue = [0, 5]"] ;
330 -> 332 ;
333 [label="my_hand <= 2.5\ngini = 0.046\nsamples = 42\nvalue = [1, 41]"] ;
329 -> 333 ;
334 [label="opponent_health <= 17.5\ngini = 0.245\nsamples = 7\nvalue = [1, 6]"] ;
333 -> 334 ;
335 [label="opponent_hand <= 5.5\ngini = 0.5\nsamples = 2\nvalue = [1, 1]"] ;
334 -> 335 ;
336 [label="gini = 0.0\nsamples = 1\nvalue = [0, 1]"] ;
335 -> 336 ;
337 [label="gini = 0.0\nsamples = 1\nvalue = [1, 0]"] ;
335 -> 337 ;
338 [label="gini = 0.0\nsamples = 5\nvalue = [0, 5]"] ;
334 -> 338 ;
339 [label="gini = 0.0\nsamples = 35\nvalue = [0, 35]"] ;
333 -> 339 ;
340 [label="opponent_health <= 21.0\ngini = 0.444\nsamples = 3\nvalue = [2, 1]"] ;
302 -> 340 ;
341 [label="gini = 0.0\nsamples = 2\nvalue = [2, 0]"] ;
340 -> 341 ;
342 [label="gini = 0.0\nsamples = 1\nvalue = [0, 1]"] ;
340 -> 342 ;
343 [label="my_board_total_attack <= 6.5\ngini = 0.41\nsamples = 316\nvalue = [91, 225]"] ;
251 -> 343 ;
344 [label="me_playing <= 0.5\ngini = 0.487\nsamples = 126\nvalue = [53, 73]"] ;
343 -> 344 ;
345 [label="my_health <= 14.5\ngini = 0.35\nsamples = 62\nvalue = [14, 48]"] ;
344 -> 345 ;
346 [label="opponent_hand <= 0.5\ngini = 0.426\nsamples = 13\nvalue = [9, 4]"] ;
345 -> 346 ;
347 [label="my_hand <= 2.5\ngini = 0.32\nsamples = 5\nvalue = [1, 4]"] ;
346 -> 347 ;
348 [label="gini = 0.0\nsamples = 1\nvalue = [1, 0]"] ;
347 -> 348 ;
349 [label="gini = 0.0\nsamples = 4\nvalue = [0, 4]"] ;
347 -> 349 ;
350 [label="gini = 0.0\nsamples = 8\nvalue = [8, 0]"] ;
346 -> 350 ;
351 [label="my_board_total_health <= 3.5\ngini = 0.183\nsamples = 49\nvalue = [5, 44]"] ;
345 -> 351 ;
352 [label="my_health <= 27.5\ngini = 0.426\nsamples = 13\nvalue = [4, 9]"] ;
351 -> 352 ;
353 [label="my_board_nb_creatures <= 2.5\ngini = 0.5\nsamples = 8\nvalue = [4, 4]"] ;
352 -> 353 ;
354 [label="opponent_hand <= 0.5\ngini = 0.32\nsamples = 5\nvalue = [4, 1]"] ;
353 -> 354 ;
355 [label="gini = 0.0\nsamples = 1\nvalue = [0, 1]"] ;
354 -> 355 ;
356 [label="gini = 0.0\nsamples = 4\nvalue = [4, 0]"] ;
354 -> 356 ;
357 [label="gini = 0.0\nsamples = 3\nvalue = [0, 3]"] ;
353 -> 357 ;
358 [label="gini = 0.0\nsamples = 5\nvalue = [0, 5]"] ;
352 -> 358 ;
359 [label="opponent_board_total_health <= 8.5\ngini = 0.054\nsamples = 36\nvalue = [1, 35]"] ;
351 -> 359 ;
360 [label="gini = 0.0\nsamples = 34\nvalue = [0, 34]"] ;
359 -> 360 ;
361 [label="opponent_board_total_health <= 11.0\ngini = 0.5\nsamples = 2\nvalue = [1, 1]"] ;
359 -> 361 ;
362 [label="gini = 0.0\nsamples = 1\nvalue = [1, 0]"] ;
361 -> 362 ;
363 [label="gini = 0.0\nsamples = 1\nvalue = [0, 1]"] ;
361 -> 363 ;
364 [label="opponent_health <= 16.5\ngini = 0.476\nsamples = 64\nvalue = [39, 25]"] ;
344 -> 364 ;
365 [label="my_health <= 23.0\ngini = 0.423\nsamples = 23\nvalue = [7, 16]"] ;
364 -> 365 ;
366 [label="opponent_hand <= 2.0\ngini = 0.469\nsamples = 8\nvalue = [5, 3]"] ;
365 -> 366 ;
367 [label="gini = 0.0\nsamples = 2\nvalue = [0, 2]"] ;
366 -> 367 ;
368 [label="my_board_total_health <= 9.0\ngini = 0.278\nsamples = 6\nvalue = [5, 1]"] ;
366 -> 368 ;
369 [label="gini = 0.0\nsamples = 5\nvalue = [5, 0]"] ;
368 -> 369 ;
370 [label="gini = 0.0\nsamples = 1\nvalue = [0, 1]"] ;
368 -> 370 ;
371 [label="my_board_nb_creatures <= 4.5\ngini = 0.231\nsamples = 15\nvalue = [2, 13]"] ;
365 -> 371 ;
372 [label="opponent_health <= 15.0\ngini = 0.133\nsamples = 14\nvalue = [1, 13]"] ;
371 -> 372 ;
373 [label="gini = 0.0\nsamples = 12\nvalue = [0, 12]"] ;
372 -> 373 ;
374 [label="opponent_hand <= 2.5\ngini = 0.5\nsamples = 2\nvalue = [1, 1]"] ;
372 -> 374 ;
375 [label="gini = 0.0\nsamples = 1\nvalue = [0, 1]"] ;
374 -> 375 ;
376 [label="gini = 0.0\nsamples = 1\nvalue = [1, 0]"] ;
374 -> 376 ;
377 [label="gini = 0.0\nsamples = 1\nvalue = [1, 0]"] ;
371 -> 377 ;
378 [label="my_board_total_health <= 8.5\ngini = 0.343\nsamples = 41\nvalue = [32, 9]"] ;
364 -> 378 ;
379 [label="my_health <= 20.5\ngini = 0.278\nsamples = 36\nvalue = [30, 6]"] ;
378 -> 379 ;
380 [label="opponent_board_total_attack <= 4.5\ngini = 0.463\nsamples = 11\nvalue = [7, 4]"] ;
379 -> 380 ;
381 [label="my_board_total_health <= 2.5\ngini = 0.219\nsamples = 8\nvalue = [7, 1]"] ;
380 -> 381 ;
382 [label="gini = 0.0\nsamples = 1\nvalue = [0, 1]"] ;
381 -> 382 ;
383 [label="gini = 0.0\nsamples = 7\nvalue = [7, 0]"] ;
381 -> 383 ;
384 [label="gini = 0.0\nsamples = 3\nvalue = [0, 3]"] ;
380 -> 384 ;
385 [label="opponent_health <= 18.5\ngini = 0.147\nsamples = 25\nvalue = [23, 2]"] ;
379 -> 385 ;
386 [label="my_hand <= 4.5\ngini = 0.48\nsamples = 5\nvalue = [3, 2]"] ;
385 -> 386 ;
387 [label="opponent_hand <= 2.5\ngini = 0.444\nsamples = 3\nvalue = [1, 2]"] ;
386 -> 387 ;
388 [label="gini = 0.0\nsamples = 1\nvalue = [1, 0]"] ;
387 -> 388 ;
389 [label="gini = 0.0\nsamples = 2\nvalue = [0, 2]"] ;
387 -> 389 ;
390 [label="gini = 0.0\nsamples = 2\nvalue = [2, 0]"] ;
386 -> 390 ;
391 [label="gini = 0.0\nsamples = 20\nvalue = [20, 0]"] ;
385 -> 391 ;
392 [label="opponent_board_total_attack <= 4.0\ngini = 0.48\nsamples = 5\nvalue = [2, 3]"] ;
378 -> 392 ;
393 [label="gini = 0.0\nsamples = 3\nvalue = [0, 3]"] ;
392 -> 393 ;
394 [label="gini = 0.0\nsamples = 2\nvalue = [2, 0]"] ;
392 -> 394 ;
395 [label="opponent_hand <= 7.5\ngini = 0.32\nsamples = 190\nvalue = [38, 152]"] ;
343 -> 395 ;
396 [label="my_board_nb_creatures <= 2.5\ngini = 0.291\nsamples = 181\nvalue = [32, 149]"] ;
395 -> 396 ;
397 [label="opponent_health <= 16.5\ngini = 0.444\nsamples = 42\nvalue = [14, 28]"] ;
396 -> 397 ;
398 [label="gini = 0.0\nsamples = 9\nvalue = [0, 9]"] ;
397 -> 398 ;
399 [label="opponent_hand <= 3.5\ngini = 0.489\nsamples = 33\nvalue = [14, 19]"] ;
397 -> 399 ;
400 [label="opponent_hand <= 1.5\ngini = 0.457\nsamples = 17\nvalue = [11, 6]"] ;
399 -> 400 ;
401 [label="my_board_total_health <= 6.5\ngini = 0.408\nsamples = 7\nvalue = [2, 5]"] ;
400 -> 401 ;
402 [label="opponent_hand <= 0.5\ngini = 0.444\nsamples = 3\nvalue = [2, 1]"] ;
401 -> 402 ;
403 [label="gini = 0.0\nsamples = 1\nvalue = [0, 1]"] ;
402 -> 403 ;
404 [label="gini = 0.0\nsamples = 2\nvalue = [2, 0]"] ;
402 -> 404 ;
405 [label="gini = 0.0\nsamples = 4\nvalue = [0, 4]"] ;
401 -> 405 ;
406 [label="my_board_total_health <= 6.5\ngini = 0.18\nsamples = 10\nvalue = [9, 1]"] ;
400 -> 406 ;
407 [label="opponent_health <= 24.0\ngini = 0.5\nsamples = 2\nvalue = [1, 1]"] ;
406 -> 407 ;
408 [label="gini = 0.0\nsamples = 1\nvalue = [1, 0]"] ;
407 -> 408 ;
409 [label="gini = 0.0\nsamples = 1\nvalue = [0, 1]"] ;
407 -> 409 ;
410 [label="gini = 0.0\nsamples = 8\nvalue = [8, 0]"] ;
406 -> 410 ;
411 [label="my_health <= 14.5\ngini = 0.305\nsamples = 16\nvalue = [3, 13]"] ;
399 -> 411 ;
412 [label="gini = 0.0\nsamples = 2\nvalue = [2, 0]"] ;
411 -> 412 ;
413 [label="opponent_health <= 26.5\ngini = 0.133\nsamples = 14\nvalue = [1, 13]"] ;
411 -> 413 ;
414 [label="gini = 0.0\nsamples = 11\nvalue = [0, 11]"] ;
413 -> 414 ;
415 [label="opponent_health <= 27.5\ngini = 0.444\nsamples = 3\nvalue = [1, 2]"] ;
413 -> 415 ;
416 [label="gini = 0.0\nsamples = 1\nvalue = [1, 0]"] ;
415 -> 416 ;
417 [label="gini = 0.0\nsamples = 2\nvalue = [0, 2]"] ;
415 -> 417 ;
418 [label="opponent_board_total_health <= 11.5\ngini = 0.225\nsamples = 139\nvalue = [18, 121]"] ;
396 -> 418 ;
419 [label="my_board_total_attack <= 20.5\ngini = 0.208\nsamples = 136\nvalue = [16, 120]"] ;
418 -> 419 ;
420 [label="my_health <= 3.5\ngini = 0.198\nsamples = 135\nvalue = [15, 120]"] ;
419 -> 420 ;
421 [label="gini = 0.0\nsamples = 1\nvalue = [1, 0]"] ;
420 -> 421 ;
422 [label="opponent_board_nb_creatures <= 1.5\ngini = 0.187\nsamples = 134\nvalue = [14, 120]"] ;
420 -> 422 ;
423 [label="my_hand <= 0.5\ngini = 0.097\nsamples = 78\nvalue = [4, 74]"] ;
422 -> 423 ;
424 [label="gini = 0.0\nsamples = 1\nvalue = [1, 0]"] ;
423 -> 424 ;
425 [label="my_board_total_attack <= 14.5\ngini = 0.075\nsamples = 77\nvalue = [3, 74]"] ;
423 -> 425 ;
426 [label="my_hand <= 4.5\ngini = 0.028\nsamples = 70\nvalue = [1, 69]"] ;
425 -> 426 ;
427 [label="gini = 0.0\nsamples = 52\nvalue = [0, 52]"] ;
426 -> 427 ;
428 [label="my_board_total_health <= 8.5\ngini = 0.105\nsamples = 18\nvalue = [1, 17]"] ;
426 -> 428 ;
429 [label="opponent_board_total_attack <= 3.5\ngini = 0.5\nsamples = 2\nvalue = [1, 1]"] ;
428 -> 429 ;
430 [label="gini = 0.0\nsamples = 1\nvalue = [0, 1]"] ;
429 -> 430 ;
431 [label="gini = 0.0\nsamples = 1\nvalue = [1, 0]"] ;
429 -> 431 ;
432 [label="gini = 0.0\nsamples = 16\nvalue = [0, 16]"] ;
428 -> 432 ;
433 [label="my_health <= 24.0\ngini = 0.408\nsamples = 7\nvalue = [2, 5]"] ;
425 -> 433 ;
434 [label="gini = 0.0\nsamples = 2\nvalue = [2, 0]"] ;
433 -> 434 ;
435 [label="gini = 0.0\nsamples = 5\nvalue = [0, 5]"] ;
433 -> 435 ;
436 [label="my_hand <= 2.5\ngini = 0.293\nsamples = 56\nvalue = [10, 46]"] ;
422 -> 436 ;
437 [label="gini = 0.0\nsamples = 21\nvalue = [0, 21]"] ;
436 -> 437 ;
438 [label="opponent_hand <= 1.5\ngini = 0.408\nsamples = 35\nvalue = [10, 25]"] ;
436 -> 438 ;
439 [label="gini = 0.0\nsamples = 8\nvalue = [0, 8]"] ;
438 -> 439 ;
440 [label="my_board_nb_creatures <= 5.5\ngini = 0.466\nsamples = 27\nvalue = [10, 17]"] ;
438 -> 440 ;
441 [label="opponent_health <= 27.0\ngini = 0.413\nsamples = 24\nvalue = [7, 17]"] ;
440 -> 441 ;
442 [label="my_board_total_health <= 7.5\ngini = 0.32\nsamples = 20\nvalue = [4, 16]"] ;
441 -> 442 ;
443 [label="gini = 0.0\nsamples = 8\nvalue = [0, 8]"] ;
442 -> 443 ;
444 [label="opponent_board_total_attack <= 4.5\ngini = 0.444\nsamples = 12\nvalue = [4, 8]"] ;
442 -> 444 ;
445 [label="opponent_health <= 23.0\ngini = 0.48\nsamples = 5\nvalue = [3, 2]"] ;
444 -> 445 ;
446 [label="my_board_total_health <= 8.5\ngini = 0.444\nsamples = 3\nvalue = [1, 2]"] ;
445 -> 446 ;
447 [label="gini = 0.0\nsamples = 2\nvalue = [0, 2]"] ;
446 -> 447 ;
448 [label="gini = 0.0\nsamples = 1\nvalue = [1, 0]"] ;
446 -> 448 ;
449 [label="gini = 0.0\nsamples = 2\nvalue = [2, 0]"] ;
445 -> 449 ;
450 [label="opponent_board_total_attack <= 6.5\ngini = 0.245\nsamples = 7\nvalue = [1, 6]"] ;
444 -> 450 ;
451 [label="gini = 0.0\nsamples = 6\nvalue = [0, 6]"] ;
450 -> 451 ;
452 [label="gini = 0.0\nsamples = 1\nvalue = [1, 0]"] ;
450 -> 452 ;
453 [label="opponent_hand <= 5.0\ngini = 0.375\nsamples = 4\nvalue = [3, 1]"] ;
441 -> 453 ;
454 [label="gini = 0.0\nsamples = 3\nvalue = [3, 0]"] ;
453 -> 454 ;
455 [label="gini = 0.0\nsamples = 1\nvalue = [0, 1]"] ;
453 -> 455 ;
456 [label="gini = 0.0\nsamples = 3\nvalue = [3, 0]"] ;
440 -> 456 ;
457 [label="gini = 0.0\nsamples = 1\nvalue = [1, 0]"] ;
419 -> 457 ;
458 [label="opponent_health <= 5.0\ngini = 0.444\nsamples = 3\nvalue = [2, 1]"] ;
418 -> 458 ;
459 [label="gini = 0.0\nsamples = 1\nvalue = [0, 1]"] ;
458 -> 459 ;
460 [label="gini = 0.0\nsamples = 2\nvalue = [2, 0]"] ;
458 -> 460 ;
461 [label="my_hand <= 7.5\ngini = 0.444\nsamples = 9\nvalue = [6, 3]"] ;
395 -> 461 ;
462 [label="my_hand <= 3.5\ngini = 0.245\nsamples = 7\nvalue = [6, 1]"] ;
461 -> 462 ;
463 [label="gini = 0.0\nsamples = 1\nvalue = [0, 1]"] ;
462 -> 463 ;
464 [label="gini = 0.0\nsamples = 6\nvalue = [6, 0]"] ;
462 -> 464 ;
465 [label="gini = 0.0\nsamples = 2\nvalue = [0, 2]"] ;
461 -> 465 ;
466 [label="my_health <= 28.5\ngini = 0.494\nsamples = 159\nvalue = [88, 71]"] ;
250 -> 466 ;
467 [label="my_board_total_attack <= 11.5\ngini = 0.477\nsamples = 140\nvalue = [85, 55]"] ;
466 -> 467 ;
468 [label="me_playing <= 0.5\ngini = 0.453\nsamples = 121\nvalue = [79, 42]"] ;
467 -> 468 ;
469 [label="my_board_nb_creatures <= 3.5\ngini = 0.49\nsamples = 72\nvalue = [41, 31]"] ;
468 -> 469 ;
470 [label="my_health <= 22.5\ngini = 0.469\nsamples = 64\nvalue = [40, 24]"] ;
469 -> 470 ;
471 [label="my_board_total_attack <= 3.5\ngini = 0.415\nsamples = 51\nvalue = [36, 15]"] ;
470 -> 471 ;
472 [label="gini = 0.0\nsamples = 9\nvalue = [9, 0]"] ;
471 -> 472 ;
473 [label="my_hand <= 1.5\ngini = 0.459\nsamples = 42\nvalue = [27, 15]"] ;
471 -> 473 ;
474 [label="gini = 0.0\nsamples = 6\nvalue = [6, 0]"] ;
473 -> 474 ;
475 [label="my_hand <= 2.5\ngini = 0.486\nsamples = 36\nvalue = [21, 15]"] ;
473 -> 475 ;
476 [label="gini = 0.0\nsamples = 5\nvalue = [0, 5]"] ;
475 -> 476 ;
477 [label="opponent_board_nb_creatures <= 1.5\ngini = 0.437\nsamples = 31\nvalue = [21, 10]"] ;
475 -> 477 ;
478 [label="gini = 0.0\nsamples = 1\nvalue = [0, 1]"] ;
477 -> 478 ;
479 [label="opponent_board_total_attack <= 18.0\ngini = 0.42\nsamples = 30\nvalue = [21, 9]"] ;
477 -> 479 ;
480 [label="my_board_total_health <= 17.0\ngini = 0.4\nsamples = 29\nvalue = [21, 8]"] ;
479 -> 480 ;
481 [label="opponent_hand <= 5.5\ngini = 0.375\nsamples = 28\nvalue = [21, 7]"] ;
480 -> 481 ;
482 [label="opponent_board_total_attack <= 10.5\ngini = 0.346\nsamples = 27\nvalue = [21, 6]"] ;
481 -> 482 ;
483 [label="opponent_board_total_health <= 11.5\ngini = 0.444\nsamples = 15\nvalue = [10, 5]"] ;
482 -> 483 ;
484 [label="opponent_hand <= 1.5\ngini = 0.355\nsamples = 13\nvalue = [10, 3]"] ;
483 -> 484 ;
485 [label="opponent_board_total_health <= 5.0\ngini = 0.444\nsamples = 3\nvalue = [1, 2]"] ;
484 -> 485 ;
486 [label="gini = 0.0\nsamples = 1\nvalue = [1, 0]"] ;
485 -> 486 ;
487 [label="gini = 0.0\nsamples = 2\nvalue = [0, 2]"] ;
485 -> 487 ;
488 [label="my_board_total_attack <= 8.0\ngini = 0.18\nsamples = 10\nvalue = [9, 1]"] ;
484 -> 488 ;
489 [label="gini = 0.0\nsamples = 8\nvalue = [8, 0]"] ;
488 -> 489 ;
490 [label="my_health <= 14.5\ngini = 0.5\nsamples = 2\nvalue = [1, 1]"] ;
488 -> 490 ;
491 [label="gini = 0.0\nsamples = 1\nvalue = [1, 0]"] ;
490 -> 491 ;
492 [label="gini = 0.0\nsamples = 1\nvalue = [0, 1]"] ;
490 -> 492 ;
493 [label="gini = 0.0\nsamples = 2\nvalue = [0, 2]"] ;
483 -> 493 ;
494 [label="opponent_board_total_attack <= 15.5\ngini = 0.153\nsamples = 12\nvalue = [11, 1]"] ;
482 -> 494 ;
495 [label="gini = 0.0\nsamples = 10\nvalue = [10, 0]"] ;
494 -> 495 ;
496 [label="my_board_total_health <= 12.0\ngini = 0.5\nsamples = 2\nvalue = [1, 1]"] ;
494 -> 496 ;
497 [label="gini = 0.0\nsamples = 1\nvalue = [0, 1]"] ;
496 -> 497 ;
498 [label="gini = 0.0\nsamples = 1\nvalue = [1, 0]"] ;
496 -> 498 ;
499 [label="gini = 0.0\nsamples = 1\nvalue = [0, 1]"] ;
481 -> 499 ;
500 [label="gini = 0.0\nsamples = 1\nvalue = [0, 1]"] ;
480 -> 500 ;
501 [label="gini = 0.0\nsamples = 1\nvalue = [0, 1]"] ;
479 -> 501 ;
502 [label="opponent_hand <= 2.5\ngini = 0.426\nsamples = 13\nvalue = [4, 9]"] ;
470 -> 502 ;
503 [label="gini = 0.0\nsamples = 4\nvalue = [0, 4]"] ;
502 -> 503 ;
504 [label="my_board_total_attack <= 5.5\ngini = 0.494\nsamples = 9\nvalue = [4, 5]"] ;
502 -> 504 ;
505 [label="opponent_board_total_health <= 7.5\ngini = 0.444\nsamples = 6\nvalue = [4, 2]"] ;
504 -> 505 ;
506 [label="my_board_total_health <= 2.5\ngini = 0.444\nsamples = 3\nvalue = [1, 2]"] ;
505 -> 506 ;
507 [label="gini = 0.0\nsamples = 1\nvalue = [1, 0]"] ;
506 -> 507 ;
508 [label="gini = 0.0\nsamples = 2\nvalue = [0, 2]"] ;
506 -> 508 ;
509 [label="gini = 0.0\nsamples = 3\nvalue = [3, 0]"] ;
505 -> 509 ;
510 [label="gini = 0.0\nsamples = 3\nvalue = [0, 3]"] ;
504 -> 510 ;
511 [label="opponent_board_nb_creatures <= 5.5\ngini = 0.219\nsamples = 8\nvalue = [1, 7]"] ;
469 -> 511 ;
512 [label="gini = 0.0\nsamples = 7\nvalue = [0, 7]"] ;
511 -> 512 ;
513 [label="gini = 0.0\nsamples = 1\nvalue = [1, 0]"] ;
511 -> 513 ;
514 [label="opponent_health <= 10.0\ngini = 0.348\nsamples = 49\nvalue = [38, 11]"] ;
468 -> 514 ;
515 [label="opponent_board_total_health <= 7.5\ngini = 0.469\nsamples = 8\nvalue = [3, 5]"] ;
514 -> 515 ;
516 [label="gini = 0.0\nsamples = 2\nvalue = [2, 0]"] ;
515 -> 516 ;
517 [label="opponent_board_total_health <= 16.0\ngini = 0.278\nsamples = 6\nvalue = [1, 5]"] ;
515 -> 517 ;
518 [label="gini = 0.0\nsamples = 5\nvalue = [0, 5]"] ;
517 -> 518 ;
519 [label="gini = 0.0\nsamples = 1\nvalue = [1, 0]"] ;
517 -> 519 ;
520 [label="opponent_board_total_health <= 20.5\ngini = 0.25\nsamples = 41\nvalue = [35, 6]"] ;
514 -> 520 ;
521 [label="my_health <= 10.5\ngini = 0.219\nsamples = 40\nvalue = [35, 5]"] ;
520 -> 521 ;
522 [label="gini = 0.0\nsamples = 1\nvalue = [0, 1]"] ;
521 -> 522 ;
523 [label="my_hand <= 7.5\ngini = 0.184\nsamples = 39\nvalue = [35, 4]"] ;
521 -> 523 ;
524 [label="opponent_board_total_attack <= 8.5\ngini = 0.145\nsamples = 38\nvalue = [35, 3]"] ;
523 -> 524 ;
525 [label="opponent_hand <= 1.5\ngini = 0.444\nsamples = 9\nvalue = [6, 3]"] ;
524 -> 525 ;
526 [label="gini = 0.0\nsamples = 2\nvalue = [0, 2]"] ;
525 -> 526 ;
527 [label="my_health <= 27.0\ngini = 0.245\nsamples = 7\nvalue = [6, 1]"] ;
525 -> 527 ;
528 [label="gini = 0.0\nsamples = 6\nvalue = [6, 0]"] ;
527 -> 528 ;
529 [label="gini = 0.0\nsamples = 1\nvalue = [0, 1]"] ;
527 -> 529 ;
530 [label="gini = 0.0\nsamples = 29\nvalue = [29, 0]"] ;
524 -> 530 ;
531 [label="gini = 0.0\nsamples = 1\nvalue = [0, 1]"] ;
523 -> 531 ;
532 [label="gini = 0.0\nsamples = 1\nvalue = [0, 1]"] ;
520 -> 532 ;
533 [label="my_board_total_attack <= 13.5\ngini = 0.432\nsamples = 19\nvalue = [6, 13]"] ;
467 -> 533 ;
534 [label="gini = 0.0\nsamples = 8\nvalue = [0, 8]"] ;
533 -> 534 ;
535 [label="my_board_total_health <= 10.5\ngini = 0.496\nsamples = 11\nvalue = [6, 5]"] ;
533 -> 535 ;
536 [label="gini = 0.0\nsamples = 3\nvalue = [0, 3]"] ;
535 -> 536 ;
537 [label="my_board_total_health <= 15.5\ngini = 0.375\nsamples = 8\nvalue = [6, 2]"] ;
535 -> 537 ;
538 [label="gini = 0.0\nsamples = 5\nvalue = [5, 0]"] ;
537 -> 538 ;
539 [label="my_board_nb_creatures <= 3.0\ngini = 0.444\nsamples = 3\nvalue = [1, 2]"] ;
537 -> 539 ;
540 [label="gini = 0.0\nsamples = 1\nvalue = [1, 0]"] ;
539 -> 540 ;
541 [label="gini = 0.0\nsamples = 2\nvalue = [0, 2]"] ;
539 -> 541 ;
542 [label="opponent_board_total_attack <= 10.5\ngini = 0.266\nsamples = 19\nvalue = [3, 16]"] ;
466 -> 542 ;
543 [label="gini = 0.0\nsamples = 13\nvalue = [0, 13]"] ;
542 -> 543 ;
544 [label="my_board_nb_creatures <= 2.5\ngini = 0.5\nsamples = 6\nvalue = [3, 3]"] ;
542 -> 544 ;
545 [label="gini = 0.0\nsamples = 3\nvalue = [0, 3]"] ;
544 -> 545 ;
546 [label="gini = 0.0\nsamples = 3\nvalue = [3, 0]"] ;
544 -> 546 ;
}