digraph Tree {
node [shape=box] ;
0 [label="my_board_nb_creatures <= 1.5\ngini = 0.494\nsamples = 1434\nvalue = [640, 794]"] ;
1 [label="opponent_board_total_attack <= 4.5\ngini = 0.437\nsamples = 612\nvalue = [415, 197]"] ;
0 -> 1 [labeldistance=2.5, labelangle=45, headlabel="True"] ;
2 [label="opponent_health <= 21.5\ngini = 0.5\nsamples = 254\nvalue = [125, 129]"] ;
1 -> 2 ;
3 [label="opponent_hand <= 6.5\ngini = 0.456\nsamples = 114\nvalue = [40, 74]"] ;
2 -> 3 ;
4 [label="my_hand <= 2.5\ngini = 0.404\nsamples = 96\nvalue = [27, 69]"] ;
3 -> 4 ;
5 [label="opponent_board_total_health <= 1.5\ngini = 0.493\nsamples = 25\nvalue = [14, 11]"] ;
4 -> 5 ;
6 [label="my_health <= 28.0\ngini = 0.26\nsamples = 13\nvalue = [11, 2]"] ;
5 -> 6 ;
7 [label="my_board_total_attack <= 2.5\ngini = 0.153\nsamples = 12\nvalue = [11, 1]"] ;
6 -> 7 ;
8 [label="gini = 0.0\nsamples = 8\nvalue = [8, 0]"] ;
7 -> 8 ;
9 [label="opponent_hand <= 4.5\ngini = 0.375\nsamples = 4\nvalue = [3, 1]"] ;
7 -> 9 ;
10 [label="my_board_total_attack <= 3.5\ngini = 0.5\nsamples = 2\nvalue = [1, 1]"] ;
9 -> 10 ;
11 [label="gini = 0.0\nsamples = 1\nvalue = [0, 1]"] ;
10 -> 11 ;
12 [label="gini = 0.0\nsamples = 1\nvalue = [1, 0]"] ;
10 -> 12 ;
13 [label="gini = 0.0\nsamples = 2\nvalue = [2, 0]"] ;
9 -> 13 ;
14 [label="gini = 0.0\nsamples = 1\nvalue = [0, 1]"] ;
6 -> 14 ;
15 [label="opponent_board_total_health <= 5.0\ngini = 0.375\nsamples = 12\nvalue = [3, 9]"] ;
5 -> 15 ;
16 [label="opponent_hand <= 3.5\ngini = 0.18\nsamples = 10\nvalue = [1, 9]"] ;
15 -> 16 ;
17 [label="gini = 0.0\nsamples = 8\nvalue = [0, 8]"] ;
16 -> 17 ;
18 [label="my_health <= 23.5\ngini = 0.5\nsamples = 2\nvalue = [1, 1]"] ;
16 -> 18 ;
19 [label="gini = 0.0\nsamples = 1\nvalue = [1, 0]"] ;
18 -> 19 ;
20 [label="gini = 0.0\nsamples = 1\nvalue = [0, 1]"] ;
18 -> 20 ;
21 [label="gini = 0.0\nsamples = 2\nvalue = [2, 0]"] ;
15 -> 21 ;
22 [label="my_health <= 8.0\ngini = 0.299\nsamples = 71\nvalue = [13, 58]"] ;
4 -> 22 ;
23 [label="opponent_board_total_attack <= 1.5\ngini = 0.375\nsamples = 4\nvalue = [3, 1]"] ;
22 -> 23 ;
24 [label="gini = 0.0\nsamples = 3\nvalue = [3, 0]"] ;
23 -> 24 ;
25 [label="gini = 0.0\nsamples = 1\nvalue = [0, 1]"] ;
23 -> 25 ;
26 [label="my_board_nb_creatures <= 0.5\ngini = 0.254\nsamples = 67\nvalue = [10, 57]"] ;
22 -> 26 ;
27 [label="opponent_health <= 17.5\ngini = 0.408\nsamples = 21\nvalue = [6, 15]"] ;
26 -> 27 ;
28 [label="my_health <= 26.5\ngini = 0.18\nsamples = 10\nvalue = [1, 9]"] ;
27 -> 28 ;
29 [label="gini = 0.0\nsamples = 6\nvalue = [0, 6]"] ;
28 -> 29 ;
30 [label="my_health <= 27.5\ngini = 0.375\nsamples = 4\nvalue = [1, 3]"] ;
28 -> 30 ;
31 [label="gini = 0.0\nsamples = 1\nvalue = [1, 0]"] ;
30 -> 31 ;
32 [label="gini = 0.0\nsamples = 3\nvalue = [0, 3]"] ;
30 -> 32 ;
33 [label="my_health <= 20.0\ngini = 0.496\nsamples = 11\nvalue = [5, 6]"] ;
27 -> 33 ;
34 [label="my_health <= 11.0\ngini = 0.32\nsamples = 5\nvalue = [4, 1]"] ;
33 -> 34 ;
35 [label="gini = 0.0\nsamples = 1\nvalue = [0, 1]"] ;
34 -> 35 ;
36 [label="gini = 0.0\nsamples = 4\nvalue = [4, 0]"] ;
34 -> 36 ;
37 [label="opponent_health <= 18.5\ngini = 0.278\nsamples = 6\nvalue = [1, 5]"] ;
33 -> 37 ;
38 [label="opponent_hand <= 3.0\ngini = 0.5\nsamples = 2\nvalue = [1, 1]"] ;
37 -> 38 ;
39 [label="gini = 0.0\nsamples = 1\nvalue = [0, 1]"] ;
38 -> 39 ;
40 [label="gini = 0.0\nsamples = 1\nvalue = [1, 0]"] ;
38 -> 40 ;
41 [label="gini = 0.0\nsamples = 4\nvalue = [0, 4]"] ;
37 -> 41 ;
42 [label="opponent_board_nb_creatures <= 1.5\ngini = 0.159\nsamples = 46\nvalue = [4, 42]"] ;
26 -> 42 ;
43 [label="opponent_board_total_attack <= 3.5\ngini = 0.1\nsamples = 38\nvalue = [2, 36]"] ;
42 -> 43 ;
44 [label="my_board_total_attack <= 5.5\ngini = 0.054\nsamples = 36\nvalue = [1, 35]"] ;
43 -> 44 ;
45 [label="gini = 0.0\nsamples = 33\nvalue = [0, 33]"] ;
44 -> 45 ;
46 [label="my_hand <= 5.0\ngini = 0.444\nsamples = 3\nvalue = [1, 2]"] ;
44 -> 46 ;
47 [label="gini = 0.0\nsamples = 2\nvalue = [0, 2]"] ;
46 -> 47 ;
48 [label="gini = 0.0\nsamples = 1\nvalue = [1, 0]"] ;
46 -> 48 ;
49 [label="me_playing <= 0.5\ngini = 0.5\nsamples = 2\nvalue = [1, 1]"] ;
43 -> 49 ;
50 [label="gini = 0.0\nsamples = 1\nvalue = [0, 1]"] ;
49 -> 50 ;
51 [label="gini = 0.0\nsamples = 1\nvalue = [1, 0]"] ;
49 -> 51 ;
52 [label="opponent_board_nb_creatures <= 2.5\ngini = 0.375\nsamples = 8\nvalue = [2, 6]"] ;
42 -> 52 ;
53 [label="my_hand <= 5.0\ngini = 0.444\nsamples = 3\nvalue = [2, 1]"] ;
52 -> 53 ;
54 [label="gini = 0.0\nsamples = 2\nvalue = [2, 0]"] ;
53 -> 54 ;
55 [label="gini = 0.0\nsamples = 1\nvalue = [0, 1]"] ;
53 -> 55 ;
56 [label="gini = 0.0\nsamples = 5\nvalue = [0, 5]"] ;
52 -> 56 ;
57 [label="my_board_total_health <= 1.5\ngini = 0.401\nsamples = 18\nvalue = [13, 5]"] ;
3 -> 57 ;
58 [label="opponent_health <= 9.5\ngini = 0.165\nsamples = 11\nvalue = [10, 1]"] ;
57 -> 58 ;
59 [label="opponent_board_nb_creatures <= 0.5\ngini = 0.5\nsamples = 2\nvalue = [1, 1]"] ;
58 -> 59 ;
60 [label="gini = 0.0\nsamples = 1\nvalue = [0, 1]"] ;
59 -> 60 ;
61 [label="gini = 0.0\nsamples = 1\nvalue = [1, 0]"] ;
59 -> 61 ;
62 [label="gini = 0.0\nsamples = 9\nvalue = [9, 0]"] ;
58 -> 62 ;
63 [label="opponent_health <= 15.0\ngini = 0.49\nsamples = 7\nvalue = [3, 4]"] ;
57 -> 63 ;
64 [label="opponent_board_total_health <= 0.5\ngini = 0.375\nsamples = 4\nvalue = [3, 1]"] ;
63 -> 64 ;
65 [label="gini = 0.0\nsamples = 1\nvalue = [0, 1]"] ;
64 -> 65 ;
66 [label="gini = 0.0\nsamples = 3\nvalue = [3, 0]"] ;
64 -> 66 ;
67 [label="gini = 0.0\nsamples = 3\nvalue = [0, 3]"] ;
63 -> 67 ;
68 [label="my_health <= 25.5\ngini = 0.477\nsamples = 140\nvalue = [85, 55]"] ;
2 -> 68 ;
69 [label="my_hand <= 7.5\ngini = 0.422\nsamples = 86\nvalue = [60, 26]"] ;
68 -> 69 ;
70 [label="opponent_hand <= 0.5\ngini = 0.384\nsamples = 81\nvalue = [60, 21]"] ;
69 -> 70 ;
71 [label="gini = 0.0\nsamples = 3\nvalue = [0, 3]"] ;
70 -> 71 ;
72 [label="my_board_total_health <= 3.5\ngini = 0.355\nsamples = 78\nvalue = [60, 18]"] ;
70 -> 72 ;
73 [label="opponent_health <= 28.5\ngini = 0.211\nsamples = 50\nvalue = [44, 6]"] ;
72 -> 73 ;
74 [label="my_health <= 5.5\ngini = 0.108\nsamples = 35\nvalue = [33, 2]"] ;
73 -> 74 ;
75 [label="me_playing <= 0.5\ngini = 0.5\nsamples = 2\nvalue = [1, 1]"] ;
74 -> 75 ;
76 [label="gini = 0.0\nsamples = 1\nvalue = [1, 0]"] ;
75 -> 76 ;
77 [label="gini = 0.0\nsamples = 1\nvalue = [0, 1]"] ;
75 -> 77 ;
78 [label="my_board_total_attack <= 3.5\ngini = 0.059\nsamples = 33\nvalue = [32, 1]"] ;
74 -> 78 ;
79 [label="gini = 0.0\nsamples = 28\nvalue = [28, 0]"] ;
78 -> 79 ;
80 [label="my_health <= 21.5\ngini = 0.32\nsamples = 5\nvalue = [4, 1]"] ;
78 -> 80 ;
81 [label="gini = 0.0\nsamples = 4\nvalue = [4, 0]"] ;
80 -> 81 ;
82 [label="gini = 0.0\nsamples = 1\nvalue = [0, 1]"] ;
80 -> 82 ;
83 [label="opponent_board_total_health <= 1.5\ngini = 0.391\nsamples = 15\nvalue = [11, 4]"] ;
73 -> 83 ;
84 [label="gini = 0.0\nsamples = 2\nvalue = [0, 2]"] ;
83 -> 84 ;
85 [label="my_board_total_attack <= 2.5\ngini = 0.26\nsamples = 13\nvalue = [11, 2]"] ;
83 -> 85 ;
86 [label="my_health <= 22.5\ngini = 0.153\nsamples = 12\nvalue = [11, 1]"] ;
85 -> 86 ;
87 [label="gini = 0.0\nsamples = 9\nvalue = [9, 0]"] ;
86 -> 87 ;
88 [label="my_hand <= 5.5\ngini = 0.444\nsamples = 3\nvalue = [2, 1]"] ;
86 -> 88 ;
89 [label="gini = 0.0\nsamples = 2\nvalue = [2, 0]"] ;
88 -> 89 ;
90 [label="gini = 0.0\nsamples = 1\nvalue = [0, 1]"] ;
88 -> 90 ;
91 [label="gini = 0.0\nsamples = 1\nvalue = [0, 1]"] ;
85 -> 91 ;
92 [label="my_health <= 16.0\ngini = 0.49\nsamples = 28\nvalue = [16, 12]"] ;
72 -> 92 ;
93 [label="opponent_hand <= 5.5\ngini = 0.26\nsamples = 13\nvalue = [11, 2]"] ;
92 -> 93 ;
94 [label="gini = 0.0\nsamples = 10\nvalue = [10, 0]"] ;
93 -> 94 ;
95 [label="opponent_board_nb_creatures <= 0.5\ngini = 0.444\nsamples = 3\nvalue = [1, 2]"] ;
93 -> 95 ;
96 [label="gini = 0.0\nsamples = 2\nvalue = [0, 2]"] ;
95 -> 96 ;
97 [label="gini = 0.0\nsamples = 1\nvalue = [1, 0]"] ;
95 -> 97 ;
98 [label="opponent_hand <= 4.5\ngini = 0.444\nsamples = 15\nvalue = [5, 10]"] ;
92 -> 98 ;
99 [label="my_hand <= 1.5\ngini = 0.18\nsamples = 10\nvalue = [1, 9]"] ;
98 -> 99 ;
100 [label="gini = 0.0\nsamples = 1\nvalue = [1, 0]"] ;
99 -> 100 ;
101 [label="gini = 0.0\nsamples = 9\nvalue = [0, 9]"] ;
99 -> 101 ;
102 [label="my_hand <= 6.5\ngini = 0.32\nsamples = 5\nvalue = [4, 1]"] ;
98 -> 102 ;
103 [label="gini = 0.0\nsamples = 4\nvalue = [4, 0]"] ;
102 -> 103 ;
104 [label="gini = 0.0\nsamples = 1\nvalue = [0, 1]"] ;
102 -> 104 ;
105 [label="gini = 0.0\nsamples = 5\nvalue = [0, 5]"] ;
69 -> 105 ;
106 [label="me_playing <= 0.5\ngini = 0.497\nsamples = 54\nvalue = [25, 29]"] ;
68 -> 106 ;
107 [label="my_hand <= 3.5\ngini = 0.363\nsamples = 21\nvalue = [5, 16]"] ;
106 -> 107 ;
108 [label="gini = 0.0\nsamples = 1\nvalue = [1, 0]"] ;
107 -> 108 ;
109 [label="opponent_board_total_health <= 9.5\ngini = 0.32\nsamples = 20\nvalue = [4, 16]"] ;
107 -> 109 ;
110 [label="opponent_hand <= 5.5\ngini = 0.266\nsamples = 19\nvalue = [3, 16]"] ;
109 -> 110 ;
111 [label="opponent_board_total_attack <= 1.5\ngini = 0.133\nsamples = 14\nvalue = [1, 13]"] ;
110 -> 111 ;
112 [label="my_hand <= 4.5\ngini = 0.375\nsamples = 4\nvalue = [1, 3]"] ;
111 -> 112 ;
113 [label="gini = 0.0\nsamples = 1\nvalue = [1, 0]"] ;
112 -> 113 ;
114 [label="gini = 0.0\nsamples = 3\nvalue = [0, 3]"] ;
112 -> 114 ;
115 [label="gini = 0.0\nsamples = 10\nvalue = [0, 10]"] ;
111 -> 115 ;
116 [label="my_board_total_attack <= 0.5\ngini = 0.48\nsamples = 5\nvalue = [2, 3]"] ;
110 -> 116 ;
117 [label="my_health <= 27.5\ngini = 0.444\nsamples = 3\nvalue = [2, 1]"] ;
116 -> 117 ;
118 [label="gini = 0.0\nsamples = 1\nvalue = [0, 1]"] ;
117 -> 118 ;
119 [label="gini = 0.0\nsamples = 2\nvalue = [2, 0]"] ;
117 -> 119 ;
120 [label="gini = 0.0\nsamples = 2\nvalue = [0, 2]"] ;
116 -> 120 ;
121 [label="gini = 0.0\nsamples = 1\nvalue = [1, 0]"] ;
109 -> 121 ;
122 [label="my_board_total_attack <= 2.5\ngini = 0.478\nsamples = 33\nvalue = [20, 13]"] ;
106 -> 122 ;
123 [label="opponent_hand <= 3.5\ngini = 0.153\nsamples = 12\nvalue = [11, 1]"] ;
122 -> 123 ;
124 [label="opponent_board_nb_creatures <= 0.5\ngini = 0.444\nsamples = 3\nvalue = [2, 1]"] ;
123 -> 124 ;
125 [label="gini = 0.0\nsamples = 1\nvalue = [0, 1]"] ;
124 -> 125 ;
126 [label="gini = 0.0\nsamples = 2\nvalue = [2, 0]"] ;
124 -> 126 ;
127 [label="gini = 0.0\nsamples = 9\nvalue = [9, 0]"] ;
123 -> 127 ;
128 [label="opponent_board_total_attack <= 3.5\ngini = 0.49\nsamples = 21\nvalue = [9, 12]"] ;
122 -> 128 ;
129 [label="my_hand <= 6.5\ngini = 0.465\nsamples = 19\nvalue = [7, 12]"] ;
128 -> 129 ;
130 [label="my_board_total_attack <= 3.5\ngini = 0.498\nsamples = 15\nvalue = [7, 8]"] ;
129 -> 130 ;
131 [label="my_hand <= 4.5\ngini = 0.375\nsamples = 8\nvalue = [2, 6]"] ;
130 -> 131 ;
132 [label="gini = 0.0\nsamples = 5\nvalue = [0, 5]"] ;
131 -> 132 ;
133 [label="opponent_health <= 27.5\ngini = 0.444\nsamples = 3\nvalue = [2, 1]"] ;
131 -> 133 ;
134 [label="gini = 0.0\nsamples = 2\nvalue = [2, 0]"] ;
133 -> 134 ;
135 [label="gini = 0.0\nsamples = 1\nvalue = [0, 1]"] ;
133 -> 135 ;
136 [label="opponent_health <= 25.0\ngini = 0.408\nsamples = 7\nvalue = [5, 2]"] ;
130 -> 136 ;
137 [label="my_board_total_health <= 4.0\ngini = 0.444\nsamples = 3\nvalue = [1, 2]"] ;
136 -> 137 ;
138 [label="gini = 0.0\nsamples = 2\nvalue = [0, 2]"] ;
137 -> 138 ;
139 [label="gini = 0.0\nsamples = 1\nvalue = [1, 0]"] ;
137 -> 139 ;
140 [label="gini = 0.0\nsamples = 4\nvalue = [4, 0]"] ;
136 -> 140 ;
141 [label="gini = 0.0\nsamples = 4\nvalue = [0, 4]"] ;
129 -> 141 ;
142 [label="gini = 0.0\nsamples = 2\nvalue = [2, 0]"] ;
128 -> 142 ;
143 [label="my_board_total_health <= 1.5\ngini = 0.308\nsamples = 358\nvalue = [290, 68]"] ;
1 -> 143 ;
144 [label="opponent_hand <= 1.5\ngini = 0.202\nsamples = 211\nvalue = [187, 24]"] ;
143 -> 144 ;
145 [label="opponent_board_total_health <= 7.5\ngini = 0.455\nsamples = 20\nvalue = [13, 7]"] ;
144 -> 145 ;
146 [label="opponent_hand <= 0.5\ngini = 0.469\nsamples = 8\nvalue = [3, 5]"] ;
145 -> 146 ;
147 [label="gini = 0.0\nsamples = 2\nvalue = [2, 0]"] ;
146 -> 147 ;
148 [label="opponent_board_total_attack <= 5.5\ngini = 0.278\nsamples = 6\nvalue = [1, 5]"] ;
146 -> 148 ;
149 [label="gini = 0.0\nsamples = 1\nvalue = [1, 0]"] ;
148 -> 149 ;
150 [label="gini = 0.0\nsamples = 5\nvalue = [0, 5]"] ;
148 -> 150 ;
151 [label="opponent_health <= 7.0\ngini = 0.278\nsamples = 12\nvalue = [10, 2]"] ;
145 -> 151 ;
152 [label="gini = 0.0\nsamples = 1\nvalue = [0, 1]"] ;
151 -> 152 ;
153 [label="my_board_total_health <= 0.5\ngini = 0.165\nsamples = 11\nvalue = [10, 1]"] ;
151 -> 153 ;
154 [label="gini = 0.0\nsamples = 10\nvalue = [10, 0]"] ;
153 -> 154 ;
155 [label="gini = 0.0\nsamples = 1\nvalue = [0, 1]"] ;
153 -> 155 ;
156 [label="opponent_health <= 5.0\ngini = 0.162\nsamples = 191\nvalue = [174, 17]"] ;
144 -> 156 ;
157 [label="my_hand <= 4.5\ngini = 0.444\nsamples = 3\nvalue = [1, 2]"] ;
156 -> 157 ;
158 [label="gini = 0.0\nsamples = 1\nvalue = [1, 0]"] ;
157 -> 158 ;
159 [label="gini = 0.0\nsamples = 2\nvalue = [0, 2]"] ;
157 -> 159 ;
160 [label="opponent_board_total_health <= 2.5\ngini = 0.147\nsamples = 188\nvalue = [173, 15]"] ;
156 -> 160 ;
161 [label="gini = 0.0\nsamples = 1\nvalue = [0, 1]"] ;
160 -> 161 ;
162 [label="my_hand <= 6.5\ngini = 0.139\nsamples = 187\nvalue = [173, 14]"] ;
160 -> 162 ;
163 [label="opponent_board_total_attack <= 9.5\ngini = 0.098\nsamples = 154\nvalue = [146, 8]"] ;
162 -> 163 ;
164 [label="my_health <= 21.5\ngini = 0.154\nsamples = 95\nvalue = [87, 8]"] ;
163 -> 164 ;
165 [label="my_hand <= 1.5\ngini = 0.063\nsamples = 61\nvalue = [59, 2]"] ;
164 -> 165 ;
166 [label="opponent_board_total_health <= 6.5\ngini = 0.245\nsamples = 7\nvalue = [6, 1]"] ;
165 -> 166 ;
167 [label="gini = 0.0\nsamples = 6\nvalue = [6, 0]"] ;
166 -> 167 ;
168 [label="gini = 0.0\nsamples = 1\nvalue = [0, 1]"] ;
166 -> 168 ;
169 [label="opponent_board_total_attack <= 8.5\ngini = 0.036\nsamples = 54\nvalue = [53, 1]"] ;
165 -> 169 ;
170 [label="gini = 0.0\nsamples = 43\nvalue = [43, 0]"] ;
169 -> 170 ;
171 [label="my_health <= 19.5\ngini = 0.165\nsamples = 11\nvalue = [10, 1]"] ;
169 -> 171 ;
172 [label="gini = 0.0\nsamples = 8\nvalue = [8, 0]"] ;
171 -> 172 ;
173 [label="opponent_board_nb_creatures <= 2.5\ngini = 0.444\nsamples = 3\nvalue = [2, 1]"] ;
171 -> 173 ;
174 [label="gini = 0.0\nsamples = 2\nvalue = [2, 0]"] ;
173 -> 174 ;
175 [label="gini = 0.0\nsamples = 1\nvalue = [0, 1]"] ;
173 -> 175 ;
176 [label="my_health <= 22.5\ngini = 0.291\nsamples = 34\nvalue = [28, 6]"] ;
164 -> 176 ;
177 [label="my_hand <= 4.5\ngini = 0.49\nsamples = 7\nvalue = [3, 4]"] ;
176 -> 177 ;
178 [label="gini = 0.0\nsamples = 2\nvalue = [0, 2]"] ;
177 -> 178 ;
179 [label="opponent_board_total_health <= 5.5\ngini = 0.48\nsamples = 5\nvalue = [3, 2]"] ;
177 -> 179 ;
180 [label="opponent_board_total_attack <= 7.0\ngini = 0.444\nsamples = 3\nvalue = [1, 2]"] ;
179 -> 180 ;
181 [label="opponent_board_nb_creatures <= 3.0\ngini = 0.5\nsamples = 2\nvalue = [1, 1]"] ;
180 -> 181 ;
182 [label="gini = 0.0\nsamples = 1\nvalue = [0, 1]"] ;
181 -> 182 ;
183 [label="gini = 0.0\nsamples = 1\nvalue = [1, 0]"] ;
181 -> 183 ;
184 [label="gini = 0.0\nsamples = 1\nvalue = [0, 1]"] ;
180 -> 184 ;
185 [label="gini = 0.0\nsamples = 2\nvalue = [2, 0]"] ;
179 -> 185 ;
186 [label="opponent_hand <= 6.5\ngini = 0.137\nsamples = 27\nvalue = [25, 2]"] ;
176 -> 186 ;
187 [label="opponent_hand <= 2.5\ngini = 0.077\nsamples = 25\nvalue = [24, 1]"] ;
186 -> 187 ;
188 [label="opponent_board_nb_creatures <= 2.5\ngini = 0.375\nsamples = 4\nvalue = [3, 1]"] ;
187 -> 188 ;
189 [label="opponent_board_total_attack <= 6.5\ngini = 0.5\nsamples = 2\nvalue = [1, 1]"] ;
188 -> 189 ;
190 [label="gini = 0.0\nsamples = 1\nvalue = [1, 0]"] ;
189 -> 190 ;
191 [label="gini = 0.0\nsamples = 1\nvalue = [0, 1]"] ;
189 -> 191 ;
192 [label="gini = 0.0\nsamples = 2\nvalue = [2, 0]"] ;
188 -> 192 ;
193 [label="gini = 0.0\nsamples = 21\nvalue = [21, 0]"] ;
187 -> 193 ;
194 [label="me_playing <= 0.5\ngini = 0.5\nsamples = 2\nvalue = [1, 1]"] ;
186 -> 194 ;
195 [label="gini = 0.0\nsamples = 1\nvalue = [1, 0]"] ;
194 -> 195 ;
196 [label="gini = 0.0\nsamples = 1\nvalue = [0, 1]"] ;
194 -> 196 ;
197 [label="gini = 0.0\nsamples = 59\nvalue = [59, 0]"] ;
163 -> 197 ;
198 [label="opponent_board_nb_creatures <= 1.5\ngini = 0.298\nsamples = 33\nvalue = [27, 6]"] ;
162 -> 198 ;
199 [label="gini = 0.0\nsamples = 2\nvalue = [0, 2]"] ;
198 -> 199 ;
200 [label="opponent_hand <= 7.5\ngini = 0.225\nsamples = 31\nvalue = [27, 4]"] ;
198 -> 200 ;
201 [label="opponent_board_total_health <= 5.5\ngini = 0.18\nsamples = 30\nvalue = [27, 3]"] ;
200 -> 201 ;
202 [label="opponent_health <= 28.5\ngini = 0.5\nsamples = 2\nvalue = [1, 1]"] ;
201 -> 202 ;
203 [label="gini = 0.0\nsamples = 1\nvalue = [1, 0]"] ;
202 -> 203 ;
204 [label="gini = 0.0\nsamples = 1\nvalue = [0, 1]"] ;
202 -> 204 ;
205 [label="opponent_health <= 23.0\ngini = 0.133\nsamples = 28\nvalue = [26, 2]"] ;
201 -> 205 ;
206 [label="opponent_health <= 21.5\ngini = 0.346\nsamples = 9\nvalue = [7, 2]"] ;
205 -> 206 ;
207 [label="opponent_board_nb_creatures <= 4.5\ngini = 0.219\nsamples = 8\nvalue = [7, 1]"] ;
206 -> 207 ;
208 [label="gini = 0.0\nsamples = 6\nvalue = [6, 0]"] ;
207 -> 208 ;
209 [label="opponent_board_total_health <= 13.0\ngini = 0.5\nsamples = 2\nvalue = [1, 1]"] ;
207 -> 209 ;
210 [label="gini = 0.0\nsamples = 1\nvalue = [0, 1]"] ;
209 -> 210 ;
211 [label="gini = 0.0\nsamples = 1\nvalue = [1, 0]"] ;
209 -> 211 ;
212 [label="gini = 0.0\nsamples = 1\nvalue = [0, 1]"] ;
206 -> 212 ;
213 [label="gini = 0.0\nsamples = 19\nvalue = [19, 0]"] ;
205 -> 213 ;
214 [label="gini = 0.0\nsamples = 1\nvalue = [0, 1]"] ;
200 -> 214 ;
215 [label="my_health <= 17.5\ngini = 0.419\nsamples = 147\nvalue = [103, 44]"] ;
143 -> 215 ;
216 [label="opponent_board_total_health <= 2.5\ngini = 0.216\nsamples = 65\nvalue = [57, 8]"] ;
215 -> 216 ;
217 [label="gini = 0.0\nsamples = 1\nvalue = [0, 1]"] ;
216 -> 217 ;
218 [label="opponent_board_nb_creatures <= 5.5\ngini = 0.195\nsamples = 64\nvalue = [57, 7]"] ;
216 -> 218 ;
219 [label="opponent_health <= 23.5\ngini = 0.131\nsamples = 57\nvalue = [53, 4]"] ;
218 -> 219 ;
220 [label="me_playing <= 0.5\ngini = 0.308\nsamples = 21\nvalue = [17, 4]"] ;
219 -> 220 ;
221 [label="opponent_hand <= 5.5\ngini = 0.198\nsamples = 18\nvalue = [16, 2]"] ;
220 -> 221 ;
222 [label="opponent_health <= 22.0\ngini = 0.111\nsamples = 17\nvalue = [16, 1]"] ;
221 -> 222 ;
223 [label="gini = 0.0\nsamples = 14\nvalue = [14, 0]"] ;
222 -> 223 ;
224 [label="my_board_total_health <= 4.5\ngini = 0.444\nsamples = 3\nvalue = [2, 1]"] ;
222 -> 224 ;
225 [label="gini = 0.0\nsamples = 2\nvalue = [2, 0]"] ;
224 -> 225 ;
226 [label="gini = 0.0\nsamples = 1\nvalue = [0, 1]"] ;
224 -> 226 ;
227 [label="gini = 0.0\nsamples = 1\nvalue = [0, 1]"] ;
221 -> 227 ;
228 [label="my_board_total_attack <= 6.5\ngini = 0.444\nsamples = 3\nvalue = [1, 2]"] ;
220 -> 228 ;
229 [label="gini = 0.0\nsamples = 2\nvalue = [0, 2]"] ;
228 -> 229 ;
230 [label="gini = 0.0\nsamples = 1\nvalue = [1, 0]"] ;
228 -> 230 ;
231 [label="gini = 0.0\nsamples = 36\nvalue = [36, 0]"] ;
219 -> 231 ;
232 [label="my_hand <= 5.5\ngini = 0.49\nsamples = 7\nvalue = [4, 3]"] ;
218 -> 232 ;
233 [label="gini = 0.0\nsamples = 4\nvalue = [4, 0]"] ;
232 -> 233 ;
234 [label="gini = 0.0\nsamples = 3\nvalue = [0, 3]"] ;
232 -> 234 ;
235 [label="opponent_health <= 16.5\ngini = 0.493\nsamples = 82\nvalue = [46, 36]"] ;
215 -> 235 ;
236 [label="opponent_board_total_health <= 12.0\ngini = 0.452\nsamples = 29\nvalue = [10, 19]"] ;
235 -> 236 ;
237 [label="opponent_hand <= 6.5\ngini = 0.33\nsamples = 24\nvalue = [5, 19]"] ;
236 -> 237 ;
238 [label="opponent_board_total_health <= 7.5\ngini = 0.172\nsamples = 21\nvalue = [2, 19]"] ;
237 -> 238 ;
239 [label="gini = 0.0\nsamples = 15\nvalue = [0, 15]"] ;
238 -> 239 ;
240 [label="opponent_board_total_health <= 8.5\ngini = 0.444\nsamples = 6\nvalue = [2, 4]"] ;
238 -> 240 ;
241 [label="gini = 0.0\nsamples = 2\nvalue = [2, 0]"] ;
240 -> 241 ;
242 [label="gini = 0.0\nsamples = 4\nvalue = [0, 4]"] ;
240 -> 242 ;
243 [label="gini = 0.0\nsamples = 3\nvalue = [3, 0]"] ;
237 -> 243 ;
244 [label="gini = 0.0\nsamples = 5\nvalue = [5, 0]"] ;
236 -> 244 ;
245 [label="my_hand <= 5.5\ngini = 0.436\nsamples = 53\nvalue = [36, 17]"] ;
235 -> 245 ;
246 [label="opponent_hand <= 1.5\ngini = 0.312\nsamples = 31\nvalue = [25, 6]"] ;
245 -> 246 ;
247 [label="opponent_board_total_attack <= 9.5\ngini = 0.375\nsamples = 4\nvalue = [1, 3]"] ;
246 -> 247 ;
248 [label="gini = 0.0\nsamples = 3\nvalue = [0, 3]"] ;
247 -> 248 ;
249 [label="gini = 0.0\nsamples = 1\nvalue = [1, 0]"] ;
247 -> 249 ;
250 [label="me_playing <= 0.5\ngini = 0.198\nsamples = 27\nvalue = [24, 3]"] ;
246 -> 250 ;
251 [label="opponent_board_total_health <= 6.0\ngini = 0.375\nsamples = 12\nvalue = [9, 3]"] ;
250 -> 251 ;
252 [label="gini = 0.0\nsamples = 2\nvalue = [0, 2]"] ;
251 -> 252 ;
253 [label="opponent_board_nb_creatures <= 1.5\ngini = 0.18\nsamples = 10\nvalue = [9, 1]"] ;
251 -> 253 ;
254 [label="my_hand <= 1.5\ngini = 0.5\nsamples = 2\nvalue = [1, 1]"] ;
253 -> 254 ;
255 [label="gini = 0.0\nsamples = 1\nvalue = [1, 0]"] ;
254 -> 255 ;
256 [label="gini = 0.0\nsamples = 1\nvalue = [0, 1]"] ;
254 -> 256 ;
257 [label="gini = 0.0\nsamples = 8\nvalue = [8, 0]"] ;
253 -> 257 ;
258 [label="gini = 0.0\nsamples = 15\nvalue = [15, 0]"] ;
250 -> 258 ;
259 [label="opponent_hand <= 5.5\ngini = 0.5\nsamples = 22\nvalue = [11, 11]"] ;
245 -> 259 ;
260 [label="opponent_board_nb_creatures <= 2.5\ngini = 0.475\nsamples = 18\nvalue = [11, 7]"] ;
259 -> 260 ;
261 [label="my_board_total_health <= 6.0\ngini = 0.444\nsamples = 6\nvalue = [2, 4]"] ;
260 -> 261 ;
262 [label="opponent_health <= 27.0\ngini = 0.32\nsamples = 5\nvalue = [1, 4]"] ;
261 -> 262 ;
263 [label="gini = 0.0\nsamples = 4\nvalue = [0, 4]"] ;
262 -> 263 ;
264 [label="gini = 0.0\nsamples = 1\nvalue = [1, 0]"] ;
262 -> 264 ;
265 [label="gini = 0.0\nsamples = 1\nvalue = [1, 0]"] ;
261 -> 265 ;
266 [label="opponent_board_total_attack <= 14.5\ngini = 0.375\nsamples = 12\nvalue = [9, 3]"] ;
260 -> 266 ;
267 [label="my_health <= 25.0\ngini = 0.298\nsamples = 11\nvalue = [9, 2]"] ;
266 -> 267 ;
268 [label="gini = 0.0\nsamples = 7\nvalue = [7, 0]"] ;
267 -> 268 ;
269 [label="opponent_health <= 27.0\ngini = 0.5\nsamples = 4\nvalue = [2, 2]"] ;
267 -> 269 ;
270 [label="gini = 0.0\nsamples = 2\nvalue = [2, 0]"] ;
269 -> 270 ;
271 [label="gini = 0.0\nsamples = 2\nvalue = [0, 2]"] ;
269 -> 271 ;
272 [label="gini = 0.0\nsamples = 1\nvalue = [0, 1]"] ;
266 -> 272 ;
273 [label="gini = 0.0\nsamples = 4\nvalue = [0, 4]"] ;
259 -> 273 ;
274 [label="opponent_board_total_attack <= 6.5\ngini = 0.398\nsamples = 822\nvalue = [225, 597]"] ;
0 -> 274 [labeldistance=2.5, labelangle=-45, headlabel="False"] ;
275 [label="my_board_total_attack <= 3.5\ngini = 0.303\nsamples = 622\nvalue = [116, 506]"] ;
274 -> 275 ;
276 [label="opponent_board_total_health <= 0.5\ngini = 0.5\nsamples = 57\nvalue = [28, 29]"] ;
275 -> 276 ;
277 [label="opponent_health <= 7.0\ngini = 0.375\nsamples = 16\nvalue = [4, 12]"] ;
276 -> 277 ;
278 [label="gini = 0.0\nsamples = 1\nvalue = [1, 0]"] ;
277 -> 278 ;
279 [label="my_hand <= 0.5\ngini = 0.32\nsamples = 15\nvalue = [3, 12]"] ;
277 -> 279 ;
280 [label="gini = 0.0\nsamples = 1\nvalue = [1, 0]"] ;
279 -> 280 ;
281 [label="opponent_hand <= 6.5\ngini = 0.245\nsamples = 14\nvalue = [2, 12]"] ;
279 -> 281 ;
282 [label="me_playing <= 0.5\ngini = 0.153\nsamples = 12\nvalue = [1, 11]"] ;
281 -> 282 ;
283 [label="my_board_total_attack <= 2.5\ngini = 0.444\nsamples = 3\nvalue = [1, 2]"] ;
282 -> 283 ;
284 [label="gini = 0.0\nsamples = 2\nvalue = [0, 2]"] ;
283 -> 284 ;
285 [label="gini = 0.0\nsamples = 1\nvalue = [1, 0]"] ;
283 -> 285 ;
286 [label="gini = 0.0\nsamples = 9\nvalue = [0, 9]"] ;
282 -> 286 ;
287 [label="my_hand <= 6.0\ngini = 0.5\nsamples = 2\nvalue = [1, 1]"] ;
281 -> 287 ;
288 [label="gini = 0.0\nsamples = 1\nvalue = [1, 0]"] ;
287 -> 288 ;
289 [label="gini = 0.0\nsamples = 1\nvalue = [0, 1]"] ;
287 -> 289 ;
290 [label="opponent_board_nb_creatures <= 1.5\ngini = 0.485\nsamples = 41\nvalue = [24, 17]"] ;
276 -> 290 ;
291 [label="my_hand <= 3.5\ngini = 0.417\nsamples = 27\nvalue = [19, 8]"] ;
290 -> 291 ;
292 [label="opponent_health <= 12.0\ngini = 0.124\nsamples = 15\nvalue = [14, 1]"] ;
291 -> 292 ;
293 [label="my_health <= 24.5\ngini = 0.444\nsamples = 3\nvalue = [2, 1]"] ;
292 -> 293 ;
294 [label="gini = 0.0\nsamples = 2\nvalue = [2, 0]"] ;
293 -> 294 ;
295 [label="gini = 0.0\nsamples = 1\nvalue = [0, 1]"] ;
293 -> 295 ;
296 [label="gini = 0.0\nsamples = 12\nvalue = [12, 0]"] ;
292 -> 296 ;
297 [label="opponent_health <= 29.5\ngini = 0.486\nsamples = 12\nvalue = [5, 7]"] ;
291 -> 297 ;
298 [label="opponent_hand <= 3.5\ngini = 0.42\nsamples = 10\nvalue = [3, 7]"] ;
297 -> 298 ;
299 [label="opponent_health <= 25.0\ngini = 0.48\nsamples = 5\nvalue = [3, 2]"] ;
298 -> 299 ;
300 [label="my_health <= 5.5\ngini = 0.444\nsamples = 3\nvalue = [1, 2]"] ;
299 -> 300 ;
301 [label="gini = 0.0\nsamples = 1\nvalue = [1, 0]"] ;
300 -> 301 ;
302 [label="gini = 0.0\nsamples = 2\nvalue = [0, 2]"] ;
300 -> 302 ;
303 [label="gini = 0.0\nsamples = 2\nvalue = [2, 0]"] ;
299 -> 303 ;
304 [label="gini = 0.0\nsamples = 5\nvalue = [0, 5]"] ;
298 -> 304 ;
305 [label="gini = 0.0\nsamples = 2\nvalue = [2, 0]"] ;
297 -> 305 ;
306 [label="opponent_health <= 26.5\ngini = 0.459\nsamples = 14\nvalue = [5, 9]"] ;
290 -> 306 ;
307 [label="opponent_board_total_attack <= 2.5\ngini = 0.375\nsamples = 12\nvalue = [3, 9]"] ;
306 -> 307 ;
308 [label="gini = 0.0\nsamples = 1\nvalue = [1, 0]"] ;
307 -> 308 ;
309 [label="my_board_total_health <= 8.0\ngini = 0.298\nsamples = 11\nvalue = [2, 9]"] ;
307 -> 309 ;
310 [label="opponent_hand <= 6.0\ngini = 0.18\nsamples = 10\nvalue = [1, 9]"] ;
309 -> 310 ;
311 [label="gini = 0.0\nsamples = 9\nvalue = [0, 9]"] ;
310 -> 311 ;
312 [label="gini = 0.0\nsamples = 1\nvalue = [1, 0]"] ;
310 -> 312 ;
313 [label="gini = 0.0\nsamples = 1\nvalue = [1, 0]"] ;
309 -> 313 ;
314 [label="gini = 0.0\nsamples = 2\nvalue = [2, 0]"] ;
306 -> 314 ;
315 [label="opponent_board_total_health <= 1.5\ngini = 0.263\nsamples = 565\nvalue = [88, 477]"] ;
275 -> 315 ;
316 [label="my_hand <= 0.5\ngini = 0.163\nsamples = 312\nvalue = [28, 284]"] ;
315 -> 316 ;
317 [label="my_board_total_health <= 8.5\ngini = 0.444\nsamples = 6\nvalue = [4, 2]"] ;
316 -> 317 ;
318 [label="gini = 0.0\nsamples = 2\nvalue = [0, 2]"] ;
317 -> 318 ;
319 [label="gini = 0.0\nsamples = 4\nvalue = [4, 0]"] ;
317 -> 319 ;
320 [label="my_board_total_health <= 6.5\ngini = 0.145\nsamples = 306\nvalue = [24, 282]"] ;
316 -> 320 ;
321 [label="my_health <= 14.5\ngini = 0.267\nsamples = 101\nvalue = [16, 85]"] ;
320 -> 321 ;
322 [label="my_board_total_attack <= 6.5\ngini = 0.498\nsamples = 15\nvalue = [8, 7]"] ;
321 -> 322 ;
323 [label="my_board_nb_creatures <= 2.5\ngini = 0.219\nsamples = 8\nvalue = [7, 1]"] ;
322 -> 323 ;
324 [label="gini = 0.0\nsamples = 6\nvalue = [6, 0]"] ;
323 -> 324 ;
325 [label="me_playing <= 0.5\ngini = 0.5\nsamples = 2\nvalue = [1, 1]"] ;
323 -> 325 ;
326 [label="gini = 0.0\nsamples = 1\nvalue = [1, 0]"] ;
325 -> 326 ;
327 [label="gini = 0.0\nsamples = 1\nvalue = [0, 1]"] ;
325 -> 327 ;
328 [label="my_board_total_health <= 3.5\ngini = 0.245\nsamples = 7\nvalue = [1, 6]"] ;
322 -> 328 ;
329 [label="gini = 0.0\nsamples = 1\nvalue = [1, 0]"] ;
328 -> 329 ;
330 [label="gini = 0.0\nsamples = 6\nvalue = [0, 6]"] ;
328 -> 330 ;
331 [label="opponent_health <= 28.5\ngini = 0.169\nsamples = 86\nvalue = [8, 78]"] ;
321 -> 331 ;
332 [label="opponent_hand <= 3.5\ngini = 0.134\nsamples = 83\nvalue = [6, 77]"] ;
331 -> 332 ;
333 [label="my_board_total_attack <= 8.5\ngini = 0.32\nsamples = 20\nvalue = [4, 16]"] ;
332 -> 333 ;
334 [label="opponent_health <= 6.5\ngini = 0.266\nsamples = 19\nvalue = [3, 16]"] ;
333 -> 334 ;
335 [label="gini = 0.0\nsamples = 1\nvalue = [1, 0]"] ;
334 -> 335 ;
336 [label="opponent_hand <= 2.5\ngini = 0.198\nsamples = 18\nvalue = [2, 16]"] ;
334 -> 336 ;
337 [label="gini = 0.0\nsamples = 8\nvalue = [0, 8]"] ;
336 -> 337 ;
338 [label="my_health <= 22.5\ngini = 0.32\nsamples = 10\nvalue = [2, 8]"] ;
336 -> 338 ;
339 [label="my_hand <= 2.5\ngini = 0.48\nsamples = 5\nvalue = [2, 3]"] ;
338 -> 339 ;
340 [label="gini = 0.0\nsamples = 2\nvalue = [2, 0]"] ;
339 -> 340 ;
341 [label="gini = 0.0\nsamples = 3\nvalue = [0, 3]"] ;
339 -> 341 ;
342 [label="gini = 0.0\nsamples = 5\nvalue = [0, 5]"] ;
338 -> 342 ;
343 [label="gini = 0.0\nsamples = 1\nvalue = [1, 0]"] ;
333 -> 343 ;
344 [label="my_board_total_attack <= 11.5\ngini = 0.061\nsamples = 63\nvalue = [2, 61]"] ;
332 -> 344 ;
345 [label="opponent_health <= 23.5\ngini = 0.032\nsamples = 61\nvalue = [1, 60]"] ;
344 -> 345 ;
346 [label="gini = 0.0\nsamples = 52\nvalue = [0, 52]"] ;
345 -> 346 ;
347 [label="opponent_health <= 24.5\ngini = 0.198\nsamples = 9\nvalue = [1, 8]"] ;
345 -> 347 ;
348 [label="gini = 0.0\nsamples = 1\nvalue = [1, 0]"] ;
347 -> 348 ;
349 [label="gini = 0.0\nsamples = 8\nvalue = [0, 8]"] ;
347 -> 349 ;
350 [label="opponent_health <= 22.5\ngini = 0.5\nsamples = 2\nvalue = [1, 1]"] ;
344 -> 350 ;
351 [label="gini = 0.0\nsamples = 1\nvalue = [1, 0]"] ;
350 -> 351 ;
352 [label="gini = 0.0\nsamples = 1\nvalue = [0, 1]"] ;
350 -> 352 ;
353 [label="my_board_nb_creatures <= 3.5\ngini = 0.444\nsamples = 3\nvalue = [2, 1]"] ;
331 -> 353 ;
354 [label="gini = 0.0\nsamples = 2\nvalue = [2, 0]"] ;
353 -> 354 ;
355 [label="gini = 0.0\nsamples = 1\nvalue = [0, 1]"] ;
353 -> 355 ;
356 [label="opponent_health <= 7.5\ngini = 0.075\nsamples = 205\nvalue = [8, 197]"] ;
320 -> 356 ;
357 [label="my_health <= 19.5\ngini = 0.444\nsamples = 6\nvalue = [2, 4]"] ;
356 -> 357 ;
358 [label="gini = 0.0\nsamples = 2\nvalue = [2, 0]"] ;
357 -> 358 ;
359 [label="gini = 0.0\nsamples = 4\nvalue = [0, 4]"] ;
357 -> 359 ;
360 [label="my_board_total_attack <= 18.5\ngini = 0.058\nsamples = 199\nvalue = [6, 193]"] ;
356 -> 360 ;
361 [label="my_hand <= 2.5\ngini = 0.041\nsamples = 192\nvalue = [4, 188]"] ;
360 -> 361 ;
362 [label="me_playing <= 0.5\ngini = 0.142\nsamples = 39\nvalue = [3, 36]"] ;
361 -> 362 ;
363 [label="my_board_nb_creatures <= 5.0\ngini = 0.444\nsamples = 3\nvalue = [1, 2]"] ;
362 -> 363 ;
364 [label="gini = 0.0\nsamples = 2\nvalue = [0, 2]"] ;
363 -> 364 ;
365 [label="gini = 0.0\nsamples = 1\nvalue = [1, 0]"] ;
363 -> 365 ;
366 [label="opponent_hand <= 4.5\ngini = 0.105\nsamples = 36\nvalue = [2, 34]"] ;
362 -> 366 ;
367 [label="gini = 0.0\nsamples = 19\nvalue = [0, 19]"] ;
366 -> 367 ;
368 [label="my_health <= 16.5\ngini = 0.208\nsamples = 17\nvalue = [2, 15]"] ;
366 -> 368 ;
369 [label="my_board_nb_creatures <= 3.5\ngini = 0.5\nsamples = 2\nvalue = [1, 1]"] ;
368 -> 369 ;
370 [label="gini = 0.0\nsamples = 1\nvalue = [0, 1]"] ;
369 -> 370 ;
371 [label="gini = 0.0\nsamples = 1\nvalue = [1, 0]"] ;
369 -> 371 ;
372 [label="my_health <= 29.0\ngini = 0.124\nsamples = 15\nvalue = [1, 14]"] ;
368 -> 372 ;
373 [label="gini = 0.0\nsamples = 9\nvalue = [0, 9]"] ;
372 -> 373 ;
374 [label="opponent_health <= 17.5\ngini = 0.278\nsamples = 6\nvalue = [1, 5]"] ;
372 -> 374 ;
375 [label="opponent_hand <= 5.5\ngini = 0.5\nsamples = 2\nvalue = [1, 1]"] ;
374 -> 375 ;
376 [label="gini = 0.0\nsamples = 1\nvalue = [0, 1]"] ;
375 -> 376 ;
377 [label="gini = 0.0\nsamples = 1\nvalue = [1, 0]"] ;
375 -> 377 ;
378 [label="gini = 0.0\nsamples = 4\nvalue = [0, 4]"] ;
374 -> 378 ;
379 [label="my_board_total_health <= 7.5\ngini = 0.013\nsamples = 153\nvalue = [1, 152]"] ;
361 -> 379 ;
380 [label="my_health <= 29.0\ngini = 0.087\nsamples = 22\nvalue = [1, 21]"] ;
379 -> 380 ;
381 [label="gini = 0.0\nsamples = 17\nvalue = [0, 17]"] ;
380 -> 381 ;
382 [label="opponent_health <= 20.5\ngini = 0.32\nsamples = 5\nvalue = [1, 4]"] ;
380 -> 382 ;
383 [label="gini = 0.0\nsamples = 4\nvalue = [0, 4]"] ;
382 -> 383 ;
384 [label="gini = 0.0\nsamples = 1\nvalue = [1, 0]"] ;
382 -> 384 ;
385 [label="gini = 0.0\nsamples = 131\nvalue = [0, 131]"] ;
379 -> 385 ;
386 [label="opponent_hand <= 5.0\ngini = 0.408\nsamples = 7\nvalue = [2, 5]"] ;
360 -> 386 ;
387 [label="gini = 0.0\nsamples = 5\nvalue = [0, 5]"] ;
386 -> 387 ;
388 [label="gini = 0.0\nsamples = 2\nvalue = [2, 0]"] ;
386 -> 388 ;
389 [label="opponent_health <= 24.5\ngini = 0.362\nsamples = 253\nvalue = [60, 193]"] ;
315 -> 389 ;
390 [label="opponent_hand <= 5.5\ngini = 0.299\nsamples = 191\nvalue = [35, 156]"] ;
389 -> 390 ;
391 [label="my_health <= 6.5\ngini = 0.235\nsamples = 147\nvalue = [20, 127]"] ;
390 -> 391 ;
392 [label="gini = 0.0\nsamples = 2\nvalue = [2, 0]"] ;
391 -> 392 ;
393 [label="my_hand <= 0.5\ngini = 0.217\nsamples = 145\nvalue = [18, 127]"] ;
391 -> 393 ;
394 [label="opponent_board_total_attack <= 4.5\ngini = 0.49\nsamples = 7\nvalue = [4, 3]"] ;
393 -> 394 ;
395 [label="gini = 0.0\nsamples = 4\nvalue = [4, 0]"] ;
394 -> 395 ;
396 [label="gini = 0.0\nsamples = 3\nvalue = [0, 3]"] ;
394 -> 396 ;
397 [label="my_board_total_health <= 4.5\ngini = 0.182\nsamples = 138\nvalue = [14, 124]"] ;
393 -> 397 ;
398 [label="opponent_health <= 21.0\ngini = 0.444\nsamples = 15\nvalue = [5, 10]"] ;
397 -> 398 ;
399 [label="gini = 0.0\nsamples = 7\nvalue = [0, 7]"] ;
398 -> 399 ;
400 [label="my_health <= 24.5\ngini = 0.469\nsamples = 8\nvalue = [5, 3]"] ;
398 -> 400 ;
401 [label="gini = 0.0\nsamples = 4\nvalue = [4, 0]"] ;
400 -> 401 ;
402 [label="me_playing <= 0.5\ngini = 0.375\nsamples = 4\nvalue = [1, 3]"] ;
400 -> 402 ;
403 [label="gini = 0.0\nsamples = 3\nvalue = [0, 3]"] ;
402 -> 403 ;
404 [label="gini = 0.0\nsamples = 1\nvalue = [1, 0]"] ;
402 -> 404 ;
405 [label="my_board_total_health <= 23.0\ngini = 0.136\nsamples = 123\nvalue = [9, 114]"] ;
397 -> 405 ;
406 [label="my_board_total_attack <= 7.5\ngini = 0.123\nsamples = 122\nvalue = [8, 114]"] ;
405 -> 406 ;
407 [label="my_board_nb_creatures <= 5.5\ngini = 0.219\nsamples = 48\nvalue = [6, 42]"] ;
406 -> 407 ;
408 [label="my_hand <= 3.5\ngini = 0.19\nsamples = 47\nvalue = [5, 42]"] ;
407 -> 408 ;
409 [label="me_playing <= 0.5\ngini = 0.32\nsamples = 25\nvalue = [5, 20]"] ;
408 -> 409 ;
410 [label="gini = 0.0\nsamples = 11\nvalue = [0, 11]"] ;
409 -> 410 ;
411 [label="opponent_board_total_attack <= 2.5\ngini = 0.459\nsamples = 14\nvalue = [5, 9]"] ;
409 -> 411 ;
412 [label="gini = 0.0\nsamples = 5\nvalue = [0, 5]"] ;
411 -> 412 ;
413 [label="opponent_hand <= 3.5\ngini = 0.494\nsamples = 9\nvalue = [5, 4]"] ;
411 -> 413 ;
414 [label="opponent_board_nb_creatures <= 2.0\ngini = 0.49\nsamples = 7\nvalue = [3, 4]"] ;
413 -> 414 ;
415 [label="opponent_board_total_attack <= 5.0\ngini = 0.32\nsamples = 5\nvalue = [1, 4]"] ;
414 -> 415 ;
416 [label="gini = 0.0\nsamples = 4\nvalue = [0, 4]"] ;
415 -> 416 ;
417 [label="gini = 0.0\nsamples = 1\nvalue = [1, 0]"] ;
415 -> 417 ;
418 [label="gini = 0.0\nsamples = 2\nvalue = [2, 0]"] ;
414 -> 418 ;
419 [label="gini = 0.0\nsamples = 2\nvalue = [2, 0]"] ;
413 -> 419 ;
420 [label="gini = 0.0\nsamples = 22\nvalue = [0, 22]"] ;
408 -> 420 ;
421 [label="gini = 0.0\nsamples = 1\nvalue = [1, 0]"] ;
407 -> 421 ;
422 [label="my_hand <= 6.5\ngini = 0.053\nsamples = 74\nvalue = [2, 72]"] ;
406 -> 422 ;
423 [label="my_hand <= 4.5\ngini = 0.028\nsamples = 70\nvalue = [1, 69]"] ;
422 -> 423 ;
424 [label="gini = 0.0\nsamples = 53\nvalue = [0, 53]"] ;
423 -> 424 ;
425 [label="opponent_board_total_attack <= 4.5\ngini = 0.111\nsamples = 17\nvalue = [1, 16]"] ;
423 -> 425 ;
426 [label="gini = 0.0\nsamples = 13\nvalue = [0, 13]"] ;
425 -> 426 ;
427 [label="my_board_nb_creatures <= 3.5\ngini = 0.375\nsamples = 4\nvalue = [1, 3]"] ;
425 -> 427 ;
428 [label="gini = 0.0\nsamples = 3\nvalue = [0, 3]"] ;
427 -> 428 ;
429 [label="gini = 0.0\nsamples = 1\nvalue = [1, 0]"] ;
427 -> 429 ;
430 [label="me_playing <= 0.5\ngini = 0.375\nsamples = 4\nvalue = [1, 3]"] ;
422 -> 430 ;
431 [label="gini = 0.0\nsamples = 1\nvalue = [1, 0]"] ;
430 -> 431 ;
432 [label="gini = 0.0\nsamples = 3\nvalue = [0, 3]"] ;
430 -> 432 ;
433 [label="gini = 0.0\nsamples = 1\nvalue = [1, 0]"] ;
405 -> 433 ;
434 [label="opponent_health <= 12.0\ngini = 0.449\nsamples = 44\nvalue = [15, 29]"] ;
390 -> 434 ;
435 [label="gini = 0.0\nsamples = 6\nvalue = [6, 0]"] ;
434 -> 435 ;
436 [label="my_health <= 17.5\ngini = 0.361\nsamples = 38\nvalue = [9, 29]"] ;
434 -> 436 ;
437 [label="gini = 0.0\nsamples = 3\nvalue = [3, 0]"] ;
436 -> 437 ;
438 [label="my_board_total_attack <= 8.5\ngini = 0.284\nsamples = 35\nvalue = [6, 29]"] ;
436 -> 438 ;
439 [label="my_hand <= 5.0\ngini = 0.432\nsamples = 19\nvalue = [6, 13]"] ;
438 -> 439 ;
440 [label="my_health <= 23.0\ngini = 0.26\nsamples = 13\nvalue = [2, 11]"] ;
439 -> 440 ;
441 [label="gini = 0.0\nsamples = 1\nvalue = [1, 0]"] ;
440 -> 441 ;
442 [label="opponent_board_nb_creatures <= 1.5\ngini = 0.153\nsamples = 12\nvalue = [1, 11]"] ;
440 -> 442 ;
443 [label="gini = 0.0\nsamples = 10\nvalue = [0, 10]"] ;
442 -> 443 ;
444 [label="my_board_total_attack <= 7.5\ngini = 0.5\nsamples = 2\nvalue = [1, 1]"] ;
442 -> 444 ;
445 [label="gini = 0.0\nsamples = 1\nvalue = [1, 0]"] ;
444 -> 445 ;
446 [label="gini = 0.0\nsamples = 1\nvalue = [0, 1]"] ;
444 -> 446 ;
447 [label="opponent_board_total_attack <= 2.5\ngini = 0.444\nsamples = 6\nvalue = [4, 2]"] ;
439 -> 447 ;
448 [label="gini = 0.0\nsamples = 2\nvalue = [0, 2]"] ;
447 -> 448 ;
449 [label="gini = 0.0\nsamples = 4\nvalue = [4, 0]"] ;
447 -> 449 ;
450 [label="gini = 0.0\nsamples = 16\nvalue = [0, 16]"] ;
438 -> 450 ;
451 [label="me_playing <= 0.5\ngini = 0.481\nsamples = 62\nvalue = [25, 37]"] ;
389 -> 451 ;
452 [label="my_health <= 17.5\ngini = 0.278\nsamples = 24\nvalue = [4, 20]"] ;
451 -> 452 ;
453 [label="opponent_hand <= 2.5\ngini = 0.463\nsamples = 11\nvalue = [4, 7]"] ;
452 -> 453 ;
454 [label="my_hand <= 1.5\ngini = 0.346\nsamples = 9\nvalue = [2, 7]"] ;
453 -> 454 ;
455 [label="gini = 0.0\nsamples = 1\nvalue = [1, 0]"] ;
454 -> 455 ;
456 [label="my_hand <= 6.0\ngini = 0.219\nsamples = 8\nvalue = [1, 7]"] ;
454 -> 456 ;
457 [label="gini = 0.0\nsamples = 7\nvalue = [0, 7]"] ;
456 -> 457 ;
458 [label="gini = 0.0\nsamples = 1\nvalue = [1, 0]"] ;
456 -> 458 ;
459 [label="gini = 0.0\nsamples = 2\nvalue = [2, 0]"] ;
453 -> 459 ;
460 [label="gini = 0.0\nsamples = 13\nvalue = [0, 13]"] ;
452 -> 460 ;
461 [label="my_health <= 9.5\ngini = 0.494\nsamples = 38\nvalue = [21, 17]"] ;
451 -> 461 ;
462 [label="gini = 0.0\nsamples = 3\nvalue = [0, 3]"] ;
461 -> 462 ;
463 [label="my_health <= 21.5\ngini = 0.48\nsamples = 35\nvalue = [21, 14]"] ;
461 -> 463 ;
464 [label="opponent_board_total_attack <= 0.5\ngini = 0.305\nsamples = 16\nvalue = [13, 3]"] ;
463 -> 464 ;
465 [label="gini = 0.0\nsamples = 2\nvalue = [0, 2]"] ;
464 -> 465 ;
466 [label="my_board_total_attack <= 9.0\ngini = 0.133\nsamples = 14\nvalue = [13, 1]"] ;
464 -> 466 ;
467 [label="gini = 0.0\nsamples = 9\nvalue = [9, 0]"] ;
466 -> 467 ;
468 [label="my_board_total_health <= 9.0\ngini = 0.32\nsamples = 5\nvalue = [4, 1]"] ;
466 -> 468 ;
469 [label="gini = 0.0\nsamples = 1\nvalue = [0, 1]"] ;
468 -> 469 ;
470 [label="gini = 0.0\nsamples = 4\nvalue = [4, 0]"] ;
468 -> 470 ;
471 [label="my_board_total_health <= 4.5\ngini = 0.488\nsamples = 19\nvalue = [8, 11]"] ;
463 -> 471 ;
472 [label="gini = 0.0\nsamples = 2\nvalue = [2, 0]"] ;
471 -> 472 ;
473 [label="my_board_nb_creatures <= 2.5\ngini = 0.457\nsamples = 17\nvalue = [6, 11]"] ;
471 -> 473 ;
474 [label="opponent_hand <= 2.5\ngini = 0.245\nsamples = 7\nvalue = [1, 6]"] ;
473 -> 474 ;
475 [label="gini = 0.0\nsamples = 1\nvalue = [1, 0]"] ;
474 -> 475 ;
476 [label="gini = 0.0\nsamples = 6\nvalue = [0, 6]"] ;
474 -> 476 ;
477 [label="opponent_health <= 27.0\ngini = 0.5\nsamples = 10\nvalue = [5, 5]"] ;
473 -> 477 ;
478 [label="gini = 0.0\nsamples = 3\nvalue = [0, 3]"] ;
477 -> 478 ;
479 [label="my_board_total_health <= 12.5\ngini = 0.408\nsamples = 7\nvalue = [5, 2]"] ;
477 -> 479 ;
480 [label="gini = 0.0\nsamples = 5\nvalue = [5, 0]"] ;
479 -> 480 ;
481 [label="gini = 0.0\nsamples = 2\nvalue = [0, 2]"] ;
479 -> 481 ;
482 [label="opponent_health <= 22.5\ngini = 0.496\nsamples = 200\nvalue = [109, 91]"] ;
274 -> 482 ;
483 [label="my_board_total_attack <= 4.5\ngini = 0.482\nsamples = 111\nvalue = [45, 66]"] ;
482 -> 483 ;
484 [label="my_health <= 23.0\ngini = 0.346\nsamples = 18\nvalue = [14, 4]"] ;
483 -> 484 ;
485 [label="gini = 0.0\nsamples = 10\nvalue = [10, 0]"] ;
484 -> 485 ;
486 [label="opponent_board_total_health <= 9.0\ngini = 0.5\nsamples = 8\nvalue = [4, 4]"] ;
484 -> 486 ;
487 [label="gini = 0.0\nsamples = 3\nvalue = [0, 3]"] ;
486 -> 487 ;
488 [label="opponent_board_nb_creatures <= 2.5\ngini = 0.32\nsamples = 5\nvalue = [4, 1]"] ;
486 -> 488 ;
489 [label="gini = 0.0\nsamples = 1\nvalue = [0, 1]"] ;
488 -> 489 ;
490 [label="gini = 0.0\nsamples = 4\nvalue = [4, 0]"] ;
488 -> 490 ;
491 [label="my_board_nb_creatures <= 2.5\ngini = 0.444\nsamples = 93\nvalue = [31, 62]"] ;
483 -> 491 ;
492 [label="my_board_total_attack <= 12.0\ngini = 0.271\nsamples = 31\nvalue = [5, 26]"] ;
491 -> 492 ;
493 [label="my_hand <= 1.5\ngini = 0.231\nsamples = 30\nvalue = [4, 26]"] ;
492 -> 493 ;
494 [label="my_health <= 15.0\ngini = 0.5\nsamples = 4\nvalue = [2, 2]"] ;
493 -> 494 ;
495 [label="gini = 0.0\nsamples = 1\nvalue = [0, 1]"] ;
494 -> 495 ;
496 [label="opponent_hand <= 1.0\ngini = 0.444\nsamples = 3\nvalue = [2, 1]"] ;
494 -> 496 ;
497 [label="gini = 0.0\nsamples = 1\nvalue = [0, 1]"] ;
496 -> 497 ;
498 [label="gini = 0.0\nsamples = 2\nvalue = [2, 0]"] ;
496 -> 498 ;
499 [label="my_health <= 27.5\ngini = 0.142\nsamples = 26\nvalue = [2, 24]"] ;
493 -> 499 ;
500 [label="gini = 0.0\nsamples = 19\nvalue = [0, 19]"] ;
499 -> 500 ;
501 [label="opponent_hand <= 4.5\ngini = 0.408\nsamples = 7\nvalue = [2, 5]"] ;
499 -> 501 ;
502 [label="my_board_total_attack <= 8.5\ngini = 0.444\nsamples = 3\nvalue = [2, 1]"] ;
501 -> 502 ;
503 [label="gini = 0.0\nsamples = 2\nvalue = [2, 0]"] ;
502 -> 503 ;
504 [label="gini = 0.0\nsamples = 1\nvalue = [0, 1]"] ;
502 -> 504 ;
505 [label="gini = 0.0\nsamples = 4\nvalue = [0, 4]"] ;
501 -> 505 ;
506 [label="gini = 0.0\nsamples = 1\nvalue = [1, 0]"] ;
492 -> 506 ;
507 [label="my_board_nb_creatures <= 3.5\ngini = 0.487\nsamples = 62\nvalue = [26, 36]"] ;
491 -> 507 ;
508 [label="my_health <= 21.5\ngini = 0.484\nsamples = 34\nvalue = [20, 14]"] ;
507 -> 508 ;
509 [label="my_hand <= 8.5\ngini = 0.346\nsamples = 18\nvalue = [14, 4]"] ;
508 -> 509 ;
510 [label="opponent_board_total_health <= 7.5\ngini = 0.291\nsamples = 17\nvalue = [14, 3]"] ;
509 -> 510 ;
511 [label="opponent_board_total_health <= 6.5\ngini = 0.49\nsamples = 7\nvalue = [4, 3]"] ;
510 -> 511 ;
512 [label="my_hand <= 3.5\ngini = 0.32\nsamples = 5\nvalue = [4, 1]"] ;
511 -> 512 ;
513 [label="opponent_board_total_attack <= 7.5\ngini = 0.5\nsamples = 2\nvalue = [1, 1]"] ;
512 -> 513 ;
514 [label="gini = 0.0\nsamples = 1\nvalue = [0, 1]"] ;
513 -> 514 ;
515 [label="gini = 0.0\nsamples = 1\nvalue = [1, 0]"] ;
513 -> 515 ;
516 [label="gini = 0.0\nsamples = 3\nvalue = [3, 0]"] ;
512 -> 516 ;
517 [label="gini = 0.0\nsamples = 2\nvalue = [0, 2]"] ;
511 -> 517 ;
518 [label="gini = 0.0\nsamples = 10\nvalue = [10, 0]"] ;
510 -> 518 ;
519 [label="gini = 0.0\nsamples = 1\nvalue = [0, 1]"] ;
509 -> 519 ;
520 [label="opponent_board_total_attack <= 12.5\ngini = 0.469\nsamples = 16\nvalue = [6, 10]"] ;
508 -> 520 ;
521 [label="opponent_board_total_health <= 3.5\ngini = 0.278\nsamples = 12\nvalue = [2, 10]"] ;
520 -> 521 ;
522 [label="gini = 0.0\nsamples = 1\nvalue = [1, 0]"] ;
521 -> 522 ;
523 [label="my_board_total_attack <= 5.5\ngini = 0.165\nsamples = 11\nvalue = [1, 10]"] ;
521 -> 523 ;
524 [label="opponent_hand <= 3.5\ngini = 0.5\nsamples = 2\nvalue = [1, 1]"] ;
523 -> 524 ;
525 [label="gini = 0.0\nsamples = 1\nvalue = [0, 1]"] ;
524 -> 525 ;
526 [label="gini = 0.0\nsamples = 1\nvalue = [1, 0]"] ;
524 -> 526 ;
527 [label="gini = 0.0\nsamples = 9\nvalue = [0, 9]"] ;
523 -> 527 ;
528 [label="gini = 0.0\nsamples = 4\nvalue = [4, 0]"] ;
520 -> 528 ;
529 [label="opponent_health <= 9.0\ngini = 0.337\nsamples = 28\nvalue = [6, 22]"] ;
507 -> 529 ;
530 [label="my_hand <= 1.0\ngini = 0.375\nsamples = 4\nvalue = [3, 1]"] ;
529 -> 530 ;
531 [label="gini = 0.0\nsamples = 1\nvalue = [0, 1]"] ;
530 -> 531 ;
532 [label="gini = 0.0\nsamples = 3\nvalue = [3, 0]"] ;
530 -> 532 ;
533 [label="my_board_total_health <= 12.5\ngini = 0.219\nsamples = 24\nvalue = [3, 21]"] ;
529 -> 533 ;
534 [label="gini = 0.0\nsamples = 13\nvalue = [0, 13]"] ;
533 -> 534 ;
535 [label="opponent_board_total_attack <= 8.5\ngini = 0.397\nsamples = 11\nvalue = [3, 8]"] ;
533 -> 535 ;
536 [label="gini = 0.0\nsamples = 7\nvalue = [0, 7]"] ;
535 -> 536 ;
537 [label="opponent_hand <= 2.5\ngini = 0.375\nsamples = 4\nvalue = [3, 1]"] ;
535 -> 537 ;
538 [label="gini = 0.0\nsamples = 3\nvalue = [3, 0]"] ;
537 -> 538 ;
539 [label="gini = 0.0\nsamples = 1\nvalue = [0, 1]"] ;
537 -> 539 ;
540 [label="my_health <= 26.5\ngini = 0.404\nsamples = 89\nvalue = [64, 25]"] ;
482 -> 540 ;
541 [label="my_board_total_health <= 11.5\ngini = 0.329\nsamples = 77\nvalue = [61, 16]"] ;
540 -> 541 ;
542 [label="my_health <= 21.5\ngini = 0.278\nsamples = 66\nvalue = [55, 11]"] ;
541 -> 542 ;
543 [label="opponent_board_total_health <= 28.0\ngini = 0.183\nsamples = 49\nvalue = [44, 5]"] ;
542 -> 543 ;
544 [label="my_board_total_health <= 7.5\ngini = 0.153\nsamples = 48\nvalue = [44, 4]"] ;
543 -> 544 ;
545 [label="gini = 0.0\nsamples = 27\nvalue = [27, 0]"] ;
544 -> 545 ;
546 [label="opponent_board_total_attack <= 7.5\ngini = 0.308\nsamples = 21\nvalue = [17, 4]"] ;
544 -> 546 ;
547 [label="opponent_hand <= 0.5\ngini = 0.444\nsamples = 3\nvalue = [1, 2]"] ;
546 -> 547 ;
548 [label="gini = 0.0\nsamples = 1\nvalue = [1, 0]"] ;
547 -> 548 ;
549 [label="gini = 0.0\nsamples = 2\nvalue = [0, 2]"] ;
547 -> 549 ;
550 [label="opponent_board_nb_creatures <= 4.5\ngini = 0.198\nsamples = 18\nvalue = [16, 2]"] ;
546 -> 550 ;
551 [label="opponent_board_total_health <= 9.5\ngini = 0.375\nsamples = 8\nvalue = [6, 2]"] ;
550 -> 551 ;
552 [label="gini = 0.0\nsamples = 5\nvalue = [5, 0]"] ;
551 -> 552 ;
553 [label="opponent_board_nb_creatures <= 2.5\ngini = 0.444\nsamples = 3\nvalue = [1, 2]"] ;
551 -> 553 ;
554 [label="gini = 0.0\nsamples = 1\nvalue = [1, 0]"] ;
553 -> 554 ;
555 [label="gini = 0.0\nsamples = 2\nvalue = [0, 2]"] ;
553 -> 555 ;
556 [label="gini = 0.0\nsamples = 10\nvalue = [10, 0]"] ;
550 -> 556 ;
557 [label="gini = 0.0\nsamples = 1\nvalue = [0, 1]"] ;
543 -> 557 ;
558 [label="me_playing <= 0.5\ngini = 0.457\nsamples = 17\nvalue = [11, 6]"] ;
542 -> 558 ;
559 [label="my_board_total_attack <= 2.5\ngini = 0.408\nsamples = 7\nvalue = [2, 5]"] ;
558 -> 559 ;
560 [label="gini = 0.0\nsamples = 1\nvalue = [1, 0]"] ;
559 -> 560 ;
561 [label="my_health <= 24.5\ngini = 0.278\nsamples = 6\nvalue = [1, 5]"] ;
559 -> 561 ;
562 [label="gini = 0.0\nsamples = 4\nvalue = [0, 4]"] ;
561 -> 562 ;
563 [label="opponent_health <= 24.0\ngini = 0.5\nsamples = 2\nvalue = [1, 1]"] ;
561 -> 563 ;
564 [label="gini = 0.0\nsamples = 1\nvalue = [0, 1]"] ;
563 -> 564 ;
565 [label="gini = 0.0\nsamples = 1\nvalue = [1, 0]"] ;
563 -> 565 ;
566 [label="my_board_total_attack <= 1.5\ngini = 0.18\nsamples = 10\nvalue = [9, 1]"] ;
558 -> 566 ;
567 [label="gini = 0.0\nsamples = 1\nvalue = [0, 1]"] ;
566 -> 567 ;
568 [label="gini = 0.0\nsamples = 9\nvalue = [9, 0]"] ;
566 -> 568 ;
569 [label="my_board_nb_creatures <= 3.5\ngini = 0.496\nsamples = 11\nvalue = [6, 5]"] ;
541 -> 569 ;
570 [label="my_health <= 11.5\ngini = 0.375\nsamples = 8\nvalue = [6, 2]"] ;
569 -> 570 ;
571 [label="opponent_board_total_attack <= 12.5\ngini = 0.444\nsamples = 3\nvalue = [1, 2]"] ;
570 -> 571 ;
572 [label="gini = 0.0\nsamples = 2\nvalue = [0, 2]"] ;
571 -> 572 ;
573 [label="gini = 0.0\nsamples = 1\nvalue = [1, 0]"] ;
571 -> 573 ;
574 [label="gini = 0.0\nsamples = 5\nvalue = [5, 0]"] ;
570 -> 574 ;
575 [label="gini = 0.0\nsamples = 3\nvalue = [0, 3]"] ;
569 -> 575 ;
576 [label="opponent_health <= 23.5\ngini = 0.375\nsamples = 12\nvalue = [3, 9]"] ;
540 -> 576 ;
577 [label="my_board_nb_creatures <= 2.5\ngini = 0.48\nsamples = 5\nvalue = [3, 2]"] ;
576 -> 577 ;
578 [label="gini = 0.0\nsamples = 3\nvalue = [3, 0]"] ;
577 -> 578 ;
579 [label="gini = 0.0\nsamples = 2\nvalue = [0, 2]"] ;
577 -> 579 ;
580 [label="gini = 0.0\nsamples = 7\nvalue = [0, 7]"] ;
576 -> 580 ;
}