digraph Tree {
node [shape=box] ;
0 [label="opponent_board_total_attack <= 4.5\ngini = 0.495\nsamples = 1434\nvalue = [647, 787]"] ;
1 [label="my_board_total_attack <= 3.5\ngini = 0.387\nsamples = 769\nvalue = [202, 567]"] ;
0 -> 1 [labeldistance=2.5, labelangle=45, headlabel="True"] ;
2 [label="opponent_health <= 19.5\ngini = 0.5\nsamples = 218\nvalue = [110, 108]"] ;
1 -> 2 ;
3 [label="opponent_hand <= 7.5\ngini = 0.458\nsamples = 93\nvalue = [33, 60]"] ;
2 -> 3 ;
4 [label="my_hand <= 2.5\ngini = 0.431\nsamples = 86\nvalue = [27, 59]"] ;
3 -> 4 ;
5 [label="opponent_health <= 12.5\ngini = 0.5\nsamples = 36\nvalue = [18, 18]"] ;
4 -> 5 ;
6 [label="opponent_health <= 7.0\ngini = 0.401\nsamples = 18\nvalue = [5, 13]"] ;
5 -> 6 ;
7 [label="my_board_total_attack <= 1.5\ngini = 0.5\nsamples = 8\nvalue = [4, 4]"] ;
6 -> 7 ;
8 [label="gini = 0.0\nsamples = 4\nvalue = [0, 4]"] ;
7 -> 8 ;
9 [label="gini = 0.0\nsamples = 4\nvalue = [4, 0]"] ;
7 -> 9 ;
10 [label="my_board_total_attack <= 1.0\ngini = 0.18\nsamples = 10\nvalue = [1, 9]"] ;
6 -> 10 ;
11 [label="opponent_board_nb_creatures <= 1.5\ngini = 0.5\nsamples = 2\nvalue = [1, 1]"] ;
10 -> 11 ;
12 [label="gini = 0.0\nsamples = 1\nvalue = [1, 0]"] ;
11 -> 12 ;
13 [label="gini = 0.0\nsamples = 1\nvalue = [0, 1]"] ;
11 -> 13 ;
14 [label="gini = 0.0\nsamples = 8\nvalue = [0, 8]"] ;
10 -> 14 ;
15 [label="my_health <= 28.5\ngini = 0.401\nsamples = 18\nvalue = [13, 5]"] ;
5 -> 15 ;
16 [label="opponent_board_total_attack <= 0.5\ngini = 0.245\nsamples = 14\nvalue = [12, 2]"] ;
15 -> 16 ;
17 [label="opponent_hand <= 3.5\ngini = 0.375\nsamples = 8\nvalue = [6, 2]"] ;
16 -> 17 ;
18 [label="opponent_hand <= 2.5\ngini = 0.48\nsamples = 5\nvalue = [3, 2]"] ;
17 -> 18 ;
19 [label="gini = 0.0\nsamples = 2\nvalue = [2, 0]"] ;
18 -> 19 ;
20 [label="my_hand <= 0.5\ngini = 0.444\nsamples = 3\nvalue = [1, 2]"] ;
18 -> 20 ;
21 [label="gini = 0.0\nsamples = 1\nvalue = [1, 0]"] ;
20 -> 21 ;
22 [label="gini = 0.0\nsamples = 2\nvalue = [0, 2]"] ;
20 -> 22 ;
23 [label="gini = 0.0\nsamples = 3\nvalue = [3, 0]"] ;
17 -> 23 ;
24 [label="gini = 0.0\nsamples = 6\nvalue = [6, 0]"] ;
16 -> 24 ;
25 [label="opponent_hand <= 6.0\ngini = 0.375\nsamples = 4\nvalue = [1, 3]"] ;
15 -> 25 ;
26 [label="gini = 0.0\nsamples = 3\nvalue = [0, 3]"] ;
25 -> 26 ;
27 [label="gini = 0.0\nsamples = 1\nvalue = [1, 0]"] ;
25 -> 27 ;
28 [label="my_board_total_attack <= 0.5\ngini = 0.295\nsamples = 50\nvalue = [9, 41]"] ;
4 -> 28 ;
29 [label="my_health <= 13.5\ngini = 0.472\nsamples = 21\nvalue = [8, 13]"] ;
28 -> 29 ;
30 [label="my_hand <= 5.5\ngini = 0.32\nsamples = 5\nvalue = [4, 1]"] ;
29 -> 30 ;
31 [label="gini = 0.0\nsamples = 4\nvalue = [4, 0]"] ;
30 -> 31 ;
32 [label="gini = 0.0\nsamples = 1\nvalue = [0, 1]"] ;
30 -> 32 ;
33 [label="my_hand <= 4.5\ngini = 0.375\nsamples = 16\nvalue = [4, 12]"] ;
29 -> 33 ;
34 [label="opponent_hand <= 3.5\ngini = 0.48\nsamples = 10\nvalue = [4, 6]"] ;
33 -> 34 ;
35 [label="opponent_hand <= 1.5\ngini = 0.278\nsamples = 6\nvalue = [1, 5]"] ;
34 -> 35 ;
36 [label="opponent_board_total_attack <= 2.0\ngini = 0.5\nsamples = 2\nvalue = [1, 1]"] ;
35 -> 36 ;
37 [label="gini = 0.0\nsamples = 1\nvalue = [0, 1]"] ;
36 -> 37 ;
38 [label="gini = 0.0\nsamples = 1\nvalue = [1, 0]"] ;
36 -> 38 ;
39 [label="gini = 0.0\nsamples = 4\nvalue = [0, 4]"] ;
35 -> 39 ;
40 [label="opponent_hand <= 5.0\ngini = 0.375\nsamples = 4\nvalue = [3, 1]"] ;
34 -> 40 ;
41 [label="gini = 0.0\nsamples = 3\nvalue = [3, 0]"] ;
40 -> 41 ;
42 [label="gini = 0.0\nsamples = 1\nvalue = [0, 1]"] ;
40 -> 42 ;
43 [label="gini = 0.0\nsamples = 6\nvalue = [0, 6]"] ;
33 -> 43 ;
44 [label="my_board_total_health <= 5.0\ngini = 0.067\nsamples = 29\nvalue = [1, 28]"] ;
28 -> 44 ;
45 [label="gini = 0.0\nsamples = 24\nvalue = [0, 24]"] ;
44 -> 45 ;
46 [label="my_hand <= 4.0\ngini = 0.32\nsamples = 5\nvalue = [1, 4]"] ;
44 -> 46 ;
47 [label="gini = 0.0\nsamples = 1\nvalue = [1, 0]"] ;
46 -> 47 ;
48 [label="gini = 0.0\nsamples = 4\nvalue = [0, 4]"] ;
46 -> 48 ;
49 [label="opponent_health <= 17.5\ngini = 0.245\nsamples = 7\nvalue = [6, 1]"] ;
3 -> 49 ;
50 [label="gini = 0.0\nsamples = 6\nvalue = [6, 0]"] ;
49 -> 50 ;
51 [label="gini = 0.0\nsamples = 1\nvalue = [0, 1]"] ;
49 -> 51 ;
52 [label="my_health <= 28.5\ngini = 0.473\nsamples = 125\nvalue = [77, 48]"] ;
2 -> 52 ;
53 [label="my_hand <= 7.5\ngini = 0.435\nsamples = 97\nvalue = [66, 31]"] ;
52 -> 53 ;
54 [label="opponent_board_total_attack <= 1.5\ngini = 0.408\nsamples = 91\nvalue = [65, 26]"] ;
53 -> 54 ;
55 [label="my_hand <= 6.5\ngini = 0.484\nsamples = 39\nvalue = [23, 16]"] ;
54 -> 55 ;
56 [label="my_hand <= 0.5\ngini = 0.496\nsamples = 35\nvalue = [19, 16]"] ;
55 -> 56 ;
57 [label="gini = 0.0\nsamples = 3\nvalue = [3, 0]"] ;
56 -> 57 ;
58 [label="my_health <= 10.5\ngini = 0.5\nsamples = 32\nvalue = [16, 16]"] ;
56 -> 58 ;
59 [label="opponent_board_total_health <= 1.5\ngini = 0.278\nsamples = 6\nvalue = [1, 5]"] ;
58 -> 59 ;
60 [label="gini = 0.0\nsamples = 5\nvalue = [0, 5]"] ;
59 -> 60 ;
61 [label="gini = 0.0\nsamples = 1\nvalue = [1, 0]"] ;
59 -> 61 ;
62 [label="my_health <= 20.5\ngini = 0.488\nsamples = 26\nvalue = [15, 11]"] ;
58 -> 62 ;
63 [label="opponent_health <= 29.0\ngini = 0.355\nsamples = 13\nvalue = [10, 3]"] ;
62 -> 63 ;
64 [label="my_board_nb_creatures <= 1.5\ngini = 0.165\nsamples = 11\nvalue = [10, 1]"] ;
63 -> 64 ;
65 [label="gini = 0.0\nsamples = 10\nvalue = [10, 0]"] ;
64 -> 65 ;
66 [label="gini = 0.0\nsamples = 1\nvalue = [0, 1]"] ;
64 -> 66 ;
67 [label="gini = 0.0\nsamples = 2\nvalue = [0, 2]"] ;
63 -> 67 ;
68 [label="my_health <= 23.0\ngini = 0.473\nsamples = 13\nvalue = [5, 8]"] ;
62 -> 68 ;
69 [label="gini = 0.0\nsamples = 3\nvalue = [0, 3]"] ;
68 -> 69 ;
70 [label="opponent_health <= 22.5\ngini = 0.5\nsamples = 10\nvalue = [5, 5]"] ;
68 -> 70 ;
71 [label="gini = 0.0\nsamples = 2\nvalue = [2, 0]"] ;
70 -> 71 ;
72 [label="my_hand <= 3.5\ngini = 0.469\nsamples = 8\nvalue = [3, 5]"] ;
70 -> 72 ;
73 [label="gini = 0.0\nsamples = 4\nvalue = [0, 4]"] ;
72 -> 73 ;
74 [label="my_board_nb_creatures <= 2.5\ngini = 0.375\nsamples = 4\nvalue = [3, 1]"] ;
72 -> 74 ;
75 [label="gini = 0.0\nsamples = 3\nvalue = [3, 0]"] ;
74 -> 75 ;
76 [label="gini = 0.0\nsamples = 1\nvalue = [0, 1]"] ;
74 -> 76 ;
77 [label="gini = 0.0\nsamples = 4\nvalue = [4, 0]"] ;
55 -> 77 ;
78 [label="opponent_board_total_health <= 6.5\ngini = 0.311\nsamples = 52\nvalue = [42, 10]"] ;
54 -> 78 ;
79 [label="opponent_board_total_health <= 3.5\ngini = 0.273\nsamples = 49\nvalue = [41, 8]"] ;
78 -> 79 ;
80 [label="my_health <= 19.0\ngini = 0.383\nsamples = 31\nvalue = [23, 8]"] ;
79 -> 80 ;
81 [label="opponent_hand <= 3.5\ngini = 0.124\nsamples = 15\nvalue = [14, 1]"] ;
80 -> 81 ;
82 [label="gini = 0.0\nsamples = 12\nvalue = [12, 0]"] ;
81 -> 82 ;
83 [label="opponent_health <= 21.5\ngini = 0.444\nsamples = 3\nvalue = [2, 1]"] ;
81 -> 83 ;
84 [label="gini = 0.0\nsamples = 2\nvalue = [2, 0]"] ;
83 -> 84 ;
85 [label="gini = 0.0\nsamples = 1\nvalue = [0, 1]"] ;
83 -> 85 ;
86 [label="me_playing <= 0.5\ngini = 0.492\nsamples = 16\nvalue = [9, 7]"] ;
80 -> 86 ;
87 [label="opponent_board_total_attack <= 3.5\ngini = 0.245\nsamples = 7\nvalue = [1, 6]"] ;
86 -> 87 ;
88 [label="gini = 0.0\nsamples = 5\nvalue = [0, 5]"] ;
87 -> 88 ;
89 [label="opponent_health <= 25.0\ngini = 0.5\nsamples = 2\nvalue = [1, 1]"] ;
87 -> 89 ;
90 [label="gini = 0.0\nsamples = 1\nvalue = [0, 1]"] ;
89 -> 90 ;
91 [label="gini = 0.0\nsamples = 1\nvalue = [1, 0]"] ;
89 -> 91 ;
92 [label="my_health <= 21.5\ngini = 0.198\nsamples = 9\nvalue = [8, 1]"] ;
86 -> 92 ;
93 [label="gini = 0.0\nsamples = 1\nvalue = [0, 1]"] ;
92 -> 93 ;
94 [label="gini = 0.0\nsamples = 8\nvalue = [8, 0]"] ;
92 -> 94 ;
95 [label="gini = 0.0\nsamples = 18\nvalue = [18, 0]"] ;
79 -> 95 ;
96 [label="opponent_hand <= 6.5\ngini = 0.444\nsamples = 3\nvalue = [1, 2]"] ;
78 -> 96 ;
97 [label="gini = 0.0\nsamples = 2\nvalue = [0, 2]"] ;
96 -> 97 ;
98 [label="gini = 0.0\nsamples = 1\nvalue = [1, 0]"] ;
96 -> 98 ;
99 [label="my_board_nb_creatures <= 1.5\ngini = 0.278\nsamples = 6\nvalue = [1, 5]"] ;
53 -> 99 ;
100 [label="gini = 0.0\nsamples = 5\nvalue = [0, 5]"] ;
99 -> 100 ;
101 [label="gini = 0.0\nsamples = 1\nvalue = [1, 0]"] ;
99 -> 101 ;
102 [label="me_playing <= 0.5\ngini = 0.477\nsamples = 28\nvalue = [11, 17]"] ;
52 -> 102 ;
103 [label="opponent_board_total_health <= 8.5\ngini = 0.165\nsamples = 11\nvalue = [1, 10]"] ;
102 -> 103 ;
104 [label="gini = 0.0\nsamples = 10\nvalue = [0, 10]"] ;
103 -> 104 ;
105 [label="gini = 0.0\nsamples = 1\nvalue = [1, 0]"] ;
103 -> 105 ;
106 [label="opponent_board_total_attack <= 0.5\ngini = 0.484\nsamples = 17\nvalue = [10, 7]"] ;
102 -> 106 ;
107 [label="opponent_hand <= 4.5\ngini = 0.346\nsamples = 9\nvalue = [2, 7]"] ;
106 -> 107 ;
108 [label="opponent_hand <= 3.5\ngini = 0.5\nsamples = 4\nvalue = [2, 2]"] ;
107 -> 108 ;
109 [label="gini = 0.0\nsamples = 2\nvalue = [0, 2]"] ;
108 -> 109 ;
110 [label="gini = 0.0\nsamples = 2\nvalue = [2, 0]"] ;
108 -> 110 ;
111 [label="gini = 0.0\nsamples = 5\nvalue = [0, 5]"] ;
107 -> 111 ;
112 [label="gini = 0.0\nsamples = 8\nvalue = [8, 0]"] ;
106 -> 112 ;
113 [label="opponent_health <= 26.5\ngini = 0.278\nsamples = 551\nvalue = [92, 459]"] ;
1 -> 113 ;
114 [label="my_hand <= 0.5\ngini = 0.218\nsamples = 465\nvalue = [58, 407]"] ;
113 -> 114 ;
115 [label="opponent_board_nb_creatures <= 2.5\ngini = 0.408\nsamples = 7\nvalue = [5, 2]"] ;
114 -> 115 ;
116 [label="my_board_nb_creatures <= 2.5\ngini = 0.278\nsamples = 6\nvalue = [5, 1]"] ;
115 -> 116 ;
117 [label="gini = 0.0\nsamples = 1\nvalue = [0, 1]"] ;
116 -> 117 ;
118 [label="gini = 0.0\nsamples = 5\nvalue = [5, 0]"] ;
116 -> 118 ;
119 [label="gini = 0.0\nsamples = 1\nvalue = [0, 1]"] ;
115 -> 119 ;
120 [label="my_health <= 19.5\ngini = 0.205\nsamples = 458\nvalue = [53, 405]"] ;
114 -> 120 ;
121 [label="opponent_hand <= 5.5\ngini = 0.351\nsamples = 132\nvalue = [30, 102]"] ;
120 -> 121 ;
122 [label="my_board_total_attack <= 10.5\ngini = 0.299\nsamples = 120\nvalue = [22, 98]"] ;
121 -> 122 ;
123 [label="opponent_board_nb_creatures <= 1.5\ngini = 0.393\nsamples = 82\nvalue = [22, 60]"] ;
122 -> 123 ;
124 [label="opponent_health <= 21.5\ngini = 0.331\nsamples = 67\nvalue = [14, 53]"] ;
123 -> 124 ;
125 [label="my_board_total_health <= 4.5\ngini = 0.201\nsamples = 44\nvalue = [5, 39]"] ;
124 -> 125 ;
126 [label="my_hand <= 2.5\ngini = 0.444\nsamples = 9\nvalue = [3, 6]"] ;
125 -> 126 ;
127 [label="gini = 0.0\nsamples = 2\nvalue = [2, 0]"] ;
126 -> 127 ;
128 [label="my_health <= 10.0\ngini = 0.245\nsamples = 7\nvalue = [1, 6]"] ;
126 -> 128 ;
129 [label="gini = 0.0\nsamples = 1\nvalue = [1, 0]"] ;
128 -> 129 ;
130 [label="gini = 0.0\nsamples = 6\nvalue = [0, 6]"] ;
128 -> 130 ;
131 [label="my_health <= 5.0\ngini = 0.108\nsamples = 35\nvalue = [2, 33]"] ;
125 -> 131 ;
132 [label="my_health <= 2.5\ngini = 0.5\nsamples = 2\nvalue = [1, 1]"] ;
131 -> 132 ;
133 [label="gini = 0.0\nsamples = 1\nvalue = [0, 1]"] ;
132 -> 133 ;
134 [label="gini = 0.0\nsamples = 1\nvalue = [1, 0]"] ;
132 -> 134 ;
135 [label="my_board_total_attack <= 9.5\ngini = 0.059\nsamples = 33\nvalue = [1, 32]"] ;
131 -> 135 ;
136 [label="gini = 0.0\nsamples = 30\nvalue = [0, 30]"] ;
135 -> 136 ;
137 [label="opponent_health <= 19.0\ngini = 0.444\nsamples = 3\nvalue = [1, 2]"] ;
135 -> 137 ;
138 [label="gini = 0.0\nsamples = 1\nvalue = [1, 0]"] ;
137 -> 138 ;
139 [label="gini = 0.0\nsamples = 2\nvalue = [0, 2]"] ;
137 -> 139 ;
140 [label="my_hand <= 2.5\ngini = 0.476\nsamples = 23\nvalue = [9, 14]"] ;
124 -> 140 ;
141 [label="gini = 0.0\nsamples = 3\nvalue = [3, 0]"] ;
140 -> 141 ;
142 [label="me_playing <= 0.5\ngini = 0.42\nsamples = 20\nvalue = [6, 14]"] ;
140 -> 142 ;
143 [label="gini = 0.0\nsamples = 7\nvalue = [0, 7]"] ;
142 -> 143 ;
144 [label="my_health <= 16.0\ngini = 0.497\nsamples = 13\nvalue = [6, 7]"] ;
142 -> 144 ;
145 [label="my_board_total_attack <= 6.5\ngini = 0.408\nsamples = 7\nvalue = [5, 2]"] ;
144 -> 145 ;
146 [label="gini = 0.0\nsamples = 4\nvalue = [4, 0]"] ;
145 -> 146 ;
147 [label="opponent_hand <= 3.0\ngini = 0.444\nsamples = 3\nvalue = [1, 2]"] ;
145 -> 147 ;
148 [label="gini = 0.0\nsamples = 2\nvalue = [0, 2]"] ;
147 -> 148 ;
149 [label="gini = 0.0\nsamples = 1\nvalue = [1, 0]"] ;
147 -> 149 ;
150 [label="opponent_hand <= 2.0\ngini = 0.278\nsamples = 6\nvalue = [1, 5]"] ;
144 -> 150 ;
151 [label="gini = 0.0\nsamples = 1\nvalue = [1, 0]"] ;
150 -> 151 ;
152 [label="gini = 0.0\nsamples = 5\nvalue = [0, 5]"] ;
150 -> 152 ;
153 [label="opponent_hand <= 2.5\ngini = 0.498\nsamples = 15\nvalue = [8, 7]"] ;
123 -> 153 ;
154 [label="my_board_nb_creatures <= 2.5\ngini = 0.463\nsamples = 11\nvalue = [4, 7]"] ;
153 -> 154 ;
155 [label="opponent_health <= 24.5\ngini = 0.444\nsamples = 6\nvalue = [4, 2]"] ;
154 -> 155 ;
156 [label="gini = 0.0\nsamples = 4\nvalue = [4, 0]"] ;
155 -> 156 ;
157 [label="gini = 0.0\nsamples = 2\nvalue = [0, 2]"] ;
155 -> 157 ;
158 [label="gini = 0.0\nsamples = 5\nvalue = [0, 5]"] ;
154 -> 158 ;
159 [label="gini = 0.0\nsamples = 4\nvalue = [4, 0]"] ;
153 -> 159 ;
160 [label="gini = 0.0\nsamples = 38\nvalue = [0, 38]"] ;
122 -> 160 ;
161 [label="my_hand <= 5.5\ngini = 0.444\nsamples = 12\nvalue = [8, 4]"] ;
121 -> 161 ;
162 [label="my_board_total_attack <= 14.5\ngini = 0.219\nsamples = 8\nvalue = [7, 1]"] ;
161 -> 162 ;
163 [label="gini = 0.0\nsamples = 6\nvalue = [6, 0]"] ;
162 -> 163 ;
164 [label="my_hand <= 4.0\ngini = 0.5\nsamples = 2\nvalue = [1, 1]"] ;
162 -> 164 ;
165 [label="gini = 0.0\nsamples = 1\nvalue = [0, 1]"] ;
164 -> 165 ;
166 [label="gini = 0.0\nsamples = 1\nvalue = [1, 0]"] ;
164 -> 166 ;
167 [label="opponent_board_total_health <= 4.0\ngini = 0.375\nsamples = 4\nvalue = [1, 3]"] ;
161 -> 167 ;
168 [label="gini = 0.0\nsamples = 3\nvalue = [0, 3]"] ;
167 -> 168 ;
169 [label="gini = 0.0\nsamples = 1\nvalue = [1, 0]"] ;
167 -> 169 ;
170 [label="my_board_nb_creatures <= 1.5\ngini = 0.131\nsamples = 326\nvalue = [23, 303]"] ;
120 -> 170 ;
171 [label="me_playing <= 0.5\ngini = 0.353\nsamples = 35\nvalue = [8, 27]"] ;
170 -> 171 ;
172 [label="gini = 0.0\nsamples = 10\nvalue = [0, 10]"] ;
171 -> 172 ;
173 [label="opponent_hand <= 6.5\ngini = 0.435\nsamples = 25\nvalue = [8, 17]"] ;
171 -> 173 ;
174 [label="my_health <= 29.5\ngini = 0.386\nsamples = 23\nvalue = [6, 17]"] ;
173 -> 174 ;
175 [label="opponent_board_total_attack <= 3.5\ngini = 0.278\nsamples = 18\nvalue = [3, 15]"] ;
174 -> 175 ;
176 [label="my_hand <= 2.5\ngini = 0.133\nsamples = 14\nvalue = [1, 13]"] ;
175 -> 176 ;
177 [label="opponent_health <= 21.0\ngini = 0.5\nsamples = 2\nvalue = [1, 1]"] ;
176 -> 177 ;
178 [label="gini = 0.0\nsamples = 1\nvalue = [1, 0]"] ;
177 -> 178 ;
179 [label="gini = 0.0\nsamples = 1\nvalue = [0, 1]"] ;
177 -> 179 ;
180 [label="gini = 0.0\nsamples = 12\nvalue = [0, 12]"] ;
176 -> 180 ;
181 [label="my_board_total_health <= 4.5\ngini = 0.5\nsamples = 4\nvalue = [2, 2]"] ;
175 -> 181 ;
182 [label="gini = 0.0\nsamples = 1\nvalue = [1, 0]"] ;
181 -> 182 ;
183 [label="my_board_total_attack <= 5.5\ngini = 0.444\nsamples = 3\nvalue = [1, 2]"] ;
181 -> 183 ;
184 [label="opponent_health <= 17.0\ngini = 0.5\nsamples = 2\nvalue = [1, 1]"] ;
183 -> 184 ;
185 [label="gini = 0.0\nsamples = 1\nvalue = [0, 1]"] ;
184 -> 185 ;
186 [label="gini = 0.0\nsamples = 1\nvalue = [1, 0]"] ;
184 -> 186 ;
187 [label="gini = 0.0\nsamples = 1\nvalue = [0, 1]"] ;
183 -> 187 ;
188 [label="my_board_total_health <= 4.5\ngini = 0.48\nsamples = 5\nvalue = [3, 2]"] ;
174 -> 188 ;
189 [label="opponent_board_total_attack <= 2.5\ngini = 0.444\nsamples = 3\nvalue = [1, 2]"] ;
188 -> 189 ;
190 [label="gini = 0.0\nsamples = 2\nvalue = [0, 2]"] ;
189 -> 190 ;
191 [label="gini = 0.0\nsamples = 1\nvalue = [1, 0]"] ;
189 -> 191 ;
192 [label="gini = 0.0\nsamples = 2\nvalue = [2, 0]"] ;
188 -> 192 ;
193 [label="gini = 0.0\nsamples = 2\nvalue = [2, 0]"] ;
173 -> 193 ;
194 [label="opponent_board_total_health <= 7.5\ngini = 0.098\nsamples = 291\nvalue = [15, 276]"] ;
170 -> 194 ;
195 [label="opponent_board_nb_creatures <= 1.5\ngini = 0.087\nsamples = 286\nvalue = [13, 273]"] ;
194 -> 195 ;
196 [label="my_board_total_attack <= 18.5\ngini = 0.059\nsamples = 261\nvalue = [8, 253]"] ;
195 -> 196 ;
197 [label="my_board_total_attack <= 16.5\ngini = 0.053\nsamples = 259\nvalue = [7, 252]"] ;
196 -> 197 ;
198 [label="my_board_total_health <= 7.5\ngini = 0.046\nsamples = 253\nvalue = [6, 247]"] ;
197 -> 198 ;
199 [label="my_board_total_attack <= 11.5\ngini = 0.085\nsamples = 113\nvalue = [5, 108]"] ;
198 -> 199 ;
200 [label="my_health <= 22.5\ngini = 0.07\nsamples = 110\nvalue = [4, 106]"] ;
199 -> 200 ;
201 [label="opponent_hand <= 3.5\ngini = 0.278\nsamples = 12\nvalue = [2, 10]"] ;
200 -> 201 ;
202 [label="opponent_health <= 18.5\ngini = 0.5\nsamples = 4\nvalue = [2, 2]"] ;
201 -> 202 ;
203 [label="gini = 0.0\nsamples = 2\nvalue = [0, 2]"] ;
202 -> 203 ;
204 [label="gini = 0.0\nsamples = 2\nvalue = [2, 0]"] ;
202 -> 204 ;
205 [label="gini = 0.0\nsamples = 8\nvalue = [0, 8]"] ;
201 -> 205 ;
206 [label="opponent_health <= 21.5\ngini = 0.04\nsamples = 98\nvalue = [2, 96]"] ;
200 -> 206 ;
207 [label="gini = 0.0\nsamples = 66\nvalue = [0, 66]"] ;
206 -> 207 ;
208 [label="my_board_total_health <= 5.5\ngini = 0.117\nsamples = 32\nvalue = [2, 30]"] ;
206 -> 208 ;
209 [label="gini = 0.0\nsamples = 17\nvalue = [0, 17]"] ;
208 -> 209 ;
210 [label="opponent_board_total_health <= 1.5\ngini = 0.231\nsamples = 15\nvalue = [2, 13]"] ;
208 -> 210 ;
211 [label="opponent_hand <= 4.5\ngini = 0.346\nsamples = 9\nvalue = [2, 7]"] ;
210 -> 211 ;
212 [label="gini = 0.0\nsamples = 3\nvalue = [0, 3]"] ;
211 -> 212 ;
213 [label="my_board_total_attack <= 7.5\ngini = 0.444\nsamples = 6\nvalue = [2, 4]"] ;
211 -> 213 ;
214 [label="gini = 0.0\nsamples = 1\nvalue = [1, 0]"] ;
213 -> 214 ;
215 [label="my_board_nb_creatures <= 2.5\ngini = 0.32\nsamples = 5\nvalue = [1, 4]"] ;
213 -> 215 ;
216 [label="my_board_total_attack <= 10.0\ngini = 0.5\nsamples = 2\nvalue = [1, 1]"] ;
215 -> 216 ;
217 [label="gini = 0.0\nsamples = 1\nvalue = [1, 0]"] ;
216 -> 217 ;
218 [label="gini = 0.0\nsamples = 1\nvalue = [0, 1]"] ;
216 -> 218 ;
219 [label="gini = 0.0\nsamples = 3\nvalue = [0, 3]"] ;
215 -> 219 ;
220 [label="gini = 0.0\nsamples = 6\nvalue = [0, 6]"] ;
210 -> 220 ;
221 [label="opponent_hand <= 6.0\ngini = 0.444\nsamples = 3\nvalue = [1, 2]"] ;
199 -> 221 ;
222 [label="gini = 0.0\nsamples = 2\nvalue = [0, 2]"] ;
221 -> 222 ;
223 [label="gini = 0.0\nsamples = 1\nvalue = [1, 0]"] ;
221 -> 223 ;
224 [label="my_hand <= 2.5\ngini = 0.014\nsamples = 140\nvalue = [1, 139]"] ;
198 -> 224 ;
225 [label="my_health <= 29.0\ngini = 0.074\nsamples = 26\nvalue = [1, 25]"] ;
224 -> 225 ;
226 [label="gini = 0.0\nsamples = 18\nvalue = [0, 18]"] ;
225 -> 226 ;
227 [label="opponent_health <= 17.5\ngini = 0.219\nsamples = 8\nvalue = [1, 7]"] ;
225 -> 227 ;
228 [label="gini = 0.0\nsamples = 1\nvalue = [1, 0]"] ;
227 -> 228 ;
229 [label="gini = 0.0\nsamples = 7\nvalue = [0, 7]"] ;
227 -> 229 ;
230 [label="gini = 0.0\nsamples = 114\nvalue = [0, 114]"] ;
224 -> 230 ;
231 [label="my_health <= 23.5\ngini = 0.278\nsamples = 6\nvalue = [1, 5]"] ;
197 -> 231 ;
232 [label="gini = 0.0\nsamples = 1\nvalue = [1, 0]"] ;
231 -> 232 ;
233 [label="gini = 0.0\nsamples = 5\nvalue = [0, 5]"] ;
231 -> 233 ;
234 [label="my_hand <= 2.5\ngini = 0.5\nsamples = 2\nvalue = [1, 1]"] ;
196 -> 234 ;
235 [label="gini = 0.0\nsamples = 1\nvalue = [0, 1]"] ;
234 -> 235 ;
236 [label="gini = 0.0\nsamples = 1\nvalue = [1, 0]"] ;
234 -> 236 ;
237 [label="opponent_health <= 23.5\ngini = 0.32\nsamples = 25\nvalue = [5, 20]"] ;
195 -> 237 ;
238 [label="opponent_hand <= 5.5\ngini = 0.188\nsamples = 19\nvalue = [2, 17]"] ;
237 -> 238 ;
239 [label="opponent_board_nb_creatures <= 2.5\ngini = 0.105\nsamples = 18\nvalue = [1, 17]"] ;
238 -> 239 ;
240 [label="gini = 0.0\nsamples = 14\nvalue = [0, 14]"] ;
239 -> 240 ;
241 [label="my_board_total_attack <= 5.5\ngini = 0.375\nsamples = 4\nvalue = [1, 3]"] ;
239 -> 241 ;
242 [label="gini = 0.0\nsamples = 1\nvalue = [1, 0]"] ;
241 -> 242 ;
243 [label="gini = 0.0\nsamples = 3\nvalue = [0, 3]"] ;
241 -> 243 ;
244 [label="gini = 0.0\nsamples = 1\nvalue = [1, 0]"] ;
238 -> 244 ;
245 [label="opponent_health <= 25.5\ngini = 0.5\nsamples = 6\nvalue = [3, 3]"] ;
237 -> 245 ;
246 [label="my_health <= 25.5\ngini = 0.375\nsamples = 4\nvalue = [3, 1]"] ;
245 -> 246 ;
247 [label="gini = 0.0\nsamples = 3\nvalue = [3, 0]"] ;
246 -> 247 ;
248 [label="gini = 0.0\nsamples = 1\nvalue = [0, 1]"] ;
246 -> 248 ;
249 [label="gini = 0.0\nsamples = 2\nvalue = [0, 2]"] ;
245 -> 249 ;
250 [label="opponent_health <= 15.5\ngini = 0.48\nsamples = 5\nvalue = [2, 3]"] ;
194 -> 250 ;
251 [label="gini = 0.0\nsamples = 2\nvalue = [2, 0]"] ;
250 -> 251 ;
252 [label="gini = 0.0\nsamples = 3\nvalue = [0, 3]"] ;
250 -> 252 ;
253 [label="my_health <= 20.5\ngini = 0.478\nsamples = 86\nvalue = [34, 52]"] ;
113 -> 253 ;
254 [label="my_board_total_attack <= 4.5\ngini = 0.482\nsamples = 37\nvalue = [22, 15]"] ;
253 -> 254 ;
255 [label="gini = 0.0\nsamples = 8\nvalue = [8, 0]"] ;
254 -> 255 ;
256 [label="opponent_board_total_health <= 4.5\ngini = 0.499\nsamples = 29\nvalue = [14, 15]"] ;
254 -> 256 ;
257 [label="my_hand <= 4.5\ngini = 0.469\nsamples = 24\nvalue = [9, 15]"] ;
256 -> 257 ;
258 [label="opponent_hand <= 0.5\ngini = 0.5\nsamples = 16\nvalue = [8, 8]"] ;
257 -> 258 ;
259 [label="gini = 0.0\nsamples = 2\nvalue = [0, 2]"] ;
258 -> 259 ;
260 [label="my_health <= 18.5\ngini = 0.49\nsamples = 14\nvalue = [8, 6]"] ;
258 -> 260 ;
261 [label="my_board_nb_creatures <= 2.5\ngini = 0.444\nsamples = 12\nvalue = [8, 4]"] ;
260 -> 261 ;
262 [label="my_hand <= 3.5\ngini = 0.219\nsamples = 8\nvalue = [7, 1]"] ;
261 -> 262 ;
263 [label="gini = 0.0\nsamples = 5\nvalue = [5, 0]"] ;
262 -> 263 ;
264 [label="opponent_hand <= 2.5\ngini = 0.444\nsamples = 3\nvalue = [2, 1]"] ;
262 -> 264 ;
265 [label="gini = 0.0\nsamples = 1\nvalue = [0, 1]"] ;
264 -> 265 ;
266 [label="gini = 0.0\nsamples = 2\nvalue = [2, 0]"] ;
264 -> 266 ;
267 [label="opponent_hand <= 2.0\ngini = 0.375\nsamples = 4\nvalue = [1, 3]"] ;
261 -> 267 ;
268 [label="gini = 0.0\nsamples = 1\nvalue = [1, 0]"] ;
267 -> 268 ;
269 [label="gini = 0.0\nsamples = 3\nvalue = [0, 3]"] ;
267 -> 269 ;
270 [label="gini = 0.0\nsamples = 2\nvalue = [0, 2]"] ;
260 -> 270 ;
271 [label="my_board_total_health <= 12.5\ngini = 0.219\nsamples = 8\nvalue = [1, 7]"] ;
257 -> 271 ;
272 [label="gini = 0.0\nsamples = 6\nvalue = [0, 6]"] ;
271 -> 272 ;
273 [label="my_board_nb_creatures <= 5.5\ngini = 0.5\nsamples = 2\nvalue = [1, 1]"] ;
271 -> 273 ;
274 [label="gini = 0.0\nsamples = 1\nvalue = [1, 0]"] ;
273 -> 274 ;
275 [label="gini = 0.0\nsamples = 1\nvalue = [0, 1]"] ;
273 -> 275 ;
276 [label="gini = 0.0\nsamples = 5\nvalue = [5, 0]"] ;
256 -> 276 ;
277 [label="my_hand <= 1.5\ngini = 0.37\nsamples = 49\nvalue = [12, 37]"] ;
253 -> 277 ;
278 [label="gini = 0.0\nsamples = 3\nvalue = [3, 0]"] ;
277 -> 278 ;
279 [label="my_board_total_health <= 2.5\ngini = 0.315\nsamples = 46\nvalue = [9, 37]"] ;
277 -> 279 ;
280 [label="gini = 0.0\nsamples = 2\nvalue = [2, 0]"] ;
279 -> 280 ;
281 [label="opponent_board_total_attack <= 3.5\ngini = 0.268\nsamples = 44\nvalue = [7, 37]"] ;
279 -> 281 ;
282 [label="opponent_hand <= 6.5\ngini = 0.121\nsamples = 31\nvalue = [2, 29]"] ;
281 -> 282 ;
283 [label="gini = 0.0\nsamples = 24\nvalue = [0, 24]"] ;
282 -> 283 ;
284 [label="opponent_board_total_attack <= 1.5\ngini = 0.408\nsamples = 7\nvalue = [2, 5]"] ;
282 -> 284 ;
285 [label="opponent_health <= 29.0\ngini = 0.278\nsamples = 6\nvalue = [1, 5]"] ;
284 -> 285 ;
286 [label="gini = 0.0\nsamples = 5\nvalue = [0, 5]"] ;
285 -> 286 ;
287 [label="gini = 0.0\nsamples = 1\nvalue = [1, 0]"] ;
285 -> 287 ;
288 [label="gini = 0.0\nsamples = 1\nvalue = [1, 0]"] ;
284 -> 288 ;
289 [label="me_playing <= 0.5\ngini = 0.473\nsamples = 13\nvalue = [5, 8]"] ;
281 -> 289 ;
290 [label="gini = 0.0\nsamples = 7\nvalue = [0, 7]"] ;
289 -> 290 ;
291 [label="my_health <= 23.0\ngini = 0.278\nsamples = 6\nvalue = [5, 1]"] ;
289 -> 291 ;
292 [label="gini = 0.0\nsamples = 1\nvalue = [0, 1]"] ;
291 -> 292 ;
293 [label="gini = 0.0\nsamples = 5\nvalue = [5, 0]"] ;
291 -> 293 ;
294 [label="my_board_total_attack <= 4.5\ngini = 0.443\nsamples = 665\nvalue = [445, 220]"] ;
0 -> 294 [labeldistance=2.5, labelangle=-45, headlabel="False"] ;
295 [label="opponent_board_total_health <= 7.5\ngini = 0.287\nsamples = 369\nvalue = [305, 64]"] ;
294 -> 295 ;
296 [label="my_board_total_health <= 1.5\ngini = 0.413\nsamples = 168\nvalue = [119, 49]"] ;
295 -> 296 ;
297 [label="opponent_hand <= 1.5\ngini = 0.242\nsamples = 85\nvalue = [73, 12]"] ;
296 -> 297 ;
298 [label="opponent_board_total_health <= 5.5\ngini = 0.5\nsamples = 8\nvalue = [4, 4]"] ;
297 -> 298 ;
299 [label="my_hand <= 5.0\ngini = 0.32\nsamples = 5\nvalue = [1, 4]"] ;
298 -> 299 ;
300 [label="gini = 0.0\nsamples = 4\nvalue = [0, 4]"] ;
299 -> 300 ;
301 [label="gini = 0.0\nsamples = 1\nvalue = [1, 0]"] ;
299 -> 301 ;
302 [label="gini = 0.0\nsamples = 3\nvalue = [3, 0]"] ;
298 -> 302 ;
303 [label="opponent_board_total_attack <= 6.5\ngini = 0.186\nsamples = 77\nvalue = [69, 8]"] ;
297 -> 303 ;
304 [label="opponent_board_total_health <= 3.5\ngini = 0.282\nsamples = 47\nvalue = [39, 8]"] ;
303 -> 304 ;
305 [label="opponent_board_total_attack <= 5.5\ngini = 0.444\nsamples = 3\nvalue = [1, 2]"] ;
304 -> 305 ;
306 [label="gini = 0.0\nsamples = 1\nvalue = [1, 0]"] ;
305 -> 306 ;
307 [label="gini = 0.0\nsamples = 2\nvalue = [0, 2]"] ;
305 -> 307 ;
308 [label="opponent_board_nb_creatures <= 4.5\ngini = 0.236\nsamples = 44\nvalue = [38, 6]"] ;
304 -> 308 ;
309 [label="my_health <= 22.5\ngini = 0.206\nsamples = 43\nvalue = [38, 5]"] ;
308 -> 309 ;
310 [label="opponent_board_total_health <= 5.5\ngini = 0.311\nsamples = 26\nvalue = [21, 5]"] ;
309 -> 310 ;
311 [label="my_health <= 9.5\ngini = 0.117\nsamples = 16\nvalue = [15, 1]"] ;
310 -> 311 ;
312 [label="gini = 0.0\nsamples = 1\nvalue = [0, 1]"] ;
311 -> 312 ;
313 [label="gini = 0.0\nsamples = 15\nvalue = [15, 0]"] ;
311 -> 313 ;
314 [label="opponent_health <= 16.5\ngini = 0.48\nsamples = 10\nvalue = [6, 4]"] ;
310 -> 314 ;
315 [label="gini = 0.0\nsamples = 2\nvalue = [0, 2]"] ;
314 -> 315 ;
316 [label="opponent_hand <= 7.0\ngini = 0.375\nsamples = 8\nvalue = [6, 2]"] ;
314 -> 316 ;
317 [label="opponent_board_total_health <= 6.5\ngini = 0.245\nsamples = 7\nvalue = [6, 1]"] ;
316 -> 317 ;
318 [label="my_hand <= 3.0\ngini = 0.5\nsamples = 2\nvalue = [1, 1]"] ;
317 -> 318 ;
319 [label="gini = 0.0\nsamples = 1\nvalue = [1, 0]"] ;
318 -> 319 ;
320 [label="gini = 0.0\nsamples = 1\nvalue = [0, 1]"] ;
318 -> 320 ;
321 [label="gini = 0.0\nsamples = 5\nvalue = [5, 0]"] ;
317 -> 321 ;
322 [label="gini = 0.0\nsamples = 1\nvalue = [0, 1]"] ;
316 -> 322 ;
323 [label="gini = 0.0\nsamples = 17\nvalue = [17, 0]"] ;
309 -> 323 ;
324 [label="gini = 0.0\nsamples = 1\nvalue = [0, 1]"] ;
308 -> 324 ;
325 [label="gini = 0.0\nsamples = 30\nvalue = [30, 0]"] ;
303 -> 325 ;
326 [label="opponent_health <= 17.5\ngini = 0.494\nsamples = 83\nvalue = [46, 37]"] ;
296 -> 326 ;
327 [label="my_health <= 16.0\ngini = 0.384\nsamples = 27\nvalue = [7, 20]"] ;
326 -> 327 ;
328 [label="gini = 0.0\nsamples = 4\nvalue = [4, 0]"] ;
327 -> 328 ;
329 [label="opponent_hand <= 7.5\ngini = 0.227\nsamples = 23\nvalue = [3, 20]"] ;
327 -> 329 ;
330 [label="my_hand <= 6.5\ngini = 0.165\nsamples = 22\nvalue = [2, 20]"] ;
329 -> 330 ;
331 [label="my_health <= 19.5\ngini = 0.091\nsamples = 21\nvalue = [1, 20]"] ;
330 -> 331 ;
332 [label="my_board_total_health <= 2.5\ngini = 0.375\nsamples = 4\nvalue = [1, 3]"] ;
331 -> 332 ;
333 [label="gini = 0.0\nsamples = 1\nvalue = [1, 0]"] ;
332 -> 333 ;
334 [label="gini = 0.0\nsamples = 3\nvalue = [0, 3]"] ;
332 -> 334 ;
335 [label="gini = 0.0\nsamples = 17\nvalue = [0, 17]"] ;
331 -> 335 ;
336 [label="gini = 0.0\nsamples = 1\nvalue = [1, 0]"] ;
330 -> 336 ;
337 [label="gini = 0.0\nsamples = 1\nvalue = [1, 0]"] ;
329 -> 337 ;
338 [label="my_health <= 13.5\ngini = 0.423\nsamples = 56\nvalue = [39, 17]"] ;
326 -> 338 ;
339 [label="gini = 0.0\nsamples = 11\nvalue = [11, 0]"] ;
338 -> 339 ;
340 [label="my_hand <= 6.5\ngini = 0.47\nsamples = 45\nvalue = [28, 17]"] ;
338 -> 340 ;
341 [label="opponent_board_total_health <= 2.5\ngini = 0.444\nsamples = 42\nvalue = [28, 14]"] ;
340 -> 341 ;
342 [label="gini = 0.0\nsamples = 2\nvalue = [0, 2]"] ;
341 -> 342 ;
343 [label="my_health <= 28.5\ngini = 0.42\nsamples = 40\nvalue = [28, 12]"] ;
341 -> 343 ;
344 [label="opponent_hand <= 0.5\ngini = 0.388\nsamples = 38\nvalue = [28, 10]"] ;
343 -> 344 ;
345 [label="gini = 0.0\nsamples = 1\nvalue = [0, 1]"] ;
344 -> 345 ;
346 [label="opponent_board_total_attack <= 9.5\ngini = 0.368\nsamples = 37\nvalue = [28, 9]"] ;
344 -> 346 ;
347 [label="my_health <= 14.5\ngini = 0.346\nsamples = 36\nvalue = [28, 8]"] ;
346 -> 347 ;
348 [label="opponent_hand <= 5.0\ngini = 0.444\nsamples = 3\nvalue = [1, 2]"] ;
347 -> 348 ;
349 [label="gini = 0.0\nsamples = 2\nvalue = [0, 2]"] ;
348 -> 349 ;
350 [label="gini = 0.0\nsamples = 1\nvalue = [1, 0]"] ;
348 -> 350 ;
351 [label="my_health <= 18.5\ngini = 0.298\nsamples = 33\nvalue = [27, 6]"] ;
347 -> 351 ;
352 [label="gini = 0.0\nsamples = 7\nvalue = [7, 0]"] ;
351 -> 352 ;
353 [label="my_health <= 19.5\ngini = 0.355\nsamples = 26\nvalue = [20, 6]"] ;
351 -> 353 ;
354 [label="gini = 0.0\nsamples = 1\nvalue = [0, 1]"] ;
353 -> 354 ;
355 [label="me_playing <= 0.5\ngini = 0.32\nsamples = 25\nvalue = [20, 5]"] ;
353 -> 355 ;
356 [label="my_board_total_health <= 5.5\ngini = 0.444\nsamples = 9\nvalue = [6, 3]"] ;
355 -> 356 ;
357 [label="opponent_board_total_health <= 6.0\ngini = 0.375\nsamples = 8\nvalue = [6, 2]"] ;
356 -> 357 ;
358 [label="my_hand <= 3.0\ngini = 0.444\nsamples = 3\nvalue = [1, 2]"] ;
357 -> 358 ;
359 [label="gini = 0.0\nsamples = 1\nvalue = [1, 0]"] ;
358 -> 359 ;
360 [label="gini = 0.0\nsamples = 2\nvalue = [0, 2]"] ;
358 -> 360 ;
361 [label="gini = 0.0\nsamples = 5\nvalue = [5, 0]"] ;
357 -> 361 ;
362 [label="gini = 0.0\nsamples = 1\nvalue = [0, 1]"] ;
356 -> 362 ;
363 [label="opponent_board_nb_creatures <= 1.5\ngini = 0.219\nsamples = 16\nvalue = [14, 2]"] ;
355 -> 363 ;
364 [label="my_board_total_attack <= 2.5\ngini = 0.375\nsamples = 8\nvalue = [6, 2]"] ;
363 -> 364 ;
365 [label="my_hand <= 2.5\ngini = 0.444\nsamples = 3\nvalue = [1, 2]"] ;
364 -> 365 ;
366 [label="gini = 0.0\nsamples = 1\nvalue = [1, 0]"] ;
365 -> 366 ;
367 [label="gini = 0.0\nsamples = 2\nvalue = [0, 2]"] ;
365 -> 367 ;
368 [label="gini = 0.0\nsamples = 5\nvalue = [5, 0]"] ;
364 -> 368 ;
369 [label="gini = 0.0\nsamples = 8\nvalue = [8, 0]"] ;
363 -> 369 ;
370 [label="gini = 0.0\nsamples = 1\nvalue = [0, 1]"] ;
346 -> 370 ;
371 [label="gini = 0.0\nsamples = 2\nvalue = [0, 2]"] ;
343 -> 371 ;
372 [label="gini = 0.0\nsamples = 3\nvalue = [0, 3]"] ;
340 -> 372 ;
373 [label="opponent_health <= 3.5\ngini = 0.138\nsamples = 201\nvalue = [186, 15]"] ;
295 -> 373 ;
374 [label="gini = 0.0\nsamples = 2\nvalue = [0, 2]"] ;
373 -> 374 ;
375 [label="opponent_hand <= 2.5\ngini = 0.122\nsamples = 199\nvalue = [186, 13]"] ;
373 -> 375 ;
376 [label="my_hand <= 6.5\ngini = 0.278\nsamples = 54\nvalue = [45, 9]"] ;
375 -> 376 ;
377 [label="opponent_board_total_attack <= 5.5\ngini = 0.237\nsamples = 51\nvalue = [44, 7]"] ;
376 -> 377 ;
378 [label="gini = 0.0\nsamples = 1\nvalue = [0, 1]"] ;
377 -> 378 ;
379 [label="me_playing <= 0.5\ngini = 0.211\nsamples = 50\nvalue = [44, 6]"] ;
377 -> 379 ;
380 [label="opponent_health <= 6.5\ngini = 0.133\nsamples = 42\nvalue = [39, 3]"] ;
379 -> 380 ;
381 [label="gini = 0.0\nsamples = 1\nvalue = [0, 1]"] ;
380 -> 381 ;
382 [label="my_board_total_health <= 4.5\ngini = 0.093\nsamples = 41\nvalue = [39, 2]"] ;
380 -> 382 ;
383 [label="gini = 0.0\nsamples = 36\nvalue = [36, 0]"] ;
382 -> 383 ;
384 [label="opponent_board_total_attack <= 9.0\ngini = 0.48\nsamples = 5\nvalue = [3, 2]"] ;
382 -> 384 ;
385 [label="gini = 0.0\nsamples = 3\nvalue = [3, 0]"] ;
384 -> 385 ;
386 [label="gini = 0.0\nsamples = 2\nvalue = [0, 2]"] ;
384 -> 386 ;
387 [label="my_health <= 22.0\ngini = 0.469\nsamples = 8\nvalue = [5, 3]"] ;
379 -> 387 ;
388 [label="gini = 0.0\nsamples = 3\nvalue = [0, 3]"] ;
387 -> 388 ;
389 [label="gini = 0.0\nsamples = 5\nvalue = [5, 0]"] ;
387 -> 389 ;
390 [label="my_board_total_attack <= 0.5\ngini = 0.444\nsamples = 3\nvalue = [1, 2]"] ;
376 -> 390 ;
391 [label="gini = 0.0\nsamples = 1\nvalue = [1, 0]"] ;
390 -> 391 ;
392 [label="gini = 0.0\nsamples = 2\nvalue = [0, 2]"] ;
390 -> 392 ;
393 [label="opponent_board_nb_creatures <= 2.5\ngini = 0.054\nsamples = 145\nvalue = [141, 4]"] ;
375 -> 393 ;
394 [label="opponent_board_total_health <= 16.5\ngini = 0.185\nsamples = 29\nvalue = [26, 3]"] ;
393 -> 394 ;
395 [label="my_board_nb_creatures <= 2.5\ngini = 0.133\nsamples = 28\nvalue = [26, 2]"] ;
394 -> 395 ;
396 [label="my_hand <= 6.5\ngini = 0.074\nsamples = 26\nvalue = [25, 1]"] ;
395 -> 396 ;
397 [label="gini = 0.0\nsamples = 21\nvalue = [21, 0]"] ;
396 -> 397 ;
398 [label="my_board_total_health <= 0.5\ngini = 0.32\nsamples = 5\nvalue = [4, 1]"] ;
396 -> 398 ;
399 [label="gini = 0.0\nsamples = 4\nvalue = [4, 0]"] ;
398 -> 399 ;
400 [label="gini = 0.0\nsamples = 1\nvalue = [0, 1]"] ;
398 -> 400 ;
401 [label="my_health <= 23.0\ngini = 0.5\nsamples = 2\nvalue = [1, 1]"] ;
395 -> 401 ;
402 [label="gini = 0.0\nsamples = 1\nvalue = [1, 0]"] ;
401 -> 402 ;
403 [label="gini = 0.0\nsamples = 1\nvalue = [0, 1]"] ;
401 -> 403 ;
404 [label="gini = 0.0\nsamples = 1\nvalue = [0, 1]"] ;
394 -> 404 ;
405 [label="my_hand <= 6.5\ngini = 0.017\nsamples = 116\nvalue = [115, 1]"] ;
393 -> 405 ;
406 [label="gini = 0.0\nsamples = 93\nvalue = [93, 0]"] ;
405 -> 406 ;
407 [label="opponent_health <= 20.0\ngini = 0.083\nsamples = 23\nvalue = [22, 1]"] ;
405 -> 407 ;
408 [label="my_health <= 20.0\ngini = 0.245\nsamples = 7\nvalue = [6, 1]"] ;
407 -> 408 ;
409 [label="gini = 0.0\nsamples = 6\nvalue = [6, 0]"] ;
408 -> 409 ;
410 [label="gini = 0.0\nsamples = 1\nvalue = [0, 1]"] ;
408 -> 410 ;
411 [label="gini = 0.0\nsamples = 16\nvalue = [16, 0]"] ;
407 -> 411 ;
412 [label="my_health <= 28.5\ngini = 0.499\nsamples = 296\nvalue = [140, 156]"] ;
294 -> 412 ;
413 [label="opponent_health <= 17.5\ngini = 0.498\nsamples = 254\nvalue = [134, 120]"] ;
412 -> 413 ;
414 [label="opponent_board_total_health <= 10.5\ngini = 0.463\nsamples = 88\nvalue = [32, 56]"] ;
413 -> 414 ;
415 [label="opponent_hand <= 6.5\ngini = 0.383\nsamples = 62\nvalue = [16, 46]"] ;
414 -> 415 ;
416 [label="my_board_total_health <= 9.5\ngini = 0.358\nsamples = 60\nvalue = [14, 46]"] ;
415 -> 416 ;
417 [label="my_hand <= 0.5\ngini = 0.405\nsamples = 46\nvalue = [13, 33]"] ;
416 -> 417 ;
418 [label="opponent_board_nb_creatures <= 2.5\ngini = 0.375\nsamples = 4\nvalue = [3, 1]"] ;
417 -> 418 ;
419 [label="gini = 0.0\nsamples = 3\nvalue = [3, 0]"] ;
418 -> 419 ;
420 [label="gini = 0.0\nsamples = 1\nvalue = [0, 1]"] ;
418 -> 420 ;
421 [label="opponent_board_total_health <= 2.5\ngini = 0.363\nsamples = 42\nvalue = [10, 32]"] ;
417 -> 421 ;
422 [label="gini = 0.0\nsamples = 1\nvalue = [1, 0]"] ;
421 -> 422 ;
423 [label="my_hand <= 2.5\ngini = 0.343\nsamples = 41\nvalue = [9, 32]"] ;
421 -> 423 ;
424 [label="opponent_health <= 8.0\ngini = 0.117\nsamples = 16\nvalue = [1, 15]"] ;
423 -> 424 ;
425 [label="gini = 0.0\nsamples = 1\nvalue = [1, 0]"] ;
424 -> 425 ;
426 [label="gini = 0.0\nsamples = 15\nvalue = [0, 15]"] ;
424 -> 426 ;
427 [label="my_board_total_attack <= 7.5\ngini = 0.435\nsamples = 25\nvalue = [8, 17]"] ;
423 -> 427 ;
428 [label="opponent_hand <= 0.5\ngini = 0.305\nsamples = 16\nvalue = [3, 13]"] ;
427 -> 428 ;
429 [label="gini = 0.0\nsamples = 1\nvalue = [1, 0]"] ;
428 -> 429 ;
430 [label="my_health <= 20.0\ngini = 0.231\nsamples = 15\nvalue = [2, 13]"] ;
428 -> 430 ;
431 [label="my_board_nb_creatures <= 1.5\ngini = 0.48\nsamples = 5\nvalue = [2, 3]"] ;
430 -> 431 ;
432 [label="opponent_health <= 12.5\ngini = 0.444\nsamples = 3\nvalue = [2, 1]"] ;
431 -> 432 ;
433 [label="gini = 0.0\nsamples = 2\nvalue = [2, 0]"] ;
432 -> 433 ;
434 [label="gini = 0.0\nsamples = 1\nvalue = [0, 1]"] ;
432 -> 434 ;
435 [label="gini = 0.0\nsamples = 2\nvalue = [0, 2]"] ;
431 -> 435 ;
436 [label="gini = 0.0\nsamples = 10\nvalue = [0, 10]"] ;
430 -> 436 ;
437 [label="opponent_board_total_health <= 6.5\ngini = 0.494\nsamples = 9\nvalue = [5, 4]"] ;
427 -> 437 ;
438 [label="opponent_health <= 15.0\ngini = 0.408\nsamples = 7\nvalue = [5, 2]"] ;
437 -> 438 ;
439 [label="gini = 0.0\nsamples = 4\nvalue = [4, 0]"] ;
438 -> 439 ;
440 [label="opponent_board_total_health <= 5.5\ngini = 0.444\nsamples = 3\nvalue = [1, 2]"] ;
438 -> 440 ;
441 [label="gini = 0.0\nsamples = 2\nvalue = [0, 2]"] ;
440 -> 441 ;
442 [label="gini = 0.0\nsamples = 1\nvalue = [1, 0]"] ;
440 -> 442 ;
443 [label="gini = 0.0\nsamples = 2\nvalue = [0, 2]"] ;
437 -> 443 ;
444 [label="opponent_health <= 6.0\ngini = 0.133\nsamples = 14\nvalue = [1, 13]"] ;
416 -> 444 ;
445 [label="my_board_total_health <= 14.5\ngini = 0.5\nsamples = 2\nvalue = [1, 1]"] ;
444 -> 445 ;
446 [label="gini = 0.0\nsamples = 1\nvalue = [0, 1]"] ;
445 -> 446 ;
447 [label="gini = 0.0\nsamples = 1\nvalue = [1, 0]"] ;
445 -> 447 ;
448 [label="gini = 0.0\nsamples = 12\nvalue = [0, 12]"] ;
444 -> 448 ;
449 [label="gini = 0.0\nsamples = 2\nvalue = [2, 0]"] ;
415 -> 449 ;
450 [label="my_board_total_health <= 9.5\ngini = 0.473\nsamples = 26\nvalue = [16, 10]"] ;
414 -> 450 ;
451 [label="my_board_total_health <= 7.5\ngini = 0.26\nsamples = 13\nvalue = [11, 2]"] ;
450 -> 451 ;
452 [label="my_hand <= 2.5\ngini = 0.5\nsamples = 4\nvalue = [2, 2]"] ;
451 -> 452 ;
453 [label="gini = 0.0\nsamples = 2\nvalue = [0, 2]"] ;
452 -> 453 ;
454 [label="gini = 0.0\nsamples = 2\nvalue = [2, 0]"] ;
452 -> 454 ;
455 [label="gini = 0.0\nsamples = 9\nvalue = [9, 0]"] ;
451 -> 455 ;
456 [label="opponent_hand <= 3.5\ngini = 0.473\nsamples = 13\nvalue = [5, 8]"] ;
450 -> 456 ;
457 [label="gini = 0.0\nsamples = 6\nvalue = [0, 6]"] ;
456 -> 457 ;
458 [label="my_board_total_health <= 12.5\ngini = 0.408\nsamples = 7\nvalue = [5, 2]"] ;
456 -> 458 ;
459 [label="gini = 0.0\nsamples = 2\nvalue = [0, 2]"] ;
458 -> 459 ;
460 [label="gini = 0.0\nsamples = 5\nvalue = [5, 0]"] ;
458 -> 460 ;
461 [label="my_board_nb_creatures <= 2.5\ngini = 0.474\nsamples = 166\nvalue = [102, 64]"] ;
413 -> 461 ;
462 [label="opponent_health <= 23.5\ngini = 0.403\nsamples = 100\nvalue = [72, 28]"] ;
461 -> 462 ;
463 [label="my_board_nb_creatures <= 1.5\ngini = 0.494\nsamples = 45\nvalue = [25, 20]"] ;
462 -> 463 ;
464 [label="my_board_total_health <= 8.5\ngini = 0.332\nsamples = 19\nvalue = [15, 4]"] ;
463 -> 464 ;
465 [label="opponent_board_total_attack <= 5.5\ngini = 0.278\nsamples = 18\nvalue = [15, 3]"] ;
464 -> 465 ;
466 [label="gini = 0.0\nsamples = 1\nvalue = [0, 1]"] ;
465 -> 466 ;
467 [label="opponent_board_total_attack <= 10.5\ngini = 0.208\nsamples = 17\nvalue = [15, 2]"] ;
465 -> 467 ;
468 [label="opponent_board_total_attack <= 9.0\ngini = 0.346\nsamples = 9\nvalue = [7, 2]"] ;
467 -> 468 ;
469 [label="gini = 0.0\nsamples = 6\nvalue = [6, 0]"] ;
468 -> 469 ;
470 [label="opponent_hand <= 5.5\ngini = 0.444\nsamples = 3\nvalue = [1, 2]"] ;
468 -> 470 ;
471 [label="gini = 0.0\nsamples = 2\nvalue = [0, 2]"] ;
470 -> 471 ;
472 [label="gini = 0.0\nsamples = 1\nvalue = [1, 0]"] ;
470 -> 472 ;
473 [label="gini = 0.0\nsamples = 8\nvalue = [8, 0]"] ;
467 -> 473 ;
474 [label="gini = 0.0\nsamples = 1\nvalue = [0, 1]"] ;
464 -> 474 ;
475 [label="my_health <= 7.0\ngini = 0.473\nsamples = 26\nvalue = [10, 16]"] ;
463 -> 475 ;
476 [label="gini = 0.0\nsamples = 3\nvalue = [3, 0]"] ;
475 -> 476 ;
477 [label="my_health <= 25.5\ngini = 0.423\nsamples = 23\nvalue = [7, 16]"] ;
475 -> 477 ;
478 [label="my_board_total_health <= 2.5\ngini = 0.231\nsamples = 15\nvalue = [2, 13]"] ;
477 -> 478 ;
479 [label="gini = 0.0\nsamples = 1\nvalue = [1, 0]"] ;
478 -> 479 ;
480 [label="opponent_health <= 22.5\ngini = 0.133\nsamples = 14\nvalue = [1, 13]"] ;
478 -> 480 ;
481 [label="gini = 0.0\nsamples = 11\nvalue = [0, 11]"] ;
480 -> 481 ;
482 [label="opponent_hand <= 4.0\ngini = 0.444\nsamples = 3\nvalue = [1, 2]"] ;
480 -> 482 ;
483 [label="gini = 0.0\nsamples = 1\nvalue = [1, 0]"] ;
482 -> 483 ;
484 [label="gini = 0.0\nsamples = 2\nvalue = [0, 2]"] ;
482 -> 484 ;
485 [label="opponent_hand <= 1.5\ngini = 0.469\nsamples = 8\nvalue = [5, 3]"] ;
477 -> 485 ;
486 [label="gini = 0.0\nsamples = 2\nvalue = [0, 2]"] ;
485 -> 486 ;
487 [label="my_hand <= 2.5\ngini = 0.278\nsamples = 6\nvalue = [5, 1]"] ;
485 -> 487 ;
488 [label="gini = 0.0\nsamples = 1\nvalue = [0, 1]"] ;
487 -> 488 ;
489 [label="gini = 0.0\nsamples = 5\nvalue = [5, 0]"] ;
487 -> 489 ;
490 [label="opponent_board_total_health <= 3.5\ngini = 0.249\nsamples = 55\nvalue = [47, 8]"] ;
462 -> 490 ;
491 [label="gini = 0.0\nsamples = 2\nvalue = [0, 2]"] ;
490 -> 491 ;
492 [label="opponent_board_total_health <= 20.0\ngini = 0.201\nsamples = 53\nvalue = [47, 6]"] ;
490 -> 492 ;
493 [label="my_board_total_health <= 7.5\ngini = 0.145\nsamples = 51\nvalue = [47, 4]"] ;
492 -> 493 ;
494 [label="gini = 0.0\nsamples = 31\nvalue = [31, 0]"] ;
493 -> 494 ;
495 [label="my_hand <= 8.5\ngini = 0.32\nsamples = 20\nvalue = [16, 4]"] ;
493 -> 495 ;
496 [label="opponent_hand <= 3.5\ngini = 0.266\nsamples = 19\nvalue = [16, 3]"] ;
495 -> 496 ;
497 [label="opponent_board_total_attack <= 5.5\ngini = 0.397\nsamples = 11\nvalue = [8, 3]"] ;
496 -> 497 ;
498 [label="gini = 0.0\nsamples = 1\nvalue = [0, 1]"] ;
497 -> 498 ;
499 [label="my_health <= 10.0\ngini = 0.32\nsamples = 10\nvalue = [8, 2]"] ;
497 -> 499 ;
500 [label="gini = 0.0\nsamples = 4\nvalue = [4, 0]"] ;
499 -> 500 ;
501 [label="my_health <= 14.5\ngini = 0.444\nsamples = 6\nvalue = [4, 2]"] ;
499 -> 501 ;
502 [label="my_hand <= 6.5\ngini = 0.444\nsamples = 3\nvalue = [1, 2]"] ;
501 -> 502 ;
503 [label="gini = 0.0\nsamples = 2\nvalue = [0, 2]"] ;
502 -> 503 ;
504 [label="gini = 0.0\nsamples = 1\nvalue = [1, 0]"] ;
502 -> 504 ;
505 [label="gini = 0.0\nsamples = 3\nvalue = [3, 0]"] ;
501 -> 505 ;
506 [label="gini = 0.0\nsamples = 8\nvalue = [8, 0]"] ;
496 -> 506 ;
507 [label="gini = 0.0\nsamples = 1\nvalue = [0, 1]"] ;
495 -> 507 ;
508 [label="gini = 0.0\nsamples = 2\nvalue = [0, 2]"] ;
492 -> 508 ;
509 [label="me_playing <= 0.5\ngini = 0.496\nsamples = 66\nvalue = [30, 36]"] ;
461 -> 509 ;
510 [label="my_board_total_attack <= 6.5\ngini = 0.423\nsamples = 46\nvalue = [14, 32]"] ;
509 -> 510 ;
511 [label="my_hand <= 3.5\ngini = 0.42\nsamples = 10\nvalue = [7, 3]"] ;
510 -> 511 ;
512 [label="opponent_board_nb_creatures <= 1.5\ngini = 0.375\nsamples = 4\nvalue = [1, 3]"] ;
511 -> 512 ;
513 [label="gini = 0.0\nsamples = 1\nvalue = [1, 0]"] ;
512 -> 513 ;
514 [label="gini = 0.0\nsamples = 3\nvalue = [0, 3]"] ;
512 -> 514 ;
515 [label="gini = 0.0\nsamples = 6\nvalue = [6, 0]"] ;
511 -> 515 ;
516 [label="my_board_total_health <= 16.5\ngini = 0.313\nsamples = 36\nvalue = [7, 29]"] ;
510 -> 516 ;
517 [label="opponent_board_nb_creatures <= 4.5\ngini = 0.219\nsamples = 32\nvalue = [4, 28]"] ;
516 -> 517 ;
518 [label="opponent_hand <= 6.5\ngini = 0.128\nsamples = 29\nvalue = [2, 27]"] ;
517 -> 518 ;
519 [label="my_hand <= 6.5\ngini = 0.069\nsamples = 28\nvalue = [1, 27]"] ;
518 -> 519 ;
520 [label="gini = 0.0\nsamples = 25\nvalue = [0, 25]"] ;
519 -> 520 ;
521 [label="my_board_nb_creatures <= 3.5\ngini = 0.444\nsamples = 3\nvalue = [1, 2]"] ;
519 -> 521 ;
522 [label="gini = 0.0\nsamples = 1\nvalue = [1, 0]"] ;
521 -> 522 ;
523 [label="gini = 0.0\nsamples = 2\nvalue = [0, 2]"] ;
521 -> 523 ;
524 [label="gini = 0.0\nsamples = 1\nvalue = [1, 0]"] ;
518 -> 524 ;
525 [label="my_board_nb_creatures <= 4.0\ngini = 0.444\nsamples = 3\nvalue = [2, 1]"] ;
517 -> 525 ;
526 [label="gini = 0.0\nsamples = 2\nvalue = [2, 0]"] ;
525 -> 526 ;
527 [label="gini = 0.0\nsamples = 1\nvalue = [0, 1]"] ;
525 -> 527 ;
528 [label="my_hand <= 7.5\ngini = 0.375\nsamples = 4\nvalue = [3, 1]"] ;
516 -> 528 ;
529 [label="gini = 0.0\nsamples = 3\nvalue = [3, 0]"] ;
528 -> 529 ;
530 [label="gini = 0.0\nsamples = 1\nvalue = [0, 1]"] ;
528 -> 530 ;
531 [label="my_health <= 14.5\ngini = 0.32\nsamples = 20\nvalue = [16, 4]"] ;
509 -> 531 ;
532 [label="opponent_board_nb_creatures <= 5.5\ngini = 0.444\nsamples = 3\nvalue = [1, 2]"] ;
531 -> 532 ;
533 [label="gini = 0.0\nsamples = 2\nvalue = [0, 2]"] ;
532 -> 533 ;
534 [label="gini = 0.0\nsamples = 1\nvalue = [1, 0]"] ;
532 -> 534 ;
535 [label="my_board_total_attack <= 5.5\ngini = 0.208\nsamples = 17\nvalue = [15, 2]"] ;
531 -> 535 ;
536 [label="gini = 0.0\nsamples = 1\nvalue = [0, 1]"] ;
535 -> 536 ;
537 [label="opponent_board_total_health <= 4.5\ngini = 0.117\nsamples = 16\nvalue = [15, 1]"] ;
535 -> 537 ;
538 [label="opponent_health <= 21.0\ngini = 0.444\nsamples = 3\nvalue = [2, 1]"] ;
537 -> 538 ;
539 [label="gini = 0.0\nsamples = 1\nvalue = [0, 1]"] ;
538 -> 539 ;
540 [label="gini = 0.0\nsamples = 2\nvalue = [2, 0]"] ;
538 -> 540 ;
541 [label="gini = 0.0\nsamples = 13\nvalue = [13, 0]"] ;
537 -> 541 ;
542 [label="opponent_health <= 27.0\ngini = 0.245\nsamples = 42\nvalue = [6, 36]"] ;
412 -> 542 ;
543 [label="opponent_board_total_health <= 16.5\ngini = 0.184\nsamples = 39\nvalue = [4, 35]"] ;
542 -> 543 ;
544 [label="opponent_board_total_health <= 3.5\ngini = 0.105\nsamples = 36\nvalue = [2, 34]"] ;
543 -> 544 ;
545 [label="gini = 0.0\nsamples = 1\nvalue = [1, 0]"] ;
544 -> 545 ;
546 [label="my_hand <= 6.5\ngini = 0.056\nsamples = 35\nvalue = [1, 34]"] ;
544 -> 546 ;
547 [label="gini = 0.0\nsamples = 32\nvalue = [0, 32]"] ;
546 -> 547 ;
548 [label="opponent_board_total_attack <= 6.5\ngini = 0.444\nsamples = 3\nvalue = [1, 2]"] ;
546 -> 548 ;
549 [label="gini = 0.0\nsamples = 1\nvalue = [1, 0]"] ;
548 -> 549 ;
550 [label="gini = 0.0\nsamples = 2\nvalue = [0, 2]"] ;
548 -> 550 ;
551 [label="opponent_health <= 10.5\ngini = 0.444\nsamples = 3\nvalue = [2, 1]"] ;
543 -> 551 ;
552 [label="gini = 0.0\nsamples = 1\nvalue = [0, 1]"] ;
551 -> 552 ;
553 [label="gini = 0.0\nsamples = 2\nvalue = [2, 0]"] ;
551 -> 553 ;
554 [label="me_playing <= 0.5\ngini = 0.444\nsamples = 3\nvalue = [2, 1]"] ;
542 -> 554 ;
555 [label="gini = 0.0\nsamples = 1\nvalue = [0, 1]"] ;
554 -> 555 ;
556 [label="gini = 0.0\nsamples = 2\nvalue = [2, 0]"] ;
554 -> 556 ;
}