digraph Tree {
node [shape=box] ;
0 [label="my_board_nb_creatures <= 1.5\ngini = 0.493\nsamples = 1434\nvalue = [633, 801]"] ;
1 [label="opponent_board_total_attack <= 4.5\ngini = 0.443\nsamples = 616\nvalue = [412, 204]"] ;
0 -> 1 [labeldistance=2.5, labelangle=45, headlabel="True"] ;
2 [label="opponent_health <= 20.5\ngini = 0.498\nsamples = 251\nvalue = [117, 134]"] ;
1 -> 2 ;
3 [label="opponent_hand <= 6.5\ngini = 0.426\nsamples = 104\nvalue = [32, 72]"] ;
2 -> 3 ;
4 [label="my_health <= 19.5\ngini = 0.375\nsamples = 92\nvalue = [23, 69]"] ;
3 -> 4 ;
5 [label="opponent_board_total_health <= 0.5\ngini = 0.493\nsamples = 41\nvalue = [18, 23]"] ;
4 -> 5 ;
6 [label="my_hand <= 3.5\ngini = 0.337\nsamples = 14\nvalue = [11, 3]"] ;
5 -> 6 ;
7 [label="gini = 0.0\nsamples = 8\nvalue = [8, 0]"] ;
6 -> 7 ;
8 [label="me_playing <= 0.5\ngini = 0.5\nsamples = 6\nvalue = [3, 3]"] ;
6 -> 8 ;
9 [label="gini = 0.0\nsamples = 3\nvalue = [3, 0]"] ;
8 -> 9 ;
10 [label="gini = 0.0\nsamples = 3\nvalue = [0, 3]"] ;
8 -> 10 ;
11 [label="opponent_hand <= 2.5\ngini = 0.384\nsamples = 27\nvalue = [7, 20]"] ;
5 -> 11 ;
12 [label="opponent_health <= 15.5\ngini = 0.198\nsamples = 18\nvalue = [2, 16]"] ;
11 -> 12 ;
13 [label="gini = 0.0\nsamples = 14\nvalue = [0, 14]"] ;
12 -> 13 ;
14 [label="my_health <= 14.0\ngini = 0.5\nsamples = 4\nvalue = [2, 2]"] ;
12 -> 14 ;
15 [label="gini = 0.0\nsamples = 2\nvalue = [2, 0]"] ;
14 -> 15 ;
16 [label="gini = 0.0\nsamples = 2\nvalue = [0, 2]"] ;
14 -> 16 ;
17 [label="my_board_total_health <= 1.5\ngini = 0.494\nsamples = 9\nvalue = [5, 4]"] ;
11 -> 17 ;
18 [label="opponent_health <= 6.5\ngini = 0.278\nsamples = 6\nvalue = [5, 1]"] ;
17 -> 18 ;
19 [label="gini = 0.0\nsamples = 1\nvalue = [0, 1]"] ;
18 -> 19 ;
20 [label="gini = 0.0\nsamples = 5\nvalue = [5, 0]"] ;
18 -> 20 ;
21 [label="gini = 0.0\nsamples = 3\nvalue = [0, 3]"] ;
17 -> 21 ;
22 [label="my_board_total_attack <= 5.5\ngini = 0.177\nsamples = 51\nvalue = [5, 46]"] ;
4 -> 22 ;
23 [label="opponent_board_total_attack <= 3.5\ngini = 0.12\nsamples = 47\nvalue = [3, 44]"] ;
22 -> 23 ;
24 [label="my_board_total_attack <= 0.5\ngini = 0.057\nsamples = 34\nvalue = [1, 33]"] ;
23 -> 24 ;
25 [label="opponent_health <= 14.5\ngini = 0.245\nsamples = 7\nvalue = [1, 6]"] ;
24 -> 25 ;
26 [label="opponent_health <= 9.0\ngini = 0.5\nsamples = 2\nvalue = [1, 1]"] ;
25 -> 26 ;
27 [label="gini = 0.0\nsamples = 1\nvalue = [0, 1]"] ;
26 -> 27 ;
28 [label="gini = 0.0\nsamples = 1\nvalue = [1, 0]"] ;
26 -> 28 ;
29 [label="gini = 0.0\nsamples = 5\nvalue = [0, 5]"] ;
25 -> 29 ;
30 [label="gini = 0.0\nsamples = 27\nvalue = [0, 27]"] ;
24 -> 30 ;
31 [label="my_hand <= 2.5\ngini = 0.26\nsamples = 13\nvalue = [2, 11]"] ;
23 -> 31 ;
32 [label="gini = 0.0\nsamples = 1\nvalue = [1, 0]"] ;
31 -> 32 ;
33 [label="opponent_health <= 18.5\ngini = 0.153\nsamples = 12\nvalue = [1, 11]"] ;
31 -> 33 ;
34 [label="gini = 0.0\nsamples = 8\nvalue = [0, 8]"] ;
33 -> 34 ;
35 [label="my_board_total_attack <= 2.0\ngini = 0.375\nsamples = 4\nvalue = [1, 3]"] ;
33 -> 35 ;
36 [label="gini = 0.0\nsamples = 2\nvalue = [0, 2]"] ;
35 -> 36 ;
37 [label="opponent_board_total_health <= 3.5\ngini = 0.5\nsamples = 2\nvalue = [1, 1]"] ;
35 -> 37 ;
38 [label="gini = 0.0\nsamples = 1\nvalue = [0, 1]"] ;
37 -> 38 ;
39 [label="gini = 0.0\nsamples = 1\nvalue = [1, 0]"] ;
37 -> 39 ;
40 [label="my_health <= 25.0\ngini = 0.5\nsamples = 4\nvalue = [2, 2]"] ;
22 -> 40 ;
41 [label="gini = 0.0\nsamples = 2\nvalue = [0, 2]"] ;
40 -> 41 ;
42 [label="gini = 0.0\nsamples = 2\nvalue = [2, 0]"] ;
40 -> 42 ;
43 [label="opponent_health <= 12.5\ngini = 0.375\nsamples = 12\nvalue = [9, 3]"] ;
3 -> 43 ;
44 [label="opponent_board_total_attack <= 0.5\ngini = 0.444\nsamples = 3\nvalue = [1, 2]"] ;
43 -> 44 ;
45 [label="gini = 0.0\nsamples = 2\nvalue = [0, 2]"] ;
44 -> 45 ;
46 [label="gini = 0.0\nsamples = 1\nvalue = [1, 0]"] ;
44 -> 46 ;
47 [label="my_board_total_health <= 2.0\ngini = 0.198\nsamples = 9\nvalue = [8, 1]"] ;
43 -> 47 ;
48 [label="gini = 0.0\nsamples = 7\nvalue = [7, 0]"] ;
47 -> 48 ;
49 [label="opponent_board_total_attack <= 2.0\ngini = 0.5\nsamples = 2\nvalue = [1, 1]"] ;
47 -> 49 ;
50 [label="gini = 0.0\nsamples = 1\nvalue = [1, 0]"] ;
49 -> 50 ;
51 [label="gini = 0.0\nsamples = 1\nvalue = [0, 1]"] ;
49 -> 51 ;
52 [label="my_board_total_health <= 1.5\ngini = 0.488\nsamples = 147\nvalue = [85, 62]"] ;
2 -> 52 ;
53 [label="opponent_hand <= 2.5\ngini = 0.383\nsamples = 62\nvalue = [46, 16]"] ;
52 -> 53 ;
54 [label="my_health <= 20.5\ngini = 0.48\nsamples = 10\nvalue = [4, 6]"] ;
53 -> 54 ;
55 [label="opponent_hand <= 1.5\ngini = 0.444\nsamples = 6\nvalue = [4, 2]"] ;
54 -> 55 ;
56 [label="my_hand <= 2.0\ngini = 0.444\nsamples = 3\nvalue = [1, 2]"] ;
55 -> 56 ;
57 [label="gini = 0.0\nsamples = 1\nvalue = [1, 0]"] ;
56 -> 57 ;
58 [label="gini = 0.0\nsamples = 2\nvalue = [0, 2]"] ;
56 -> 58 ;
59 [label="gini = 0.0\nsamples = 3\nvalue = [3, 0]"] ;
55 -> 59 ;
60 [label="gini = 0.0\nsamples = 4\nvalue = [0, 4]"] ;
54 -> 60 ;
61 [label="my_hand <= 7.5\ngini = 0.311\nsamples = 52\nvalue = [42, 10]"] ;
53 -> 61 ;
62 [label="my_health <= 26.5\ngini = 0.249\nsamples = 48\nvalue = [41, 7]"] ;
61 -> 62 ;
63 [label="opponent_health <= 29.5\ngini = 0.062\nsamples = 31\nvalue = [30, 1]"] ;
62 -> 63 ;
64 [label="gini = 0.0\nsamples = 24\nvalue = [24, 0]"] ;
63 -> 64 ;
65 [label="opponent_hand <= 3.5\ngini = 0.245\nsamples = 7\nvalue = [6, 1]"] ;
63 -> 65 ;
66 [label="gini = 0.0\nsamples = 5\nvalue = [5, 0]"] ;
65 -> 66 ;
67 [label="opponent_board_total_health <= 2.5\ngini = 0.5\nsamples = 2\nvalue = [1, 1]"] ;
65 -> 67 ;
68 [label="gini = 0.0\nsamples = 1\nvalue = [1, 0]"] ;
67 -> 68 ;
69 [label="gini = 0.0\nsamples = 1\nvalue = [0, 1]"] ;
67 -> 69 ;
70 [label="me_playing <= 0.5\ngini = 0.457\nsamples = 17\nvalue = [11, 6]"] ;
62 -> 70 ;
71 [label="opponent_health <= 28.5\ngini = 0.469\nsamples = 8\nvalue = [3, 5]"] ;
70 -> 71 ;
72 [label="my_health <= 27.5\ngini = 0.48\nsamples = 5\nvalue = [3, 2]"] ;
71 -> 72 ;
73 [label="opponent_board_total_health <= 2.5\ngini = 0.444\nsamples = 3\nvalue = [1, 2]"] ;
72 -> 73 ;
74 [label="gini = 0.0\nsamples = 2\nvalue = [0, 2]"] ;
73 -> 74 ;
75 [label="gini = 0.0\nsamples = 1\nvalue = [1, 0]"] ;
73 -> 75 ;
76 [label="gini = 0.0\nsamples = 2\nvalue = [2, 0]"] ;
72 -> 76 ;
77 [label="gini = 0.0\nsamples = 3\nvalue = [0, 3]"] ;
71 -> 77 ;
78 [label="opponent_hand <= 3.5\ngini = 0.198\nsamples = 9\nvalue = [8, 1]"] ;
70 -> 78 ;
79 [label="opponent_health <= 29.0\ngini = 0.5\nsamples = 2\nvalue = [1, 1]"] ;
78 -> 79 ;
80 [label="gini = 0.0\nsamples = 1\nvalue = [1, 0]"] ;
79 -> 80 ;
81 [label="gini = 0.0\nsamples = 1\nvalue = [0, 1]"] ;
79 -> 81 ;
82 [label="gini = 0.0\nsamples = 7\nvalue = [7, 0]"] ;
78 -> 82 ;
83 [label="opponent_board_nb_creatures <= 0.5\ngini = 0.375\nsamples = 4\nvalue = [1, 3]"] ;
61 -> 83 ;
84 [label="gini = 0.0\nsamples = 1\nvalue = [1, 0]"] ;
83 -> 84 ;
85 [label="gini = 0.0\nsamples = 3\nvalue = [0, 3]"] ;
83 -> 85 ;
86 [label="my_hand <= 3.5\ngini = 0.497\nsamples = 85\nvalue = [39, 46]"] ;
52 -> 86 ;
87 [label="opponent_health <= 29.5\ngini = 0.388\nsamples = 19\nvalue = [14, 5]"] ;
86 -> 87 ;
88 [label="my_health <= 23.0\ngini = 0.291\nsamples = 17\nvalue = [14, 3]"] ;
87 -> 88 ;
89 [label="gini = 0.0\nsamples = 10\nvalue = [10, 0]"] ;
88 -> 89 ;
90 [label="my_health <= 28.5\ngini = 0.49\nsamples = 7\nvalue = [4, 3]"] ;
88 -> 90 ;
91 [label="my_board_total_attack <= 1.0\ngini = 0.375\nsamples = 4\nvalue = [1, 3]"] ;
90 -> 91 ;
92 [label="gini = 0.0\nsamples = 1\nvalue = [1, 0]"] ;
91 -> 92 ;
93 [label="gini = 0.0\nsamples = 3\nvalue = [0, 3]"] ;
91 -> 93 ;
94 [label="gini = 0.0\nsamples = 3\nvalue = [3, 0]"] ;
90 -> 94 ;
95 [label="gini = 0.0\nsamples = 2\nvalue = [0, 2]"] ;
87 -> 95 ;
96 [label="my_board_total_attack <= 4.5\ngini = 0.471\nsamples = 66\nvalue = [25, 41]"] ;
86 -> 96 ;
97 [label="my_hand <= 7.5\ngini = 0.495\nsamples = 49\nvalue = [22, 27]"] ;
96 -> 97 ;
98 [label="opponent_hand <= 2.5\ngini = 0.5\nsamples = 43\nvalue = [22, 21]"] ;
97 -> 98 ;
99 [label="opponent_board_total_attack <= 1.5\ngini = 0.426\nsamples = 13\nvalue = [4, 9]"] ;
98 -> 99 ;
100 [label="my_board_total_health <= 3.5\ngini = 0.5\nsamples = 8\nvalue = [4, 4]"] ;
99 -> 100 ;
101 [label="gini = 0.0\nsamples = 3\nvalue = [0, 3]"] ;
100 -> 101 ;
102 [label="opponent_hand <= 0.5\ngini = 0.32\nsamples = 5\nvalue = [4, 1]"] ;
100 -> 102 ;
103 [label="gini = 0.0\nsamples = 1\nvalue = [0, 1]"] ;
102 -> 103 ;
104 [label="gini = 0.0\nsamples = 4\nvalue = [4, 0]"] ;
102 -> 104 ;
105 [label="gini = 0.0\nsamples = 5\nvalue = [0, 5]"] ;
99 -> 105 ;
106 [label="opponent_board_total_health <= 3.5\ngini = 0.48\nsamples = 30\nvalue = [18, 12]"] ;
98 -> 106 ;
107 [label="my_health <= 25.5\ngini = 0.496\nsamples = 22\nvalue = [10, 12]"] ;
106 -> 107 ;
108 [label="my_board_total_health <= 7.5\ngini = 0.444\nsamples = 9\nvalue = [6, 3]"] ;
107 -> 108 ;
109 [label="my_health <= 10.5\ngini = 0.375\nsamples = 8\nvalue = [6, 2]"] ;
108 -> 109 ;
110 [label="gini = 0.0\nsamples = 1\nvalue = [0, 1]"] ;
109 -> 110 ;
111 [label="my_board_total_attack <= 3.5\ngini = 0.245\nsamples = 7\nvalue = [6, 1]"] ;
109 -> 111 ;
112 [label="gini = 0.0\nsamples = 6\nvalue = [6, 0]"] ;
111 -> 112 ;
113 [label="gini = 0.0\nsamples = 1\nvalue = [0, 1]"] ;
111 -> 113 ;
114 [label="gini = 0.0\nsamples = 1\nvalue = [0, 1]"] ;
108 -> 114 ;
115 [label="my_board_total_attack <= 3.5\ngini = 0.426\nsamples = 13\nvalue = [4, 9]"] ;
107 -> 115 ;
116 [label="opponent_hand <= 7.0\ngini = 0.298\nsamples = 11\nvalue = [2, 9]"] ;
115 -> 116 ;
117 [label="opponent_board_total_health <= 2.5\ngini = 0.18\nsamples = 10\nvalue = [1, 9]"] ;
116 -> 117 ;
118 [label="gini = 0.0\nsamples = 8\nvalue = [0, 8]"] ;
117 -> 118 ;
119 [label="opponent_board_total_attack <= 2.0\ngini = 0.5\nsamples = 2\nvalue = [1, 1]"] ;
117 -> 119 ;
120 [label="gini = 0.0\nsamples = 1\nvalue = [1, 0]"] ;
119 -> 120 ;
121 [label="gini = 0.0\nsamples = 1\nvalue = [0, 1]"] ;
119 -> 121 ;
122 [label="gini = 0.0\nsamples = 1\nvalue = [1, 0]"] ;
116 -> 122 ;
123 [label="gini = 0.0\nsamples = 2\nvalue = [2, 0]"] ;
115 -> 123 ;
124 [label="gini = 0.0\nsamples = 8\nvalue = [8, 0]"] ;
106 -> 124 ;
125 [label="gini = 0.0\nsamples = 6\nvalue = [0, 6]"] ;
97 -> 125 ;
126 [label="my_board_total_health <= 7.5\ngini = 0.291\nsamples = 17\nvalue = [3, 14]"] ;
96 -> 126 ;
127 [label="opponent_board_total_attack <= 3.5\ngini = 0.219\nsamples = 16\nvalue = [2, 14]"] ;
126 -> 127 ;
128 [label="gini = 0.0\nsamples = 11\nvalue = [0, 11]"] ;
127 -> 128 ;
129 [label="opponent_board_nb_creatures <= 1.5\ngini = 0.48\nsamples = 5\nvalue = [2, 3]"] ;
127 -> 129 ;
130 [label="opponent_hand <= 4.0\ngini = 0.444\nsamples = 3\nvalue = [2, 1]"] ;
129 -> 130 ;
131 [label="gini = 0.0\nsamples = 1\nvalue = [0, 1]"] ;
130 -> 131 ;
132 [label="gini = 0.0\nsamples = 2\nvalue = [2, 0]"] ;
130 -> 132 ;
133 [label="gini = 0.0\nsamples = 2\nvalue = [0, 2]"] ;
129 -> 133 ;
134 [label="gini = 0.0\nsamples = 1\nvalue = [1, 0]"] ;
126 -> 134 ;
135 [label="opponent_board_total_health <= 7.5\ngini = 0.31\nsamples = 365\nvalue = [295, 70]"] ;
1 -> 135 ;
136 [label="opponent_health <= 15.5\ngini = 0.421\nsamples = 156\nvalue = [109, 47]"] ;
135 -> 136 ;
137 [label="my_board_total_health <= 1.5\ngini = 0.494\nsamples = 36\nvalue = [16, 20]"] ;
136 -> 137 ;
138 [label="opponent_hand <= 1.5\ngini = 0.444\nsamples = 15\nvalue = [10, 5]"] ;
137 -> 138 ;
139 [label="gini = 0.0\nsamples = 2\nvalue = [0, 2]"] ;
138 -> 139 ;
140 [label="my_hand <= 4.5\ngini = 0.355\nsamples = 13\nvalue = [10, 3]"] ;
138 -> 140 ;
141 [label="my_health <= 16.5\ngini = 0.165\nsamples = 11\nvalue = [10, 1]"] ;
140 -> 141 ;
142 [label="my_board_total_health <= 0.5\ngini = 0.5\nsamples = 2\nvalue = [1, 1]"] ;
141 -> 142 ;
143 [label="gini = 0.0\nsamples = 1\nvalue = [0, 1]"] ;
142 -> 143 ;
144 [label="gini = 0.0\nsamples = 1\nvalue = [1, 0]"] ;
142 -> 144 ;
145 [label="gini = 0.0\nsamples = 9\nvalue = [9, 0]"] ;
141 -> 145 ;
146 [label="gini = 0.0\nsamples = 2\nvalue = [0, 2]"] ;
140 -> 146 ;
147 [label="my_health <= 16.5\ngini = 0.408\nsamples = 21\nvalue = [6, 15]"] ;
137 -> 147 ;
148 [label="gini = 0.0\nsamples = 2\nvalue = [2, 0]"] ;
147 -> 148 ;
149 [label="opponent_hand <= 5.0\ngini = 0.332\nsamples = 19\nvalue = [4, 15]"] ;
147 -> 149 ;
150 [label="opponent_board_total_health <= 2.5\ngini = 0.124\nsamples = 15\nvalue = [1, 14]"] ;
149 -> 150 ;
151 [label="gini = 0.0\nsamples = 1\nvalue = [1, 0]"] ;
150 -> 151 ;
152 [label="gini = 0.0\nsamples = 14\nvalue = [0, 14]"] ;
150 -> 152 ;
153 [label="opponent_board_total_health <= 4.0\ngini = 0.375\nsamples = 4\nvalue = [3, 1]"] ;
149 -> 153 ;
154 [label="gini = 0.0\nsamples = 1\nvalue = [0, 1]"] ;
153 -> 154 ;
155 [label="gini = 0.0\nsamples = 3\nvalue = [3, 0]"] ;
153 -> 155 ;
156 [label="my_health <= 18.5\ngini = 0.349\nsamples = 120\nvalue = [93, 27]"] ;
136 -> 156 ;
157 [label="my_hand <= 6.5\ngini = 0.156\nsamples = 47\nvalue = [43, 4]"] ;
156 -> 157 ;
158 [label="opponent_board_total_health <= 2.5\ngini = 0.048\nsamples = 41\nvalue = [40, 1]"] ;
157 -> 158 ;
159 [label="opponent_health <= 27.0\ngini = 0.444\nsamples = 3\nvalue = [2, 1]"] ;
158 -> 159 ;
160 [label="gini = 0.0\nsamples = 2\nvalue = [2, 0]"] ;
159 -> 160 ;
161 [label="gini = 0.0\nsamples = 1\nvalue = [0, 1]"] ;
159 -> 161 ;
162 [label="gini = 0.0\nsamples = 38\nvalue = [38, 0]"] ;
158 -> 162 ;
163 [label="my_health <= 13.5\ngini = 0.5\nsamples = 6\nvalue = [3, 3]"] ;
157 -> 163 ;
164 [label="my_health <= 10.0\ngini = 0.375\nsamples = 4\nvalue = [3, 1]"] ;
163 -> 164 ;
165 [label="gini = 0.0\nsamples = 1\nvalue = [0, 1]"] ;
164 -> 165 ;
166 [label="gini = 0.0\nsamples = 3\nvalue = [3, 0]"] ;
164 -> 166 ;
167 [label="gini = 0.0\nsamples = 2\nvalue = [0, 2]"] ;
163 -> 167 ;
168 [label="opponent_hand <= 1.5\ngini = 0.432\nsamples = 73\nvalue = [50, 23]"] ;
156 -> 168 ;
169 [label="my_hand <= 2.0\ngini = 0.32\nsamples = 5\nvalue = [1, 4]"] ;
168 -> 169 ;
170 [label="gini = 0.0\nsamples = 1\nvalue = [1, 0]"] ;
169 -> 170 ;
171 [label="gini = 0.0\nsamples = 4\nvalue = [0, 4]"] ;
169 -> 171 ;
172 [label="my_hand <= 8.5\ngini = 0.403\nsamples = 68\nvalue = [49, 19]"] ;
168 -> 172 ;
173 [label="opponent_hand <= 5.5\ngini = 0.393\nsamples = 67\nvalue = [49, 18]"] ;
172 -> 173 ;
174 [label="my_health <= 21.5\ngini = 0.424\nsamples = 59\nvalue = [41, 18]"] ;
173 -> 174 ;
175 [label="opponent_board_nb_creatures <= 2.5\ngini = 0.498\nsamples = 15\nvalue = [8, 7]"] ;
174 -> 175 ;
176 [label="my_board_total_health <= 1.0\ngini = 0.444\nsamples = 9\nvalue = [3, 6]"] ;
175 -> 176 ;
177 [label="gini = 0.0\nsamples = 2\nvalue = [2, 0]"] ;
176 -> 177 ;
178 [label="opponent_board_total_health <= 3.5\ngini = 0.245\nsamples = 7\nvalue = [1, 6]"] ;
176 -> 178 ;
179 [label="gini = 0.0\nsamples = 1\nvalue = [1, 0]"] ;
178 -> 179 ;
180 [label="gini = 0.0\nsamples = 6\nvalue = [0, 6]"] ;
178 -> 180 ;
181 [label="opponent_board_total_health <= 6.5\ngini = 0.278\nsamples = 6\nvalue = [5, 1]"] ;
175 -> 181 ;
182 [label="opponent_health <= 28.0\ngini = 0.5\nsamples = 2\nvalue = [1, 1]"] ;
181 -> 182 ;
183 [label="gini = 0.0\nsamples = 1\nvalue = [1, 0]"] ;
182 -> 183 ;
184 [label="gini = 0.0\nsamples = 1\nvalue = [0, 1]"] ;
182 -> 184 ;
185 [label="gini = 0.0\nsamples = 4\nvalue = [4, 0]"] ;
181 -> 185 ;
186 [label="my_board_total_attack <= 2.5\ngini = 0.375\nsamples = 44\nvalue = [33, 11]"] ;
174 -> 186 ;
187 [label="opponent_board_total_health <= 5.5\ngini = 0.431\nsamples = 35\nvalue = [24, 11]"] ;
186 -> 187 ;
188 [label="opponent_health <= 23.5\ngini = 0.498\nsamples = 17\nvalue = [9, 8]"] ;
187 -> 188 ;
189 [label="my_board_total_health <= 1.5\ngini = 0.32\nsamples = 5\nvalue = [4, 1]"] ;
188 -> 189 ;
190 [label="gini = 0.0\nsamples = 3\nvalue = [3, 0]"] ;
189 -> 190 ;
191 [label="opponent_board_total_attack <= 6.0\ngini = 0.5\nsamples = 2\nvalue = [1, 1]"] ;
189 -> 191 ;
192 [label="gini = 0.0\nsamples = 1\nvalue = [0, 1]"] ;
191 -> 192 ;
193 [label="gini = 0.0\nsamples = 1\nvalue = [1, 0]"] ;
191 -> 193 ;
194 [label="opponent_board_total_health <= 4.5\ngini = 0.486\nsamples = 12\nvalue = [5, 7]"] ;
188 -> 194 ;
195 [label="my_hand <= 6.5\ngini = 0.469\nsamples = 8\nvalue = [5, 3]"] ;
194 -> 195 ;
196 [label="opponent_board_total_health <= 3.5\ngini = 0.408\nsamples = 7\nvalue = [5, 2]"] ;
195 -> 196 ;
197 [label="gini = 0.0\nsamples = 1\nvalue = [0, 1]"] ;
196 -> 197 ;
198 [label="my_board_nb_creatures <= 0.5\ngini = 0.278\nsamples = 6\nvalue = [5, 1]"] ;
196 -> 198 ;
199 [label="gini = 0.0\nsamples = 4\nvalue = [4, 0]"] ;
198 -> 199 ;
200 [label="opponent_hand <= 3.5\ngini = 0.5\nsamples = 2\nvalue = [1, 1]"] ;
198 -> 200 ;
201 [label="gini = 0.0\nsamples = 1\nvalue = [1, 0]"] ;
200 -> 201 ;
202 [label="gini = 0.0\nsamples = 1\nvalue = [0, 1]"] ;
200 -> 202 ;
203 [label="gini = 0.0\nsamples = 1\nvalue = [0, 1]"] ;
195 -> 203 ;
204 [label="gini = 0.0\nsamples = 4\nvalue = [0, 4]"] ;
194 -> 204 ;
205 [label="opponent_health <= 21.0\ngini = 0.278\nsamples = 18\nvalue = [15, 3]"] ;
187 -> 205 ;
206 [label="opponent_board_total_attack <= 8.5\ngini = 0.48\nsamples = 5\nvalue = [2, 3]"] ;
205 -> 206 ;
207 [label="gini = 0.0\nsamples = 3\nvalue = [0, 3]"] ;
206 -> 207 ;
208 [label="gini = 0.0\nsamples = 2\nvalue = [2, 0]"] ;
206 -> 208 ;
209 [label="gini = 0.0\nsamples = 13\nvalue = [13, 0]"] ;
205 -> 209 ;
210 [label="gini = 0.0\nsamples = 9\nvalue = [9, 0]"] ;
186 -> 210 ;
211 [label="gini = 0.0\nsamples = 8\nvalue = [8, 0]"] ;
173 -> 211 ;
212 [label="gini = 0.0\nsamples = 1\nvalue = [0, 1]"] ;
172 -> 212 ;
213 [label="me_playing <= 0.5\ngini = 0.196\nsamples = 209\nvalue = [186, 23]"] ;
135 -> 213 ;
214 [label="opponent_health <= 5.5\ngini = 0.125\nsamples = 179\nvalue = [167, 12]"] ;
213 -> 214 ;
215 [label="opponent_hand <= 4.5\ngini = 0.444\nsamples = 3\nvalue = [1, 2]"] ;
214 -> 215 ;
216 [label="gini = 0.0\nsamples = 2\nvalue = [0, 2]"] ;
215 -> 216 ;
217 [label="gini = 0.0\nsamples = 1\nvalue = [1, 0]"] ;
215 -> 217 ;
218 [label="opponent_hand <= 0.5\ngini = 0.107\nsamples = 176\nvalue = [166, 10]"] ;
214 -> 218 ;
219 [label="opponent_board_total_health <= 9.5\ngini = 0.397\nsamples = 11\nvalue = [8, 3]"] ;
218 -> 219 ;
220 [label="opponent_board_total_attack <= 7.0\ngini = 0.48\nsamples = 5\nvalue = [2, 3]"] ;
219 -> 220 ;
221 [label="gini = 0.0\nsamples = 2\nvalue = [2, 0]"] ;
220 -> 221 ;
222 [label="gini = 0.0\nsamples = 3\nvalue = [0, 3]"] ;
220 -> 222 ;
223 [label="gini = 0.0\nsamples = 6\nvalue = [6, 0]"] ;
219 -> 223 ;
224 [label="opponent_board_total_attack <= 5.5\ngini = 0.081\nsamples = 165\nvalue = [158, 7]"] ;
218 -> 224 ;
225 [label="opponent_board_total_health <= 9.5\ngini = 0.375\nsamples = 8\nvalue = [6, 2]"] ;
224 -> 225 ;
226 [label="gini = 0.0\nsamples = 5\nvalue = [5, 0]"] ;
225 -> 226 ;
227 [label="opponent_hand <= 3.5\ngini = 0.444\nsamples = 3\nvalue = [1, 2]"] ;
225 -> 227 ;
228 [label="gini = 0.0\nsamples = 2\nvalue = [0, 2]"] ;
227 -> 228 ;
229 [label="gini = 0.0\nsamples = 1\nvalue = [1, 0]"] ;
227 -> 229 ;
230 [label="my_board_total_attack <= 7.5\ngini = 0.062\nsamples = 157\nvalue = [152, 5]"] ;
224 -> 230 ;
231 [label="my_hand <= 6.5\ngini = 0.051\nsamples = 154\nvalue = [150, 4]"] ;
230 -> 231 ;
232 [label="my_health <= 26.5\ngini = 0.016\nsamples = 125\nvalue = [124, 1]"] ;
231 -> 232 ;
233 [label="gini = 0.0\nsamples = 118\nvalue = [118, 0]"] ;
232 -> 233 ;
234 [label="opponent_board_total_attack <= 11.0\ngini = 0.245\nsamples = 7\nvalue = [6, 1]"] ;
232 -> 234 ;
235 [label="my_board_total_health <= 4.0\ngini = 0.5\nsamples = 2\nvalue = [1, 1]"] ;
234 -> 235 ;
236 [label="gini = 0.0\nsamples = 1\nvalue = [1, 0]"] ;
235 -> 236 ;
237 [label="gini = 0.0\nsamples = 1\nvalue = [0, 1]"] ;
235 -> 237 ;
238 [label="gini = 0.0\nsamples = 5\nvalue = [5, 0]"] ;
234 -> 238 ;
239 [label="my_board_total_attack <= 3.5\ngini = 0.185\nsamples = 29\nvalue = [26, 3]"] ;
231 -> 239 ;
240 [label="opponent_health <= 23.0\ngini = 0.137\nsamples = 27\nvalue = [25, 2]"] ;
239 -> 240 ;
241 [label="my_health <= 14.5\ngini = 0.408\nsamples = 7\nvalue = [5, 2]"] ;
240 -> 241 ;
242 [label="gini = 0.0\nsamples = 4\nvalue = [4, 0]"] ;
241 -> 242 ;
243 [label="opponent_board_total_health <= 12.5\ngini = 0.444\nsamples = 3\nvalue = [1, 2]"] ;
241 -> 243 ;
244 [label="gini = 0.0\nsamples = 2\nvalue = [0, 2]"] ;
243 -> 244 ;
245 [label="gini = 0.0\nsamples = 1\nvalue = [1, 0]"] ;
243 -> 245 ;
246 [label="gini = 0.0\nsamples = 20\nvalue = [20, 0]"] ;
240 -> 246 ;
247 [label="opponent_board_nb_creatures <= 6.0\ngini = 0.5\nsamples = 2\nvalue = [1, 1]"] ;
239 -> 247 ;
248 [label="gini = 0.0\nsamples = 1\nvalue = [1, 0]"] ;
247 -> 248 ;
249 [label="gini = 0.0\nsamples = 1\nvalue = [0, 1]"] ;
247 -> 249 ;
250 [label="opponent_hand <= 5.0\ngini = 0.444\nsamples = 3\nvalue = [2, 1]"] ;
230 -> 250 ;
251 [label="gini = 0.0\nsamples = 2\nvalue = [2, 0]"] ;
250 -> 251 ;
252 [label="gini = 0.0\nsamples = 1\nvalue = [0, 1]"] ;
250 -> 252 ;
253 [label="opponent_board_total_health <= 14.5\ngini = 0.464\nsamples = 30\nvalue = [19, 11]"] ;
213 -> 253 ;
254 [label="my_board_total_attack <= 4.5\ngini = 0.403\nsamples = 25\nvalue = [18, 7]"] ;
253 -> 254 ;
255 [label="opponent_hand <= 6.0\ngini = 0.219\nsamples = 16\nvalue = [14, 2]"] ;
254 -> 255 ;
256 [label="opponent_board_total_attack <= 6.5\ngini = 0.124\nsamples = 15\nvalue = [14, 1]"] ;
255 -> 256 ;
257 [label="my_health <= 17.0\ngini = 0.5\nsamples = 2\nvalue = [1, 1]"] ;
256 -> 257 ;
258 [label="gini = 0.0\nsamples = 1\nvalue = [1, 0]"] ;
257 -> 258 ;
259 [label="gini = 0.0\nsamples = 1\nvalue = [0, 1]"] ;
257 -> 259 ;
260 [label="gini = 0.0\nsamples = 13\nvalue = [13, 0]"] ;
256 -> 260 ;
261 [label="gini = 0.0\nsamples = 1\nvalue = [0, 1]"] ;
255 -> 261 ;
262 [label="my_health <= 23.5\ngini = 0.494\nsamples = 9\nvalue = [4, 5]"] ;
254 -> 262 ;
263 [label="opponent_board_nb_creatures <= 3.5\ngini = 0.32\nsamples = 5\nvalue = [4, 1]"] ;
262 -> 263 ;
264 [label="gini = 0.0\nsamples = 4\nvalue = [4, 0]"] ;
263 -> 264 ;
265 [label="gini = 0.0\nsamples = 1\nvalue = [0, 1]"] ;
263 -> 265 ;
266 [label="gini = 0.0\nsamples = 4\nvalue = [0, 4]"] ;
262 -> 266 ;
267 [label="my_health <= 26.0\ngini = 0.32\nsamples = 5\nvalue = [1, 4]"] ;
253 -> 267 ;
268 [label="gini = 0.0\nsamples = 4\nvalue = [0, 4]"] ;
267 -> 268 ;
269 [label="gini = 0.0\nsamples = 1\nvalue = [1, 0]"] ;
267 -> 269 ;
270 [label="opponent_board_nb_creatures <= 1.5\ngini = 0.394\nsamples = 818\nvalue = [221, 597]"] ;
0 -> 270 [labeldistance=2.5, labelangle=-45, headlabel="False"] ;
271 [label="my_hand <= 0.5\ngini = 0.27\nsamples = 515\nvalue = [83, 432]"] ;
270 -> 271 ;
272 [label="my_board_nb_creatures <= 6.0\ngini = 0.32\nsamples = 10\nvalue = [8, 2]"] ;
271 -> 272 ;
273 [label="me_playing <= 0.5\ngini = 0.198\nsamples = 9\nvalue = [8, 1]"] ;
272 -> 273 ;
274 [label="my_health <= 16.0\ngini = 0.444\nsamples = 3\nvalue = [2, 1]"] ;
273 -> 274 ;
275 [label="gini = 0.0\nsamples = 2\nvalue = [2, 0]"] ;
274 -> 275 ;
276 [label="gini = 0.0\nsamples = 1\nvalue = [0, 1]"] ;
274 -> 276 ;
277 [label="gini = 0.0\nsamples = 6\nvalue = [6, 0]"] ;
273 -> 277 ;
278 [label="gini = 0.0\nsamples = 1\nvalue = [0, 1]"] ;
272 -> 278 ;
279 [label="my_health <= 22.5\ngini = 0.253\nsamples = 505\nvalue = [75, 430]"] ;
271 -> 279 ;
280 [label="opponent_board_total_health <= 3.5\ngini = 0.379\nsamples = 201\nvalue = [51, 150]"] ;
279 -> 280 ;
281 [label="my_board_total_attack <= 5.5\ngini = 0.267\nsamples = 151\nvalue = [24, 127]"] ;
280 -> 281 ;
282 [label="my_health <= 8.5\ngini = 0.488\nsamples = 38\nvalue = [16, 22]"] ;
281 -> 282 ;
283 [label="gini = 0.0\nsamples = 3\nvalue = [3, 0]"] ;
282 -> 283 ;
284 [label="opponent_health <= 7.5\ngini = 0.467\nsamples = 35\nvalue = [13, 22]"] ;
282 -> 284 ;
285 [label="gini = 0.0\nsamples = 2\nvalue = [2, 0]"] ;
284 -> 285 ;
286 [label="opponent_hand <= 2.5\ngini = 0.444\nsamples = 33\nvalue = [11, 22]"] ;
284 -> 286 ;
287 [label="opponent_health <= 28.5\ngini = 0.245\nsamples = 14\nvalue = [2, 12]"] ;
286 -> 287 ;
288 [label="opponent_health <= 16.0\ngini = 0.142\nsamples = 13\nvalue = [1, 12]"] ;
287 -> 288 ;
289 [label="my_board_total_health <= 6.5\ngini = 0.444\nsamples = 3\nvalue = [1, 2]"] ;
288 -> 289 ;
290 [label="gini = 0.0\nsamples = 2\nvalue = [0, 2]"] ;
289 -> 290 ;
291 [label="gini = 0.0\nsamples = 1\nvalue = [1, 0]"] ;
289 -> 291 ;
292 [label="gini = 0.0\nsamples = 10\nvalue = [0, 10]"] ;
288 -> 292 ;
293 [label="gini = 0.0\nsamples = 1\nvalue = [1, 0]"] ;
287 -> 293 ;
294 [label="my_board_total_health <= 2.5\ngini = 0.499\nsamples = 19\nvalue = [9, 10]"] ;
286 -> 294 ;
295 [label="gini = 0.0\nsamples = 4\nvalue = [0, 4]"] ;
294 -> 295 ;
296 [label="opponent_board_total_attack <= 0.5\ngini = 0.48\nsamples = 15\nvalue = [9, 6]"] ;
294 -> 296 ;
297 [label="my_board_total_health <= 5.5\ngini = 0.444\nsamples = 9\nvalue = [3, 6]"] ;
296 -> 297 ;
298 [label="my_board_nb_creatures <= 3.0\ngini = 0.48\nsamples = 5\nvalue = [3, 2]"] ;
297 -> 298 ;
299 [label="my_board_total_attack <= 3.5\ngini = 0.375\nsamples = 4\nvalue = [3, 1]"] ;
298 -> 299 ;
300 [label="gini = 0.0\nsamples = 1\nvalue = [0, 1]"] ;
299 -> 300 ;
301 [label="gini = 0.0\nsamples = 3\nvalue = [3, 0]"] ;
299 -> 301 ;
302 [label="gini = 0.0\nsamples = 1\nvalue = [0, 1]"] ;
298 -> 302 ;
303 [label="gini = 0.0\nsamples = 4\nvalue = [0, 4]"] ;
297 -> 303 ;
304 [label="gini = 0.0\nsamples = 6\nvalue = [6, 0]"] ;
296 -> 304 ;
305 [label="opponent_hand <= 5.5\ngini = 0.132\nsamples = 113\nvalue = [8, 105]"] ;
281 -> 305 ;
306 [label="my_board_total_health <= 7.5\ngini = 0.076\nsamples = 101\nvalue = [4, 97]"] ;
305 -> 306 ;
307 [label="opponent_health <= 22.5\ngini = 0.202\nsamples = 35\nvalue = [4, 31]"] ;
306 -> 307 ;
308 [label="my_board_total_health <= 4.5\ngini = 0.077\nsamples = 25\nvalue = [1, 24]"] ;
307 -> 308 ;
309 [label="my_board_total_attack <= 8.5\ngini = 0.375\nsamples = 4\nvalue = [1, 3]"] ;
308 -> 309 ;
310 [label="gini = 0.0\nsamples = 3\nvalue = [0, 3]"] ;
309 -> 310 ;
311 [label="gini = 0.0\nsamples = 1\nvalue = [1, 0]"] ;
309 -> 311 ;
312 [label="gini = 0.0\nsamples = 21\nvalue = [0, 21]"] ;
308 -> 312 ;
313 [label="my_hand <= 4.5\ngini = 0.42\nsamples = 10\nvalue = [3, 7]"] ;
307 -> 313 ;
314 [label="my_board_nb_creatures <= 4.5\ngini = 0.5\nsamples = 6\nvalue = [3, 3]"] ;
313 -> 314 ;
315 [label="me_playing <= 0.5\ngini = 0.48\nsamples = 5\nvalue = [2, 3]"] ;
314 -> 315 ;
316 [label="gini = 0.0\nsamples = 2\nvalue = [0, 2]"] ;
315 -> 316 ;
317 [label="my_board_total_attack <= 8.0\ngini = 0.444\nsamples = 3\nvalue = [2, 1]"] ;
315 -> 317 ;
318 [label="gini = 0.0\nsamples = 2\nvalue = [2, 0]"] ;
317 -> 318 ;
319 [label="gini = 0.0\nsamples = 1\nvalue = [0, 1]"] ;
317 -> 319 ;
320 [label="gini = 0.0\nsamples = 1\nvalue = [1, 0]"] ;
314 -> 320 ;
321 [label="gini = 0.0\nsamples = 4\nvalue = [0, 4]"] ;
313 -> 321 ;
322 [label="gini = 0.0\nsamples = 66\nvalue = [0, 66]"] ;
306 -> 322 ;
323 [label="my_board_total_attack <= 18.0\ngini = 0.444\nsamples = 12\nvalue = [4, 8]"] ;
305 -> 323 ;
324 [label="opponent_health <= 9.5\ngini = 0.32\nsamples = 10\nvalue = [2, 8]"] ;
323 -> 324 ;
325 [label="my_health <= 16.0\ngini = 0.444\nsamples = 3\nvalue = [2, 1]"] ;
324 -> 325 ;
326 [label="gini = 0.0\nsamples = 2\nvalue = [2, 0]"] ;
325 -> 326 ;
327 [label="gini = 0.0\nsamples = 1\nvalue = [0, 1]"] ;
325 -> 327 ;
328 [label="gini = 0.0\nsamples = 7\nvalue = [0, 7]"] ;
324 -> 328 ;
329 [label="gini = 0.0\nsamples = 2\nvalue = [2, 0]"] ;
323 -> 329 ;
330 [label="opponent_hand <= 5.5\ngini = 0.497\nsamples = 50\nvalue = [27, 23]"] ;
280 -> 330 ;
331 [label="my_board_total_attack <= 3.5\ngini = 0.48\nsamples = 35\nvalue = [14, 21]"] ;
330 -> 331 ;
332 [label="gini = 0.0\nsamples = 4\nvalue = [4, 0]"] ;
331 -> 332 ;
333 [label="me_playing <= 0.5\ngini = 0.437\nsamples = 31\nvalue = [10, 21]"] ;
331 -> 333 ;
334 [label="my_hand <= 1.5\ngini = 0.18\nsamples = 10\nvalue = [1, 9]"] ;
333 -> 334 ;
335 [label="gini = 0.0\nsamples = 1\nvalue = [1, 0]"] ;
334 -> 335 ;
336 [label="gini = 0.0\nsamples = 9\nvalue = [0, 9]"] ;
334 -> 336 ;
337 [label="opponent_health <= 24.5\ngini = 0.49\nsamples = 21\nvalue = [9, 12]"] ;
333 -> 337 ;
338 [label="my_health <= 13.5\ngini = 0.444\nsamples = 18\nvalue = [6, 12]"] ;
337 -> 338 ;
339 [label="gini = 0.0\nsamples = 4\nvalue = [0, 4]"] ;
338 -> 339 ;
340 [label="opponent_board_total_attack <= 7.0\ngini = 0.49\nsamples = 14\nvalue = [6, 8]"] ;
338 -> 340 ;
341 [label="my_board_total_health <= 10.5\ngini = 0.444\nsamples = 12\nvalue = [4, 8]"] ;
340 -> 341 ;
342 [label="opponent_board_total_attack <= 3.5\ngini = 0.5\nsamples = 8\nvalue = [4, 4]"] ;
341 -> 342 ;
343 [label="gini = 0.0\nsamples = 3\nvalue = [3, 0]"] ;
342 -> 343 ;
344 [label="my_board_total_attack <= 10.0\ngini = 0.32\nsamples = 5\nvalue = [1, 4]"] ;
342 -> 344 ;
345 [label="gini = 0.0\nsamples = 4\nvalue = [0, 4]"] ;
344 -> 345 ;
346 [label="gini = 0.0\nsamples = 1\nvalue = [1, 0]"] ;
344 -> 346 ;
347 [label="gini = 0.0\nsamples = 4\nvalue = [0, 4]"] ;
341 -> 347 ;
348 [label="gini = 0.0\nsamples = 2\nvalue = [2, 0]"] ;
340 -> 348 ;
349 [label="gini = 0.0\nsamples = 3\nvalue = [3, 0]"] ;
337 -> 349 ;
350 [label="opponent_board_total_health <= 7.5\ngini = 0.231\nsamples = 15\nvalue = [13, 2]"] ;
330 -> 350 ;
351 [label="gini = 0.0\nsamples = 13\nvalue = [13, 0]"] ;
350 -> 351 ;
352 [label="gini = 0.0\nsamples = 2\nvalue = [0, 2]"] ;
350 -> 352 ;
353 [label="my_board_total_attack <= 3.5\ngini = 0.145\nsamples = 304\nvalue = [24, 280]"] ;
279 -> 353 ;
354 [label="opponent_health <= 22.0\ngini = 0.397\nsamples = 22\nvalue = [6, 16]"] ;
353 -> 354 ;
355 [label="my_health <= 23.5\ngini = 0.165\nsamples = 11\nvalue = [1, 10]"] ;
354 -> 355 ;
356 [label="opponent_health <= 11.5\ngini = 0.5\nsamples = 2\nvalue = [1, 1]"] ;
355 -> 356 ;
357 [label="gini = 0.0\nsamples = 1\nvalue = [0, 1]"] ;
356 -> 357 ;
358 [label="gini = 0.0\nsamples = 1\nvalue = [1, 0]"] ;
356 -> 358 ;
359 [label="gini = 0.0\nsamples = 9\nvalue = [0, 9]"] ;
355 -> 359 ;
360 [label="me_playing <= 0.5\ngini = 0.496\nsamples = 11\nvalue = [5, 6]"] ;
354 -> 360 ;
361 [label="gini = 0.0\nsamples = 4\nvalue = [0, 4]"] ;
360 -> 361 ;
362 [label="opponent_board_total_attack <= 0.5\ngini = 0.408\nsamples = 7\nvalue = [5, 2]"] ;
360 -> 362 ;
363 [label="my_board_total_health <= 4.5\ngini = 0.444\nsamples = 3\nvalue = [1, 2]"] ;
362 -> 363 ;
364 [label="gini = 0.0\nsamples = 1\nvalue = [1, 0]"] ;
363 -> 364 ;
365 [label="gini = 0.0\nsamples = 2\nvalue = [0, 2]"] ;
363 -> 365 ;
366 [label="gini = 0.0\nsamples = 4\nvalue = [4, 0]"] ;
362 -> 366 ;
367 [label="opponent_board_total_attack <= 8.5\ngini = 0.12\nsamples = 282\nvalue = [18, 264]"] ;
353 -> 367 ;
368 [label="my_board_total_health <= 23.5\ngini = 0.114\nsamples = 281\nvalue = [17, 264]"] ;
367 -> 368 ;
369 [label="opponent_board_total_health <= 10.0\ngini = 0.108\nsamples = 280\nvalue = [16, 264]"] ;
368 -> 369 ;
370 [label="opponent_hand <= 7.5\ngini = 0.102\nsamples = 279\nvalue = [15, 264]"] ;
369 -> 370 ;
371 [label="opponent_health <= 28.5\ngini = 0.078\nsamples = 247\nvalue = [10, 237]"] ;
370 -> 371 ;
372 [label="opponent_health <= 5.0\ngini = 0.065\nsamples = 237\nvalue = [8, 229]"] ;
371 -> 372 ;
373 [label="my_hand <= 2.0\ngini = 0.444\nsamples = 3\nvalue = [1, 2]"] ;
372 -> 373 ;
374 [label="gini = 0.0\nsamples = 1\nvalue = [1, 0]"] ;
373 -> 374 ;
375 [label="gini = 0.0\nsamples = 2\nvalue = [0, 2]"] ;
373 -> 375 ;
376 [label="opponent_board_total_health <= 4.5\ngini = 0.058\nsamples = 234\nvalue = [7, 227]"] ;
372 -> 376 ;
377 [label="opponent_health <= 26.5\ngini = 0.03\nsamples = 197\nvalue = [3, 194]"] ;
376 -> 377 ;
378 [label="my_hand <= 5.5\ngini = 0.022\nsamples = 183\nvalue = [2, 181]"] ;
377 -> 378 ;
379 [label="opponent_hand <= 5.5\ngini = 0.013\nsamples = 156\nvalue = [1, 155]"] ;
378 -> 379 ;
380 [label="gini = 0.0\nsamples = 117\nvalue = [0, 117]"] ;
379 -> 380 ;
381 [label="my_hand <= 2.5\ngini = 0.05\nsamples = 39\nvalue = [1, 38]"] ;
379 -> 381 ;
382 [label="my_health <= 29.0\ngini = 0.142\nsamples = 13\nvalue = [1, 12]"] ;
381 -> 382 ;
383 [label="gini = 0.0\nsamples = 8\nvalue = [0, 8]"] ;
382 -> 383 ;
384 [label="opponent_health <= 18.0\ngini = 0.32\nsamples = 5\nvalue = [1, 4]"] ;
382 -> 384 ;
385 [label="my_board_total_health <= 7.0\ngini = 0.5\nsamples = 2\nvalue = [1, 1]"] ;
384 -> 385 ;
386 [label="gini = 0.0\nsamples = 1\nvalue = [0, 1]"] ;
385 -> 386 ;
387 [label="gini = 0.0\nsamples = 1\nvalue = [1, 0]"] ;
385 -> 387 ;
388 [label="gini = 0.0\nsamples = 3\nvalue = [0, 3]"] ;
384 -> 388 ;
389 [label="gini = 0.0\nsamples = 26\nvalue = [0, 26]"] ;
381 -> 389 ;
390 [label="my_board_nb_creatures <= 3.5\ngini = 0.071\nsamples = 27\nvalue = [1, 26]"] ;
378 -> 390 ;
391 [label="gini = 0.0\nsamples = 20\nvalue = [0, 20]"] ;
390 -> 391 ;
392 [label="opponent_health <= 23.0\ngini = 0.245\nsamples = 7\nvalue = [1, 6]"] ;
390 -> 392 ;
393 [label="gini = 0.0\nsamples = 6\nvalue = [0, 6]"] ;
392 -> 393 ;
394 [label="gini = 0.0\nsamples = 1\nvalue = [1, 0]"] ;
392 -> 394 ;
395 [label="opponent_board_total_attack <= 3.0\ngini = 0.133\nsamples = 14\nvalue = [1, 13]"] ;
377 -> 395 ;
396 [label="gini = 0.0\nsamples = 12\nvalue = [0, 12]"] ;
395 -> 396 ;
397 [label="opponent_board_total_attack <= 5.0\ngini = 0.5\nsamples = 2\nvalue = [1, 1]"] ;
395 -> 397 ;
398 [label="gini = 0.0\nsamples = 1\nvalue = [1, 0]"] ;
397 -> 398 ;
399 [label="gini = 0.0\nsamples = 1\nvalue = [0, 1]"] ;
397 -> 399 ;
400 [label="my_hand <= 6.5\ngini = 0.193\nsamples = 37\nvalue = [4, 33]"] ;
376 -> 400 ;
401 [label="my_board_total_attack <= 6.5\ngini = 0.157\nsamples = 35\nvalue = [3, 32]"] ;
400 -> 401 ;
402 [label="opponent_health <= 21.5\ngini = 0.408\nsamples = 7\nvalue = [2, 5]"] ;
401 -> 402 ;
403 [label="gini = 0.0\nsamples = 4\nvalue = [0, 4]"] ;
402 -> 403 ;
404 [label="my_board_nb_creatures <= 3.5\ngini = 0.444\nsamples = 3\nvalue = [2, 1]"] ;
402 -> 404 ;
405 [label="gini = 0.0\nsamples = 1\nvalue = [0, 1]"] ;
404 -> 405 ;
406 [label="gini = 0.0\nsamples = 2\nvalue = [2, 0]"] ;
404 -> 406 ;
407 [label="opponent_hand <= 3.5\ngini = 0.069\nsamples = 28\nvalue = [1, 27]"] ;
401 -> 407 ;
408 [label="opponent_health <= 21.0\ngini = 0.32\nsamples = 5\nvalue = [1, 4]"] ;
407 -> 408 ;
409 [label="my_board_total_attack <= 8.5\ngini = 0.5\nsamples = 2\nvalue = [1, 1]"] ;
408 -> 409 ;
410 [label="gini = 0.0\nsamples = 1\nvalue = [0, 1]"] ;
409 -> 410 ;
411 [label="gini = 0.0\nsamples = 1\nvalue = [1, 0]"] ;
409 -> 411 ;
412 [label="gini = 0.0\nsamples = 3\nvalue = [0, 3]"] ;
408 -> 412 ;
413 [label="gini = 0.0\nsamples = 23\nvalue = [0, 23]"] ;
407 -> 413 ;
414 [label="opponent_health <= 15.5\ngini = 0.5\nsamples = 2\nvalue = [1, 1]"] ;
400 -> 414 ;
415 [label="gini = 0.0\nsamples = 1\nvalue = [1, 0]"] ;
414 -> 415 ;
416 [label="gini = 0.0\nsamples = 1\nvalue = [0, 1]"] ;
414 -> 416 ;
417 [label="opponent_health <= 29.5\ngini = 0.32\nsamples = 10\nvalue = [2, 8]"] ;
371 -> 417 ;
418 [label="gini = 0.0\nsamples = 1\nvalue = [1, 0]"] ;
417 -> 418 ;
419 [label="my_board_total_health <= 5.5\ngini = 0.198\nsamples = 9\nvalue = [1, 8]"] ;
417 -> 419 ;
420 [label="opponent_board_total_health <= 1.5\ngini = 0.5\nsamples = 2\nvalue = [1, 1]"] ;
419 -> 420 ;
421 [label="gini = 0.0\nsamples = 1\nvalue = [0, 1]"] ;
420 -> 421 ;
422 [label="gini = 0.0\nsamples = 1\nvalue = [1, 0]"] ;
420 -> 422 ;
423 [label="gini = 0.0\nsamples = 7\nvalue = [0, 7]"] ;
419 -> 423 ;
424 [label="my_health <= 25.5\ngini = 0.264\nsamples = 32\nvalue = [5, 27]"] ;
370 -> 424 ;
425 [label="gini = 0.0\nsamples = 2\nvalue = [2, 0]"] ;
424 -> 425 ;
426 [label="opponent_health <= 20.5\ngini = 0.18\nsamples = 30\nvalue = [3, 27]"] ;
424 -> 426 ;
427 [label="gini = 0.0\nsamples = 19\nvalue = [0, 19]"] ;
426 -> 427 ;
428 [label="my_board_total_health <= 10.0\ngini = 0.397\nsamples = 11\nvalue = [3, 8]"] ;
426 -> 428 ;
429 [label="my_board_total_attack <= 10.5\ngini = 0.5\nsamples = 6\nvalue = [3, 3]"] ;
428 -> 429 ;
430 [label="my_health <= 28.0\ngini = 0.375\nsamples = 4\nvalue = [1, 3]"] ;
429 -> 430 ;
431 [label="gini = 0.0\nsamples = 1\nvalue = [1, 0]"] ;
430 -> 431 ;
432 [label="gini = 0.0\nsamples = 3\nvalue = [0, 3]"] ;
430 -> 432 ;
433 [label="gini = 0.0\nsamples = 2\nvalue = [2, 0]"] ;
429 -> 433 ;
434 [label="gini = 0.0\nsamples = 5\nvalue = [0, 5]"] ;
428 -> 434 ;
435 [label="gini = 0.0\nsamples = 1\nvalue = [1, 0]"] ;
369 -> 435 ;
436 [label="gini = 0.0\nsamples = 1\nvalue = [1, 0]"] ;
368 -> 436 ;
437 [label="gini = 0.0\nsamples = 1\nvalue = [1, 0]"] ;
367 -> 437 ;
438 [label="opponent_health <= 16.5\ngini = 0.496\nsamples = 303\nvalue = [138, 165]"] ;
270 -> 438 ;
439 [label="opponent_board_total_health <= 10.5\ngini = 0.392\nsamples = 101\nvalue = [27, 74]"] ;
438 -> 439 ;
440 [label="my_board_total_attack <= 2.5\ngini = 0.281\nsamples = 71\nvalue = [12, 59]"] ;
439 -> 440 ;
441 [label="opponent_board_total_health <= 6.5\ngini = 0.48\nsamples = 5\nvalue = [3, 2]"] ;
440 -> 441 ;
442 [label="gini = 0.0\nsamples = 3\nvalue = [3, 0]"] ;
441 -> 442 ;
443 [label="gini = 0.0\nsamples = 2\nvalue = [0, 2]"] ;
441 -> 443 ;
444 [label="opponent_board_total_attack <= 9.5\ngini = 0.236\nsamples = 66\nvalue = [9, 57]"] ;
440 -> 444 ;
445 [label="my_board_nb_creatures <= 2.5\ngini = 0.165\nsamples = 55\nvalue = [5, 50]"] ;
444 -> 445 ;
446 [label="gini = 0.0\nsamples = 18\nvalue = [0, 18]"] ;
445 -> 446 ;
447 [label="my_hand <= 2.5\ngini = 0.234\nsamples = 37\nvalue = [5, 32]"] ;
445 -> 447 ;
448 [label="opponent_board_total_health <= 3.5\ngini = 0.091\nsamples = 21\nvalue = [1, 20]"] ;
447 -> 448 ;
449 [label="opponent_health <= 12.0\ngini = 0.5\nsamples = 2\nvalue = [1, 1]"] ;
448 -> 449 ;
450 [label="gini = 0.0\nsamples = 1\nvalue = [0, 1]"] ;
449 -> 450 ;
451 [label="gini = 0.0\nsamples = 1\nvalue = [1, 0]"] ;
449 -> 451 ;
452 [label="gini = 0.0\nsamples = 19\nvalue = [0, 19]"] ;
448 -> 452 ;
453 [label="my_board_total_health <= 13.5\ngini = 0.375\nsamples = 16\nvalue = [4, 12]"] ;
447 -> 453 ;
454 [label="my_board_total_attack <= 3.5\ngini = 0.32\nsamples = 15\nvalue = [3, 12]"] ;
453 -> 454 ;
455 [label="gini = 0.0\nsamples = 1\nvalue = [1, 0]"] ;
454 -> 455 ;
456 [label="opponent_board_nb_creatures <= 4.0\ngini = 0.245\nsamples = 14\nvalue = [2, 12]"] ;
454 -> 456 ;
457 [label="my_board_nb_creatures <= 5.5\ngini = 0.142\nsamples = 13\nvalue = [1, 12]"] ;
456 -> 457 ;
458 [label="gini = 0.0\nsamples = 12\nvalue = [0, 12]"] ;
457 -> 458 ;
459 [label="gini = 0.0\nsamples = 1\nvalue = [1, 0]"] ;
457 -> 459 ;
460 [label="gini = 0.0\nsamples = 1\nvalue = [1, 0]"] ;
456 -> 460 ;
461 [label="gini = 0.0\nsamples = 1\nvalue = [1, 0]"] ;
453 -> 461 ;
462 [label="my_board_total_attack <= 5.5\ngini = 0.463\nsamples = 11\nvalue = [4, 7]"] ;
444 -> 462 ;
463 [label="gini = 0.0\nsamples = 4\nvalue = [0, 4]"] ;
462 -> 463 ;
464 [label="my_board_total_health <= 10.5\ngini = 0.49\nsamples = 7\nvalue = [4, 3]"] ;
462 -> 464 ;
465 [label="gini = 0.0\nsamples = 4\nvalue = [4, 0]"] ;
464 -> 465 ;
466 [label="gini = 0.0\nsamples = 3\nvalue = [0, 3]"] ;
464 -> 466 ;
467 [label="opponent_hand <= 4.5\ngini = 0.5\nsamples = 30\nvalue = [15, 15]"] ;
439 -> 467 ;
468 [label="my_board_total_attack <= 3.5\ngini = 0.42\nsamples = 20\nvalue = [6, 14]"] ;
467 -> 468 ;
469 [label="gini = 0.0\nsamples = 3\nvalue = [3, 0]"] ;
468 -> 469 ;
470 [label="opponent_board_total_attack <= 24.5\ngini = 0.291\nsamples = 17\nvalue = [3, 14]"] ;
468 -> 470 ;
471 [label="opponent_board_total_health <= 11.5\ngini = 0.219\nsamples = 16\nvalue = [2, 14]"] ;
470 -> 471 ;
472 [label="opponent_board_total_attack <= 10.5\ngini = 0.5\nsamples = 4\nvalue = [2, 2]"] ;
471 -> 472 ;
473 [label="gini = 0.0\nsamples = 2\nvalue = [2, 0]"] ;
472 -> 473 ;
474 [label="gini = 0.0\nsamples = 2\nvalue = [0, 2]"] ;
472 -> 474 ;
475 [label="gini = 0.0\nsamples = 12\nvalue = [0, 12]"] ;
471 -> 475 ;
476 [label="gini = 0.0\nsamples = 1\nvalue = [1, 0]"] ;
470 -> 476 ;
477 [label="my_board_nb_creatures <= 2.5\ngini = 0.18\nsamples = 10\nvalue = [9, 1]"] ;
467 -> 477 ;
478 [label="opponent_hand <= 6.0\ngini = 0.5\nsamples = 2\nvalue = [1, 1]"] ;
477 -> 478 ;
479 [label="gini = 0.0\nsamples = 1\nvalue = [0, 1]"] ;
478 -> 479 ;
480 [label="gini = 0.0\nsamples = 1\nvalue = [1, 0]"] ;
478 -> 480 ;
481 [label="gini = 0.0\nsamples = 8\nvalue = [8, 0]"] ;
477 -> 481 ;
482 [label="my_health <= 20.5\ngini = 0.495\nsamples = 202\nvalue = [111, 91]"] ;
438 -> 482 ;
483 [label="my_board_total_health <= 7.5\ngini = 0.444\nsamples = 102\nvalue = [68, 34]"] ;
482 -> 483 ;
484 [label="my_hand <= 3.5\ngini = 0.214\nsamples = 41\nvalue = [36, 5]"] ;
483 -> 484 ;
485 [label="gini = 0.0\nsamples = 14\nvalue = [14, 0]"] ;
484 -> 485 ;
486 [label="opponent_board_total_attack <= 2.5\ngini = 0.302\nsamples = 27\nvalue = [22, 5]"] ;
484 -> 486 ;
487 [label="gini = 0.0\nsamples = 1\nvalue = [0, 1]"] ;
486 -> 487 ;
488 [label="my_board_total_attack <= 10.0\ngini = 0.26\nsamples = 26\nvalue = [22, 4]"] ;
486 -> 488 ;
489 [label="opponent_health <= 20.0\ngini = 0.211\nsamples = 25\nvalue = [22, 3]"] ;
488 -> 489 ;
490 [label="my_hand <= 5.5\ngini = 0.48\nsamples = 5\nvalue = [3, 2]"] ;
489 -> 490 ;
491 [label="gini = 0.0\nsamples = 3\nvalue = [3, 0]"] ;
490 -> 491 ;
492 [label="gini = 0.0\nsamples = 2\nvalue = [0, 2]"] ;
490 -> 492 ;
493 [label="my_health <= 19.0\ngini = 0.095\nsamples = 20\nvalue = [19, 1]"] ;
489 -> 493 ;
494 [label="gini = 0.0\nsamples = 18\nvalue = [18, 0]"] ;
493 -> 494 ;
495 [label="opponent_hand <= 2.5\ngini = 0.5\nsamples = 2\nvalue = [1, 1]"] ;
493 -> 495 ;
496 [label="gini = 0.0\nsamples = 1\nvalue = [0, 1]"] ;
495 -> 496 ;
497 [label="gini = 0.0\nsamples = 1\nvalue = [1, 0]"] ;
495 -> 497 ;
498 [label="gini = 0.0\nsamples = 1\nvalue = [0, 1]"] ;
488 -> 498 ;
499 [label="opponent_health <= 22.5\ngini = 0.499\nsamples = 61\nvalue = [32, 29]"] ;
483 -> 499 ;
500 [label="opponent_hand <= 4.5\ngini = 0.391\nsamples = 15\nvalue = [4, 11]"] ;
499 -> 500 ;
501 [label="my_health <= 11.5\ngini = 0.26\nsamples = 13\nvalue = [2, 11]"] ;
500 -> 501 ;
502 [label="opponent_board_total_attack <= 6.5\ngini = 0.444\nsamples = 3\nvalue = [2, 1]"] ;
501 -> 502 ;
503 [label="gini = 0.0\nsamples = 1\nvalue = [0, 1]"] ;
502 -> 503 ;
504 [label="gini = 0.0\nsamples = 2\nvalue = [2, 0]"] ;
502 -> 504 ;
505 [label="gini = 0.0\nsamples = 10\nvalue = [0, 10]"] ;
501 -> 505 ;
506 [label="gini = 0.0\nsamples = 2\nvalue = [2, 0]"] ;
500 -> 506 ;
507 [label="my_health <= 18.5\ngini = 0.476\nsamples = 46\nvalue = [28, 18]"] ;
499 -> 507 ;
508 [label="my_hand <= 3.5\ngini = 0.499\nsamples = 38\nvalue = [20, 18]"] ;
507 -> 508 ;
509 [label="my_board_total_attack <= 4.0\ngini = 0.426\nsamples = 13\nvalue = [4, 9]"] ;
508 -> 509 ;
510 [label="gini = 0.0\nsamples = 2\nvalue = [2, 0]"] ;
509 -> 510 ;
511 [label="opponent_board_total_attack <= 1.5\ngini = 0.298\nsamples = 11\nvalue = [2, 9]"] ;
509 -> 511 ;
512 [label="gini = 0.0\nsamples = 1\nvalue = [1, 0]"] ;
511 -> 512 ;
513 [label="opponent_board_nb_creatures <= 5.0\ngini = 0.18\nsamples = 10\nvalue = [1, 9]"] ;
511 -> 513 ;
514 [label="gini = 0.0\nsamples = 9\nvalue = [0, 9]"] ;
513 -> 514 ;
515 [label="gini = 0.0\nsamples = 1\nvalue = [1, 0]"] ;
513 -> 515 ;
516 [label="opponent_board_total_health <= 6.0\ngini = 0.461\nsamples = 25\nvalue = [16, 9]"] ;
508 -> 516 ;
517 [label="my_hand <= 5.5\ngini = 0.375\nsamples = 8\nvalue = [2, 6]"] ;
516 -> 517 ;
518 [label="gini = 0.0\nsamples = 5\nvalue = [0, 5]"] ;
517 -> 518 ;
519 [label="my_board_nb_creatures <= 2.5\ngini = 0.444\nsamples = 3\nvalue = [2, 1]"] ;
517 -> 519 ;
520 [label="gini = 0.0\nsamples = 1\nvalue = [0, 1]"] ;
519 -> 520 ;
521 [label="gini = 0.0\nsamples = 2\nvalue = [2, 0]"] ;
519 -> 521 ;
522 [label="opponent_board_total_attack <= 14.5\ngini = 0.291\nsamples = 17\nvalue = [14, 3]"] ;
516 -> 522 ;
523 [label="gini = 0.0\nsamples = 12\nvalue = [12, 0]"] ;
522 -> 523 ;
524 [label="opponent_health <= 25.5\ngini = 0.48\nsamples = 5\nvalue = [2, 3]"] ;
522 -> 524 ;
525 [label="gini = 0.0\nsamples = 2\nvalue = [2, 0]"] ;
524 -> 525 ;
526 [label="gini = 0.0\nsamples = 3\nvalue = [0, 3]"] ;
524 -> 526 ;
527 [label="gini = 0.0\nsamples = 8\nvalue = [8, 0]"] ;
507 -> 527 ;
528 [label="me_playing <= 0.5\ngini = 0.49\nsamples = 100\nvalue = [43, 57]"] ;
482 -> 528 ;
529 [label="opponent_board_total_health <= 16.5\ngini = 0.375\nsamples = 56\nvalue = [14, 42]"] ;
528 -> 529 ;
530 [label="opponent_hand <= 5.5\ngini = 0.346\nsamples = 54\nvalue = [12, 42]"] ;
529 -> 530 ;
531 [label="my_board_total_health <= 6.5\ngini = 0.282\nsamples = 47\nvalue = [8, 39]"] ;
530 -> 531 ;
532 [label="opponent_board_total_health <= 6.5\ngini = 0.413\nsamples = 24\nvalue = [7, 17]"] ;
531 -> 532 ;
533 [label="gini = 0.0\nsamples = 11\nvalue = [0, 11]"] ;
532 -> 533 ;
534 [label="opponent_board_nb_creatures <= 2.5\ngini = 0.497\nsamples = 13\nvalue = [7, 6]"] ;
532 -> 534 ;
535 [label="gini = 0.0\nsamples = 5\nvalue = [5, 0]"] ;
534 -> 535 ;
536 [label="my_health <= 21.5\ngini = 0.375\nsamples = 8\nvalue = [2, 6]"] ;
534 -> 536 ;
537 [label="gini = 0.0\nsamples = 1\nvalue = [1, 0]"] ;
536 -> 537 ;
538 [label="my_board_total_health <= 3.5\ngini = 0.245\nsamples = 7\nvalue = [1, 6]"] ;
536 -> 538 ;
539 [label="gini = 0.0\nsamples = 1\nvalue = [1, 0]"] ;
538 -> 539 ;
540 [label="gini = 0.0\nsamples = 6\nvalue = [0, 6]"] ;
538 -> 540 ;
541 [label="my_hand <= 6.5\ngini = 0.083\nsamples = 23\nvalue = [1, 22]"] ;
531 -> 541 ;
542 [label="gini = 0.0\nsamples = 20\nvalue = [0, 20]"] ;
541 -> 542 ;
543 [label="opponent_health <= 24.5\ngini = 0.444\nsamples = 3\nvalue = [1, 2]"] ;
541 -> 543 ;
544 [label="gini = 0.0\nsamples = 1\nvalue = [1, 0]"] ;
543 -> 544 ;
545 [label="gini = 0.0\nsamples = 2\nvalue = [0, 2]"] ;
543 -> 545 ;
546 [label="opponent_health <= 23.5\ngini = 0.49\nsamples = 7\nvalue = [4, 3]"] ;
530 -> 546 ;
547 [label="gini = 0.0\nsamples = 4\nvalue = [4, 0]"] ;
546 -> 547 ;
548 [label="gini = 0.0\nsamples = 3\nvalue = [0, 3]"] ;
546 -> 548 ;
549 [label="gini = 0.0\nsamples = 2\nvalue = [2, 0]"] ;
529 -> 549 ;
550 [label="opponent_hand <= 1.5\ngini = 0.449\nsamples = 44\nvalue = [29, 15]"] ;
528 -> 550 ;
551 [label="opponent_board_total_attack <= 12.0\ngini = 0.278\nsamples = 6\nvalue = [1, 5]"] ;
550 -> 551 ;
552 [label="gini = 0.0\nsamples = 5\nvalue = [0, 5]"] ;
551 -> 552 ;
553 [label="gini = 0.0\nsamples = 1\nvalue = [1, 0]"] ;
551 -> 553 ;
554 [label="my_board_nb_creatures <= 3.5\ngini = 0.388\nsamples = 38\nvalue = [28, 10]"] ;
550 -> 554 ;
555 [label="my_hand <= 5.5\ngini = 0.271\nsamples = 31\nvalue = [26, 5]"] ;
554 -> 555 ;
556 [label="opponent_hand <= 7.5\ngini = 0.137\nsamples = 27\nvalue = [25, 2]"] ;
555 -> 556 ;
557 [label="opponent_board_total_attack <= 3.5\ngini = 0.074\nsamples = 26\nvalue = [25, 1]"] ;
556 -> 557 ;
558 [label="opponent_board_total_health <= 5.5\ngini = 0.32\nsamples = 5\nvalue = [4, 1]"] ;
557 -> 558 ;
559 [label="gini = 0.0\nsamples = 4\nvalue = [4, 0]"] ;
558 -> 559 ;
560 [label="gini = 0.0\nsamples = 1\nvalue = [0, 1]"] ;
558 -> 560 ;
561 [label="gini = 0.0\nsamples = 21\nvalue = [21, 0]"] ;
557 -> 561 ;
562 [label="gini = 0.0\nsamples = 1\nvalue = [0, 1]"] ;
556 -> 562 ;
563 [label="my_board_total_health <= 5.0\ngini = 0.375\nsamples = 4\nvalue = [1, 3]"] ;
555 -> 563 ;
564 [label="gini = 0.0\nsamples = 1\nvalue = [1, 0]"] ;
563 -> 564 ;
565 [label="gini = 0.0\nsamples = 3\nvalue = [0, 3]"] ;
563 -> 565 ;
566 [label="opponent_health <= 26.0\ngini = 0.408\nsamples = 7\nvalue = [2, 5]"] ;
554 -> 566 ;
567 [label="gini = 0.0\nsamples = 5\nvalue = [0, 5]"] ;
566 -> 567 ;
568 [label="gini = 0.0\nsamples = 2\nvalue = [2, 0]"] ;
566 -> 568 ;
}