digraph Tree {
node [shape=box] ;
0 [label="my_board_nb_creatures <= 1.5\ngini = 0.495\nsamples = 1434\nvalue = [642, 792]"] ;
1 [label="opponent_board_total_attack <= 4.5\ngini = 0.436\nsamples = 608\nvalue = [413, 195]"] ;
0 -> 1 [labeldistance=2.5, labelangle=45, headlabel="True"] ;
2 [label="opponent_health <= 21.5\ngini = 0.498\nsamples = 248\nvalue = [117, 131]"] ;
1 -> 2 ;
3 [label="my_health <= 20.5\ngini = 0.423\nsamples = 112\nvalue = [34, 78]"] ;
2 -> 3 ;
4 [label="my_board_total_attack <= 2.5\ngini = 0.499\nsamples = 48\nvalue = [23, 25]"] ;
3 -> 4 ;
5 [label="opponent_health <= 11.5\ngini = 0.458\nsamples = 31\nvalue = [20, 11]"] ;
4 -> 5 ;
6 [label="my_health <= 14.5\ngini = 0.463\nsamples = 11\nvalue = [4, 7]"] ;
5 -> 6 ;
7 [label="gini = 0.0\nsamples = 5\nvalue = [0, 5]"] ;
6 -> 7 ;
8 [label="me_playing <= 0.5\ngini = 0.444\nsamples = 6\nvalue = [4, 2]"] ;
6 -> 8 ;
9 [label="gini = 0.0\nsamples = 2\nvalue = [0, 2]"] ;
8 -> 9 ;
10 [label="gini = 0.0\nsamples = 4\nvalue = [4, 0]"] ;
8 -> 10 ;
11 [label="opponent_hand <= 3.5\ngini = 0.32\nsamples = 20\nvalue = [16, 4]"] ;
5 -> 11 ;
12 [label="opponent_health <= 18.5\ngini = 0.426\nsamples = 13\nvalue = [9, 4]"] ;
11 -> 12 ;
13 [label="my_health <= 8.0\ngini = 0.494\nsamples = 9\nvalue = [5, 4]"] ;
12 -> 13 ;
14 [label="gini = 0.0\nsamples = 3\nvalue = [3, 0]"] ;
13 -> 14 ;
15 [label="my_hand <= 2.5\ngini = 0.444\nsamples = 6\nvalue = [2, 4]"] ;
13 -> 15 ;
16 [label="gini = 0.0\nsamples = 2\nvalue = [2, 0]"] ;
15 -> 16 ;
17 [label="gini = 0.0\nsamples = 4\nvalue = [0, 4]"] ;
15 -> 17 ;
18 [label="gini = 0.0\nsamples = 4\nvalue = [4, 0]"] ;
12 -> 18 ;
19 [label="gini = 0.0\nsamples = 7\nvalue = [7, 0]"] ;
11 -> 19 ;
20 [label="opponent_hand <= 4.5\ngini = 0.291\nsamples = 17\nvalue = [3, 14]"] ;
4 -> 20 ;
21 [label="my_health <= 11.5\ngini = 0.133\nsamples = 14\nvalue = [1, 13]"] ;
20 -> 21 ;
22 [label="opponent_board_total_health <= 3.0\ngini = 0.5\nsamples = 2\nvalue = [1, 1]"] ;
21 -> 22 ;
23 [label="gini = 0.0\nsamples = 1\nvalue = [1, 0]"] ;
22 -> 23 ;
24 [label="gini = 0.0\nsamples = 1\nvalue = [0, 1]"] ;
22 -> 24 ;
25 [label="gini = 0.0\nsamples = 12\nvalue = [0, 12]"] ;
21 -> 25 ;
26 [label="my_health <= 17.0\ngini = 0.444\nsamples = 3\nvalue = [2, 1]"] ;
20 -> 26 ;
27 [label="gini = 0.0\nsamples = 2\nvalue = [2, 0]"] ;
26 -> 27 ;
28 [label="gini = 0.0\nsamples = 1\nvalue = [0, 1]"] ;
26 -> 28 ;
29 [label="opponent_hand <= 6.5\ngini = 0.285\nsamples = 64\nvalue = [11, 53]"] ;
3 -> 29 ;
30 [label="opponent_board_total_attack <= 2.5\ngini = 0.168\nsamples = 54\nvalue = [5, 49]"] ;
29 -> 30 ;
31 [label="my_board_total_attack <= 0.5\ngini = 0.064\nsamples = 30\nvalue = [1, 29]"] ;
30 -> 31 ;
32 [label="opponent_health <= 12.0\ngini = 0.278\nsamples = 6\nvalue = [1, 5]"] ;
31 -> 32 ;
33 [label="gini = 0.0\nsamples = 3\nvalue = [0, 3]"] ;
32 -> 33 ;
34 [label="opponent_hand <= 3.5\ngini = 0.444\nsamples = 3\nvalue = [1, 2]"] ;
32 -> 34 ;
35 [label="gini = 0.0\nsamples = 2\nvalue = [0, 2]"] ;
34 -> 35 ;
36 [label="gini = 0.0\nsamples = 1\nvalue = [1, 0]"] ;
34 -> 36 ;
37 [label="gini = 0.0\nsamples = 24\nvalue = [0, 24]"] ;
31 -> 37 ;
38 [label="my_hand <= 2.5\ngini = 0.278\nsamples = 24\nvalue = [4, 20]"] ;
30 -> 38 ;
39 [label="my_health <= 28.5\ngini = 0.48\nsamples = 5\nvalue = [2, 3]"] ;
38 -> 39 ;
40 [label="gini = 0.0\nsamples = 2\nvalue = [2, 0]"] ;
39 -> 40 ;
41 [label="gini = 0.0\nsamples = 3\nvalue = [0, 3]"] ;
39 -> 41 ;
42 [label="my_health <= 27.5\ngini = 0.188\nsamples = 19\nvalue = [2, 17]"] ;
38 -> 42 ;
43 [label="gini = 0.0\nsamples = 12\nvalue = [0, 12]"] ;
42 -> 43 ;
44 [label="me_playing <= 0.5\ngini = 0.408\nsamples = 7\nvalue = [2, 5]"] ;
42 -> 44 ;
45 [label="gini = 0.0\nsamples = 4\nvalue = [0, 4]"] ;
44 -> 45 ;
46 [label="opponent_hand <= 5.0\ngini = 0.444\nsamples = 3\nvalue = [2, 1]"] ;
44 -> 46 ;
47 [label="gini = 0.0\nsamples = 2\nvalue = [2, 0]"] ;
46 -> 47 ;
48 [label="gini = 0.0\nsamples = 1\nvalue = [0, 1]"] ;
46 -> 48 ;
49 [label="my_board_total_health <= 2.5\ngini = 0.48\nsamples = 10\nvalue = [6, 4]"] ;
29 -> 49 ;
50 [label="opponent_health <= 6.5\ngini = 0.375\nsamples = 8\nvalue = [6, 2]"] ;
49 -> 50 ;
51 [label="gini = 0.0\nsamples = 1\nvalue = [0, 1]"] ;
50 -> 51 ;
52 [label="my_board_total_attack <= 1.5\ngini = 0.245\nsamples = 7\nvalue = [6, 1]"] ;
50 -> 52 ;
53 [label="gini = 0.0\nsamples = 5\nvalue = [5, 0]"] ;
52 -> 53 ;
54 [label="opponent_board_total_attack <= 2.0\ngini = 0.5\nsamples = 2\nvalue = [1, 1]"] ;
52 -> 54 ;
55 [label="gini = 0.0\nsamples = 1\nvalue = [0, 1]"] ;
54 -> 55 ;
56 [label="gini = 0.0\nsamples = 1\nvalue = [1, 0]"] ;
54 -> 56 ;
57 [label="gini = 0.0\nsamples = 2\nvalue = [0, 2]"] ;
49 -> 57 ;
58 [label="my_board_total_health <= 1.5\ngini = 0.476\nsamples = 136\nvalue = [83, 53]"] ;
2 -> 58 ;
59 [label="my_hand <= 7.5\ngini = 0.328\nsamples = 58\nvalue = [46, 12]"] ;
58 -> 59 ;
60 [label="opponent_hand <= 0.5\ngini = 0.274\nsamples = 55\nvalue = [46, 9]"] ;
59 -> 60 ;
61 [label="gini = 0.0\nsamples = 1\nvalue = [0, 1]"] ;
60 -> 61 ;
62 [label="my_hand <= 5.5\ngini = 0.252\nsamples = 54\nvalue = [46, 8]"] ;
60 -> 62 ;
63 [label="opponent_hand <= 2.5\ngini = 0.149\nsamples = 37\nvalue = [34, 3]"] ;
62 -> 63 ;
64 [label="my_health <= 20.5\ngini = 0.408\nsamples = 7\nvalue = [5, 2]"] ;
63 -> 64 ;
65 [label="gini = 0.0\nsamples = 5\nvalue = [5, 0]"] ;
64 -> 65 ;
66 [label="gini = 0.0\nsamples = 2\nvalue = [0, 2]"] ;
64 -> 66 ;
67 [label="opponent_health <= 29.5\ngini = 0.064\nsamples = 30\nvalue = [29, 1]"] ;
63 -> 67 ;
68 [label="gini = 0.0\nsamples = 22\nvalue = [22, 0]"] ;
67 -> 68 ;
69 [label="my_health <= 28.0\ngini = 0.219\nsamples = 8\nvalue = [7, 1]"] ;
67 -> 69 ;
70 [label="gini = 0.0\nsamples = 6\nvalue = [6, 0]"] ;
69 -> 70 ;
71 [label="gini = 0.5\nsamples = 2\nvalue = [1, 1]"] ;
69 -> 71 ;
72 [label="opponent_health <= 27.5\ngini = 0.415\nsamples = 17\nvalue = [12, 5]"] ;
62 -> 72 ;
73 [label="gini = 0.0\nsamples = 6\nvalue = [6, 0]"] ;
72 -> 73 ;
74 [label="me_playing <= 0.5\ngini = 0.496\nsamples = 11\nvalue = [6, 5]"] ;
72 -> 74 ;
75 [label="my_health <= 26.0\ngini = 0.444\nsamples = 6\nvalue = [2, 4]"] ;
74 -> 75 ;
76 [label="gini = 0.444\nsamples = 3\nvalue = [2, 1]"] ;
75 -> 76 ;
77 [label="gini = 0.0\nsamples = 3\nvalue = [0, 3]"] ;
75 -> 77 ;
78 [label="opponent_board_total_attack <= 0.5\ngini = 0.32\nsamples = 5\nvalue = [4, 1]"] ;
74 -> 78 ;
79 [label="gini = 0.5\nsamples = 2\nvalue = [1, 1]"] ;
78 -> 79 ;
80 [label="gini = 0.0\nsamples = 3\nvalue = [3, 0]"] ;
78 -> 80 ;
81 [label="gini = 0.0\nsamples = 3\nvalue = [0, 3]"] ;
59 -> 81 ;
82 [label="my_health <= 15.0\ngini = 0.499\nsamples = 78\nvalue = [37, 41]"] ;
58 -> 82 ;
83 [label="opponent_hand <= 4.5\ngini = 0.346\nsamples = 18\nvalue = [14, 4]"] ;
82 -> 83 ;
84 [label="opponent_hand <= 0.5\ngini = 0.133\nsamples = 14\nvalue = [13, 1]"] ;
83 -> 84 ;
85 [label="gini = 0.0\nsamples = 1\nvalue = [0, 1]"] ;
84 -> 85 ;
86 [label="gini = 0.0\nsamples = 13\nvalue = [13, 0]"] ;
84 -> 86 ;
87 [label="my_board_total_attack <= 3.5\ngini = 0.375\nsamples = 4\nvalue = [1, 3]"] ;
83 -> 87 ;
88 [label="gini = 0.0\nsamples = 3\nvalue = [0, 3]"] ;
87 -> 88 ;
89 [label="gini = 0.0\nsamples = 1\nvalue = [1, 0]"] ;
87 -> 89 ;
90 [label="opponent_hand <= 2.5\ngini = 0.473\nsamples = 60\nvalue = [23, 37]"] ;
82 -> 90 ;
91 [label="gini = 0.0\nsamples = 11\nvalue = [0, 11]"] ;
90 -> 91 ;
92 [label="opponent_board_total_health <= 1.5\ngini = 0.498\nsamples = 49\nvalue = [23, 26]"] ;
90 -> 92 ;
93 [label="my_board_total_attack <= 0.5\ngini = 0.413\nsamples = 24\nvalue = [7, 17]"] ;
92 -> 93 ;
94 [label="gini = 0.0\nsamples = 2\nvalue = [2, 0]"] ;
93 -> 94 ;
95 [label="opponent_hand <= 6.5\ngini = 0.351\nsamples = 22\nvalue = [5, 17]"] ;
93 -> 95 ;
96 [label="my_health <= 29.5\ngini = 0.308\nsamples = 21\nvalue = [4, 17]"] ;
95 -> 96 ;
97 [label="gini = 0.165\nsamples = 11\nvalue = [1, 10]"] ;
96 -> 97 ;
98 [label="gini = 0.42\nsamples = 10\nvalue = [3, 7]"] ;
96 -> 98 ;
99 [label="gini = 0.0\nsamples = 1\nvalue = [1, 0]"] ;
95 -> 99 ;
100 [label="my_health <= 21.5\ngini = 0.461\nsamples = 25\nvalue = [16, 9]"] ;
92 -> 100 ;
101 [label="opponent_board_total_attack <= 3.5\ngini = 0.408\nsamples = 7\nvalue = [2, 5]"] ;
100 -> 101 ;
102 [label="opponent_hand <= 4.0\ngini = 0.444\nsamples = 3\nvalue = [2, 1]"] ;
101 -> 102 ;
103 [label="gini = 0.0\nsamples = 1\nvalue = [0, 1]"] ;
102 -> 103 ;
104 [label="gini = 0.0\nsamples = 2\nvalue = [2, 0]"] ;
102 -> 104 ;
105 [label="gini = 0.0\nsamples = 4\nvalue = [0, 4]"] ;
101 -> 105 ;
106 [label="opponent_board_total_health <= 7.5\ngini = 0.346\nsamples = 18\nvalue = [14, 4]"] ;
100 -> 106 ;
107 [label="my_health <= 29.5\ngini = 0.231\nsamples = 15\nvalue = [13, 2]"] ;
106 -> 107 ;
108 [label="gini = 0.0\nsamples = 11\nvalue = [11, 0]"] ;
107 -> 108 ;
109 [label="gini = 0.5\nsamples = 4\nvalue = [2, 2]"] ;
107 -> 109 ;
110 [label="my_board_total_health <= 3.5\ngini = 0.444\nsamples = 3\nvalue = [1, 2]"] ;
106 -> 110 ;
111 [label="gini = 0.0\nsamples = 1\nvalue = [1, 0]"] ;
110 -> 111 ;
112 [label="gini = 0.0\nsamples = 2\nvalue = [0, 2]"] ;
110 -> 112 ;
113 [label="opponent_board_nb_creatures <= 2.5\ngini = 0.292\nsamples = 360\nvalue = [296, 64]"] ;
1 -> 113 ;
114 [label="my_board_total_health <= 1.5\ngini = 0.41\nsamples = 139\nvalue = [99, 40]"] ;
113 -> 114 ;
115 [label="my_hand <= 6.5\ngini = 0.281\nsamples = 77\nvalue = [64, 13]"] ;
114 -> 115 ;
116 [label="opponent_health <= 16.5\ngini = 0.2\nsamples = 62\nvalue = [55, 7]"] ;
115 -> 116 ;
117 [label="opponent_hand <= 4.5\ngini = 0.432\nsamples = 19\nvalue = [13, 6]"] ;
116 -> 117 ;
118 [label="opponent_health <= 11.5\ngini = 0.5\nsamples = 10\nvalue = [5, 5]"] ;
117 -> 118 ;
119 [label="my_health <= 13.5\ngini = 0.32\nsamples = 5\nvalue = [4, 1]"] ;
118 -> 119 ;
120 [label="gini = 0.0\nsamples = 1\nvalue = [0, 1]"] ;
119 -> 120 ;
121 [label="gini = 0.0\nsamples = 4\nvalue = [4, 0]"] ;
119 -> 121 ;
122 [label="opponent_board_total_attack <= 8.5\ngini = 0.32\nsamples = 5\nvalue = [1, 4]"] ;
118 -> 122 ;
123 [label="gini = 0.0\nsamples = 4\nvalue = [0, 4]"] ;
122 -> 123 ;
124 [label="gini = 0.0\nsamples = 1\nvalue = [1, 0]"] ;
122 -> 124 ;
125 [label="my_health <= 28.0\ngini = 0.198\nsamples = 9\nvalue = [8, 1]"] ;
117 -> 125 ;
126 [label="gini = 0.0\nsamples = 8\nvalue = [8, 0]"] ;
125 -> 126 ;
127 [label="gini = 0.0\nsamples = 1\nvalue = [0, 1]"] ;
125 -> 127 ;
128 [label="opponent_hand <= 2.5\ngini = 0.045\nsamples = 43\nvalue = [42, 1]"] ;
116 -> 128 ;
129 [label="my_health <= 24.5\ngini = 0.219\nsamples = 8\nvalue = [7, 1]"] ;
128 -> 129 ;
130 [label="gini = 0.0\nsamples = 7\nvalue = [7, 0]"] ;
129 -> 130 ;
131 [label="gini = 0.0\nsamples = 1\nvalue = [0, 1]"] ;
129 -> 131 ;
132 [label="gini = 0.0\nsamples = 35\nvalue = [35, 0]"] ;
128 -> 132 ;
133 [label="opponent_board_total_attack <= 6.5\ngini = 0.48\nsamples = 15\nvalue = [9, 6]"] ;
115 -> 133 ;
134 [label="opponent_hand <= 2.5\ngini = 0.346\nsamples = 9\nvalue = [7, 2]"] ;
133 -> 134 ;
135 [label="gini = 0.0\nsamples = 2\nvalue = [0, 2]"] ;
134 -> 135 ;
136 [label="gini = 0.0\nsamples = 7\nvalue = [7, 0]"] ;
134 -> 136 ;
137 [label="my_health <= 17.5\ngini = 0.444\nsamples = 6\nvalue = [2, 4]"] ;
133 -> 137 ;
138 [label="gini = 0.0\nsamples = 3\nvalue = [0, 3]"] ;
137 -> 138 ;
139 [label="my_health <= 22.5\ngini = 0.444\nsamples = 3\nvalue = [2, 1]"] ;
137 -> 139 ;
140 [label="gini = 0.0\nsamples = 2\nvalue = [2, 0]"] ;
139 -> 140 ;
141 [label="gini = 0.0\nsamples = 1\nvalue = [0, 1]"] ;
139 -> 141 ;
142 [label="my_health <= 18.0\ngini = 0.492\nsamples = 62\nvalue = [35, 27]"] ;
114 -> 142 ;
143 [label="my_board_total_attack <= 1.5\ngini = 0.198\nsamples = 18\nvalue = [16, 2]"] ;
142 -> 143 ;
144 [label="gini = 0.0\nsamples = 1\nvalue = [0, 1]"] ;
143 -> 144 ;
145 [label="opponent_board_total_attack <= 10.5\ngini = 0.111\nsamples = 17\nvalue = [16, 1]"] ;
143 -> 145 ;
146 [label="gini = 0.0\nsamples = 16\nvalue = [16, 0]"] ;
145 -> 146 ;
147 [label="gini = 0.0\nsamples = 1\nvalue = [0, 1]"] ;
145 -> 147 ;
148 [label="me_playing <= 0.5\ngini = 0.491\nsamples = 44\nvalue = [19, 25]"] ;
142 -> 148 ;
149 [label="my_board_total_attack <= 1.5\ngini = 0.346\nsamples = 18\nvalue = [4, 14]"] ;
148 -> 149 ;
150 [label="gini = 0.0\nsamples = 2\nvalue = [2, 0]"] ;
149 -> 150 ;
151 [label="opponent_health <= 29.5\ngini = 0.219\nsamples = 16\nvalue = [2, 14]"] ;
149 -> 151 ;
152 [label="gini = 0.0\nsamples = 13\nvalue = [0, 13]"] ;
151 -> 152 ;
153 [label="my_board_total_health <= 3.5\ngini = 0.444\nsamples = 3\nvalue = [2, 1]"] ;
151 -> 153 ;
154 [label="gini = 0.0\nsamples = 1\nvalue = [0, 1]"] ;
153 -> 154 ;
155 [label="gini = 0.0\nsamples = 2\nvalue = [2, 0]"] ;
153 -> 155 ;
156 [label="my_board_total_attack <= 2.5\ngini = 0.488\nsamples = 26\nvalue = [15, 11]"] ;
148 -> 156 ;
157 [label="my_hand <= 2.5\ngini = 0.42\nsamples = 10\nvalue = [3, 7]"] ;
156 -> 157 ;
158 [label="my_board_total_health <= 2.5\ngini = 0.375\nsamples = 4\nvalue = [3, 1]"] ;
157 -> 158 ;
159 [label="opponent_health <= 5.5\ngini = 0.5\nsamples = 2\nvalue = [1, 1]"] ;
158 -> 159 ;
160 [label="gini = 0.0\nsamples = 1\nvalue = [1, 0]"] ;
159 -> 160 ;
161 [label="gini = 0.0\nsamples = 1\nvalue = [0, 1]"] ;
159 -> 161 ;
162 [label="gini = 0.0\nsamples = 2\nvalue = [2, 0]"] ;
158 -> 162 ;
163 [label="gini = 0.0\nsamples = 6\nvalue = [0, 6]"] ;
157 -> 163 ;
164 [label="opponent_board_total_health <= 9.5\ngini = 0.375\nsamples = 16\nvalue = [12, 4]"] ;
156 -> 164 ;
165 [label="opponent_health <= 11.5\ngini = 0.245\nsamples = 14\nvalue = [12, 2]"] ;
164 -> 165 ;
166 [label="opponent_hand <= 7.5\ngini = 0.444\nsamples = 3\nvalue = [1, 2]"] ;
165 -> 166 ;
167 [label="gini = 0.0\nsamples = 2\nvalue = [0, 2]"] ;
166 -> 167 ;
168 [label="gini = 0.0\nsamples = 1\nvalue = [1, 0]"] ;
166 -> 168 ;
169 [label="gini = 0.0\nsamples = 11\nvalue = [11, 0]"] ;
165 -> 169 ;
170 [label="gini = 0.0\nsamples = 2\nvalue = [0, 2]"] ;
164 -> 170 ;
171 [label="me_playing <= 0.5\ngini = 0.194\nsamples = 221\nvalue = [197, 24]"] ;
113 -> 171 ;
172 [label="my_health <= 24.5\ngini = 0.147\nsamples = 188\nvalue = [173, 15]"] ;
171 -> 172 ;
173 [label="opponent_board_total_attack <= 9.5\ngini = 0.103\nsamples = 165\nvalue = [156, 9]"] ;
172 -> 173 ;
174 [label="opponent_board_nb_creatures <= 6.5\ngini = 0.198\nsamples = 63\nvalue = [56, 7]"] ;
173 -> 174 ;
175 [label="my_board_total_attack <= 5.5\ngini = 0.175\nsamples = 62\nvalue = [56, 6]"] ;
174 -> 175 ;
176 [label="opponent_health <= 10.5\ngini = 0.15\nsamples = 61\nvalue = [56, 5]"] ;
175 -> 176 ;
177 [label="opponent_hand <= 2.5\ngini = 0.5\nsamples = 4\nvalue = [2, 2]"] ;
176 -> 177 ;
178 [label="gini = 0.0\nsamples = 2\nvalue = [0, 2]"] ;
177 -> 178 ;
179 [label="gini = 0.0\nsamples = 2\nvalue = [2, 0]"] ;
177 -> 179 ;
180 [label="opponent_health <= 22.5\ngini = 0.1\nsamples = 57\nvalue = [54, 3]"] ;
176 -> 180 ;
181 [label="gini = 0.0\nsamples = 22\nvalue = [22, 0]"] ;
180 -> 181 ;
182 [label="gini = 0.157\nsamples = 35\nvalue = [32, 3]"] ;
180 -> 182 ;
183 [label="gini = 0.0\nsamples = 1\nvalue = [0, 1]"] ;
175 -> 183 ;
184 [label="gini = 0.0\nsamples = 1\nvalue = [0, 1]"] ;
174 -> 184 ;
185 [label="my_health <= 6.5\ngini = 0.038\nsamples = 102\nvalue = [100, 2]"] ;
173 -> 185 ;
186 [label="opponent_board_nb_creatures <= 6.5\ngini = 0.278\nsamples = 12\nvalue = [10, 2]"] ;
185 -> 186 ;
187 [label="opponent_board_total_health <= 7.0\ngini = 0.165\nsamples = 11\nvalue = [10, 1]"] ;
186 -> 187 ;
188 [label="gini = 0.0\nsamples = 1\nvalue = [0, 1]"] ;
187 -> 188 ;
189 [label="gini = 0.0\nsamples = 10\nvalue = [10, 0]"] ;
187 -> 189 ;
190 [label="gini = 0.0\nsamples = 1\nvalue = [0, 1]"] ;
186 -> 190 ;
191 [label="gini = 0.0\nsamples = 90\nvalue = [90, 0]"] ;
185 -> 191 ;
192 [label="opponent_board_total_health <= 7.5\ngini = 0.386\nsamples = 23\nvalue = [17, 6]"] ;
172 -> 192 ;
193 [label="my_health <= 25.5\ngini = 0.32\nsamples = 5\nvalue = [1, 4]"] ;
192 -> 193 ;
194 [label="gini = 0.0\nsamples = 1\nvalue = [1, 0]"] ;
193 -> 194 ;
195 [label="gini = 0.0\nsamples = 4\nvalue = [0, 4]"] ;
193 -> 195 ;
196 [label="opponent_health <= 29.5\ngini = 0.198\nsamples = 18\nvalue = [16, 2]"] ;
192 -> 196 ;
197 [label="gini = 0.0\nsamples = 14\nvalue = [14, 0]"] ;
196 -> 197 ;
198 [label="opponent_board_nb_creatures <= 5.0\ngini = 0.5\nsamples = 4\nvalue = [2, 2]"] ;
196 -> 198 ;
199 [label="gini = 0.0\nsamples = 2\nvalue = [0, 2]"] ;
198 -> 199 ;
200 [label="gini = 0.0\nsamples = 2\nvalue = [2, 0]"] ;
198 -> 200 ;
201 [label="my_board_total_attack <= 4.5\ngini = 0.397\nsamples = 33\nvalue = [24, 9]"] ;
171 -> 201 ;
202 [label="opponent_board_total_attack <= 13.5\ngini = 0.255\nsamples = 20\nvalue = [17, 3]"] ;
201 -> 202 ;
203 [label="opponent_board_total_health <= 4.5\ngini = 0.111\nsamples = 17\nvalue = [16, 1]"] ;
202 -> 203 ;
204 [label="opponent_health <= 29.0\ngini = 0.5\nsamples = 2\nvalue = [1, 1]"] ;
203 -> 204 ;
205 [label="gini = 0.0\nsamples = 1\nvalue = [0, 1]"] ;
204 -> 205 ;
206 [label="gini = 0.0\nsamples = 1\nvalue = [1, 0]"] ;
204 -> 206 ;
207 [label="gini = 0.0\nsamples = 15\nvalue = [15, 0]"] ;
203 -> 207 ;
208 [label="opponent_board_total_health <= 13.5\ngini = 0.444\nsamples = 3\nvalue = [1, 2]"] ;
202 -> 208 ;
209 [label="gini = 0.0\nsamples = 1\nvalue = [1, 0]"] ;
208 -> 209 ;
210 [label="gini = 0.0\nsamples = 2\nvalue = [0, 2]"] ;
208 -> 210 ;
211 [label="my_health <= 23.5\ngini = 0.497\nsamples = 13\nvalue = [7, 6]"] ;
201 -> 211 ;
212 [label="my_hand <= 7.5\ngini = 0.42\nsamples = 10\nvalue = [7, 3]"] ;
211 -> 212 ;
213 [label="opponent_board_nb_creatures <= 3.5\ngini = 0.219\nsamples = 8\nvalue = [7, 1]"] ;
212 -> 213 ;
214 [label="gini = 0.0\nsamples = 5\nvalue = [5, 0]"] ;
213 -> 214 ;
215 [label="opponent_board_total_attack <= 10.5\ngini = 0.444\nsamples = 3\nvalue = [2, 1]"] ;
213 -> 215 ;
216 [label="gini = 0.0\nsamples = 1\nvalue = [0, 1]"] ;
215 -> 216 ;
217 [label="gini = 0.0\nsamples = 2\nvalue = [2, 0]"] ;
215 -> 217 ;
218 [label="gini = 0.0\nsamples = 2\nvalue = [0, 2]"] ;
212 -> 218 ;
219 [label="gini = 0.0\nsamples = 3\nvalue = [0, 3]"] ;
211 -> 219 ;
220 [label="opponent_board_total_health <= 1.5\ngini = 0.401\nsamples = 826\nvalue = [229, 597]"] ;
0 -> 220 [labeldistance=2.5, labelangle=-45, headlabel="False"] ;
221 [label="opponent_health <= 7.5\ngini = 0.176\nsamples = 339\nvalue = [33, 306]"] ;
220 -> 221 ;
222 [label="my_health <= 23.0\ngini = 0.498\nsamples = 17\nvalue = [9, 8]"] ;
221 -> 222 ;
223 [label="opponent_health <= 2.0\ngini = 0.245\nsamples = 7\nvalue = [6, 1]"] ;
222 -> 223 ;
224 [label="gini = 0.0\nsamples = 1\nvalue = [0, 1]"] ;
223 -> 224 ;
225 [label="gini = 0.0\nsamples = 6\nvalue = [6, 0]"] ;
223 -> 225 ;
226 [label="my_hand <= 1.5\ngini = 0.42\nsamples = 10\nvalue = [3, 7]"] ;
222 -> 226 ;
227 [label="my_board_total_attack <= 5.5\ngini = 0.375\nsamples = 4\nvalue = [3, 1]"] ;
226 -> 227 ;
228 [label="gini = 0.0\nsamples = 1\nvalue = [0, 1]"] ;
227 -> 228 ;
229 [label="gini = 0.0\nsamples = 3\nvalue = [3, 0]"] ;
227 -> 229 ;
230 [label="gini = 0.0\nsamples = 6\nvalue = [0, 6]"] ;
226 -> 230 ;
231 [label="my_hand <= 0.5\ngini = 0.138\nsamples = 322\nvalue = [24, 298]"] ;
221 -> 231 ;
232 [label="my_board_total_health <= 8.5\ngini = 0.48\nsamples = 5\nvalue = [3, 2]"] ;
231 -> 232 ;
233 [label="gini = 0.0\nsamples = 2\nvalue = [0, 2]"] ;
232 -> 233 ;
234 [label="gini = 0.0\nsamples = 3\nvalue = [3, 0]"] ;
232 -> 234 ;
235 [label="my_health <= 16.5\ngini = 0.124\nsamples = 317\nvalue = [21, 296]"] ;
231 -> 235 ;
236 [label="my_board_total_attack <= 5.5\ngini = 0.278\nsamples = 72\nvalue = [12, 60]"] ;
235 -> 236 ;
237 [label="opponent_hand <= 1.5\ngini = 0.498\nsamples = 15\nvalue = [7, 8]"] ;
236 -> 237 ;
238 [label="gini = 0.0\nsamples = 3\nvalue = [3, 0]"] ;
237 -> 238 ;
239 [label="opponent_board_total_attack <= 1.5\ngini = 0.444\nsamples = 12\nvalue = [4, 8]"] ;
237 -> 239 ;
240 [label="my_board_total_health <= 4.5\ngini = 0.346\nsamples = 9\nvalue = [2, 7]"] ;
239 -> 240 ;
241 [label="opponent_health <= 18.5\ngini = 0.48\nsamples = 5\nvalue = [2, 3]"] ;
240 -> 241 ;
242 [label="gini = 0.444\nsamples = 3\nvalue = [2, 1]"] ;
241 -> 242 ;
243 [label="gini = 0.0\nsamples = 2\nvalue = [0, 2]"] ;
241 -> 243 ;
244 [label="gini = 0.0\nsamples = 4\nvalue = [0, 4]"] ;
240 -> 244 ;
245 [label="my_board_total_health <= 3.0\ngini = 0.444\nsamples = 3\nvalue = [2, 1]"] ;
239 -> 245 ;
246 [label="gini = 0.0\nsamples = 1\nvalue = [0, 1]"] ;
245 -> 246 ;
247 [label="gini = 0.0\nsamples = 2\nvalue = [2, 0]"] ;
245 -> 247 ;
248 [label="my_board_total_health <= 4.5\ngini = 0.16\nsamples = 57\nvalue = [5, 52]"] ;
236 -> 248 ;
249 [label="opponent_board_total_attack <= 1.0\ngini = 0.444\nsamples = 3\nvalue = [2, 1]"] ;
248 -> 249 ;
250 [label="gini = 0.0\nsamples = 2\nvalue = [2, 0]"] ;
249 -> 250 ;
251 [label="gini = 0.0\nsamples = 1\nvalue = [0, 1]"] ;
249 -> 251 ;
252 [label="my_health <= 5.0\ngini = 0.105\nsamples = 54\nvalue = [3, 51]"] ;
248 -> 252 ;
253 [label="my_board_nb_creatures <= 2.5\ngini = 0.48\nsamples = 5\nvalue = [2, 3]"] ;
252 -> 253 ;
254 [label="my_hand <= 2.5\ngini = 0.444\nsamples = 3\nvalue = [2, 1]"] ;
253 -> 254 ;
255 [label="gini = 0.0\nsamples = 1\nvalue = [0, 1]"] ;
254 -> 255 ;
256 [label="gini = 0.0\nsamples = 2\nvalue = [2, 0]"] ;
254 -> 256 ;
257 [label="gini = 0.0\nsamples = 2\nvalue = [0, 2]"] ;
253 -> 257 ;
258 [label="opponent_hand <= 4.5\ngini = 0.04\nsamples = 49\nvalue = [1, 48]"] ;
252 -> 258 ;
259 [label="gini = 0.0\nsamples = 44\nvalue = [0, 44]"] ;
258 -> 259 ;
260 [label="my_hand <= 1.5\ngini = 0.32\nsamples = 5\nvalue = [1, 4]"] ;
258 -> 260 ;
261 [label="gini = 0.0\nsamples = 1\nvalue = [1, 0]"] ;
260 -> 261 ;
262 [label="gini = 0.0\nsamples = 4\nvalue = [0, 4]"] ;
260 -> 262 ;
263 [label="my_board_total_attack <= 18.0\ngini = 0.071\nsamples = 245\nvalue = [9, 236]"] ;
235 -> 263 ;
264 [label="my_board_total_attack <= 3.5\ngini = 0.056\nsamples = 242\nvalue = [7, 235]"] ;
263 -> 264 ;
265 [label="my_board_total_health <= 5.0\ngini = 0.298\nsamples = 11\nvalue = [2, 9]"] ;
264 -> 265 ;
266 [label="opponent_hand <= 5.5\ngini = 0.198\nsamples = 9\nvalue = [1, 8]"] ;
265 -> 266 ;
267 [label="gini = 0.0\nsamples = 7\nvalue = [0, 7]"] ;
266 -> 267 ;
268 [label="my_board_total_attack <= 2.5\ngini = 0.5\nsamples = 2\nvalue = [1, 1]"] ;
266 -> 268 ;
269 [label="gini = 0.0\nsamples = 1\nvalue = [1, 0]"] ;
268 -> 269 ;
270 [label="gini = 0.0\nsamples = 1\nvalue = [0, 1]"] ;
268 -> 270 ;
271 [label="my_hand <= 4.5\ngini = 0.5\nsamples = 2\nvalue = [1, 1]"] ;
265 -> 271 ;
272 [label="gini = 0.0\nsamples = 1\nvalue = [1, 0]"] ;
271 -> 272 ;
273 [label="gini = 0.0\nsamples = 1\nvalue = [0, 1]"] ;
271 -> 273 ;
274 [label="my_board_total_health <= 7.5\ngini = 0.042\nsamples = 231\nvalue = [5, 226]"] ;
264 -> 274 ;
275 [label="opponent_hand <= 7.5\ngini = 0.092\nsamples = 103\nvalue = [5, 98]"] ;
274 -> 275 ;
276 [label="my_health <= 21.5\ngini = 0.061\nsamples = 95\nvalue = [3, 92]"] ;
275 -> 276 ;
277 [label="gini = 0.18\nsamples = 20\nvalue = [2, 18]"] ;
276 -> 277 ;
278 [label="gini = 0.026\nsamples = 75\nvalue = [1, 74]"] ;
276 -> 278 ;
279 [label="opponent_board_total_attack <= 0.5\ngini = 0.375\nsamples = 8\nvalue = [2, 6]"] ;
275 -> 279 ;
280 [label="gini = 0.245\nsamples = 7\nvalue = [1, 6]"] ;
279 -> 280 ;
281 [label="gini = 0.0\nsamples = 1\nvalue = [1, 0]"] ;
279 -> 281 ;
282 [label="gini = 0.0\nsamples = 128\nvalue = [0, 128]"] ;
274 -> 282 ;
283 [label="my_hand <= 2.5\ngini = 0.444\nsamples = 3\nvalue = [2, 1]"] ;
263 -> 283 ;
284 [label="gini = 0.0\nsamples = 1\nvalue = [0, 1]"] ;
283 -> 284 ;
285 [label="gini = 0.0\nsamples = 2\nvalue = [2, 0]"] ;
283 -> 285 ;
286 [label="my_health <= 20.5\ngini = 0.481\nsamples = 487\nvalue = [196, 291]"] ;
220 -> 286 ;
287 [label="my_board_total_attack <= 4.5\ngini = 0.495\nsamples = 189\nvalue = [104, 85]"] ;
286 -> 287 ;
288 [label="opponent_hand <= 0.5\ngini = 0.234\nsamples = 37\nvalue = [32, 5]"] ;
287 -> 288 ;
289 [label="my_board_total_health <= 2.5\ngini = 0.444\nsamples = 6\nvalue = [2, 4]"] ;
288 -> 289 ;
290 [label="gini = 0.0\nsamples = 3\nvalue = [0, 3]"] ;
289 -> 290 ;
291 [label="my_hand <= 2.0\ngini = 0.444\nsamples = 3\nvalue = [2, 1]"] ;
289 -> 291 ;
292 [label="gini = 0.0\nsamples = 2\nvalue = [2, 0]"] ;
291 -> 292 ;
293 [label="gini = 0.0\nsamples = 1\nvalue = [0, 1]"] ;
291 -> 293 ;
294 [label="opponent_hand <= 1.5\ngini = 0.062\nsamples = 31\nvalue = [30, 1]"] ;
288 -> 294 ;
295 [label="me_playing <= 0.5\ngini = 0.375\nsamples = 4\nvalue = [3, 1]"] ;
294 -> 295 ;
296 [label="gini = 0.0\nsamples = 3\nvalue = [3, 0]"] ;
295 -> 296 ;
297 [label="gini = 0.0\nsamples = 1\nvalue = [0, 1]"] ;
295 -> 297 ;
298 [label="gini = 0.0\nsamples = 27\nvalue = [27, 0]"] ;
294 -> 298 ;
299 [label="opponent_health <= 22.5\ngini = 0.499\nsamples = 152\nvalue = [72, 80]"] ;
287 -> 299 ;
300 [label="my_hand <= 1.5\ngini = 0.41\nsamples = 73\nvalue = [21, 52]"] ;
299 -> 300 ;
301 [label="opponent_board_nb_creatures <= 2.5\ngini = 0.498\nsamples = 15\nvalue = [8, 7]"] ;
300 -> 301 ;
302 [label="my_board_total_health <= 16.5\ngini = 0.219\nsamples = 8\nvalue = [7, 1]"] ;
301 -> 302 ;
303 [label="gini = 0.0\nsamples = 7\nvalue = [7, 0]"] ;
302 -> 303 ;
304 [label="gini = 0.0\nsamples = 1\nvalue = [0, 1]"] ;
302 -> 304 ;
305 [label="opponent_hand <= 2.5\ngini = 0.245\nsamples = 7\nvalue = [1, 6]"] ;
301 -> 305 ;
306 [label="gini = 0.0\nsamples = 6\nvalue = [0, 6]"] ;
305 -> 306 ;
307 [label="gini = 0.0\nsamples = 1\nvalue = [1, 0]"] ;
305 -> 307 ;
308 [label="opponent_board_total_health <= 17.5\ngini = 0.348\nsamples = 58\nvalue = [13, 45]"] ;
300 -> 308 ;
309 [label="my_board_total_health <= 2.5\ngini = 0.298\nsamples = 55\nvalue = [10, 45]"] ;
308 -> 309 ;
310 [label="gini = 0.0\nsamples = 1\nvalue = [1, 0]"] ;
309 -> 310 ;
311 [label="opponent_hand <= 4.5\ngini = 0.278\nsamples = 54\nvalue = [9, 45]"] ;
309 -> 311 ;
312 [label="opponent_board_nb_creatures <= 2.5\ngini = 0.206\nsamples = 43\nvalue = [5, 38]"] ;
311 -> 312 ;
313 [label="gini = 0.064\nsamples = 30\nvalue = [1, 29]"] ;
312 -> 313 ;
314 [label="gini = 0.426\nsamples = 13\nvalue = [4, 9]"] ;
312 -> 314 ;
315 [label="opponent_health <= 18.0\ngini = 0.463\nsamples = 11\nvalue = [4, 7]"] ;
311 -> 315 ;
316 [label="gini = 0.0\nsamples = 4\nvalue = [4, 0]"] ;
315 -> 316 ;
317 [label="gini = 0.0\nsamples = 7\nvalue = [0, 7]"] ;
315 -> 317 ;
318 [label="gini = 0.0\nsamples = 3\nvalue = [3, 0]"] ;
308 -> 318 ;
319 [label="opponent_board_total_attack <= 7.5\ngini = 0.458\nsamples = 79\nvalue = [51, 28]"] ;
299 -> 319 ;
320 [label="opponent_hand <= 5.5\ngini = 0.5\nsamples = 37\nvalue = [18, 19]"] ;
319 -> 320 ;
321 [label="my_health <= 16.5\ngini = 0.493\nsamples = 34\nvalue = [15, 19]"] ;
320 -> 321 ;
322 [label="my_board_total_attack <= 9.5\ngini = 0.497\nsamples = 24\nvalue = [13, 11]"] ;
321 -> 322 ;
323 [label="my_board_total_health <= 6.5\ngini = 0.43\nsamples = 16\nvalue = [11, 5]"] ;
322 -> 323 ;
324 [label="gini = 0.49\nsamples = 7\nvalue = [3, 4]"] ;
323 -> 324 ;
325 [label="gini = 0.198\nsamples = 9\nvalue = [8, 1]"] ;
323 -> 325 ;
326 [label="opponent_health <= 27.5\ngini = 0.375\nsamples = 8\nvalue = [2, 6]"] ;
322 -> 326 ;
327 [label="gini = 0.0\nsamples = 5\nvalue = [0, 5]"] ;
326 -> 327 ;
328 [label="gini = 0.444\nsamples = 3\nvalue = [2, 1]"] ;
326 -> 328 ;
329 [label="opponent_board_total_health <= 2.5\ngini = 0.32\nsamples = 10\nvalue = [2, 8]"] ;
321 -> 329 ;
330 [label="gini = 0.0\nsamples = 2\nvalue = [2, 0]"] ;
329 -> 330 ;
331 [label="gini = 0.0\nsamples = 8\nvalue = [0, 8]"] ;
329 -> 331 ;
332 [label="gini = 0.0\nsamples = 3\nvalue = [3, 0]"] ;
320 -> 332 ;
333 [label="my_board_total_health <= 7.5\ngini = 0.337\nsamples = 42\nvalue = [33, 9]"] ;
319 -> 333 ;
334 [label="gini = 0.0\nsamples = 17\nvalue = [17, 0]"] ;
333 -> 334 ;
335 [label="opponent_board_total_attack <= 16.5\ngini = 0.461\nsamples = 25\nvalue = [16, 9]"] ;
333 -> 335 ;
336 [label="me_playing <= 0.5\ngini = 0.423\nsamples = 23\nvalue = [16, 7]"] ;
335 -> 336 ;
337 [label="opponent_hand <= 4.5\ngini = 0.5\nsamples = 14\nvalue = [7, 7]"] ;
336 -> 337 ;
338 [label="gini = 0.42\nsamples = 10\nvalue = [3, 7]"] ;
337 -> 338 ;
339 [label="gini = 0.0\nsamples = 4\nvalue = [4, 0]"] ;
337 -> 339 ;
340 [label="gini = 0.0\nsamples = 9\nvalue = [9, 0]"] ;
336 -> 340 ;
341 [label="gini = 0.0\nsamples = 2\nvalue = [0, 2]"] ;
335 -> 341 ;
342 [label="me_playing <= 0.5\ngini = 0.427\nsamples = 298\nvalue = [92, 206]"] ;
286 -> 342 ;
343 [label="opponent_board_total_attack <= 14.5\ngini = 0.231\nsamples = 120\nvalue = [16, 104]"] ;
342 -> 343 ;
344 [label="my_hand <= 6.5\ngini = 0.185\nsamples = 116\nvalue = [12, 104]"] ;
343 -> 344 ;
345 [label="my_board_total_attack <= 3.5\ngini = 0.128\nsamples = 102\nvalue = [7, 95]"] ;
344 -> 345 ;
346 [label="my_board_total_health <= 3.5\ngini = 0.375\nsamples = 12\nvalue = [3, 9]"] ;
345 -> 346 ;
347 [label="my_health <= 26.5\ngini = 0.5\nsamples = 6\nvalue = [3, 3]"] ;
346 -> 347 ;
348 [label="gini = 0.0\nsamples = 3\nvalue = [3, 0]"] ;
347 -> 348 ;
349 [label="gini = 0.0\nsamples = 3\nvalue = [0, 3]"] ;
347 -> 349 ;
350 [label="gini = 0.0\nsamples = 6\nvalue = [0, 6]"] ;
346 -> 350 ;
351 [label="my_health <= 21.5\ngini = 0.085\nsamples = 90\nvalue = [4, 86]"] ;
345 -> 351 ;
352 [label="my_hand <= 2.5\ngini = 0.408\nsamples = 7\nvalue = [2, 5]"] ;
351 -> 352 ;
353 [label="gini = 0.0\nsamples = 4\nvalue = [0, 4]"] ;
352 -> 353 ;
354 [label="my_board_total_health <= 4.0\ngini = 0.444\nsamples = 3\nvalue = [2, 1]"] ;
352 -> 354 ;
355 [label="gini = 0.0\nsamples = 1\nvalue = [0, 1]"] ;
354 -> 355 ;
356 [label="gini = 0.0\nsamples = 2\nvalue = [2, 0]"] ;
354 -> 356 ;
357 [label="opponent_hand <= 5.5\ngini = 0.047\nsamples = 83\nvalue = [2, 81]"] ;
351 -> 357 ;
358 [label="gini = 0.0\nsamples = 64\nvalue = [0, 64]"] ;
357 -> 358 ;
359 [label="opponent_board_nb_creatures <= 1.5\ngini = 0.188\nsamples = 19\nvalue = [2, 17]"] ;
357 -> 359 ;
360 [label="gini = 0.0\nsamples = 12\nvalue = [0, 12]"] ;
359 -> 360 ;
361 [label="gini = 0.408\nsamples = 7\nvalue = [2, 5]"] ;
359 -> 361 ;
362 [label="opponent_board_total_health <= 5.5\ngini = 0.459\nsamples = 14\nvalue = [5, 9]"] ;
344 -> 362 ;
363 [label="my_board_total_attack <= 17.0\ngini = 0.444\nsamples = 6\nvalue = [4, 2]"] ;
362 -> 363 ;
364 [label="opponent_board_total_health <= 3.5\ngini = 0.32\nsamples = 5\nvalue = [4, 1]"] ;
363 -> 364 ;
365 [label="gini = 0.0\nsamples = 1\nvalue = [0, 1]"] ;
364 -> 365 ;
366 [label="gini = 0.0\nsamples = 4\nvalue = [4, 0]"] ;
364 -> 366 ;
367 [label="gini = 0.0\nsamples = 1\nvalue = [0, 1]"] ;
363 -> 367 ;
368 [label="opponent_health <= 9.5\ngini = 0.219\nsamples = 8\nvalue = [1, 7]"] ;
362 -> 368 ;
369 [label="gini = 0.0\nsamples = 1\nvalue = [1, 0]"] ;
368 -> 369 ;
370 [label="gini = 0.0\nsamples = 7\nvalue = [0, 7]"] ;
368 -> 370 ;
371 [label="gini = 0.0\nsamples = 4\nvalue = [4, 0]"] ;
343 -> 371 ;
372 [label="opponent_health <= 25.5\ngini = 0.489\nsamples = 178\nvalue = [76, 102]"] ;
342 -> 372 ;
373 [label="opponent_board_total_attack <= 10.5\ngini = 0.456\nsamples = 145\nvalue = [51, 94]"] ;
372 -> 373 ;
374 [label="my_hand <= 0.5\ngini = 0.413\nsamples = 127\nvalue = [37, 90]"] ;
373 -> 374 ;
375 [label="gini = 0.0\nsamples = 4\nvalue = [4, 0]"] ;
374 -> 375 ;
376 [label="opponent_board_total_attack <= 4.5\ngini = 0.393\nsamples = 123\nvalue = [33, 90]"] ;
374 -> 376 ;
377 [label="my_board_total_health <= 5.5\ngini = 0.255\nsamples = 60\nvalue = [9, 51]"] ;
376 -> 377 ;
378 [label="opponent_health <= 13.5\ngini = 0.473\nsamples = 13\nvalue = [5, 8]"] ;
377 -> 378 ;
379 [label="gini = 0.0\nsamples = 6\nvalue = [0, 6]"] ;
378 -> 379 ;
380 [label="gini = 0.408\nsamples = 7\nvalue = [5, 2]"] ;
378 -> 380 ;
381 [label="my_board_total_attack <= 16.5\ngini = 0.156\nsamples = 47\nvalue = [4, 43]"] ;
377 -> 381 ;
382 [label="gini = 0.122\nsamples = 46\nvalue = [3, 43]"] ;
381 -> 382 ;
383 [label="gini = 0.0\nsamples = 1\nvalue = [1, 0]"] ;
381 -> 383 ;
384 [label="my_board_nb_creatures <= 2.5\ngini = 0.472\nsamples = 63\nvalue = [24, 39]"] ;
376 -> 384 ;
385 [label="opponent_health <= 16.5\ngini = 0.488\nsamples = 26\nvalue = [15, 11]"] ;
384 -> 385 ;
386 [label="gini = 0.444\nsamples = 9\nvalue = [3, 6]"] ;
385 -> 386 ;
387 [label="gini = 0.415\nsamples = 17\nvalue = [12, 5]"] ;
385 -> 387 ;
388 [label="my_health <= 27.5\ngini = 0.368\nsamples = 37\nvalue = [9, 28]"] ;
384 -> 388 ;
389 [label="gini = 0.488\nsamples = 19\nvalue = [8, 11]"] ;
388 -> 389 ;
390 [label="gini = 0.105\nsamples = 18\nvalue = [1, 17]"] ;
388 -> 390 ;
391 [label="my_hand <= 4.5\ngini = 0.346\nsamples = 18\nvalue = [14, 4]"] ;
373 -> 391 ;
392 [label="opponent_board_total_health <= 25.0\ngini = 0.219\nsamples = 16\nvalue = [14, 2]"] ;
391 -> 392 ;
393 [label="my_hand <= 0.5\ngini = 0.124\nsamples = 15\nvalue = [14, 1]"] ;
392 -> 393 ;
394 [label="my_health <= 24.5\ngini = 0.5\nsamples = 2\nvalue = [1, 1]"] ;
393 -> 394 ;
395 [label="gini = 0.0\nsamples = 1\nvalue = [0, 1]"] ;
394 -> 395 ;
396 [label="gini = 0.0\nsamples = 1\nvalue = [1, 0]"] ;
394 -> 396 ;
397 [label="gini = 0.0\nsamples = 13\nvalue = [13, 0]"] ;
393 -> 397 ;
398 [label="gini = 0.0\nsamples = 1\nvalue = [0, 1]"] ;
392 -> 398 ;
399 [label="gini = 0.0\nsamples = 2\nvalue = [0, 2]"] ;
391 -> 399 ;
400 [label="my_board_total_health <= 11.5\ngini = 0.367\nsamples = 33\nvalue = [25, 8]"] ;
372 -> 400 ;
401 [label="my_board_nb_creatures <= 2.5\ngini = 0.252\nsamples = 27\nvalue = [23, 4]"] ;
400 -> 401 ;
402 [label="my_health <= 23.5\ngini = 0.391\nsamples = 15\nvalue = [11, 4]"] ;
401 -> 402 ;
403 [label="my_board_total_attack <= 5.5\ngini = 0.444\nsamples = 3\nvalue = [1, 2]"] ;
402 -> 403 ;
404 [label="gini = 0.0\nsamples = 2\nvalue = [0, 2]"] ;
403 -> 404 ;
405 [label="gini = 0.0\nsamples = 1\nvalue = [1, 0]"] ;
403 -> 405 ;
406 [label="opponent_board_total_attack <= 0.5\ngini = 0.278\nsamples = 12\nvalue = [10, 2]"] ;
402 -> 406 ;
407 [label="gini = 0.0\nsamples = 1\nvalue = [0, 1]"] ;
406 -> 407 ;
408 [label="my_board_total_health <= 9.0\ngini = 0.165\nsamples = 11\nvalue = [10, 1]"] ;
406 -> 408 ;
409 [label="gini = 0.0\nsamples = 10\nvalue = [10, 0]"] ;
408 -> 409 ;
410 [label="gini = 0.0\nsamples = 1\nvalue = [0, 1]"] ;
408 -> 410 ;
411 [label="gini = 0.0\nsamples = 12\nvalue = [12, 0]"] ;
401 -> 411 ;
412 [label="my_health <= 28.5\ngini = 0.444\nsamples = 6\nvalue = [2, 4]"] ;
400 -> 412 ;
413 [label="opponent_hand <= 3.5\ngini = 0.444\nsamples = 3\nvalue = [2, 1]"] ;
412 -> 413 ;
414 [label="gini = 0.0\nsamples = 1\nvalue = [0, 1]"] ;
413 -> 414 ;
415 [label="gini = 0.0\nsamples = 2\nvalue = [2, 0]"] ;
413 -> 415 ;
416 [label="gini = 0.0\nsamples = 3\nvalue = [0, 3]"] ;
412 -> 416 ;
}