digraph Tree {
node [shape=box] ;
0 [label="my_board_nb_creatures <= 1.5\ngini = 0.496\nsamples = 1434\nvalue = [655, 779]"] ;
1 [label="opponent_board_total_attack <= 4.5\ngini = 0.423\nsamples = 616\nvalue = [429, 187]"] ;
0 -> 1 [labeldistance=2.5, labelangle=45, headlabel="True"] ;
2 [label="my_board_total_attack <= 1.5\ngini = 0.5\nsamples = 240\nvalue = [119, 121]"] ;
1 -> 2 ;
3 [label="opponent_health <= 21.5\ngini = 0.462\nsamples = 116\nvalue = [74, 42]"] ;
2 -> 3 ;
4 [label="opponent_hand <= 7.5\ngini = 0.499\nsamples = 52\nvalue = [25, 27]"] ;
3 -> 4 ;
5 [label="my_health <= 20.5\ngini = 0.485\nsamples = 46\nvalue = [19, 27]"] ;
4 -> 5 ;
6 [label="opponent_health <= 13.5\ngini = 0.483\nsamples = 27\nvalue = [16, 11]"] ;
5 -> 6 ;
7 [label="my_health <= 14.5\ngini = 0.444\nsamples = 12\nvalue = [4, 8]"] ;
6 -> 7 ;
8 [label="gini = 0.0\nsamples = 4\nvalue = [0, 4]"] ;
7 -> 8 ;
9 [label="me_playing <= 0.5\ngini = 0.5\nsamples = 8\nvalue = [4, 4]"] ;
7 -> 9 ;
10 [label="opponent_health <= 7.0\ngini = 0.444\nsamples = 6\nvalue = [2, 4]"] ;
9 -> 10 ;
11 [label="gini = 0.0\nsamples = 3\nvalue = [0, 3]"] ;
10 -> 11 ;
12 [label="opponent_hand <= 1.5\ngini = 0.444\nsamples = 3\nvalue = [2, 1]"] ;
10 -> 12 ;
13 [label="gini = 0.0\nsamples = 1\nvalue = [0, 1]"] ;
12 -> 13 ;
14 [label="gini = 0.0\nsamples = 2\nvalue = [2, 0]"] ;
12 -> 14 ;
15 [label="gini = 0.0\nsamples = 2\nvalue = [2, 0]"] ;
9 -> 15 ;
16 [label="opponent_hand <= 1.5\ngini = 0.32\nsamples = 15\nvalue = [12, 3]"] ;
6 -> 16 ;
17 [label="opponent_board_total_health <= 1.5\ngini = 0.444\nsamples = 3\nvalue = [1, 2]"] ;
16 -> 17 ;
18 [label="gini = 0.0\nsamples = 2\nvalue = [0, 2]"] ;
17 -> 18 ;
19 [label="gini = 0.0\nsamples = 1\nvalue = [1, 0]"] ;
17 -> 19 ;
20 [label="my_health <= 11.0\ngini = 0.153\nsamples = 12\nvalue = [11, 1]"] ;
16 -> 20 ;
21 [label="gini = 0.0\nsamples = 1\nvalue = [0, 1]"] ;
20 -> 21 ;
22 [label="gini = 0.0\nsamples = 11\nvalue = [11, 0]"] ;
20 -> 22 ;
23 [label="opponent_hand <= 3.5\ngini = 0.266\nsamples = 19\nvalue = [3, 16]"] ;
5 -> 23 ;
24 [label="gini = 0.0\nsamples = 9\nvalue = [0, 9]"] ;
23 -> 24 ;
25 [label="my_hand <= 3.5\ngini = 0.42\nsamples = 10\nvalue = [3, 7]"] ;
23 -> 25 ;
26 [label="my_health <= 24.0\ngini = 0.5\nsamples = 6\nvalue = [3, 3]"] ;
25 -> 26 ;
27 [label="gini = 0.0\nsamples = 1\nvalue = [1, 0]"] ;
26 -> 27 ;
28 [label="opponent_hand <= 6.5\ngini = 0.48\nsamples = 5\nvalue = [2, 3]"] ;
26 -> 28 ;
29 [label="opponent_health <= 14.5\ngini = 0.375\nsamples = 4\nvalue = [1, 3]"] ;
28 -> 29 ;
30 [label="my_health <= 26.0\ngini = 0.5\nsamples = 2\nvalue = [1, 1]"] ;
29 -> 30 ;
31 [label="gini = 0.0\nsamples = 1\nvalue = [0, 1]"] ;
30 -> 31 ;
32 [label="gini = 0.0\nsamples = 1\nvalue = [1, 0]"] ;
30 -> 32 ;
33 [label="gini = 0.0\nsamples = 2\nvalue = [0, 2]"] ;
29 -> 33 ;
34 [label="gini = 0.0\nsamples = 1\nvalue = [1, 0]"] ;
28 -> 34 ;
35 [label="gini = 0.0\nsamples = 4\nvalue = [0, 4]"] ;
25 -> 35 ;
36 [label="gini = 0.0\nsamples = 6\nvalue = [6, 0]"] ;
4 -> 36 ;
37 [label="opponent_hand <= 0.5\ngini = 0.359\nsamples = 64\nvalue = [49, 15]"] ;
3 -> 37 ;
38 [label="gini = 0.0\nsamples = 2\nvalue = [0, 2]"] ;
37 -> 38 ;
39 [label="my_hand <= 7.5\ngini = 0.331\nsamples = 62\nvalue = [49, 13]"] ;
37 -> 39 ;
40 [label="opponent_health <= 28.5\ngini = 0.285\nsamples = 58\nvalue = [48, 10]"] ;
39 -> 40 ;
41 [label="my_health <= 5.5\ngini = 0.108\nsamples = 35\nvalue = [33, 2]"] ;
40 -> 41 ;
42 [label="gini = 0.0\nsamples = 1\nvalue = [0, 1]"] ;
41 -> 42 ;
43 [label="opponent_board_nb_creatures <= 1.5\ngini = 0.057\nsamples = 34\nvalue = [33, 1]"] ;
41 -> 43 ;
44 [label="gini = 0.0\nsamples = 30\nvalue = [30, 0]"] ;
43 -> 44 ;
45 [label="opponent_board_total_attack <= 3.0\ngini = 0.375\nsamples = 4\nvalue = [3, 1]"] ;
43 -> 45 ;
46 [label="gini = 0.0\nsamples = 1\nvalue = [0, 1]"] ;
45 -> 46 ;
47 [label="gini = 0.0\nsamples = 3\nvalue = [3, 0]"] ;
45 -> 47 ;
48 [label="my_health <= 14.5\ngini = 0.454\nsamples = 23\nvalue = [15, 8]"] ;
40 -> 48 ;
49 [label="gini = 0.0\nsamples = 10\nvalue = [10, 0]"] ;
48 -> 49 ;
50 [label="me_playing <= 0.5\ngini = 0.473\nsamples = 13\nvalue = [5, 8]"] ;
48 -> 50 ;
51 [label="opponent_board_total_health <= 3.5\ngini = 0.219\nsamples = 8\nvalue = [1, 7]"] ;
50 -> 51 ;
52 [label="gini = 0.0\nsamples = 6\nvalue = [0, 6]"] ;
51 -> 52 ;
53 [label="opponent_board_total_health <= 5.0\ngini = 0.5\nsamples = 2\nvalue = [1, 1]"] ;
51 -> 53 ;
54 [label="gini = 0.0\nsamples = 1\nvalue = [1, 0]"] ;
53 -> 54 ;
55 [label="gini = 0.0\nsamples = 1\nvalue = [0, 1]"] ;
53 -> 55 ;
56 [label="opponent_board_nb_creatures <= 0.5\ngini = 0.32\nsamples = 5\nvalue = [4, 1]"] ;
50 -> 56 ;
57 [label="gini = 0.0\nsamples = 1\nvalue = [0, 1]"] ;
56 -> 57 ;
58 [label="gini = 0.0\nsamples = 4\nvalue = [4, 0]"] ;
56 -> 58 ;
59 [label="opponent_board_total_health <= 0.5\ngini = 0.375\nsamples = 4\nvalue = [1, 3]"] ;
39 -> 59 ;
60 [label="gini = 0.0\nsamples = 1\nvalue = [1, 0]"] ;
59 -> 60 ;
61 [label="gini = 0.0\nsamples = 3\nvalue = [0, 3]"] ;
59 -> 61 ;
62 [label="my_hand <= 2.5\ngini = 0.462\nsamples = 124\nvalue = [45, 79]"] ;
2 -> 62 ;
63 [label="my_health <= 18.5\ngini = 0.375\nsamples = 20\nvalue = [15, 5]"] ;
62 -> 63 ;
64 [label="gini = 0.0\nsamples = 10\nvalue = [10, 0]"] ;
63 -> 64 ;
65 [label="my_board_total_health <= 2.5\ngini = 0.5\nsamples = 10\nvalue = [5, 5]"] ;
63 -> 65 ;
66 [label="my_health <= 24.5\ngini = 0.408\nsamples = 7\nvalue = [2, 5]"] ;
65 -> 66 ;
67 [label="opponent_health <= 14.0\ngini = 0.444\nsamples = 3\nvalue = [2, 1]"] ;
66 -> 67 ;
68 [label="gini = 0.0\nsamples = 1\nvalue = [0, 1]"] ;
67 -> 68 ;
69 [label="gini = 0.0\nsamples = 2\nvalue = [2, 0]"] ;
67 -> 69 ;
70 [label="gini = 0.0\nsamples = 4\nvalue = [0, 4]"] ;
66 -> 70 ;
71 [label="gini = 0.0\nsamples = 3\nvalue = [3, 0]"] ;
65 -> 71 ;
72 [label="opponent_health <= 21.5\ngini = 0.411\nsamples = 104\nvalue = [30, 74]"] ;
62 -> 72 ;
73 [label="opponent_board_total_health <= 11.0\ngini = 0.198\nsamples = 45\nvalue = [5, 40]"] ;
72 -> 73 ;
74 [label="my_hand <= 5.5\ngini = 0.165\nsamples = 44\nvalue = [4, 40]"] ;
73 -> 74 ;
75 [label="my_health <= 8.0\ngini = 0.056\nsamples = 35\nvalue = [1, 34]"] ;
74 -> 75 ;
76 [label="me_playing <= 0.5\ngini = 0.5\nsamples = 2\nvalue = [1, 1]"] ;
75 -> 76 ;
77 [label="gini = 0.0\nsamples = 1\nvalue = [0, 1]"] ;
76 -> 77 ;
78 [label="gini = 0.0\nsamples = 1\nvalue = [1, 0]"] ;
76 -> 78 ;
79 [label="gini = 0.0\nsamples = 33\nvalue = [0, 33]"] ;
75 -> 79 ;
80 [label="my_board_total_health <= 1.5\ngini = 0.444\nsamples = 9\nvalue = [3, 6]"] ;
74 -> 80 ;
81 [label="gini = 0.0\nsamples = 1\nvalue = [1, 0]"] ;
80 -> 81 ;
82 [label="me_playing <= 0.5\ngini = 0.375\nsamples = 8\nvalue = [2, 6]"] ;
80 -> 82 ;
83 [label="gini = 0.0\nsamples = 3\nvalue = [0, 3]"] ;
82 -> 83 ;
84 [label="my_health <= 20.0\ngini = 0.48\nsamples = 5\nvalue = [2, 3]"] ;
82 -> 84 ;
85 [label="gini = 0.0\nsamples = 2\nvalue = [0, 2]"] ;
84 -> 85 ;
86 [label="opponent_board_total_attack <= 3.0\ngini = 0.444\nsamples = 3\nvalue = [2, 1]"] ;
84 -> 86 ;
87 [label="gini = 0.0\nsamples = 2\nvalue = [2, 0]"] ;
86 -> 87 ;
88 [label="gini = 0.0\nsamples = 1\nvalue = [0, 1]"] ;
86 -> 88 ;
89 [label="gini = 0.0\nsamples = 1\nvalue = [1, 0]"] ;
73 -> 89 ;
90 [label="my_board_total_health <= 1.5\ngini = 0.488\nsamples = 59\nvalue = [25, 34]"] ;
72 -> 90 ;
91 [label="gini = 0.0\nsamples = 3\nvalue = [3, 0]"] ;
90 -> 91 ;
92 [label="my_hand <= 5.5\ngini = 0.477\nsamples = 56\nvalue = [22, 34]"] ;
90 -> 92 ;
93 [label="me_playing <= 0.5\ngini = 0.499\nsamples = 38\nvalue = [18, 20]"] ;
92 -> 93 ;
94 [label="my_board_total_attack <= 2.5\ngini = 0.355\nsamples = 13\nvalue = [3, 10]"] ;
93 -> 94 ;
95 [label="opponent_hand <= 4.5\ngini = 0.444\nsamples = 3\nvalue = [2, 1]"] ;
94 -> 95 ;
96 [label="gini = 0.0\nsamples = 2\nvalue = [2, 0]"] ;
95 -> 96 ;
97 [label="gini = 0.0\nsamples = 1\nvalue = [0, 1]"] ;
95 -> 97 ;
98 [label="my_health <= 13.5\ngini = 0.18\nsamples = 10\nvalue = [1, 9]"] ;
94 -> 98 ;
99 [label="gini = 0.0\nsamples = 1\nvalue = [1, 0]"] ;
98 -> 99 ;
100 [label="gini = 0.0\nsamples = 9\nvalue = [0, 9]"] ;
98 -> 100 ;
101 [label="my_health <= 19.5\ngini = 0.48\nsamples = 25\nvalue = [15, 10]"] ;
93 -> 101 ;
102 [label="gini = 0.0\nsamples = 6\nvalue = [6, 0]"] ;
101 -> 102 ;
103 [label="my_hand <= 4.5\ngini = 0.499\nsamples = 19\nvalue = [9, 10]"] ;
101 -> 103 ;
104 [label="my_board_total_attack <= 2.5\ngini = 0.426\nsamples = 13\nvalue = [4, 9]"] ;
103 -> 104 ;
105 [label="gini = 0.0\nsamples = 1\nvalue = [1, 0]"] ;
104 -> 105 ;
106 [label="opponent_hand <= 6.5\ngini = 0.375\nsamples = 12\nvalue = [3, 9]"] ;
104 -> 106 ;
107 [label="opponent_health <= 29.5\ngini = 0.298\nsamples = 11\nvalue = [2, 9]"] ;
106 -> 107 ;
108 [label="opponent_board_total_attack <= 3.5\ngini = 0.198\nsamples = 9\nvalue = [1, 8]"] ;
107 -> 108 ;
109 [label="gini = 0.0\nsamples = 7\nvalue = [0, 7]"] ;
108 -> 109 ;
110 [label="opponent_hand <= 3.0\ngini = 0.5\nsamples = 2\nvalue = [1, 1]"] ;
108 -> 110 ;
111 [label="gini = 0.0\nsamples = 1\nvalue = [0, 1]"] ;
110 -> 111 ;
112 [label="gini = 0.0\nsamples = 1\nvalue = [1, 0]"] ;
110 -> 112 ;
113 [label="my_board_total_health <= 3.5\ngini = 0.5\nsamples = 2\nvalue = [1, 1]"] ;
107 -> 113 ;
114 [label="gini = 0.0\nsamples = 1\nvalue = [1, 0]"] ;
113 -> 114 ;
115 [label="gini = 0.0\nsamples = 1\nvalue = [0, 1]"] ;
113 -> 115 ;
116 [label="gini = 0.0\nsamples = 1\nvalue = [1, 0]"] ;
106 -> 116 ;
117 [label="my_health <= 27.5\ngini = 0.278\nsamples = 6\nvalue = [5, 1]"] ;
103 -> 117 ;
118 [label="gini = 0.0\nsamples = 4\nvalue = [4, 0]"] ;
117 -> 118 ;
119 [label="my_board_total_health <= 4.5\ngini = 0.5\nsamples = 2\nvalue = [1, 1]"] ;
117 -> 119 ;
120 [label="gini = 0.0\nsamples = 1\nvalue = [1, 0]"] ;
119 -> 120 ;
121 [label="gini = 0.0\nsamples = 1\nvalue = [0, 1]"] ;
119 -> 121 ;
122 [label="opponent_hand <= 6.5\ngini = 0.346\nsamples = 18\nvalue = [4, 14]"] ;
92 -> 122 ;
123 [label="opponent_board_total_attack <= 3.5\ngini = 0.231\nsamples = 15\nvalue = [2, 13]"] ;
122 -> 123 ;
124 [label="opponent_health <= 29.5\ngini = 0.142\nsamples = 13\nvalue = [1, 12]"] ;
123 -> 124 ;
125 [label="gini = 0.0\nsamples = 10\nvalue = [0, 10]"] ;
124 -> 125 ;
126 [label="me_playing <= 0.5\ngini = 0.444\nsamples = 3\nvalue = [1, 2]"] ;
124 -> 126 ;
127 [label="gini = 0.0\nsamples = 1\nvalue = [1, 0]"] ;
126 -> 127 ;
128 [label="gini = 0.0\nsamples = 2\nvalue = [0, 2]"] ;
126 -> 128 ;
129 [label="my_hand <= 6.5\ngini = 0.5\nsamples = 2\nvalue = [1, 1]"] ;
123 -> 129 ;
130 [label="gini = 0.0\nsamples = 1\nvalue = [0, 1]"] ;
129 -> 130 ;
131 [label="gini = 0.0\nsamples = 1\nvalue = [1, 0]"] ;
129 -> 131 ;
132 [label="my_hand <= 7.5\ngini = 0.444\nsamples = 3\nvalue = [2, 1]"] ;
122 -> 132 ;
133 [label="gini = 0.0\nsamples = 2\nvalue = [2, 0]"] ;
132 -> 133 ;
134 [label="gini = 0.0\nsamples = 1\nvalue = [0, 1]"] ;
132 -> 134 ;
135 [label="opponent_board_nb_creatures <= 2.5\ngini = 0.289\nsamples = 376\nvalue = [310, 66]"] ;
1 -> 135 ;
136 [label="my_board_total_health <= 1.5\ngini = 0.407\nsamples = 148\nvalue = [106, 42]"] ;
135 -> 136 ;
137 [label="opponent_health <= 5.5\ngini = 0.263\nsamples = 77\nvalue = [65, 12]"] ;
136 -> 137 ;
138 [label="gini = 0.0\nsamples = 2\nvalue = [0, 2]"] ;
137 -> 138 ;
139 [label="opponent_hand <= 1.5\ngini = 0.231\nsamples = 75\nvalue = [65, 10]"] ;
137 -> 139 ;
140 [label="opponent_health <= 22.5\ngini = 0.49\nsamples = 7\nvalue = [3, 4]"] ;
139 -> 140 ;
141 [label="opponent_hand <= 0.5\ngini = 0.32\nsamples = 5\nvalue = [1, 4]"] ;
140 -> 141 ;
142 [label="gini = 0.0\nsamples = 1\nvalue = [1, 0]"] ;
141 -> 142 ;
143 [label="gini = 0.0\nsamples = 4\nvalue = [0, 4]"] ;
141 -> 143 ;
144 [label="gini = 0.0\nsamples = 2\nvalue = [2, 0]"] ;
140 -> 144 ;
145 [label="my_hand <= 8.5\ngini = 0.161\nsamples = 68\nvalue = [62, 6]"] ;
139 -> 145 ;
146 [label="opponent_board_total_health <= 6.5\ngini = 0.138\nsamples = 67\nvalue = [62, 5]"] ;
145 -> 146 ;
147 [label="opponent_health <= 29.5\ngini = 0.225\nsamples = 31\nvalue = [27, 4]"] ;
146 -> 147 ;
148 [label="opponent_health <= 17.0\ngini = 0.142\nsamples = 26\nvalue = [24, 2]"] ;
147 -> 148 ;
149 [label="opponent_health <= 12.5\ngini = 0.346\nsamples = 9\nvalue = [7, 2]"] ;
148 -> 149 ;
150 [label="gini = 0.0\nsamples = 6\nvalue = [6, 0]"] ;
149 -> 150 ;
151 [label="my_board_total_health <= 0.5\ngini = 0.444\nsamples = 3\nvalue = [1, 2]"] ;
149 -> 151 ;
152 [label="gini = 0.0\nsamples = 2\nvalue = [0, 2]"] ;
151 -> 152 ;
153 [label="gini = 0.0\nsamples = 1\nvalue = [1, 0]"] ;
151 -> 153 ;
154 [label="gini = 0.0\nsamples = 17\nvalue = [17, 0]"] ;
148 -> 154 ;
155 [label="my_hand <= 6.5\ngini = 0.48\nsamples = 5\nvalue = [3, 2]"] ;
147 -> 155 ;
156 [label="gini = 0.0\nsamples = 3\nvalue = [3, 0]"] ;
155 -> 156 ;
157 [label="gini = 0.0\nsamples = 2\nvalue = [0, 2]"] ;
155 -> 157 ;
158 [label="my_hand <= 1.5\ngini = 0.054\nsamples = 36\nvalue = [35, 1]"] ;
146 -> 158 ;
159 [label="my_health <= 16.5\ngini = 0.375\nsamples = 4\nvalue = [3, 1]"] ;
158 -> 159 ;
160 [label="gini = 0.0\nsamples = 1\nvalue = [0, 1]"] ;
159 -> 160 ;
161 [label="gini = 0.0\nsamples = 3\nvalue = [3, 0]"] ;
159 -> 161 ;
162 [label="gini = 0.0\nsamples = 32\nvalue = [32, 0]"] ;
158 -> 162 ;
163 [label="gini = 0.0\nsamples = 1\nvalue = [0, 1]"] ;
145 -> 163 ;
164 [label="my_health <= 17.5\ngini = 0.488\nsamples = 71\nvalue = [41, 30]"] ;
136 -> 164 ;
165 [label="opponent_board_total_attack <= 11.5\ngini = 0.172\nsamples = 21\nvalue = [19, 2]"] ;
164 -> 165 ;
166 [label="opponent_health <= 13.5\ngini = 0.095\nsamples = 20\nvalue = [19, 1]"] ;
165 -> 166 ;
167 [label="my_board_total_attack <= 5.5\ngini = 0.5\nsamples = 2\nvalue = [1, 1]"] ;
166 -> 167 ;
168 [label="gini = 0.0\nsamples = 1\nvalue = [1, 0]"] ;
167 -> 168 ;
169 [label="gini = 0.0\nsamples = 1\nvalue = [0, 1]"] ;
167 -> 169 ;
170 [label="gini = 0.0\nsamples = 18\nvalue = [18, 0]"] ;
166 -> 170 ;
171 [label="gini = 0.0\nsamples = 1\nvalue = [0, 1]"] ;
165 -> 171 ;
172 [label="opponent_board_total_attack <= 5.5\ngini = 0.493\nsamples = 50\nvalue = [22, 28]"] ;
164 -> 172 ;
173 [label="my_board_total_attack <= 3.5\ngini = 0.26\nsamples = 13\nvalue = [2, 11]"] ;
172 -> 173 ;
174 [label="gini = 0.0\nsamples = 9\nvalue = [0, 9]"] ;
173 -> 174 ;
175 [label="me_playing <= 0.5\ngini = 0.5\nsamples = 4\nvalue = [2, 2]"] ;
173 -> 175 ;
176 [label="gini = 0.0\nsamples = 2\nvalue = [0, 2]"] ;
175 -> 176 ;
177 [label="gini = 0.0\nsamples = 2\nvalue = [2, 0]"] ;
175 -> 177 ;
178 [label="opponent_board_total_health <= 9.5\ngini = 0.497\nsamples = 37\nvalue = [20, 17]"] ;
172 -> 178 ;
179 [label="opponent_health <= 9.5\ngini = 0.478\nsamples = 33\nvalue = [20, 13]"] ;
178 -> 179 ;
180 [label="gini = 0.0\nsamples = 3\nvalue = [0, 3]"] ;
179 -> 180 ;
181 [label="me_playing <= 0.5\ngini = 0.444\nsamples = 30\nvalue = [20, 10]"] ;
179 -> 181 ;
182 [label="opponent_hand <= 4.5\ngini = 0.5\nsamples = 14\nvalue = [7, 7]"] ;
181 -> 182 ;
183 [label="my_board_total_attack <= 1.5\ngini = 0.346\nsamples = 9\nvalue = [2, 7]"] ;
182 -> 183 ;
184 [label="gini = 0.0\nsamples = 1\nvalue = [1, 0]"] ;
183 -> 184 ;
185 [label="opponent_health <= 29.0\ngini = 0.219\nsamples = 8\nvalue = [1, 7]"] ;
183 -> 185 ;
186 [label="gini = 0.0\nsamples = 7\nvalue = [0, 7]"] ;
185 -> 186 ;
187 [label="gini = 0.0\nsamples = 1\nvalue = [1, 0]"] ;
185 -> 187 ;
188 [label="gini = 0.0\nsamples = 5\nvalue = [5, 0]"] ;
182 -> 188 ;
189 [label="my_board_total_health <= 7.5\ngini = 0.305\nsamples = 16\nvalue = [13, 3]"] ;
181 -> 189 ;
190 [label="my_board_total_attack <= 2.5\ngini = 0.231\nsamples = 15\nvalue = [13, 2]"] ;
189 -> 190 ;
191 [label="my_hand <= 2.5\ngini = 0.5\nsamples = 4\nvalue = [2, 2]"] ;
190 -> 191 ;
192 [label="gini = 0.0\nsamples = 2\nvalue = [2, 0]"] ;
191 -> 192 ;
193 [label="gini = 0.0\nsamples = 2\nvalue = [0, 2]"] ;
191 -> 193 ;
194 [label="gini = 0.0\nsamples = 11\nvalue = [11, 0]"] ;
190 -> 194 ;
195 [label="gini = 0.0\nsamples = 1\nvalue = [0, 1]"] ;
189 -> 195 ;
196 [label="gini = 0.0\nsamples = 4\nvalue = [0, 4]"] ;
178 -> 196 ;
197 [label="opponent_health <= 7.5\ngini = 0.188\nsamples = 228\nvalue = [204, 24]"] ;
135 -> 197 ;
198 [label="opponent_board_total_health <= 5.5\ngini = 0.5\nsamples = 8\nvalue = [4, 4]"] ;
197 -> 198 ;
199 [label="gini = 0.0\nsamples = 2\nvalue = [2, 0]"] ;
198 -> 199 ;
200 [label="my_board_total_health <= 1.5\ngini = 0.444\nsamples = 6\nvalue = [2, 4]"] ;
198 -> 200 ;
201 [label="gini = 0.0\nsamples = 3\nvalue = [0, 3]"] ;
200 -> 201 ;
202 [label="my_board_total_health <= 7.5\ngini = 0.444\nsamples = 3\nvalue = [2, 1]"] ;
200 -> 202 ;
203 [label="gini = 0.0\nsamples = 2\nvalue = [2, 0]"] ;
202 -> 203 ;
204 [label="gini = 0.0\nsamples = 1\nvalue = [0, 1]"] ;
202 -> 204 ;
205 [label="my_hand <= 6.5\ngini = 0.165\nsamples = 220\nvalue = [200, 20]"] ;
197 -> 205 ;
206 [label="opponent_hand <= 2.5\ngini = 0.133\nsamples = 182\nvalue = [169, 13]"] ;
205 -> 206 ;
207 [label="my_health <= 29.0\ngini = 0.23\nsamples = 68\nvalue = [59, 9]"] ;
206 -> 207 ;
208 [label="my_health <= 1.5\ngini = 0.21\nsamples = 67\nvalue = [59, 8]"] ;
207 -> 208 ;
209 [label="my_hand <= 5.0\ngini = 0.5\nsamples = 2\nvalue = [1, 1]"] ;
208 -> 209 ;
210 [label="gini = 0.0\nsamples = 1\nvalue = [0, 1]"] ;
209 -> 210 ;
211 [label="gini = 0.0\nsamples = 1\nvalue = [1, 0]"] ;
209 -> 211 ;
212 [label="opponent_health <= 22.5\ngini = 0.192\nsamples = 65\nvalue = [58, 7]"] ;
208 -> 212 ;
213 [label="my_health <= 8.0\ngini = 0.064\nsamples = 30\nvalue = [29, 1]"] ;
212 -> 213 ;
214 [label="opponent_health <= 16.5\ngini = 0.444\nsamples = 3\nvalue = [2, 1]"] ;
213 -> 214 ;
215 [label="gini = 0.0\nsamples = 1\nvalue = [0, 1]"] ;
214 -> 215 ;
216 [label="gini = 0.0\nsamples = 2\nvalue = [2, 0]"] ;
214 -> 216 ;
217 [label="gini = 0.0\nsamples = 27\nvalue = [27, 0]"] ;
213 -> 217 ;
218 [label="opponent_board_total_attack <= 8.5\ngini = 0.284\nsamples = 35\nvalue = [29, 6]"] ;
212 -> 218 ;
219 [label="my_board_total_health <= 0.5\ngini = 0.43\nsamples = 16\nvalue = [11, 5]"] ;
218 -> 219 ;
220 [label="opponent_board_total_health <= 6.5\ngini = 0.48\nsamples = 5\nvalue = [2, 3]"] ;
219 -> 220 ;
221 [label="gini = 0.0\nsamples = 2\nvalue = [0, 2]"] ;
220 -> 221 ;
222 [label="my_hand <= 3.0\ngini = 0.444\nsamples = 3\nvalue = [2, 1]"] ;
220 -> 222 ;
223 [label="gini = 0.0\nsamples = 1\nvalue = [0, 1]"] ;
222 -> 223 ;
224 [label="gini = 0.0\nsamples = 2\nvalue = [2, 0]"] ;
222 -> 224 ;
225 [label="my_board_total_attack <= 5.0\ngini = 0.298\nsamples = 11\nvalue = [9, 2]"] ;
219 -> 225 ;
226 [label="opponent_health <= 23.5\ngini = 0.18\nsamples = 10\nvalue = [9, 1]"] ;
225 -> 226 ;
227 [label="my_hand <= 3.5\ngini = 0.5\nsamples = 2\nvalue = [1, 1]"] ;
226 -> 227 ;
228 [label="gini = 0.0\nsamples = 1\nvalue = [0, 1]"] ;
227 -> 228 ;
229 [label="gini = 0.0\nsamples = 1\nvalue = [1, 0]"] ;
227 -> 229 ;
230 [label="gini = 0.0\nsamples = 8\nvalue = [8, 0]"] ;
226 -> 230 ;
231 [label="gini = 0.0\nsamples = 1\nvalue = [0, 1]"] ;
225 -> 231 ;
232 [label="my_health <= 25.0\ngini = 0.1\nsamples = 19\nvalue = [18, 1]"] ;
218 -> 232 ;
233 [label="gini = 0.0\nsamples = 16\nvalue = [16, 0]"] ;
232 -> 233 ;
234 [label="my_board_total_attack <= 2.0\ngini = 0.444\nsamples = 3\nvalue = [2, 1]"] ;
232 -> 234 ;
235 [label="gini = 0.0\nsamples = 1\nvalue = [1, 0]"] ;
234 -> 235 ;
236 [label="opponent_board_nb_creatures <= 3.5\ngini = 0.5\nsamples = 2\nvalue = [1, 1]"] ;
234 -> 236 ;
237 [label="gini = 0.0\nsamples = 1\nvalue = [1, 0]"] ;
236 -> 237 ;
238 [label="gini = 0.0\nsamples = 1\nvalue = [0, 1]"] ;
236 -> 238 ;
239 [label="gini = 0.0\nsamples = 1\nvalue = [0, 1]"] ;
207 -> 239 ;
240 [label="opponent_board_total_health <= 5.5\ngini = 0.068\nsamples = 114\nvalue = [110, 4]"] ;
206 -> 240 ;
241 [label="opponent_hand <= 4.5\ngini = 0.32\nsamples = 5\nvalue = [4, 1]"] ;
240 -> 241 ;
242 [label="gini = 0.0\nsamples = 4\nvalue = [4, 0]"] ;
241 -> 242 ;
243 [label="gini = 0.0\nsamples = 1\nvalue = [0, 1]"] ;
241 -> 243 ;
244 [label="my_board_total_attack <= 4.5\ngini = 0.054\nsamples = 109\nvalue = [106, 3]"] ;
240 -> 244 ;
245 [label="my_health <= 19.5\ngini = 0.022\nsamples = 92\nvalue = [91, 1]"] ;
244 -> 245 ;
246 [label="gini = 0.0\nsamples = 55\nvalue = [55, 0]"] ;
245 -> 246 ;
247 [label="my_health <= 20.5\ngini = 0.053\nsamples = 37\nvalue = [36, 1]"] ;
245 -> 247 ;
248 [label="my_hand <= 4.5\ngini = 0.245\nsamples = 7\nvalue = [6, 1]"] ;
247 -> 248 ;
249 [label="gini = 0.0\nsamples = 4\nvalue = [4, 0]"] ;
248 -> 249 ;
250 [label="opponent_health <= 26.0\ngini = 0.444\nsamples = 3\nvalue = [2, 1]"] ;
248 -> 250 ;
251 [label="gini = 0.0\nsamples = 1\nvalue = [0, 1]"] ;
250 -> 251 ;
252 [label="gini = 0.0\nsamples = 2\nvalue = [2, 0]"] ;
250 -> 252 ;
253 [label="gini = 0.0\nsamples = 30\nvalue = [30, 0]"] ;
247 -> 253 ;
254 [label="me_playing <= 0.5\ngini = 0.208\nsamples = 17\nvalue = [15, 2]"] ;
244 -> 254 ;
255 [label="gini = 0.0\nsamples = 11\nvalue = [11, 0]"] ;
254 -> 255 ;
256 [label="opponent_board_nb_creatures <= 3.5\ngini = 0.444\nsamples = 6\nvalue = [4, 2]"] ;
254 -> 256 ;
257 [label="gini = 0.0\nsamples = 3\nvalue = [3, 0]"] ;
256 -> 257 ;
258 [label="opponent_health <= 21.5\ngini = 0.444\nsamples = 3\nvalue = [1, 2]"] ;
256 -> 258 ;
259 [label="gini = 0.0\nsamples = 2\nvalue = [0, 2]"] ;
258 -> 259 ;
260 [label="gini = 0.0\nsamples = 1\nvalue = [1, 0]"] ;
258 -> 260 ;
261 [label="my_board_total_health <= 6.5\ngini = 0.301\nsamples = 38\nvalue = [31, 7]"] ;
205 -> 261 ;
262 [label="opponent_hand <= 7.5\ngini = 0.213\nsamples = 33\nvalue = [29, 4]"] ;
261 -> 262 ;
263 [label="opponent_hand <= 1.5\ngini = 0.17\nsamples = 32\nvalue = [29, 3]"] ;
262 -> 263 ;
264 [label="my_board_total_health <= 0.5\ngini = 0.5\nsamples = 2\nvalue = [1, 1]"] ;
263 -> 264 ;
265 [label="gini = 0.0\nsamples = 1\nvalue = [1, 0]"] ;
264 -> 265 ;
266 [label="gini = 0.0\nsamples = 1\nvalue = [0, 1]"] ;
264 -> 266 ;
267 [label="my_health <= 21.5\ngini = 0.124\nsamples = 30\nvalue = [28, 2]"] ;
263 -> 267 ;
268 [label="gini = 0.0\nsamples = 16\nvalue = [16, 0]"] ;
267 -> 268 ;
269 [label="opponent_health <= 19.5\ngini = 0.245\nsamples = 14\nvalue = [12, 2]"] ;
267 -> 269 ;
270 [label="my_health <= 22.5\ngini = 0.5\nsamples = 2\nvalue = [1, 1]"] ;
269 -> 270 ;
271 [label="gini = 0.0\nsamples = 1\nvalue = [0, 1]"] ;
270 -> 271 ;
272 [label="gini = 0.0\nsamples = 1\nvalue = [1, 0]"] ;
270 -> 272 ;
273 [label="opponent_board_nb_creatures <= 3.5\ngini = 0.153\nsamples = 12\nvalue = [11, 1]"] ;
269 -> 273 ;
274 [label="opponent_board_total_health <= 10.5\ngini = 0.444\nsamples = 3\nvalue = [2, 1]"] ;
273 -> 274 ;
275 [label="gini = 0.0\nsamples = 1\nvalue = [0, 1]"] ;
274 -> 275 ;
276 [label="gini = 0.0\nsamples = 2\nvalue = [2, 0]"] ;
274 -> 276 ;
277 [label="gini = 0.0\nsamples = 9\nvalue = [9, 0]"] ;
273 -> 277 ;
278 [label="gini = 0.0\nsamples = 1\nvalue = [0, 1]"] ;
262 -> 278 ;
279 [label="opponent_board_total_health <= 12.0\ngini = 0.48\nsamples = 5\nvalue = [2, 3]"] ;
261 -> 279 ;
280 [label="gini = 0.0\nsamples = 3\nvalue = [0, 3]"] ;
279 -> 280 ;
281 [label="gini = 0.0\nsamples = 2\nvalue = [2, 0]"] ;
279 -> 281 ;
282 [label="opponent_board_total_attack <= 7.5\ngini = 0.4\nsamples = 818\nvalue = [226, 592]"] ;
0 -> 282 [labeldistance=2.5, labelangle=-45, headlabel="False"] ;
283 [label="my_board_total_attack <= 3.5\ngini = 0.328\nsamples = 662\nvalue = [137, 525]"] ;
282 -> 283 ;
284 [label="opponent_board_total_health <= 1.5\ngini = 0.497\nsamples = 63\nvalue = [34, 29]"] ;
283 -> 284 ;
285 [label="opponent_health <= 7.5\ngini = 0.413\nsamples = 24\nvalue = [7, 17]"] ;
284 -> 285 ;
286 [label="gini = 0.0\nsamples = 2\nvalue = [2, 0]"] ;
285 -> 286 ;
287 [label="my_hand <= 0.5\ngini = 0.351\nsamples = 22\nvalue = [5, 17]"] ;
285 -> 287 ;
288 [label="gini = 0.0\nsamples = 1\nvalue = [1, 0]"] ;
287 -> 288 ;
289 [label="opponent_board_total_attack <= 1.5\ngini = 0.308\nsamples = 21\nvalue = [4, 17]"] ;
287 -> 289 ;
290 [label="opponent_health <= 23.5\ngini = 0.208\nsamples = 17\nvalue = [2, 15]"] ;
289 -> 290 ;
291 [label="opponent_hand <= 2.5\ngini = 0.133\nsamples = 14\nvalue = [1, 13]"] ;
290 -> 291 ;
292 [label="me_playing <= 0.5\ngini = 0.32\nsamples = 5\nvalue = [1, 4]"] ;
291 -> 292 ;
293 [label="gini = 0.0\nsamples = 1\nvalue = [1, 0]"] ;
292 -> 293 ;
294 [label="gini = 0.0\nsamples = 4\nvalue = [0, 4]"] ;
292 -> 294 ;
295 [label="gini = 0.0\nsamples = 9\nvalue = [0, 9]"] ;
291 -> 295 ;
296 [label="opponent_health <= 24.5\ngini = 0.444\nsamples = 3\nvalue = [1, 2]"] ;
290 -> 296 ;
297 [label="gini = 0.0\nsamples = 1\nvalue = [1, 0]"] ;
296 -> 297 ;
298 [label="gini = 0.0\nsamples = 2\nvalue = [0, 2]"] ;
296 -> 298 ;
299 [label="opponent_hand <= 3.5\ngini = 0.5\nsamples = 4\nvalue = [2, 2]"] ;
289 -> 299 ;
300 [label="gini = 0.0\nsamples = 1\nvalue = [1, 0]"] ;
299 -> 300 ;
301 [label="my_hand <= 3.0\ngini = 0.444\nsamples = 3\nvalue = [1, 2]"] ;
299 -> 301 ;
302 [label="gini = 0.0\nsamples = 1\nvalue = [1, 0]"] ;
301 -> 302 ;
303 [label="gini = 0.0\nsamples = 2\nvalue = [0, 2]"] ;
301 -> 303 ;
304 [label="opponent_health <= 15.0\ngini = 0.426\nsamples = 39\nvalue = [27, 12]"] ;
284 -> 304 ;
305 [label="my_health <= 14.5\ngini = 0.444\nsamples = 9\nvalue = [3, 6]"] ;
304 -> 305 ;
306 [label="opponent_hand <= 0.5\ngini = 0.375\nsamples = 4\nvalue = [3, 1]"] ;
305 -> 306 ;
307 [label="gini = 0.0\nsamples = 1\nvalue = [0, 1]"] ;
306 -> 307 ;
308 [label="gini = 0.0\nsamples = 3\nvalue = [3, 0]"] ;
306 -> 308 ;
309 [label="gini = 0.0\nsamples = 5\nvalue = [0, 5]"] ;
305 -> 309 ;
310 [label="opponent_hand <= 0.5\ngini = 0.32\nsamples = 30\nvalue = [24, 6]"] ;
304 -> 310 ;
311 [label="opponent_board_total_attack <= 6.5\ngini = 0.444\nsamples = 3\nvalue = [1, 2]"] ;
310 -> 311 ;
312 [label="gini = 0.0\nsamples = 2\nvalue = [0, 2]"] ;
311 -> 312 ;
313 [label="gini = 0.0\nsamples = 1\nvalue = [1, 0]"] ;
311 -> 313 ;
314 [label="my_board_nb_creatures <= 3.5\ngini = 0.252\nsamples = 27\nvalue = [23, 4]"] ;
310 -> 314 ;
315 [label="my_board_total_health <= 12.5\ngini = 0.204\nsamples = 26\nvalue = [23, 3]"] ;
314 -> 315 ;
316 [label="my_health <= 29.5\ngini = 0.147\nsamples = 25\nvalue = [23, 2]"] ;
315 -> 316 ;
317 [label="gini = 0.0\nsamples = 19\nvalue = [19, 0]"] ;
316 -> 317 ;
318 [label="my_board_total_attack <= 2.5\ngini = 0.444\nsamples = 6\nvalue = [4, 2]"] ;
316 -> 318 ;
319 [label="gini = 0.0\nsamples = 3\nvalue = [3, 0]"] ;
318 -> 319 ;
320 [label="opponent_health <= 29.5\ngini = 0.444\nsamples = 3\nvalue = [1, 2]"] ;
318 -> 320 ;
321 [label="gini = 0.0\nsamples = 2\nvalue = [0, 2]"] ;
320 -> 321 ;
322 [label="gini = 0.0\nsamples = 1\nvalue = [1, 0]"] ;
320 -> 322 ;
323 [label="gini = 0.0\nsamples = 1\nvalue = [0, 1]"] ;
315 -> 323 ;
324 [label="gini = 0.0\nsamples = 1\nvalue = [0, 1]"] ;
314 -> 324 ;
325 [label="opponent_board_total_attack <= 0.5\ngini = 0.285\nsamples = 599\nvalue = [103, 496]"] ;
283 -> 325 ;
326 [label="my_hand <= 0.5\ngini = 0.155\nsamples = 284\nvalue = [24, 260]"] ;
325 -> 326 ;
327 [label="my_board_total_health <= 8.5\ngini = 0.408\nsamples = 7\nvalue = [5, 2]"] ;
326 -> 327 ;
328 [label="opponent_hand <= 4.0\ngini = 0.444\nsamples = 3\nvalue = [1, 2]"] ;
327 -> 328 ;
329 [label="gini = 0.0\nsamples = 2\nvalue = [0, 2]"] ;
328 -> 329 ;
330 [label="gini = 0.0\nsamples = 1\nvalue = [1, 0]"] ;
328 -> 330 ;
331 [label="gini = 0.0\nsamples = 4\nvalue = [4, 0]"] ;
327 -> 331 ;
332 [label="my_health <= 6.5\ngini = 0.128\nsamples = 277\nvalue = [19, 258]"] ;
326 -> 332 ;
333 [label="my_hand <= 3.5\ngini = 0.469\nsamples = 8\nvalue = [3, 5]"] ;
332 -> 333 ;
334 [label="gini = 0.0\nsamples = 4\nvalue = [0, 4]"] ;
333 -> 334 ;
335 [label="my_board_nb_creatures <= 3.5\ngini = 0.375\nsamples = 4\nvalue = [3, 1]"] ;
333 -> 335 ;
336 [label="gini = 0.0\nsamples = 3\nvalue = [3, 0]"] ;
335 -> 336 ;
337 [label="gini = 0.0\nsamples = 1\nvalue = [0, 1]"] ;
335 -> 337 ;
338 [label="my_board_total_health <= 7.5\ngini = 0.112\nsamples = 269\nvalue = [16, 253]"] ;
332 -> 338 ;
339 [label="my_health <= 15.5\ngini = 0.189\nsamples = 123\nvalue = [13, 110]"] ;
338 -> 339 ;
340 [label="my_board_total_health <= 4.5\ngini = 0.432\nsamples = 19\nvalue = [6, 13]"] ;
339 -> 340 ;
341 [label="opponent_health <= 11.0\ngini = 0.375\nsamples = 4\nvalue = [3, 1]"] ;
340 -> 341 ;
342 [label="gini = 0.0\nsamples = 1\nvalue = [0, 1]"] ;
341 -> 342 ;
343 [label="gini = 0.0\nsamples = 3\nvalue = [3, 0]"] ;
341 -> 343 ;
344 [label="my_health <= 14.0\ngini = 0.32\nsamples = 15\nvalue = [3, 12]"] ;
340 -> 344 ;
345 [label="gini = 0.0\nsamples = 9\nvalue = [0, 9]"] ;
344 -> 345 ;
346 [label="opponent_health <= 17.0\ngini = 0.5\nsamples = 6\nvalue = [3, 3]"] ;
344 -> 346 ;
347 [label="gini = 0.0\nsamples = 2\nvalue = [2, 0]"] ;
346 -> 347 ;
348 [label="opponent_hand <= 4.0\ngini = 0.375\nsamples = 4\nvalue = [1, 3]"] ;
346 -> 348 ;
349 [label="gini = 0.0\nsamples = 3\nvalue = [0, 3]"] ;
348 -> 349 ;
350 [label="gini = 0.0\nsamples = 1\nvalue = [1, 0]"] ;
348 -> 350 ;
351 [label="opponent_hand <= 6.5\ngini = 0.126\nsamples = 104\nvalue = [7, 97]"] ;
339 -> 351 ;
352 [label="opponent_health <= 5.0\ngini = 0.085\nsamples = 90\nvalue = [4, 86]"] ;
351 -> 352 ;
353 [label="opponent_hand <= 3.5\ngini = 0.5\nsamples = 2\nvalue = [1, 1]"] ;
352 -> 353 ;
354 [label="gini = 0.0\nsamples = 1\nvalue = [1, 0]"] ;
353 -> 354 ;
355 [label="gini = 0.0\nsamples = 1\nvalue = [0, 1]"] ;
353 -> 355 ;
356 [label="my_health <= 19.5\ngini = 0.066\nsamples = 88\nvalue = [3, 85]"] ;
352 -> 356 ;
357 [label="me_playing <= 0.5\ngini = 0.278\nsamples = 12\nvalue = [2, 10]"] ;
356 -> 357 ;
358 [label="gini = 0.0\nsamples = 1\nvalue = [1, 0]"] ;
357 -> 358 ;
359 [label="my_board_total_attack <= 4.5\ngini = 0.165\nsamples = 11\nvalue = [1, 10]"] ;
357 -> 359 ;
360 [label="gini = 0.0\nsamples = 1\nvalue = [1, 0]"] ;
359 -> 360 ;
361 [label="gini = 0.0\nsamples = 10\nvalue = [0, 10]"] ;
359 -> 361 ;
362 [label="my_hand <= 5.5\ngini = 0.026\nsamples = 76\nvalue = [1, 75]"] ;
356 -> 362 ;
363 [label="gini = 0.0\nsamples = 62\nvalue = [0, 62]"] ;
362 -> 363 ;
364 [label="my_board_nb_creatures <= 3.5\ngini = 0.133\nsamples = 14\nvalue = [1, 13]"] ;
362 -> 364 ;
365 [label="gini = 0.0\nsamples = 11\nvalue = [0, 11]"] ;
364 -> 365 ;
366 [label="my_board_total_health <= 6.5\ngini = 0.444\nsamples = 3\nvalue = [1, 2]"] ;
364 -> 366 ;
367 [label="gini = 0.0\nsamples = 1\nvalue = [1, 0]"] ;
366 -> 367 ;
368 [label="gini = 0.0\nsamples = 2\nvalue = [0, 2]"] ;
366 -> 368 ;
369 [label="opponent_health <= 26.5\ngini = 0.337\nsamples = 14\nvalue = [3, 11]"] ;
351 -> 369 ;
370 [label="my_board_total_attack <= 11.5\ngini = 0.26\nsamples = 13\nvalue = [2, 11]"] ;
369 -> 370 ;
371 [label="my_board_total_attack <= 7.5\ngini = 0.153\nsamples = 12\nvalue = [1, 11]"] ;
370 -> 371 ;
372 [label="gini = 0.0\nsamples = 9\nvalue = [0, 9]"] ;
371 -> 372 ;
373 [label="my_health <= 26.0\ngini = 0.444\nsamples = 3\nvalue = [1, 2]"] ;
371 -> 373 ;
374 [label="gini = 0.0\nsamples = 1\nvalue = [1, 0]"] ;
373 -> 374 ;
375 [label="gini = 0.0\nsamples = 2\nvalue = [0, 2]"] ;
373 -> 375 ;
376 [label="gini = 0.0\nsamples = 1\nvalue = [1, 0]"] ;
370 -> 376 ;
377 [label="gini = 0.0\nsamples = 1\nvalue = [1, 0]"] ;
369 -> 377 ;
378 [label="my_board_total_health <= 23.5\ngini = 0.04\nsamples = 146\nvalue = [3, 143]"] ;
338 -> 378 ;
379 [label="my_board_total_attack <= 18.5\ngini = 0.028\nsamples = 143\nvalue = [2, 141]"] ;
378 -> 379 ;
380 [label="my_hand <= 2.5\ngini = 0.014\nsamples = 140\nvalue = [1, 139]"] ;
379 -> 380 ;
381 [label="my_health <= 29.0\ngini = 0.083\nsamples = 23\nvalue = [1, 22]"] ;
380 -> 381 ;
382 [label="gini = 0.0\nsamples = 20\nvalue = [0, 20]"] ;
381 -> 382 ;
383 [label="my_board_total_attack <= 8.5\ngini = 0.444\nsamples = 3\nvalue = [1, 2]"] ;
381 -> 383 ;
384 [label="gini = 0.0\nsamples = 2\nvalue = [0, 2]"] ;
383 -> 384 ;
385 [label="gini = 0.0\nsamples = 1\nvalue = [1, 0]"] ;
383 -> 385 ;
386 [label="gini = 0.0\nsamples = 117\nvalue = [0, 117]"] ;
380 -> 386 ;
387 [label="my_board_nb_creatures <= 6.0\ngini = 0.444\nsamples = 3\nvalue = [1, 2]"] ;
379 -> 387 ;
388 [label="gini = 0.0\nsamples = 2\nvalue = [0, 2]"] ;
387 -> 388 ;
389 [label="gini = 0.0\nsamples = 1\nvalue = [1, 0]"] ;
387 -> 389 ;
390 [label="opponent_hand <= 3.5\ngini = 0.444\nsamples = 3\nvalue = [1, 2]"] ;
378 -> 390 ;
391 [label="gini = 0.0\nsamples = 2\nvalue = [0, 2]"] ;
390 -> 391 ;
392 [label="gini = 0.0\nsamples = 1\nvalue = [1, 0]"] ;
390 -> 392 ;
393 [label="my_health <= 16.5\ngini = 0.376\nsamples = 315\nvalue = [79, 236]"] ;
325 -> 393 ;
394 [label="my_board_total_health <= 7.5\ngini = 0.497\nsamples = 65\nvalue = [30, 35]"] ;
393 -> 394 ;
395 [label="opponent_health <= 18.5\ngini = 0.444\nsamples = 30\nvalue = [20, 10]"] ;
394 -> 395 ;
396 [label="my_board_total_attack <= 6.5\ngini = 0.444\nsamples = 6\nvalue = [2, 4]"] ;
395 -> 396 ;
397 [label="opponent_board_total_health <= 4.5\ngini = 0.444\nsamples = 3\nvalue = [2, 1]"] ;
396 -> 397 ;
398 [label="gini = 0.0\nsamples = 1\nvalue = [0, 1]"] ;
397 -> 398 ;
399 [label="gini = 0.0\nsamples = 2\nvalue = [2, 0]"] ;
397 -> 399 ;
400 [label="gini = 0.0\nsamples = 3\nvalue = [0, 3]"] ;
396 -> 400 ;
401 [label="opponent_board_total_health <= 3.5\ngini = 0.375\nsamples = 24\nvalue = [18, 6]"] ;
395 -> 401 ;
402 [label="my_health <= 9.5\ngini = 0.49\nsamples = 14\nvalue = [8, 6]"] ;
401 -> 402 ;
403 [label="gini = 0.0\nsamples = 4\nvalue = [0, 4]"] ;
402 -> 403 ;
404 [label="opponent_health <= 23.0\ngini = 0.32\nsamples = 10\nvalue = [8, 2]"] ;
402 -> 404 ;
405 [label="gini = 0.0\nsamples = 4\nvalue = [4, 0]"] ;
404 -> 405 ;
406 [label="opponent_health <= 24.5\ngini = 0.444\nsamples = 6\nvalue = [4, 2]"] ;
404 -> 406 ;
407 [label="gini = 0.0\nsamples = 2\nvalue = [0, 2]"] ;
406 -> 407 ;
408 [label="gini = 0.0\nsamples = 4\nvalue = [4, 0]"] ;
406 -> 408 ;
409 [label="gini = 0.0\nsamples = 10\nvalue = [10, 0]"] ;
401 -> 409 ;
410 [label="opponent_board_total_attack <= 1.5\ngini = 0.408\nsamples = 35\nvalue = [10, 25]"] ;
394 -> 410 ;
411 [label="opponent_board_total_health <= 2.0\ngini = 0.444\nsamples = 6\nvalue = [4, 2]"] ;
410 -> 411 ;
412 [label="gini = 0.0\nsamples = 2\nvalue = [0, 2]"] ;
411 -> 412 ;
413 [label="gini = 0.0\nsamples = 4\nvalue = [4, 0]"] ;
411 -> 413 ;
414 [label="my_hand <= 0.5\ngini = 0.328\nsamples = 29\nvalue = [6, 23]"] ;
410 -> 414 ;
415 [label="gini = 0.0\nsamples = 1\nvalue = [1, 0]"] ;
414 -> 415 ;
416 [label="opponent_health <= 25.5\ngini = 0.293\nsamples = 28\nvalue = [5, 23]"] ;
414 -> 416 ;
417 [label="my_health <= 2.5\ngini = 0.105\nsamples = 18\nvalue = [1, 17]"] ;
416 -> 417 ;
418 [label="gini = 0.0\nsamples = 1\nvalue = [1, 0]"] ;
417 -> 418 ;
419 [label="gini = 0.0\nsamples = 17\nvalue = [0, 17]"] ;
417 -> 419 ;
420 [label="opponent_hand <= 1.5\ngini = 0.48\nsamples = 10\nvalue = [4, 6]"] ;
416 -> 420 ;
421 [label="gini = 0.0\nsamples = 4\nvalue = [0, 4]"] ;
420 -> 421 ;
422 [label="me_playing <= 0.5\ngini = 0.444\nsamples = 6\nvalue = [4, 2]"] ;
420 -> 422 ;
423 [label="gini = 0.0\nsamples = 3\nvalue = [3, 0]"] ;
422 -> 423 ;
424 [label="my_board_nb_creatures <= 2.5\ngini = 0.444\nsamples = 3\nvalue = [1, 2]"] ;
422 -> 424 ;
425 [label="gini = 0.0\nsamples = 1\nvalue = [1, 0]"] ;
424 -> 425 ;
426 [label="gini = 0.0\nsamples = 2\nvalue = [0, 2]"] ;
424 -> 426 ;
427 [label="opponent_hand <= 7.5\ngini = 0.315\nsamples = 250\nvalue = [49, 201]"] ;
393 -> 427 ;
428 [label="my_board_total_health <= 5.5\ngini = 0.294\nsamples = 240\nvalue = [43, 197]"] ;
427 -> 428 ;
429 [label="me_playing <= 0.5\ngini = 0.444\nsamples = 54\nvalue = [18, 36]"] ;
428 -> 429 ;
430 [label="opponent_hand <= 2.5\ngini = 0.147\nsamples = 25\nvalue = [2, 23]"] ;
429 -> 430 ;
431 [label="gini = 0.0\nsamples = 1\nvalue = [1, 0]"] ;
430 -> 431 ;
432 [label="my_health <= 19.5\ngini = 0.08\nsamples = 24\nvalue = [1, 23]"] ;
430 -> 432 ;
433 [label="opponent_board_total_attack <= 5.5\ngini = 0.5\nsamples = 2\nvalue = [1, 1]"] ;
432 -> 433 ;
434 [label="gini = 0.0\nsamples = 1\nvalue = [1, 0]"] ;
433 -> 434 ;
435 [label="gini = 0.0\nsamples = 1\nvalue = [0, 1]"] ;
433 -> 435 ;
436 [label="gini = 0.0\nsamples = 22\nvalue = [0, 22]"] ;
432 -> 436 ;
437 [label="opponent_health <= 16.5\ngini = 0.495\nsamples = 29\nvalue = [16, 13]"] ;
429 -> 437 ;
438 [label="opponent_health <= 11.0\ngini = 0.337\nsamples = 14\nvalue = [3, 11]"] ;
437 -> 438 ;
439 [label="my_board_total_attack <= 5.5\ngini = 0.5\nsamples = 6\nvalue = [3, 3]"] ;
438 -> 439 ;
440 [label="gini = 0.0\nsamples = 2\nvalue = [0, 2]"] ;
439 -> 440 ;
441 [label="opponent_hand <= 3.5\ngini = 0.375\nsamples = 4\nvalue = [3, 1]"] ;
439 -> 441 ;
442 [label="gini = 0.0\nsamples = 1\nvalue = [0, 1]"] ;
441 -> 442 ;
443 [label="gini = 0.0\nsamples = 3\nvalue = [3, 0]"] ;
441 -> 443 ;
444 [label="gini = 0.0\nsamples = 8\nvalue = [0, 8]"] ;
438 -> 444 ;
445 [label="opponent_hand <= 1.0\ngini = 0.231\nsamples = 15\nvalue = [13, 2]"] ;
437 -> 445 ;
446 [label="gini = 0.0\nsamples = 1\nvalue = [0, 1]"] ;
445 -> 446 ;
447 [label="my_board_total_health <= 4.5\ngini = 0.133\nsamples = 14\nvalue = [13, 1]"] ;
445 -> 447 ;
448 [label="gini = 0.0\nsamples = 10\nvalue = [10, 0]"] ;
447 -> 448 ;
449 [label="my_health <= 25.0\ngini = 0.375\nsamples = 4\nvalue = [3, 1]"] ;
447 -> 449 ;
450 [label="gini = 0.0\nsamples = 1\nvalue = [0, 1]"] ;
449 -> 450 ;
451 [label="gini = 0.0\nsamples = 3\nvalue = [3, 0]"] ;
449 -> 451 ;
452 [label="opponent_board_nb_creatures <= 1.5\ngini = 0.233\nsamples = 186\nvalue = [25, 161]"] ;
428 -> 452 ;
453 [label="my_hand <= 0.5\ngini = 0.148\nsamples = 112\nvalue = [9, 103]"] ;
452 -> 453 ;
454 [label="gini = 0.0\nsamples = 1\nvalue = [1, 0]"] ;
453 -> 454 ;
455 [label="my_health <= 22.5\ngini = 0.134\nsamples = 111\nvalue = [8, 103]"] ;
453 -> 455 ;
456 [label="my_hand <= 2.5\ngini = 0.271\nsamples = 31\nvalue = [5, 26]"] ;
455 -> 456 ;
457 [label="my_health <= 21.0\ngini = 0.49\nsamples = 7\nvalue = [4, 3]"] ;
456 -> 457 ;
458 [label="my_health <= 19.0\ngini = 0.375\nsamples = 4\nvalue = [1, 3]"] ;
457 -> 458 ;
459 [label="gini = 0.0\nsamples = 1\nvalue = [1, 0]"] ;
458 -> 459 ;
460 [label="gini = 0.0\nsamples = 3\nvalue = [0, 3]"] ;
458 -> 460 ;
461 [label="gini = 0.0\nsamples = 3\nvalue = [3, 0]"] ;
457 -> 461 ;
462 [label="opponent_health <= 14.5\ngini = 0.08\nsamples = 24\nvalue = [1, 23]"] ;
456 -> 462 ;
463 [label="my_board_total_health <= 8.0\ngini = 0.375\nsamples = 4\nvalue = [1, 3]"] ;
462 -> 463 ;
464 [label="gini = 0.0\nsamples = 1\nvalue = [1, 0]"] ;
463 -> 464 ;
465 [label="gini = 0.0\nsamples = 3\nvalue = [0, 3]"] ;
463 -> 465 ;
466 [label="gini = 0.0\nsamples = 20\nvalue = [0, 20]"] ;
462 -> 466 ;
467 [label="my_hand <= 4.5\ngini = 0.072\nsamples = 80\nvalue = [3, 77]"] ;
455 -> 467 ;
468 [label="gini = 0.0\nsamples = 60\nvalue = [0, 60]"] ;
467 -> 468 ;
469 [label="my_board_total_attack <= 4.5\ngini = 0.255\nsamples = 20\nvalue = [3, 17]"] ;
467 -> 469 ;
470 [label="gini = 0.0\nsamples = 1\nvalue = [1, 0]"] ;
469 -> 470 ;
471 [label="opponent_health <= 13.5\ngini = 0.188\nsamples = 19\nvalue = [2, 17]"] ;
469 -> 471 ;
472 [label="gini = 0.0\nsamples = 1\nvalue = [1, 0]"] ;
471 -> 472 ;
473 [label="opponent_board_total_attack <= 4.5\ngini = 0.105\nsamples = 18\nvalue = [1, 17]"] ;
471 -> 473 ;
474 [label="gini = 0.0\nsamples = 15\nvalue = [0, 15]"] ;
473 -> 474 ;
475 [label="opponent_health <= 17.5\ngini = 0.444\nsamples = 3\nvalue = [1, 2]"] ;
473 -> 475 ;
476 [label="gini = 0.0\nsamples = 1\nvalue = [1, 0]"] ;
475 -> 476 ;
477 [label="gini = 0.0\nsamples = 2\nvalue = [0, 2]"] ;
475 -> 477 ;
478 [label="opponent_hand <= 1.5\ngini = 0.339\nsamples = 74\nvalue = [16, 58]"] ;
452 -> 478 ;
479 [label="gini = 0.0\nsamples = 14\nvalue = [0, 14]"] ;
478 -> 479 ;
480 [label="my_board_total_attack <= 12.5\ngini = 0.391\nsamples = 60\nvalue = [16, 44]"] ;
478 -> 480 ;
481 [label="opponent_board_nb_creatures <= 4.5\ngini = 0.426\nsamples = 52\nvalue = [16, 36]"] ;
480 -> 481 ;
482 [label="opponent_board_total_attack <= 6.5\ngini = 0.403\nsamples = 50\nvalue = [14, 36]"] ;
481 -> 482 ;
483 [label="opponent_health <= 14.5\ngini = 0.332\nsamples = 38\nvalue = [8, 30]"] ;
482 -> 483 ;
484 [label="gini = 0.0\nsamples = 9\nvalue = [0, 9]"] ;
483 -> 484 ;
485 [label="me_playing <= 0.5\ngini = 0.4\nsamples = 29\nvalue = [8, 21]"] ;
483 -> 485 ;
486 [label="opponent_board_total_attack <= 2.5\ngini = 0.165\nsamples = 11\nvalue = [1, 10]"] ;
485 -> 486 ;
487 [label="my_board_nb_creatures <= 3.5\ngini = 0.5\nsamples = 2\nvalue = [1, 1]"] ;
486 -> 487 ;
488 [label="gini = 0.0\nsamples = 1\nvalue = [0, 1]"] ;
487 -> 488 ;
489 [label="gini = 0.0\nsamples = 1\nvalue = [1, 0]"] ;
487 -> 489 ;
490 [label="gini = 0.0\nsamples = 9\nvalue = [0, 9]"] ;
486 -> 490 ;
491 [label="opponent_board_total_health <= 6.5\ngini = 0.475\nsamples = 18\nvalue = [7, 11]"] ;
485 -> 491 ;
492 [label="opponent_health <= 28.5\ngini = 0.391\nsamples = 15\nvalue = [4, 11]"] ;
491 -> 492 ;
493 [label="my_board_total_attack <= 5.5\ngini = 0.278\nsamples = 12\nvalue = [2, 10]"] ;
492 -> 493 ;
494 [label="gini = 0.0\nsamples = 1\nvalue = [1, 0]"] ;
493 -> 494 ;
495 [label="my_board_nb_creatures <= 2.5\ngini = 0.165\nsamples = 11\nvalue = [1, 10]"] ;
493 -> 495 ;
496 [label="opponent_health <= 26.5\ngini = 0.5\nsamples = 2\nvalue = [1, 1]"] ;
495 -> 496 ;
497 [label="gini = 0.0\nsamples = 1\nvalue = [1, 0]"] ;
496 -> 497 ;
498 [label="gini = 0.0\nsamples = 1\nvalue = [0, 1]"] ;
496 -> 498 ;
499 [label="gini = 0.0\nsamples = 9\nvalue = [0, 9]"] ;
495 -> 499 ;
500 [label="my_hand <= 3.5\ngini = 0.444\nsamples = 3\nvalue = [2, 1]"] ;
492 -> 500 ;
501 [label="gini = 0.0\nsamples = 2\nvalue = [2, 0]"] ;
500 -> 501 ;
502 [label="gini = 0.0\nsamples = 1\nvalue = [0, 1]"] ;
500 -> 502 ;
503 [label="gini = 0.0\nsamples = 3\nvalue = [3, 0]"] ;
491 -> 503 ;
504 [label="my_hand <= 4.5\ngini = 0.5\nsamples = 12\nvalue = [6, 6]"] ;
482 -> 504 ;
505 [label="my_health <= 22.0\ngini = 0.444\nsamples = 9\nvalue = [6, 3]"] ;
504 -> 505 ;
506 [label="gini = 0.0\nsamples = 3\nvalue = [3, 0]"] ;
505 -> 506 ;
507 [label="opponent_health <= 21.0\ngini = 0.5\nsamples = 6\nvalue = [3, 3]"] ;
505 -> 507 ;
508 [label="my_board_total_attack <= 11.5\ngini = 0.375\nsamples = 4\nvalue = [1, 3]"] ;
507 -> 508 ;
509 [label="gini = 0.0\nsamples = 3\nvalue = [0, 3]"] ;
508 -> 509 ;
510 [label="gini = 0.0\nsamples = 1\nvalue = [1, 0]"] ;
508 -> 510 ;
511 [label="gini = 0.0\nsamples = 2\nvalue = [2, 0]"] ;
507 -> 511 ;
512 [label="gini = 0.0\nsamples = 3\nvalue = [0, 3]"] ;
504 -> 512 ;
513 [label="gini = 0.0\nsamples = 2\nvalue = [2, 0]"] ;
481 -> 513 ;
514 [label="gini = 0.0\nsamples = 8\nvalue = [0, 8]"] ;
480 -> 514 ;
515 [label="my_health <= 29.5\ngini = 0.48\nsamples = 10\nvalue = [6, 4]"] ;
427 -> 515 ;
516 [label="my_board_nb_creatures <= 2.5\ngini = 0.444\nsamples = 9\nvalue = [6, 3]"] ;
515 -> 516 ;
517 [label="opponent_board_nb_creatures <= 2.0\ngini = 0.444\nsamples = 3\nvalue = [1, 2]"] ;
516 -> 517 ;
518 [label="gini = 0.0\nsamples = 2\nvalue = [0, 2]"] ;
517 -> 518 ;
519 [label="gini = 0.0\nsamples = 1\nvalue = [1, 0]"] ;
517 -> 519 ;
520 [label="opponent_board_total_attack <= 1.5\ngini = 0.278\nsamples = 6\nvalue = [5, 1]"] ;
516 -> 520 ;
521 [label="my_health <= 26.5\ngini = 0.5\nsamples = 2\nvalue = [1, 1]"] ;
520 -> 521 ;
522 [label="gini = 0.0\nsamples = 1\nvalue = [1, 0]"] ;
521 -> 522 ;
523 [label="gini = 0.0\nsamples = 1\nvalue = [0, 1]"] ;
521 -> 523 ;
524 [label="gini = 0.0\nsamples = 4\nvalue = [4, 0]"] ;
520 -> 524 ;
525 [label="gini = 0.0\nsamples = 1\nvalue = [0, 1]"] ;
515 -> 525 ;
526 [label="my_health <= 26.5\ngini = 0.49\nsamples = 156\nvalue = [89, 67]"] ;
282 -> 526 ;
527 [label="opponent_hand <= 3.5\ngini = 0.455\nsamples = 123\nvalue = [80, 43]"] ;
526 -> 527 ;
528 [label="opponent_health <= 21.5\ngini = 0.499\nsamples = 79\nvalue = [41, 38]"] ;
527 -> 528 ;
529 [label="my_hand <= 3.5\ngini = 0.456\nsamples = 37\nvalue = [13, 24]"] ;
528 -> 529 ;
530 [label="my_hand <= 2.5\ngini = 0.499\nsamples = 27\nvalue = [13, 14]"] ;
529 -> 530 ;
531 [label="my_board_total_attack <= 8.5\ngini = 0.463\nsamples = 22\nvalue = [8, 14]"] ;
530 -> 531 ;
532 [label="opponent_board_nb_creatures <= 4.5\ngini = 0.497\nsamples = 13\nvalue = [7, 6]"] ;
531 -> 532 ;
533 [label="opponent_board_total_health <= 5.5\ngini = 0.48\nsamples = 10\nvalue = [4, 6]"] ;
532 -> 533 ;
534 [label="gini = 0.0\nsamples = 2\nvalue = [2, 0]"] ;
533 -> 534 ;
535 [label="opponent_health <= 14.5\ngini = 0.375\nsamples = 8\nvalue = [2, 6]"] ;
533 -> 535 ;
536 [label="gini = 0.0\nsamples = 5\nvalue = [0, 5]"] ;
535 -> 536 ;
537 [label="opponent_health <= 18.0\ngini = 0.444\nsamples = 3\nvalue = [2, 1]"] ;
535 -> 537 ;
538 [label="gini = 0.0\nsamples = 2\nvalue = [2, 0]"] ;
537 -> 538 ;
539 [label="gini = 0.0\nsamples = 1\nvalue = [0, 1]"] ;
537 -> 539 ;
540 [label="gini = 0.0\nsamples = 3\nvalue = [3, 0]"] ;
532 -> 540 ;
541 [label="my_health <= 24.5\ngini = 0.198\nsamples = 9\nvalue = [1, 8]"] ;
531 -> 541 ;
542 [label="gini = 0.0\nsamples = 7\nvalue = [0, 7]"] ;
541 -> 542 ;
543 [label="opponent_board_nb_creatures <= 3.5\ngini = 0.5\nsamples = 2\nvalue = [1, 1]"] ;
541 -> 543 ;
544 [label="gini = 0.0\nsamples = 1\nvalue = [1, 0]"] ;
543 -> 544 ;
545 [label="gini = 0.0\nsamples = 1\nvalue = [0, 1]"] ;
543 -> 545 ;
546 [label="gini = 0.0\nsamples = 5\nvalue = [5, 0]"] ;
530 -> 546 ;
547 [label="gini = 0.0\nsamples = 10\nvalue = [0, 10]"] ;
529 -> 547 ;
548 [label="my_board_total_health <= 7.5\ngini = 0.444\nsamples = 42\nvalue = [28, 14]"] ;
528 -> 548 ;
549 [label="my_health <= 22.5\ngini = 0.198\nsamples = 18\nvalue = [16, 2]"] ;
548 -> 549 ;
550 [label="my_hand <= 7.5\ngini = 0.111\nsamples = 17\nvalue = [16, 1]"] ;
549 -> 550 ;
551 [label="gini = 0.0\nsamples = 16\nvalue = [16, 0]"] ;
550 -> 551 ;
552 [label="gini = 0.0\nsamples = 1\nvalue = [0, 1]"] ;
550 -> 552 ;
553 [label="gini = 0.0\nsamples = 1\nvalue = [0, 1]"] ;
549 -> 553 ;
554 [label="opponent_board_nb_creatures <= 4.5\ngini = 0.5\nsamples = 24\nvalue = [12, 12]"] ;
548 -> 554 ;
555 [label="me_playing <= 0.5\ngini = 0.48\nsamples = 20\nvalue = [8, 12]"] ;
554 -> 555 ;
556 [label="opponent_board_total_health <= 15.5\ngini = 0.355\nsamples = 13\nvalue = [3, 10]"] ;
555 -> 556 ;
557 [label="my_board_total_health <= 8.5\ngini = 0.165\nsamples = 11\nvalue = [1, 10]"] ;
556 -> 557 ;
558 [label="gini = 0.0\nsamples = 1\nvalue = [1, 0]"] ;
557 -> 558 ;
559 [label="gini = 0.0\nsamples = 10\nvalue = [0, 10]"] ;
557 -> 559 ;
560 [label="gini = 0.0\nsamples = 2\nvalue = [2, 0]"] ;
556 -> 560 ;
561 [label="opponent_health <= 29.5\ngini = 0.408\nsamples = 7\nvalue = [5, 2]"] ;
555 -> 561 ;
562 [label="my_health <= 14.5\ngini = 0.278\nsamples = 6\nvalue = [5, 1]"] ;
561 -> 562 ;
563 [label="gini = 0.0\nsamples = 1\nvalue = [0, 1]"] ;
562 -> 563 ;
564 [label="gini = 0.0\nsamples = 5\nvalue = [5, 0]"] ;
562 -> 564 ;
565 [label="gini = 0.0\nsamples = 1\nvalue = [0, 1]"] ;
561 -> 565 ;
566 [label="gini = 0.0\nsamples = 4\nvalue = [4, 0]"] ;
554 -> 566 ;
567 [label="my_board_total_health <= 17.5\ngini = 0.201\nsamples = 44\nvalue = [39, 5]"] ;
527 -> 567 ;
568 [label="my_hand <= 8.5\ngini = 0.133\nsamples = 42\nvalue = [39, 3]"] ;
567 -> 568 ;
569 [label="my_hand <= 5.5\ngini = 0.093\nsamples = 41\nvalue = [39, 2]"] ;
568 -> 569 ;
570 [label="gini = 0.0\nsamples = 27\nvalue = [27, 0]"] ;
569 -> 570 ;
571 [label="opponent_health <= 23.5\ngini = 0.245\nsamples = 14\nvalue = [12, 2]"] ;
569 -> 571 ;
572 [label="opponent_board_total_health <= 18.0\ngini = 0.48\nsamples = 5\nvalue = [3, 2]"] ;
571 -> 572 ;
573 [label="my_board_nb_creatures <= 2.5\ngini = 0.444\nsamples = 3\nvalue = [1, 2]"] ;
572 -> 573 ;
574 [label="gini = 0.0\nsamples = 2\nvalue = [0, 2]"] ;
573 -> 574 ;
575 [label="gini = 0.0\nsamples = 1\nvalue = [1, 0]"] ;
573 -> 575 ;
576 [label="gini = 0.0\nsamples = 2\nvalue = [2, 0]"] ;
572 -> 576 ;
577 [label="gini = 0.0\nsamples = 9\nvalue = [9, 0]"] ;
571 -> 577 ;
578 [label="gini = 0.0\nsamples = 1\nvalue = [0, 1]"] ;
568 -> 578 ;
579 [label="gini = 0.0\nsamples = 2\nvalue = [0, 2]"] ;
567 -> 579 ;
580 [label="opponent_board_total_attack <= 15.5\ngini = 0.397\nsamples = 33\nvalue = [9, 24]"] ;
526 -> 580 ;
581 [label="my_hand <= 1.5\ngini = 0.293\nsamples = 28\nvalue = [5, 23]"] ;
580 -> 581 ;
582 [label="my_board_total_attack <= 10.5\ngini = 0.444\nsamples = 3\nvalue = [2, 1]"] ;
581 -> 582 ;
583 [label="gini = 0.0\nsamples = 2\nvalue = [2, 0]"] ;
582 -> 583 ;
584 [label="gini = 0.0\nsamples = 1\nvalue = [0, 1]"] ;
582 -> 584 ;
585 [label="my_board_total_attack <= 14.0\ngini = 0.211\nsamples = 25\nvalue = [3, 22]"] ;
581 -> 585 ;
586 [label="opponent_board_total_health <= 14.5\ngini = 0.153\nsamples = 24\nvalue = [2, 22]"] ;
585 -> 586 ;
587 [label="opponent_board_total_attack <= 12.5\ngini = 0.083\nsamples = 23\nvalue = [1, 22]"] ;
586 -> 587 ;
588 [label="gini = 0.0\nsamples = 20\nvalue = [0, 20]"] ;
587 -> 588 ;
589 [label="opponent_board_total_health <= 10.0\ngini = 0.444\nsamples = 3\nvalue = [1, 2]"] ;
587 -> 589 ;
590 [label="gini = 0.0\nsamples = 1\nvalue = [1, 0]"] ;
589 -> 590 ;
591 [label="gini = 0.0\nsamples = 2\nvalue = [0, 2]"] ;
589 -> 591 ;
592 [label="gini = 0.0\nsamples = 1\nvalue = [1, 0]"] ;
586 -> 592 ;
593 [label="gini = 0.0\nsamples = 1\nvalue = [1, 0]"] ;
585 -> 593 ;
594 [label="opponent_board_total_health <= 24.5\ngini = 0.32\nsamples = 5\nvalue = [4, 1]"] ;
580 -> 594 ;
595 [label="gini = 0.0\nsamples = 4\nvalue = [4, 0]"] ;
594 -> 595 ;
596 [label="gini = 0.0\nsamples = 1\nvalue = [0, 1]"] ;
594 -> 596 ;
}