digraph Tree {
node [shape=box] ;
0 [label="my_board_nb_creatures <= 1.5\ngini = 0.496\nsamples = 1434\nvalue = [653, 781]"] ;
1 [label="opponent_board_total_attack <= 4.5\ngini = 0.428\nsamples = 626\nvalue = [432, 194]"] ;
0 -> 1 [labeldistance=2.5, labelangle=45, headlabel="True"] ;
2 [label="my_health <= 20.5\ngini = 0.5\nsamples = 245\nvalue = [121, 124]"] ;
1 -> 2 ;
3 [label="opponent_health <= 20.5\ngini = 0.449\nsamples = 103\nvalue = [68, 35]"] ;
2 -> 3 ;
4 [label="opponent_hand <= 3.5\ngini = 0.5\nsamples = 44\nvalue = [22, 22]"] ;
3 -> 4 ;
5 [label="opponent_board_total_attack <= 2.5\ngini = 0.459\nsamples = 28\nvalue = [10, 18]"] ;
4 -> 5 ;
6 [label="my_health <= 16.5\ngini = 0.494\nsamples = 18\nvalue = [10, 8]"] ;
5 -> 6 ;
7 [label="opponent_health <= 12.0\ngini = 0.444\nsamples = 15\nvalue = [10, 5]"] ;
6 -> 7 ;
8 [label="my_health <= 14.5\ngini = 0.48\nsamples = 5\nvalue = [2, 3]"] ;
7 -> 8 ;
9 [label="gini = 0.0\nsamples = 3\nvalue = [0, 3]"] ;
8 -> 9 ;
10 [label="gini = 0.0\nsamples = 2\nvalue = [2, 0]"] ;
8 -> 10 ;
11 [label="me_playing <= 0.5\ngini = 0.32\nsamples = 10\nvalue = [8, 2]"] ;
7 -> 11 ;
12 [label="gini = 0.0\nsamples = 5\nvalue = [5, 0]"] ;
11 -> 12 ;
13 [label="opponent_board_total_attack <= 0.5\ngini = 0.48\nsamples = 5\nvalue = [3, 2]"] ;
11 -> 13 ;
14 [label="gini = 0.0\nsamples = 2\nvalue = [0, 2]"] ;
13 -> 14 ;
15 [label="gini = 0.0\nsamples = 3\nvalue = [3, 0]"] ;
13 -> 15 ;
16 [label="gini = 0.0\nsamples = 3\nvalue = [0, 3]"] ;
6 -> 16 ;
17 [label="gini = 0.0\nsamples = 10\nvalue = [0, 10]"] ;
5 -> 17 ;
18 [label="my_board_total_health <= 1.5\ngini = 0.375\nsamples = 16\nvalue = [12, 4]"] ;
4 -> 18 ;
19 [label="gini = 0.0\nsamples = 9\nvalue = [9, 0]"] ;
18 -> 19 ;
20 [label="opponent_health <= 15.5\ngini = 0.49\nsamples = 7\nvalue = [3, 4]"] ;
18 -> 20 ;
21 [label="opponent_board_total_attack <= 1.0\ngini = 0.375\nsamples = 4\nvalue = [3, 1]"] ;
20 -> 21 ;
22 [label="gini = 0.0\nsamples = 3\nvalue = [3, 0]"] ;
21 -> 22 ;
23 [label="gini = 0.0\nsamples = 1\nvalue = [0, 1]"] ;
21 -> 23 ;
24 [label="gini = 0.0\nsamples = 3\nvalue = [0, 3]"] ;
20 -> 24 ;
25 [label="my_hand <= 7.5\ngini = 0.344\nsamples = 59\nvalue = [46, 13]"] ;
3 -> 25 ;
26 [label="my_board_total_health <= 3.5\ngini = 0.274\nsamples = 55\nvalue = [46, 9]"] ;
25 -> 26 ;
27 [label="gini = 0.0\nsamples = 30\nvalue = [30, 0]"] ;
26 -> 27 ;
28 [label="opponent_board_total_health <= 0.5\ngini = 0.461\nsamples = 25\nvalue = [16, 9]"] ;
26 -> 28 ;
29 [label="opponent_health <= 24.5\ngini = 0.375\nsamples = 8\nvalue = [2, 6]"] ;
28 -> 29 ;
30 [label="gini = 0.0\nsamples = 2\nvalue = [2, 0]"] ;
29 -> 30 ;
31 [label="gini = 0.0\nsamples = 6\nvalue = [0, 6]"] ;
29 -> 31 ;
32 [label="opponent_hand <= 1.5\ngini = 0.291\nsamples = 17\nvalue = [14, 3]"] ;
28 -> 32 ;
33 [label="my_board_total_health <= 4.5\ngini = 0.444\nsamples = 3\nvalue = [1, 2]"] ;
32 -> 33 ;
34 [label="my_health <= 15.0\ngini = 0.5\nsamples = 2\nvalue = [1, 1]"] ;
33 -> 34 ;
35 [label="gini = 0.0\nsamples = 1\nvalue = [1, 0]"] ;
34 -> 35 ;
36 [label="gini = 0.0\nsamples = 1\nvalue = [0, 1]"] ;
34 -> 36 ;
37 [label="gini = 0.0\nsamples = 1\nvalue = [0, 1]"] ;
33 -> 37 ;
38 [label="my_hand <= 5.5\ngini = 0.133\nsamples = 14\nvalue = [13, 1]"] ;
32 -> 38 ;
39 [label="gini = 0.0\nsamples = 11\nvalue = [11, 0]"] ;
38 -> 39 ;
40 [label="my_health <= 13.5\ngini = 0.444\nsamples = 3\nvalue = [2, 1]"] ;
38 -> 40 ;
41 [label="gini = 0.0\nsamples = 2\nvalue = [2, 0]"] ;
40 -> 41 ;
42 [label="gini = 0.0\nsamples = 1\nvalue = [0, 1]"] ;
40 -> 42 ;
43 [label="gini = 0.0\nsamples = 4\nvalue = [0, 4]"] ;
25 -> 43 ;
44 [label="opponent_hand <= 3.5\ngini = 0.468\nsamples = 142\nvalue = [53, 89]"] ;
2 -> 44 ;
45 [label="me_playing <= 0.5\ngini = 0.295\nsamples = 50\nvalue = [9, 41]"] ;
44 -> 45 ;
46 [label="gini = 0.0\nsamples = 23\nvalue = [0, 23]"] ;
45 -> 46 ;
47 [label="opponent_health <= 22.0\ngini = 0.444\nsamples = 27\nvalue = [9, 18]"] ;
45 -> 47 ;
48 [label="my_board_total_health <= 5.5\ngini = 0.231\nsamples = 15\nvalue = [2, 13]"] ;
47 -> 48 ;
49 [label="opponent_board_total_attack <= 3.5\ngini = 0.133\nsamples = 14\nvalue = [1, 13]"] ;
48 -> 49 ;
50 [label="gini = 0.0\nsamples = 12\nvalue = [0, 12]"] ;
49 -> 50 ;
51 [label="my_health <= 23.0\ngini = 0.5\nsamples = 2\nvalue = [1, 1]"] ;
49 -> 51 ;
52 [label="gini = 0.0\nsamples = 1\nvalue = [1, 0]"] ;
51 -> 52 ;
53 [label="gini = 0.0\nsamples = 1\nvalue = [0, 1]"] ;
51 -> 53 ;
54 [label="gini = 0.0\nsamples = 1\nvalue = [1, 0]"] ;
48 -> 54 ;
55 [label="opponent_hand <= 2.5\ngini = 0.486\nsamples = 12\nvalue = [7, 5]"] ;
47 -> 55 ;
56 [label="my_health <= 26.5\ngini = 0.375\nsamples = 4\nvalue = [1, 3]"] ;
55 -> 56 ;
57 [label="gini = 0.0\nsamples = 3\nvalue = [0, 3]"] ;
56 -> 57 ;
58 [label="gini = 0.0\nsamples = 1\nvalue = [1, 0]"] ;
56 -> 58 ;
59 [label="opponent_board_total_attack <= 0.5\ngini = 0.375\nsamples = 8\nvalue = [6, 2]"] ;
55 -> 59 ;
60 [label="my_hand <= 3.0\ngini = 0.444\nsamples = 3\nvalue = [1, 2]"] ;
59 -> 60 ;
61 [label="gini = 0.0\nsamples = 1\nvalue = [1, 0]"] ;
60 -> 61 ;
62 [label="gini = 0.0\nsamples = 2\nvalue = [0, 2]"] ;
60 -> 62 ;
63 [label="gini = 0.0\nsamples = 5\nvalue = [5, 0]"] ;
59 -> 63 ;
64 [label="my_board_total_attack <= 1.5\ngini = 0.499\nsamples = 92\nvalue = [44, 48]"] ;
44 -> 64 ;
65 [label="me_playing <= 0.5\ngini = 0.45\nsamples = 41\nvalue = [27, 14]"] ;
64 -> 65 ;
66 [label="opponent_board_total_health <= 3.5\ngini = 0.499\nsamples = 25\nvalue = [13, 12]"] ;
65 -> 66 ;
67 [label="opponent_hand <= 6.5\ngini = 0.465\nsamples = 19\nvalue = [7, 12]"] ;
66 -> 67 ;
68 [label="my_health <= 21.5\ngini = 0.375\nsamples = 16\nvalue = [4, 12]"] ;
67 -> 68 ;
69 [label="gini = 0.0\nsamples = 2\nvalue = [2, 0]"] ;
68 -> 69 ;
70 [label="opponent_hand <= 4.5\ngini = 0.245\nsamples = 14\nvalue = [2, 12]"] ;
68 -> 70 ;
71 [label="my_hand <= 5.5\ngini = 0.444\nsamples = 6\nvalue = [2, 4]"] ;
70 -> 71 ;
72 [label="gini = 0.0\nsamples = 2\nvalue = [2, 0]"] ;
71 -> 72 ;
73 [label="gini = 0.0\nsamples = 4\nvalue = [0, 4]"] ;
71 -> 73 ;
74 [label="gini = 0.0\nsamples = 8\nvalue = [0, 8]"] ;
70 -> 74 ;
75 [label="gini = 0.0\nsamples = 3\nvalue = [3, 0]"] ;
67 -> 75 ;
76 [label="gini = 0.0\nsamples = 6\nvalue = [6, 0]"] ;
66 -> 76 ;
77 [label="opponent_board_total_health <= 5.5\ngini = 0.219\nsamples = 16\nvalue = [14, 2]"] ;
65 -> 77 ;
78 [label="opponent_health <= 6.5\ngini = 0.124\nsamples = 15\nvalue = [14, 1]"] ;
77 -> 78 ;
79 [label="my_hand <= 3.5\ngini = 0.5\nsamples = 2\nvalue = [1, 1]"] ;
78 -> 79 ;
80 [label="gini = 0.0\nsamples = 1\nvalue = [1, 0]"] ;
79 -> 80 ;
81 [label="gini = 0.0\nsamples = 1\nvalue = [0, 1]"] ;
79 -> 81 ;
82 [label="gini = 0.0\nsamples = 13\nvalue = [13, 0]"] ;
78 -> 82 ;
83 [label="gini = 0.0\nsamples = 1\nvalue = [0, 1]"] ;
77 -> 83 ;
84 [label="opponent_health <= 24.5\ngini = 0.444\nsamples = 51\nvalue = [17, 34]"] ;
64 -> 84 ;
85 [label="opponent_board_total_health <= 5.5\ngini = 0.211\nsamples = 25\nvalue = [3, 22]"] ;
84 -> 85 ;
86 [label="opponent_health <= 12.5\ngini = 0.087\nsamples = 22\nvalue = [1, 21]"] ;
85 -> 86 ;
87 [label="my_hand <= 4.5\ngini = 0.444\nsamples = 3\nvalue = [1, 2]"] ;
86 -> 87 ;
88 [label="gini = 0.0\nsamples = 2\nvalue = [0, 2]"] ;
87 -> 88 ;
89 [label="gini = 0.0\nsamples = 1\nvalue = [1, 0]"] ;
87 -> 89 ;
90 [label="gini = 0.0\nsamples = 19\nvalue = [0, 19]"] ;
86 -> 90 ;
91 [label="my_hand <= 5.0\ngini = 0.444\nsamples = 3\nvalue = [2, 1]"] ;
85 -> 91 ;
92 [label="gini = 0.0\nsamples = 2\nvalue = [2, 0]"] ;
91 -> 92 ;
93 [label="gini = 0.0\nsamples = 1\nvalue = [0, 1]"] ;
91 -> 93 ;
94 [label="my_hand <= 6.5\ngini = 0.497\nsamples = 26\nvalue = [14, 12]"] ;
84 -> 94 ;
95 [label="opponent_board_total_attack <= 3.5\ngini = 0.455\nsamples = 20\nvalue = [13, 7]"] ;
94 -> 95 ;
96 [label="my_board_total_health <= 4.5\ngini = 0.375\nsamples = 16\nvalue = [12, 4]"] ;
95 -> 96 ;
97 [label="my_health <= 29.5\ngini = 0.26\nsamples = 13\nvalue = [11, 2]"] ;
96 -> 97 ;
98 [label="gini = 0.0\nsamples = 9\nvalue = [9, 0]"] ;
97 -> 98 ;
99 [label="my_hand <= 3.5\ngini = 0.5\nsamples = 4\nvalue = [2, 2]"] ;
97 -> 99 ;
100 [label="gini = 0.0\nsamples = 1\nvalue = [1, 0]"] ;
99 -> 100 ;
101 [label="my_board_total_health <= 3.5\ngini = 0.444\nsamples = 3\nvalue = [1, 2]"] ;
99 -> 101 ;
102 [label="gini = 0.0\nsamples = 2\nvalue = [0, 2]"] ;
101 -> 102 ;
103 [label="gini = 0.0\nsamples = 1\nvalue = [1, 0]"] ;
101 -> 103 ;
104 [label="opponent_board_total_attack <= 2.0\ngini = 0.444\nsamples = 3\nvalue = [1, 2]"] ;
96 -> 104 ;
105 [label="gini = 0.0\nsamples = 2\nvalue = [0, 2]"] ;
104 -> 105 ;
106 [label="gini = 0.0\nsamples = 1\nvalue = [1, 0]"] ;
104 -> 106 ;
107 [label="my_board_total_attack <= 4.5\ngini = 0.375\nsamples = 4\nvalue = [1, 3]"] ;
95 -> 107 ;
108 [label="gini = 0.0\nsamples = 3\nvalue = [0, 3]"] ;
107 -> 108 ;
109 [label="gini = 0.0\nsamples = 1\nvalue = [1, 0]"] ;
107 -> 109 ;
110 [label="my_board_total_attack <= 6.0\ngini = 0.278\nsamples = 6\nvalue = [1, 5]"] ;
94 -> 110 ;
111 [label="gini = 0.0\nsamples = 5\nvalue = [0, 5]"] ;
110 -> 111 ;
112 [label="gini = 0.0\nsamples = 1\nvalue = [1, 0]"] ;
110 -> 112 ;
113 [label="opponent_board_total_health <= 7.5\ngini = 0.3\nsamples = 381\nvalue = [311, 70]"] ;
1 -> 113 ;
114 [label="opponent_health <= 21.5\ngini = 0.406\nsamples = 166\nvalue = [119, 47]"] ;
113 -> 114 ;
115 [label="my_board_total_health <= 1.5\ngini = 0.49\nsamples = 65\nvalue = [37, 28]"] ;
114 -> 115 ;
116 [label="opponent_hand <= 1.5\ngini = 0.397\nsamples = 33\nvalue = [24, 9]"] ;
115 -> 116 ;
117 [label="opponent_board_total_attack <= 5.5\ngini = 0.408\nsamples = 7\nvalue = [2, 5]"] ;
116 -> 117 ;
118 [label="gini = 0.0\nsamples = 1\nvalue = [1, 0]"] ;
117 -> 118 ;
119 [label="opponent_hand <= 0.5\ngini = 0.278\nsamples = 6\nvalue = [1, 5]"] ;
117 -> 119 ;
120 [label="gini = 0.0\nsamples = 1\nvalue = [1, 0]"] ;
119 -> 120 ;
121 [label="gini = 0.0\nsamples = 5\nvalue = [0, 5]"] ;
119 -> 121 ;
122 [label="opponent_board_nb_creatures <= 4.5\ngini = 0.26\nsamples = 26\nvalue = [22, 4]"] ;
116 -> 122 ;
123 [label="opponent_health <= 12.5\ngini = 0.211\nsamples = 25\nvalue = [22, 3]"] ;
122 -> 123 ;
124 [label="gini = 0.0\nsamples = 12\nvalue = [12, 0]"] ;
123 -> 124 ;
125 [label="opponent_health <= 14.0\ngini = 0.355\nsamples = 13\nvalue = [10, 3]"] ;
123 -> 125 ;
126 [label="gini = 0.0\nsamples = 1\nvalue = [0, 1]"] ;
125 -> 126 ;
127 [label="my_health <= 21.5\ngini = 0.278\nsamples = 12\nvalue = [10, 2]"] ;
125 -> 127 ;
128 [label="gini = 0.0\nsamples = 6\nvalue = [6, 0]"] ;
127 -> 128 ;
129 [label="opponent_board_nb_creatures <= 2.5\ngini = 0.444\nsamples = 6\nvalue = [4, 2]"] ;
127 -> 129 ;
130 [label="opponent_board_total_health <= 5.5\ngini = 0.444\nsamples = 3\nvalue = [1, 2]"] ;
129 -> 130 ;
131 [label="gini = 0.0\nsamples = 1\nvalue = [1, 0]"] ;
130 -> 131 ;
132 [label="gini = 0.0\nsamples = 2\nvalue = [0, 2]"] ;
130 -> 132 ;
133 [label="gini = 0.0\nsamples = 3\nvalue = [3, 0]"] ;
129 -> 133 ;
134 [label="gini = 0.0\nsamples = 1\nvalue = [0, 1]"] ;
122 -> 134 ;
135 [label="me_playing <= 0.5\ngini = 0.482\nsamples = 32\nvalue = [13, 19]"] ;
115 -> 135 ;
136 [label="opponent_hand <= 5.0\ngini = 0.231\nsamples = 15\nvalue = [2, 13]"] ;
135 -> 136 ;
137 [label="my_board_total_health <= 2.5\ngini = 0.133\nsamples = 14\nvalue = [1, 13]"] ;
136 -> 137 ;
138 [label="opponent_hand <= 1.5\ngini = 0.444\nsamples = 3\nvalue = [1, 2]"] ;
137 -> 138 ;
139 [label="gini = 0.0\nsamples = 2\nvalue = [0, 2]"] ;
138 -> 139 ;
140 [label="gini = 0.0\nsamples = 1\nvalue = [1, 0]"] ;
138 -> 140 ;
141 [label="gini = 0.0\nsamples = 11\nvalue = [0, 11]"] ;
137 -> 141 ;
142 [label="gini = 0.0\nsamples = 1\nvalue = [1, 0]"] ;
136 -> 142 ;
143 [label="my_hand <= 7.5\ngini = 0.457\nsamples = 17\nvalue = [11, 6]"] ;
135 -> 143 ;
144 [label="my_board_total_attack <= 2.5\ngini = 0.391\nsamples = 15\nvalue = [11, 4]"] ;
143 -> 144 ;
145 [label="gini = 0.0\nsamples = 2\nvalue = [0, 2]"] ;
144 -> 145 ;
146 [label="opponent_board_total_attack <= 5.5\ngini = 0.26\nsamples = 13\nvalue = [11, 2]"] ;
144 -> 146 ;
147 [label="opponent_board_nb_creatures <= 1.5\ngini = 0.5\nsamples = 4\nvalue = [2, 2]"] ;
146 -> 147 ;
148 [label="gini = 0.0\nsamples = 2\nvalue = [2, 0]"] ;
147 -> 148 ;
149 [label="gini = 0.0\nsamples = 2\nvalue = [0, 2]"] ;
147 -> 149 ;
150 [label="gini = 0.0\nsamples = 9\nvalue = [9, 0]"] ;
146 -> 150 ;
151 [label="gini = 0.0\nsamples = 2\nvalue = [0, 2]"] ;
143 -> 151 ;
152 [label="my_board_total_health <= 8.5\ngini = 0.305\nsamples = 101\nvalue = [82, 19]"] ;
114 -> 152 ;
153 [label="opponent_hand <= 7.5\ngini = 0.295\nsamples = 100\nvalue = [82, 18]"] ;
152 -> 153 ;
154 [label="opponent_board_total_health <= 5.5\ngini = 0.284\nsamples = 99\nvalue = [82, 17]"] ;
153 -> 154 ;
155 [label="my_health <= 13.5\ngini = 0.375\nsamples = 56\nvalue = [42, 14]"] ;
154 -> 155 ;
156 [label="my_board_total_health <= 0.5\ngini = 0.133\nsamples = 14\nvalue = [13, 1]"] ;
155 -> 156 ;
157 [label="my_health <= 10.0\ngini = 0.444\nsamples = 3\nvalue = [2, 1]"] ;
156 -> 157 ;
158 [label="gini = 0.0\nsamples = 1\nvalue = [0, 1]"] ;
157 -> 158 ;
159 [label="gini = 0.0\nsamples = 2\nvalue = [2, 0]"] ;
157 -> 159 ;
160 [label="gini = 0.0\nsamples = 11\nvalue = [11, 0]"] ;
156 -> 160 ;
161 [label="my_health <= 14.5\ngini = 0.427\nsamples = 42\nvalue = [29, 13]"] ;
155 -> 161 ;
162 [label="gini = 0.0\nsamples = 2\nvalue = [0, 2]"] ;
161 -> 162 ;
163 [label="opponent_board_total_attack <= 6.5\ngini = 0.399\nsamples = 40\nvalue = [29, 11]"] ;
161 -> 163 ;
164 [label="opponent_hand <= 4.5\ngini = 0.302\nsamples = 27\nvalue = [22, 5]"] ;
163 -> 164 ;
165 [label="my_board_total_health <= 1.5\ngini = 0.401\nsamples = 18\nvalue = [13, 5]"] ;
164 -> 165 ;
166 [label="opponent_board_total_health <= 3.5\ngini = 0.26\nsamples = 13\nvalue = [11, 2]"] ;
165 -> 166 ;
167 [label="my_health <= 19.0\ngini = 0.5\nsamples = 2\nvalue = [1, 1]"] ;
166 -> 167 ;
168 [label="gini = 0.0\nsamples = 1\nvalue = [1, 0]"] ;
167 -> 168 ;
169 [label="gini = 0.0\nsamples = 1\nvalue = [0, 1]"] ;
167 -> 169 ;
170 [label="opponent_hand <= 1.5\ngini = 0.165\nsamples = 11\nvalue = [10, 1]"] ;
166 -> 170 ;
171 [label="gini = 0.0\nsamples = 1\nvalue = [0, 1]"] ;
170 -> 171 ;
172 [label="gini = 0.0\nsamples = 10\nvalue = [10, 0]"] ;
170 -> 172 ;
173 [label="me_playing <= 0.5\ngini = 0.48\nsamples = 5\nvalue = [2, 3]"] ;
165 -> 173 ;
174 [label="gini = 0.0\nsamples = 3\nvalue = [0, 3]"] ;
173 -> 174 ;
175 [label="gini = 0.0\nsamples = 2\nvalue = [2, 0]"] ;
173 -> 175 ;
176 [label="gini = 0.0\nsamples = 9\nvalue = [9, 0]"] ;
164 -> 176 ;
177 [label="my_hand <= 3.5\ngini = 0.497\nsamples = 13\nvalue = [7, 6]"] ;
163 -> 177 ;
178 [label="gini = 0.0\nsamples = 3\nvalue = [3, 0]"] ;
177 -> 178 ;
179 [label="my_board_total_health <= 5.5\ngini = 0.48\nsamples = 10\nvalue = [4, 6]"] ;
177 -> 179 ;
180 [label="my_health <= 29.0\ngini = 0.375\nsamples = 8\nvalue = [2, 6]"] ;
179 -> 180 ;
181 [label="my_health <= 18.0\ngini = 0.245\nsamples = 7\nvalue = [1, 6]"] ;
180 -> 181 ;
182 [label="my_hand <= 6.5\ngini = 0.5\nsamples = 2\nvalue = [1, 1]"] ;
181 -> 182 ;
183 [label="gini = 0.0\nsamples = 1\nvalue = [1, 0]"] ;
182 -> 183 ;
184 [label="gini = 0.0\nsamples = 1\nvalue = [0, 1]"] ;
182 -> 184 ;
185 [label="gini = 0.0\nsamples = 5\nvalue = [0, 5]"] ;
181 -> 185 ;
186 [label="gini = 0.0\nsamples = 1\nvalue = [1, 0]"] ;
180 -> 186 ;
187 [label="gini = 0.0\nsamples = 2\nvalue = [2, 0]"] ;
179 -> 187 ;
188 [label="my_board_total_health <= 4.5\ngini = 0.13\nsamples = 43\nvalue = [40, 3]"] ;
154 -> 188 ;
189 [label="opponent_hand <= 2.5\ngini = 0.053\nsamples = 37\nvalue = [36, 1]"] ;
188 -> 189 ;
190 [label="opponent_board_total_attack <= 6.5\ngini = 0.142\nsamples = 13\nvalue = [12, 1]"] ;
189 -> 190 ;
191 [label="my_hand <= 4.5\ngini = 0.444\nsamples = 3\nvalue = [2, 1]"] ;
190 -> 191 ;
192 [label="gini = 0.0\nsamples = 2\nvalue = [2, 0]"] ;
191 -> 192 ;
193 [label="gini = 0.0\nsamples = 1\nvalue = [0, 1]"] ;
191 -> 193 ;
194 [label="gini = 0.0\nsamples = 10\nvalue = [10, 0]"] ;
190 -> 194 ;
195 [label="gini = 0.0\nsamples = 24\nvalue = [24, 0]"] ;
189 -> 195 ;
196 [label="opponent_board_nb_creatures <= 2.5\ngini = 0.444\nsamples = 6\nvalue = [4, 2]"] ;
188 -> 196 ;
197 [label="my_board_total_attack <= 4.0\ngini = 0.444\nsamples = 3\nvalue = [1, 2]"] ;
196 -> 197 ;
198 [label="gini = 0.0\nsamples = 2\nvalue = [0, 2]"] ;
197 -> 198 ;
199 [label="gini = 0.0\nsamples = 1\nvalue = [1, 0]"] ;
197 -> 199 ;
200 [label="gini = 0.0\nsamples = 3\nvalue = [3, 0]"] ;
196 -> 200 ;
201 [label="gini = 0.0\nsamples = 1\nvalue = [0, 1]"] ;
153 -> 201 ;
202 [label="gini = 0.0\nsamples = 1\nvalue = [0, 1]"] ;
152 -> 202 ;
203 [label="opponent_health <= 6.5\ngini = 0.191\nsamples = 215\nvalue = [192, 23]"] ;
113 -> 203 ;
204 [label="my_board_total_health <= 2.0\ngini = 0.494\nsamples = 9\nvalue = [4, 5]"] ;
203 -> 204 ;
205 [label="my_hand <= 1.0\ngini = 0.278\nsamples = 6\nvalue = [1, 5]"] ;
204 -> 205 ;
206 [label="gini = 0.0\nsamples = 1\nvalue = [1, 0]"] ;
205 -> 206 ;
207 [label="gini = 0.0\nsamples = 5\nvalue = [0, 5]"] ;
205 -> 207 ;
208 [label="gini = 0.0\nsamples = 3\nvalue = [3, 0]"] ;
204 -> 208 ;
209 [label="my_board_total_health <= 2.5\ngini = 0.159\nsamples = 206\nvalue = [188, 18]"] ;
203 -> 209 ;
210 [label="my_hand <= 6.5\ngini = 0.08\nsamples = 143\nvalue = [137, 6]"] ;
209 -> 210 ;
211 [label="me_playing <= 0.5\ngini = 0.034\nsamples = 117\nvalue = [115, 2]"] ;
210 -> 211 ;
212 [label="opponent_board_total_health <= 9.5\ngini = 0.018\nsamples = 108\nvalue = [107, 1]"] ;
211 -> 212 ;
213 [label="my_health <= 19.5\ngini = 0.049\nsamples = 40\nvalue = [39, 1]"] ;
212 -> 213 ;
214 [label="gini = 0.0\nsamples = 26\nvalue = [26, 0]"] ;
213 -> 214 ;
215 [label="my_health <= 20.5\ngini = 0.133\nsamples = 14\nvalue = [13, 1]"] ;
213 -> 215 ;
216 [label="opponent_board_total_attack <= 7.5\ngini = 0.444\nsamples = 3\nvalue = [2, 1]"] ;
215 -> 216 ;
217 [label="gini = 0.0\nsamples = 2\nvalue = [2, 0]"] ;
216 -> 217 ;
218 [label="gini = 0.0\nsamples = 1\nvalue = [0, 1]"] ;
216 -> 218 ;
219 [label="gini = 0.0\nsamples = 11\nvalue = [11, 0]"] ;
215 -> 219 ;
220 [label="gini = 0.0\nsamples = 68\nvalue = [68, 0]"] ;
212 -> 220 ;
221 [label="opponent_hand <= 6.0\ngini = 0.198\nsamples = 9\nvalue = [8, 1]"] ;
211 -> 221 ;
222 [label="gini = 0.0\nsamples = 8\nvalue = [8, 0]"] ;
221 -> 222 ;
223 [label="gini = 0.0\nsamples = 1\nvalue = [0, 1]"] ;
221 -> 223 ;
224 [label="opponent_hand <= 1.5\ngini = 0.26\nsamples = 26\nvalue = [22, 4]"] ;
210 -> 224 ;
225 [label="opponent_health <= 19.5\ngini = 0.5\nsamples = 2\nvalue = [1, 1]"] ;
224 -> 225 ;
226 [label="gini = 0.0\nsamples = 1\nvalue = [1, 0]"] ;
225 -> 226 ;
227 [label="gini = 0.0\nsamples = 1\nvalue = [0, 1]"] ;
225 -> 227 ;
228 [label="my_health <= 20.5\ngini = 0.219\nsamples = 24\nvalue = [21, 3]"] ;
224 -> 228 ;
229 [label="opponent_board_nb_creatures <= 2.5\ngini = 0.117\nsamples = 16\nvalue = [15, 1]"] ;
228 -> 229 ;
230 [label="opponent_board_total_health <= 9.5\ngini = 0.375\nsamples = 4\nvalue = [3, 1]"] ;
229 -> 230 ;
231 [label="gini = 0.0\nsamples = 3\nvalue = [3, 0]"] ;
230 -> 231 ;
232 [label="gini = 0.0\nsamples = 1\nvalue = [0, 1]"] ;
230 -> 232 ;
233 [label="gini = 0.0\nsamples = 12\nvalue = [12, 0]"] ;
229 -> 233 ;
234 [label="opponent_health <= 20.0\ngini = 0.375\nsamples = 8\nvalue = [6, 2]"] ;
228 -> 234 ;
235 [label="gini = 0.0\nsamples = 1\nvalue = [0, 1]"] ;
234 -> 235 ;
236 [label="my_health <= 24.5\ngini = 0.245\nsamples = 7\nvalue = [6, 1]"] ;
234 -> 236 ;
237 [label="gini = 0.0\nsamples = 4\nvalue = [4, 0]"] ;
236 -> 237 ;
238 [label="opponent_health <= 27.5\ngini = 0.444\nsamples = 3\nvalue = [2, 1]"] ;
236 -> 238 ;
239 [label="gini = 0.0\nsamples = 2\nvalue = [2, 0]"] ;
238 -> 239 ;
240 [label="gini = 0.0\nsamples = 1\nvalue = [0, 1]"] ;
238 -> 240 ;
241 [label="my_hand <= 1.5\ngini = 0.308\nsamples = 63\nvalue = [51, 12]"] ;
209 -> 241 ;
242 [label="gini = 0.0\nsamples = 2\nvalue = [0, 2]"] ;
241 -> 242 ;
243 [label="opponent_board_total_attack <= 5.5\ngini = 0.274\nsamples = 61\nvalue = [51, 10]"] ;
241 -> 243 ;
244 [label="gini = 0.0\nsamples = 1\nvalue = [0, 1]"] ;
243 -> 244 ;
245 [label="opponent_hand <= 0.5\ngini = 0.255\nsamples = 60\nvalue = [51, 9]"] ;
243 -> 245 ;
246 [label="my_board_total_attack <= 5.5\ngini = 0.5\nsamples = 4\nvalue = [2, 2]"] ;
245 -> 246 ;
247 [label="opponent_board_nb_creatures <= 4.0\ngini = 0.444\nsamples = 3\nvalue = [2, 1]"] ;
246 -> 247 ;
248 [label="opponent_board_total_attack <= 8.0\ngini = 0.5\nsamples = 2\nvalue = [1, 1]"] ;
247 -> 248 ;
249 [label="gini = 0.0\nsamples = 1\nvalue = [1, 0]"] ;
248 -> 249 ;
250 [label="gini = 0.0\nsamples = 1\nvalue = [0, 1]"] ;
248 -> 250 ;
251 [label="gini = 0.0\nsamples = 1\nvalue = [1, 0]"] ;
247 -> 251 ;
252 [label="gini = 0.0\nsamples = 1\nvalue = [0, 1]"] ;
246 -> 252 ;
253 [label="my_hand <= 5.5\ngini = 0.219\nsamples = 56\nvalue = [49, 7]"] ;
245 -> 253 ;
254 [label="my_health <= 8.5\ngini = 0.1\nsamples = 38\nvalue = [36, 2]"] ;
253 -> 254 ;
255 [label="my_health <= 6.5\ngini = 0.444\nsamples = 3\nvalue = [2, 1]"] ;
254 -> 255 ;
256 [label="gini = 0.0\nsamples = 2\nvalue = [2, 0]"] ;
255 -> 256 ;
257 [label="gini = 0.0\nsamples = 1\nvalue = [0, 1]"] ;
255 -> 257 ;
258 [label="opponent_board_total_attack <= 7.5\ngini = 0.056\nsamples = 35\nvalue = [34, 1]"] ;
254 -> 258 ;
259 [label="opponent_board_total_health <= 8.5\ngini = 0.375\nsamples = 4\nvalue = [3, 1]"] ;
258 -> 259 ;
260 [label="gini = 0.0\nsamples = 1\nvalue = [0, 1]"] ;
259 -> 260 ;
261 [label="gini = 0.0\nsamples = 3\nvalue = [3, 0]"] ;
259 -> 261 ;
262 [label="gini = 0.0\nsamples = 31\nvalue = [31, 0]"] ;
258 -> 262 ;
263 [label="my_health <= 25.0\ngini = 0.401\nsamples = 18\nvalue = [13, 5]"] ;
253 -> 263 ;
264 [label="opponent_board_nb_creatures <= 6.5\ngini = 0.231\nsamples = 15\nvalue = [13, 2]"] ;
263 -> 264 ;
265 [label="opponent_board_total_attack <= 14.5\ngini = 0.142\nsamples = 13\nvalue = [12, 1]"] ;
264 -> 265 ;
266 [label="gini = 0.0\nsamples = 11\nvalue = [11, 0]"] ;
265 -> 266 ;
267 [label="opponent_board_total_health <= 20.5\ngini = 0.5\nsamples = 2\nvalue = [1, 1]"] ;
265 -> 267 ;
268 [label="gini = 0.0\nsamples = 1\nvalue = [0, 1]"] ;
267 -> 268 ;
269 [label="gini = 0.0\nsamples = 1\nvalue = [1, 0]"] ;
267 -> 269 ;
270 [label="my_health <= 19.5\ngini = 0.5\nsamples = 2\nvalue = [1, 1]"] ;
264 -> 270 ;
271 [label="gini = 0.0\nsamples = 1\nvalue = [0, 1]"] ;
270 -> 271 ;
272 [label="gini = 0.0\nsamples = 1\nvalue = [1, 0]"] ;
270 -> 272 ;
273 [label="gini = 0.0\nsamples = 3\nvalue = [0, 3]"] ;
263 -> 273 ;
274 [label="opponent_board_total_attack <= 7.5\ngini = 0.397\nsamples = 808\nvalue = [221, 587]"] ;
0 -> 274 [labeldistance=2.5, labelangle=-45, headlabel="False"] ;
275 [label="my_health <= 21.5\ngini = 0.319\nsamples = 642\nvalue = [128, 514]"] ;
274 -> 275 ;
276 [label="opponent_board_total_health <= 1.5\ngini = 0.434\nsamples = 236\nvalue = [75, 161]"] ;
275 -> 276 ;
277 [label="opponent_health <= 8.0\ngini = 0.28\nsamples = 107\nvalue = [18, 89]"] ;
276 -> 277 ;
278 [label="opponent_health <= 2.0\ngini = 0.32\nsamples = 5\nvalue = [4, 1]"] ;
277 -> 278 ;
279 [label="gini = 0.0\nsamples = 1\nvalue = [0, 1]"] ;
278 -> 279 ;
280 [label="gini = 0.0\nsamples = 4\nvalue = [4, 0]"] ;
278 -> 280 ;
281 [label="me_playing <= 0.5\ngini = 0.237\nsamples = 102\nvalue = [14, 88]"] ;
277 -> 281 ;
282 [label="my_health <= 14.5\ngini = 0.48\nsamples = 15\nvalue = [6, 9]"] ;
281 -> 282 ;
283 [label="my_board_total_attack <= 3.0\ngini = 0.408\nsamples = 7\nvalue = [5, 2]"] ;
282 -> 283 ;
284 [label="gini = 0.0\nsamples = 1\nvalue = [0, 1]"] ;
283 -> 284 ;
285 [label="opponent_hand <= 3.5\ngini = 0.278\nsamples = 6\nvalue = [5, 1]"] ;
283 -> 285 ;
286 [label="gini = 0.0\nsamples = 4\nvalue = [4, 0]"] ;
285 -> 286 ;
287 [label="my_board_total_attack <= 7.5\ngini = 0.5\nsamples = 2\nvalue = [1, 1]"] ;
285 -> 287 ;
288 [label="gini = 0.0\nsamples = 1\nvalue = [0, 1]"] ;
287 -> 288 ;
289 [label="gini = 0.0\nsamples = 1\nvalue = [1, 0]"] ;
287 -> 289 ;
290 [label="my_board_nb_creatures <= 5.0\ngini = 0.219\nsamples = 8\nvalue = [1, 7]"] ;
282 -> 290 ;
291 [label="gini = 0.0\nsamples = 7\nvalue = [0, 7]"] ;
290 -> 291 ;
292 [label="gini = 0.0\nsamples = 1\nvalue = [1, 0]"] ;
290 -> 292 ;
293 [label="my_board_total_attack <= 18.0\ngini = 0.167\nsamples = 87\nvalue = [8, 79]"] ;
281 -> 293 ;
294 [label="my_board_total_attack <= 5.5\ngini = 0.134\nsamples = 83\nvalue = [6, 77]"] ;
293 -> 294 ;
295 [label="opponent_health <= 23.0\ngini = 0.355\nsamples = 13\nvalue = [3, 10]"] ;
294 -> 295 ;
296 [label="opponent_board_total_health <= 0.5\ngini = 0.165\nsamples = 11\nvalue = [1, 10]"] ;
295 -> 296 ;
297 [label="gini = 0.0\nsamples = 9\nvalue = [0, 9]"] ;
296 -> 297 ;
298 [label="opponent_health <= 20.5\ngini = 0.5\nsamples = 2\nvalue = [1, 1]"] ;
296 -> 298 ;
299 [label="gini = 0.0\nsamples = 1\nvalue = [1, 0]"] ;
298 -> 299 ;
300 [label="gini = 0.0\nsamples = 1\nvalue = [0, 1]"] ;
298 -> 300 ;
301 [label="gini = 0.0\nsamples = 2\nvalue = [2, 0]"] ;
295 -> 301 ;
302 [label="my_hand <= 0.5\ngini = 0.082\nsamples = 70\nvalue = [3, 67]"] ;
294 -> 302 ;
303 [label="gini = 0.0\nsamples = 1\nvalue = [1, 0]"] ;
302 -> 303 ;
304 [label="my_board_total_health <= 4.5\ngini = 0.056\nsamples = 69\nvalue = [2, 67]"] ;
302 -> 304 ;
305 [label="my_health <= 16.5\ngini = 0.444\nsamples = 3\nvalue = [1, 2]"] ;
304 -> 305 ;
306 [label="gini = 0.0\nsamples = 1\nvalue = [1, 0]"] ;
305 -> 306 ;
307 [label="gini = 0.0\nsamples = 2\nvalue = [0, 2]"] ;
305 -> 307 ;
308 [label="opponent_health <= 26.5\ngini = 0.03\nsamples = 66\nvalue = [1, 65]"] ;
304 -> 308 ;
309 [label="gini = 0.0\nsamples = 60\nvalue = [0, 60]"] ;
308 -> 309 ;
310 [label="my_board_total_attack <= 9.0\ngini = 0.278\nsamples = 6\nvalue = [1, 5]"] ;
308 -> 310 ;
311 [label="gini = 0.0\nsamples = 4\nvalue = [0, 4]"] ;
310 -> 311 ;
312 [label="opponent_health <= 28.5\ngini = 0.5\nsamples = 2\nvalue = [1, 1]"] ;
310 -> 312 ;
313 [label="gini = 0.0\nsamples = 1\nvalue = [1, 0]"] ;
312 -> 313 ;
314 [label="gini = 0.0\nsamples = 1\nvalue = [0, 1]"] ;
312 -> 314 ;
315 [label="my_health <= 18.0\ngini = 0.5\nsamples = 4\nvalue = [2, 2]"] ;
293 -> 315 ;
316 [label="gini = 0.0\nsamples = 2\nvalue = [0, 2]"] ;
315 -> 316 ;
317 [label="gini = 0.0\nsamples = 2\nvalue = [2, 0]"] ;
315 -> 317 ;
318 [label="my_board_total_health <= 4.5\ngini = 0.493\nsamples = 129\nvalue = [57, 72]"] ;
276 -> 318 ;
319 [label="my_hand <= 5.5\ngini = 0.375\nsamples = 24\nvalue = [18, 6]"] ;
318 -> 319 ;
320 [label="opponent_health <= 13.0\ngini = 0.298\nsamples = 22\nvalue = [18, 4]"] ;
319 -> 320 ;
321 [label="me_playing <= 0.5\ngini = 0.444\nsamples = 3\nvalue = [1, 2]"] ;
320 -> 321 ;
322 [label="gini = 0.0\nsamples = 2\nvalue = [0, 2]"] ;
321 -> 322 ;
323 [label="gini = 0.0\nsamples = 1\nvalue = [1, 0]"] ;
321 -> 323 ;
324 [label="my_health <= 20.5\ngini = 0.188\nsamples = 19\nvalue = [17, 2]"] ;
320 -> 324 ;
325 [label="gini = 0.0\nsamples = 16\nvalue = [16, 0]"] ;
324 -> 325 ;
326 [label="my_hand <= 2.5\ngini = 0.444\nsamples = 3\nvalue = [1, 2]"] ;
324 -> 326 ;
327 [label="gini = 0.0\nsamples = 1\nvalue = [1, 0]"] ;
326 -> 327 ;
328 [label="gini = 0.0\nsamples = 2\nvalue = [0, 2]"] ;
326 -> 328 ;
329 [label="gini = 0.0\nsamples = 2\nvalue = [0, 2]"] ;
319 -> 329 ;
330 [label="opponent_hand <= 5.5\ngini = 0.467\nsamples = 105\nvalue = [39, 66]"] ;
318 -> 330 ;
331 [label="opponent_board_total_health <= 11.5\ngini = 0.442\nsamples = 97\nvalue = [32, 65]"] ;
330 -> 331 ;
332 [label="my_health <= 8.5\ngini = 0.421\nsamples = 93\nvalue = [28, 65]"] ;
331 -> 332 ;
333 [label="opponent_board_total_health <= 3.5\ngini = 0.463\nsamples = 11\nvalue = [7, 4]"] ;
332 -> 333 ;
334 [label="opponent_hand <= 1.5\ngini = 0.375\nsamples = 4\nvalue = [1, 3]"] ;
333 -> 334 ;
335 [label="gini = 0.0\nsamples = 1\nvalue = [1, 0]"] ;
334 -> 335 ;
336 [label="gini = 0.0\nsamples = 3\nvalue = [0, 3]"] ;
334 -> 336 ;
337 [label="my_board_total_health <= 11.0\ngini = 0.245\nsamples = 7\nvalue = [6, 1]"] ;
333 -> 337 ;
338 [label="gini = 0.0\nsamples = 6\nvalue = [6, 0]"] ;
337 -> 338 ;
339 [label="gini = 0.0\nsamples = 1\nvalue = [0, 1]"] ;
337 -> 339 ;
340 [label="opponent_health <= 28.5\ngini = 0.381\nsamples = 82\nvalue = [21, 61]"] ;
332 -> 340 ;
341 [label="opponent_hand <= 2.5\ngini = 0.327\nsamples = 73\nvalue = [15, 58]"] ;
340 -> 341 ;
342 [label="opponent_board_total_health <= 7.5\ngini = 0.18\nsamples = 40\nvalue = [4, 36]"] ;
341 -> 342 ;
343 [label="my_board_total_health <= 8.5\ngini = 0.145\nsamples = 38\nvalue = [3, 35]"] ;
342 -> 343 ;
344 [label="my_board_total_attack <= 7.5\ngini = 0.266\nsamples = 19\nvalue = [3, 16]"] ;
343 -> 344 ;
345 [label="opponent_board_total_health <= 4.5\ngini = 0.133\nsamples = 14\nvalue = [1, 13]"] ;
344 -> 345 ;
346 [label="gini = 0.0\nsamples = 9\nvalue = [0, 9]"] ;
345 -> 346 ;
347 [label="opponent_health <= 17.0\ngini = 0.32\nsamples = 5\nvalue = [1, 4]"] ;
345 -> 347 ;
348 [label="gini = 0.0\nsamples = 4\nvalue = [0, 4]"] ;
347 -> 348 ;
349 [label="gini = 0.0\nsamples = 1\nvalue = [1, 0]"] ;
347 -> 349 ;
350 [label="opponent_health <= 23.0\ngini = 0.48\nsamples = 5\nvalue = [2, 3]"] ;
344 -> 350 ;
351 [label="my_board_nb_creatures <= 3.5\ngini = 0.444\nsamples = 3\nvalue = [2, 1]"] ;
350 -> 351 ;
352 [label="gini = 0.0\nsamples = 2\nvalue = [2, 0]"] ;
351 -> 352 ;
353 [label="gini = 0.0\nsamples = 1\nvalue = [0, 1]"] ;
351 -> 353 ;
354 [label="gini = 0.0\nsamples = 2\nvalue = [0, 2]"] ;
350 -> 354 ;
355 [label="gini = 0.0\nsamples = 19\nvalue = [0, 19]"] ;
343 -> 355 ;
356 [label="my_board_total_health <= 11.5\ngini = 0.5\nsamples = 2\nvalue = [1, 1]"] ;
342 -> 356 ;
357 [label="gini = 0.0\nsamples = 1\nvalue = [0, 1]"] ;
356 -> 357 ;
358 [label="gini = 0.0\nsamples = 1\nvalue = [1, 0]"] ;
356 -> 358 ;
359 [label="my_board_nb_creatures <= 5.5\ngini = 0.444\nsamples = 33\nvalue = [11, 22]"] ;
341 -> 359 ;
360 [label="my_health <= 12.5\ngini = 0.412\nsamples = 31\nvalue = [9, 22]"] ;
359 -> 360 ;
361 [label="opponent_health <= 26.0\ngini = 0.48\nsamples = 5\nvalue = [3, 2]"] ;
360 -> 361 ;
362 [label="gini = 0.0\nsamples = 3\nvalue = [3, 0]"] ;
361 -> 362 ;
363 [label="gini = 0.0\nsamples = 2\nvalue = [0, 2]"] ;
361 -> 363 ;
364 [label="opponent_health <= 22.5\ngini = 0.355\nsamples = 26\nvalue = [6, 20]"] ;
360 -> 364 ;
365 [label="opponent_hand <= 4.5\ngini = 0.198\nsamples = 18\nvalue = [2, 16]"] ;
364 -> 365 ;
366 [label="gini = 0.0\nsamples = 13\nvalue = [0, 13]"] ;
365 -> 366 ;
367 [label="opponent_health <= 19.5\ngini = 0.48\nsamples = 5\nvalue = [2, 3]"] ;
365 -> 367 ;
368 [label="gini = 0.0\nsamples = 2\nvalue = [2, 0]"] ;
367 -> 368 ;
369 [label="gini = 0.0\nsamples = 3\nvalue = [0, 3]"] ;
367 -> 369 ;
370 [label="my_hand <= 3.5\ngini = 0.5\nsamples = 8\nvalue = [4, 4]"] ;
364 -> 370 ;
371 [label="gini = 0.0\nsamples = 3\nvalue = [3, 0]"] ;
370 -> 371 ;
372 [label="opponent_board_total_health <= 3.5\ngini = 0.32\nsamples = 5\nvalue = [1, 4]"] ;
370 -> 372 ;
373 [label="gini = 0.0\nsamples = 1\nvalue = [1, 0]"] ;
372 -> 373 ;
374 [label="gini = 0.0\nsamples = 4\nvalue = [0, 4]"] ;
372 -> 374 ;
375 [label="gini = 0.0\nsamples = 2\nvalue = [2, 0]"] ;
359 -> 375 ;
376 [label="opponent_board_total_attack <= 4.5\ngini = 0.444\nsamples = 9\nvalue = [6, 3]"] ;
340 -> 376 ;
377 [label="my_health <= 17.0\ngini = 0.245\nsamples = 7\nvalue = [6, 1]"] ;
376 -> 377 ;
378 [label="gini = 0.0\nsamples = 6\nvalue = [6, 0]"] ;
377 -> 378 ;
379 [label="gini = 0.0\nsamples = 1\nvalue = [0, 1]"] ;
377 -> 379 ;
380 [label="gini = 0.0\nsamples = 2\nvalue = [0, 2]"] ;
376 -> 380 ;
381 [label="gini = 0.0\nsamples = 4\nvalue = [4, 0]"] ;
331 -> 381 ;
382 [label="opponent_board_total_attack <= 4.5\ngini = 0.219\nsamples = 8\nvalue = [7, 1]"] ;
330 -> 382 ;
383 [label="gini = 0.0\nsamples = 5\nvalue = [5, 0]"] ;
382 -> 383 ;
384 [label="my_board_total_health <= 8.5\ngini = 0.444\nsamples = 3\nvalue = [2, 1]"] ;
382 -> 384 ;
385 [label="gini = 0.0\nsamples = 1\nvalue = [0, 1]"] ;
384 -> 385 ;
386 [label="gini = 0.0\nsamples = 2\nvalue = [2, 0]"] ;
384 -> 386 ;
387 [label="my_board_total_attack <= 3.5\ngini = 0.227\nsamples = 406\nvalue = [53, 353]"] ;
275 -> 387 ;
388 [label="opponent_board_total_attack <= 0.5\ngini = 0.5\nsamples = 35\nvalue = [17, 18]"] ;
387 -> 388 ;
389 [label="my_hand <= 0.5\ngini = 0.355\nsamples = 13\nvalue = [3, 10]"] ;
388 -> 389 ;
390 [label="gini = 0.0\nsamples = 2\nvalue = [2, 0]"] ;
389 -> 390 ;
391 [label="my_board_total_attack <= 2.5\ngini = 0.165\nsamples = 11\nvalue = [1, 10]"] ;
389 -> 391 ;
392 [label="opponent_hand <= 6.0\ngini = 0.444\nsamples = 3\nvalue = [1, 2]"] ;
391 -> 392 ;
393 [label="gini = 0.0\nsamples = 2\nvalue = [0, 2]"] ;
392 -> 393 ;
394 [label="gini = 0.0\nsamples = 1\nvalue = [1, 0]"] ;
392 -> 394 ;
395 [label="gini = 0.0\nsamples = 8\nvalue = [0, 8]"] ;
391 -> 395 ;
396 [label="opponent_health <= 27.5\ngini = 0.463\nsamples = 22\nvalue = [14, 8]"] ;
388 -> 396 ;
397 [label="opponent_board_total_attack <= 2.5\ngini = 0.498\nsamples = 15\nvalue = [7, 8]"] ;
396 -> 397 ;
398 [label="gini = 0.0\nsamples = 4\nvalue = [4, 0]"] ;
397 -> 398 ;
399 [label="opponent_hand <= 5.5\ngini = 0.397\nsamples = 11\nvalue = [3, 8]"] ;
397 -> 399 ;
400 [label="opponent_hand <= 1.5\ngini = 0.198\nsamples = 9\nvalue = [1, 8]"] ;
399 -> 400 ;
401 [label="gini = 0.0\nsamples = 1\nvalue = [1, 0]"] ;
400 -> 401 ;
402 [label="gini = 0.0\nsamples = 8\nvalue = [0, 8]"] ;
400 -> 402 ;
403 [label="gini = 0.0\nsamples = 2\nvalue = [2, 0]"] ;
399 -> 403 ;
404 [label="gini = 0.0\nsamples = 7\nvalue = [7, 0]"] ;
396 -> 404 ;
405 [label="my_hand <= 0.5\ngini = 0.175\nsamples = 371\nvalue = [36, 335]"] ;
387 -> 405 ;
406 [label="opponent_board_total_health <= 1.5\ngini = 0.494\nsamples = 9\nvalue = [5, 4]"] ;
405 -> 406 ;
407 [label="gini = 0.0\nsamples = 4\nvalue = [4, 0]"] ;
406 -> 407 ;
408 [label="my_health <= 27.0\ngini = 0.32\nsamples = 5\nvalue = [1, 4]"] ;
406 -> 408 ;
409 [label="gini = 0.0\nsamples = 4\nvalue = [0, 4]"] ;
408 -> 409 ;
410 [label="gini = 0.0\nsamples = 1\nvalue = [1, 0]"] ;
408 -> 410 ;
411 [label="my_board_total_health <= 23.5\ngini = 0.157\nsamples = 362\nvalue = [31, 331]"] ;
405 -> 411 ;
412 [label="my_board_total_health <= 9.5\ngini = 0.148\nsamples = 360\nvalue = [29, 331]"] ;
411 -> 412 ;
413 [label="opponent_board_total_attack <= 3.5\ngini = 0.202\nsamples = 245\nvalue = [28, 217]"] ;
412 -> 413 ;
414 [label="opponent_hand <= 7.5\ngini = 0.138\nsamples = 174\nvalue = [13, 161]"] ;
413 -> 414 ;
415 [label="my_hand <= 2.5\ngini = 0.107\nsamples = 159\nvalue = [9, 150]"] ;
414 -> 415 ;
416 [label="my_health <= 22.5\ngini = 0.21\nsamples = 42\nvalue = [5, 37]"] ;
415 -> 416 ;
417 [label="opponent_board_nb_creatures <= 0.5\ngini = 0.444\nsamples = 3\nvalue = [2, 1]"] ;
416 -> 417 ;
418 [label="gini = 0.0\nsamples = 1\nvalue = [0, 1]"] ;
417 -> 418 ;
419 [label="gini = 0.0\nsamples = 2\nvalue = [2, 0]"] ;
417 -> 419 ;
420 [label="opponent_health <= 5.0\ngini = 0.142\nsamples = 39\nvalue = [3, 36]"] ;
416 -> 420 ;
421 [label="gini = 0.0\nsamples = 1\nvalue = [1, 0]"] ;
420 -> 421 ;
422 [label="opponent_health <= 28.5\ngini = 0.1\nsamples = 38\nvalue = [2, 36]"] ;
420 -> 422 ;
423 [label="opponent_board_total_health <= 4.5\ngini = 0.053\nsamples = 37\nvalue = [1, 36]"] ;
422 -> 423 ;
424 [label="gini = 0.0\nsamples = 35\nvalue = [0, 35]"] ;
423 -> 424 ;
425 [label="my_health <= 29.5\ngini = 0.5\nsamples = 2\nvalue = [1, 1]"] ;
423 -> 425 ;
426 [label="gini = 0.0\nsamples = 1\nvalue = [0, 1]"] ;
425 -> 426 ;
427 [label="gini = 0.0\nsamples = 1\nvalue = [1, 0]"] ;
425 -> 427 ;
428 [label="gini = 0.0\nsamples = 1\nvalue = [1, 0]"] ;
422 -> 428 ;
429 [label="opponent_health <= 21.5\ngini = 0.066\nsamples = 117\nvalue = [4, 113]"] ;
415 -> 429 ;
430 [label="gini = 0.0\nsamples = 59\nvalue = [0, 59]"] ;
429 -> 430 ;
431 [label="opponent_hand <= 4.5\ngini = 0.128\nsamples = 58\nvalue = [4, 54]"] ;
429 -> 431 ;
432 [label="gini = 0.0\nsamples = 26\nvalue = [0, 26]"] ;
431 -> 432 ;
433 [label="opponent_board_total_health <= 5.5\ngini = 0.219\nsamples = 32\nvalue = [4, 28]"] ;
431 -> 433 ;
434 [label="my_hand <= 7.5\ngini = 0.175\nsamples = 31\nvalue = [3, 28]"] ;
433 -> 434 ;
435 [label="opponent_health <= 24.5\ngini = 0.128\nsamples = 29\nvalue = [2, 27]"] ;
434 -> 435 ;
436 [label="opponent_board_total_attack <= 1.0\ngini = 0.219\nsamples = 16\nvalue = [2, 14]"] ;
435 -> 436 ;
437 [label="opponent_health <= 22.5\ngini = 0.32\nsamples = 10\nvalue = [2, 8]"] ;
436 -> 437 ;
438 [label="opponent_hand <= 5.5\ngini = 0.5\nsamples = 2\nvalue = [1, 1]"] ;
437 -> 438 ;
439 [label="gini = 0.0\nsamples = 1\nvalue = [0, 1]"] ;
438 -> 439 ;
440 [label="gini = 0.0\nsamples = 1\nvalue = [1, 0]"] ;
438 -> 440 ;
441 [label="my_board_nb_creatures <= 3.5\ngini = 0.219\nsamples = 8\nvalue = [1, 7]"] ;
437 -> 441 ;
442 [label="gini = 0.0\nsamples = 6\nvalue = [0, 6]"] ;
441 -> 442 ;
443 [label="opponent_hand <= 6.0\ngini = 0.5\nsamples = 2\nvalue = [1, 1]"] ;
441 -> 443 ;
444 [label="gini = 0.0\nsamples = 1\nvalue = [1, 0]"] ;
443 -> 444 ;
445 [label="gini = 0.0\nsamples = 1\nvalue = [0, 1]"] ;
443 -> 445 ;
446 [label="gini = 0.0\nsamples = 6\nvalue = [0, 6]"] ;
436 -> 446 ;
447 [label="gini = 0.0\nsamples = 13\nvalue = [0, 13]"] ;
435 -> 447 ;
448 [label="opponent_board_total_health <= 1.0\ngini = 0.5\nsamples = 2\nvalue = [1, 1]"] ;
434 -> 448 ;
449 [label="gini = 0.0\nsamples = 1\nvalue = [1, 0]"] ;
448 -> 449 ;
450 [label="gini = 0.0\nsamples = 1\nvalue = [0, 1]"] ;
448 -> 450 ;
451 [label="gini = 0.0\nsamples = 1\nvalue = [1, 0]"] ;
433 -> 451 ;
452 [label="opponent_health <= 19.5\ngini = 0.391\nsamples = 15\nvalue = [4, 11]"] ;
414 -> 452 ;
453 [label="gini = 0.0\nsamples = 9\nvalue = [0, 9]"] ;
452 -> 453 ;
454 [label="my_board_total_attack <= 7.5\ngini = 0.444\nsamples = 6\nvalue = [4, 2]"] ;
452 -> 454 ;
455 [label="gini = 0.0\nsamples = 2\nvalue = [0, 2]"] ;
454 -> 455 ;
456 [label="gini = 0.0\nsamples = 4\nvalue = [4, 0]"] ;
454 -> 456 ;
457 [label="me_playing <= 0.5\ngini = 0.333\nsamples = 71\nvalue = [15, 56]"] ;
413 -> 457 ;
458 [label="my_hand <= 1.5\ngini = 0.05\nsamples = 39\nvalue = [1, 38]"] ;
457 -> 458 ;
459 [label="opponent_board_total_attack <= 6.5\ngini = 0.444\nsamples = 3\nvalue = [1, 2]"] ;
458 -> 459 ;
460 [label="gini = 0.0\nsamples = 2\nvalue = [0, 2]"] ;
459 -> 460 ;
461 [label="gini = 0.0\nsamples = 1\nvalue = [1, 0]"] ;
459 -> 461 ;
462 [label="gini = 0.0\nsamples = 36\nvalue = [0, 36]"] ;
458 -> 462 ;
463 [label="my_health <= 27.5\ngini = 0.492\nsamples = 32\nvalue = [14, 18]"] ;
457 -> 463 ;
464 [label="opponent_board_total_attack <= 5.5\ngini = 0.408\nsamples = 21\nvalue = [6, 15]"] ;
463 -> 464 ;
465 [label="my_health <= 22.5\ngini = 0.153\nsamples = 12\nvalue = [1, 11]"] ;
464 -> 465 ;
466 [label="opponent_hand <= 6.5\ngini = 0.5\nsamples = 2\nvalue = [1, 1]"] ;
465 -> 466 ;
467 [label="gini = 0.0\nsamples = 1\nvalue = [0, 1]"] ;
466 -> 467 ;
468 [label="gini = 0.0\nsamples = 1\nvalue = [1, 0]"] ;
466 -> 468 ;
469 [label="gini = 0.0\nsamples = 10\nvalue = [0, 10]"] ;
465 -> 469 ;
470 [label="opponent_board_nb_creatures <= 2.5\ngini = 0.494\nsamples = 9\nvalue = [5, 4]"] ;
464 -> 470 ;
471 [label="opponent_board_total_attack <= 6.5\ngini = 0.49\nsamples = 7\nvalue = [3, 4]"] ;
470 -> 471 ;
472 [label="opponent_hand <= 3.5\ngini = 0.48\nsamples = 5\nvalue = [3, 2]"] ;
471 -> 472 ;
473 [label="gini = 0.0\nsamples = 2\nvalue = [2, 0]"] ;
472 -> 473 ;
474 [label="my_health <= 26.5\ngini = 0.444\nsamples = 3\nvalue = [1, 2]"] ;
472 -> 474 ;
475 [label="gini = 0.0\nsamples = 2\nvalue = [0, 2]"] ;
474 -> 475 ;
476 [label="gini = 0.0\nsamples = 1\nvalue = [1, 0]"] ;
474 -> 476 ;
477 [label="gini = 0.0\nsamples = 2\nvalue = [0, 2]"] ;
471 -> 477 ;
478 [label="gini = 0.0\nsamples = 2\nvalue = [2, 0]"] ;
470 -> 478 ;
479 [label="my_hand <= 2.5\ngini = 0.397\nsamples = 11\nvalue = [8, 3]"] ;
463 -> 479 ;
480 [label="opponent_board_total_health <= 3.5\ngini = 0.444\nsamples = 3\nvalue = [1, 2]"] ;
479 -> 480 ;
481 [label="gini = 0.0\nsamples = 1\nvalue = [1, 0]"] ;
480 -> 481 ;
482 [label="gini = 0.0\nsamples = 2\nvalue = [0, 2]"] ;
480 -> 482 ;
483 [label="opponent_hand <= 6.5\ngini = 0.219\nsamples = 8\nvalue = [7, 1]"] ;
479 -> 483 ;
484 [label="gini = 0.0\nsamples = 5\nvalue = [5, 0]"] ;
483 -> 484 ;
485 [label="my_board_total_attack <= 7.0\ngini = 0.444\nsamples = 3\nvalue = [2, 1]"] ;
483 -> 485 ;
486 [label="gini = 0.0\nsamples = 2\nvalue = [2, 0]"] ;
485 -> 486 ;
487 [label="gini = 0.0\nsamples = 1\nvalue = [0, 1]"] ;
485 -> 487 ;
488 [label="my_health <= 23.5\ngini = 0.017\nsamples = 115\nvalue = [1, 114]"] ;
412 -> 488 ;
489 [label="my_board_total_health <= 11.5\ngini = 0.142\nsamples = 13\nvalue = [1, 12]"] ;
488 -> 489 ;
490 [label="my_board_nb_creatures <= 3.5\ngini = 0.444\nsamples = 3\nvalue = [1, 2]"] ;
489 -> 490 ;
491 [label="gini = 0.0\nsamples = 2\nvalue = [0, 2]"] ;
490 -> 491 ;
492 [label="gini = 0.0\nsamples = 1\nvalue = [1, 0]"] ;
490 -> 492 ;
493 [label="gini = 0.0\nsamples = 10\nvalue = [0, 10]"] ;
489 -> 493 ;
494 [label="gini = 0.0\nsamples = 102\nvalue = [0, 102]"] ;
488 -> 494 ;
495 [label="gini = 0.0\nsamples = 2\nvalue = [2, 0]"] ;
411 -> 495 ;
496 [label="my_health <= 25.5\ngini = 0.493\nsamples = 166\nvalue = [93, 73]"] ;
274 -> 496 ;
497 [label="opponent_hand <= 1.5\ngini = 0.452\nsamples = 116\nvalue = [76, 40]"] ;
496 -> 497 ;
498 [label="opponent_health <= 29.5\ngini = 0.464\nsamples = 30\nvalue = [11, 19]"] ;
497 -> 498 ;
499 [label="opponent_board_nb_creatures <= 5.5\ngini = 0.417\nsamples = 27\nvalue = [8, 19]"] ;
498 -> 499 ;
500 [label="opponent_board_nb_creatures <= 1.5\ngini = 0.33\nsamples = 24\nvalue = [5, 19]"] ;
499 -> 500 ;
501 [label="gini = 0.0\nsamples = 1\nvalue = [1, 0]"] ;
500 -> 501 ;
502 [label="opponent_board_total_health <= 9.5\ngini = 0.287\nsamples = 23\nvalue = [4, 19]"] ;
500 -> 502 ;
503 [label="gini = 0.0\nsamples = 11\nvalue = [0, 11]"] ;
502 -> 503 ;
504 [label="me_playing <= 0.5\ngini = 0.444\nsamples = 12\nvalue = [4, 8]"] ;
502 -> 504 ;
505 [label="my_hand <= 1.5\ngini = 0.219\nsamples = 8\nvalue = [1, 7]"] ;
504 -> 505 ;
506 [label="my_board_total_health <= 9.0\ngini = 0.5\nsamples = 2\nvalue = [1, 1]"] ;
505 -> 506 ;
507 [label="gini = 0.0\nsamples = 1\nvalue = [1, 0]"] ;
506 -> 507 ;
508 [label="gini = 0.0\nsamples = 1\nvalue = [0, 1]"] ;
506 -> 508 ;
509 [label="gini = 0.0\nsamples = 6\nvalue = [0, 6]"] ;
505 -> 509 ;
510 [label="opponent_board_total_attack <= 15.0\ngini = 0.375\nsamples = 4\nvalue = [3, 1]"] ;
504 -> 510 ;
511 [label="gini = 0.0\nsamples = 3\nvalue = [3, 0]"] ;
510 -> 511 ;
512 [label="gini = 0.0\nsamples = 1\nvalue = [0, 1]"] ;
510 -> 512 ;
513 [label="gini = 0.0\nsamples = 3\nvalue = [3, 0]"] ;
499 -> 513 ;
514 [label="gini = 0.0\nsamples = 3\nvalue = [3, 0]"] ;
498 -> 514 ;
515 [label="my_board_total_health <= 8.5\ngini = 0.369\nsamples = 86\nvalue = [65, 21]"] ;
497 -> 515 ;
516 [label="my_hand <= 8.5\ngini = 0.223\nsamples = 47\nvalue = [41, 6]"] ;
515 -> 516 ;
517 [label="opponent_board_total_health <= 20.5\ngini = 0.165\nsamples = 44\nvalue = [40, 4]"] ;
516 -> 517 ;
518 [label="opponent_board_nb_creatures <= 1.5\ngini = 0.13\nsamples = 43\nvalue = [40, 3]"] ;
517 -> 518 ;
519 [label="opponent_board_total_health <= 7.0\ngini = 0.48\nsamples = 5\nvalue = [3, 2]"] ;
518 -> 519 ;
520 [label="gini = 0.0\nsamples = 2\nvalue = [2, 0]"] ;
519 -> 520 ;
521 [label="my_board_total_health <= 7.5\ngini = 0.444\nsamples = 3\nvalue = [1, 2]"] ;
519 -> 521 ;
522 [label="gini = 0.0\nsamples = 2\nvalue = [0, 2]"] ;
521 -> 522 ;
523 [label="gini = 0.0\nsamples = 1\nvalue = [1, 0]"] ;
521 -> 523 ;
524 [label="opponent_health <= 11.0\ngini = 0.051\nsamples = 38\nvalue = [37, 1]"] ;
518 -> 524 ;
525 [label="my_health <= 20.5\ngini = 0.32\nsamples = 5\nvalue = [4, 1]"] ;
524 -> 525 ;
526 [label="gini = 0.0\nsamples = 4\nvalue = [4, 0]"] ;
525 -> 526 ;
527 [label="gini = 0.0\nsamples = 1\nvalue = [0, 1]"] ;
525 -> 527 ;
528 [label="gini = 0.0\nsamples = 33\nvalue = [33, 0]"] ;
524 -> 528 ;
529 [label="gini = 0.0\nsamples = 1\nvalue = [0, 1]"] ;
517 -> 529 ;
530 [label="opponent_health <= 22.5\ngini = 0.444\nsamples = 3\nvalue = [1, 2]"] ;
516 -> 530 ;
531 [label="gini = 0.0\nsamples = 2\nvalue = [0, 2]"] ;
530 -> 531 ;
532 [label="gini = 0.0\nsamples = 1\nvalue = [1, 0]"] ;
530 -> 532 ;
533 [label="opponent_board_total_health <= 4.5\ngini = 0.473\nsamples = 39\nvalue = [24, 15]"] ;
515 -> 533 ;
534 [label="gini = 0.0\nsamples = 3\nvalue = [0, 3]"] ;
533 -> 534 ;
535 [label="opponent_board_total_attack <= 17.5\ngini = 0.444\nsamples = 36\nvalue = [24, 12]"] ;
533 -> 535 ;
536 [label="me_playing <= 0.5\ngini = 0.415\nsamples = 34\nvalue = [24, 10]"] ;
535 -> 536 ;
537 [label="my_board_total_attack <= 7.5\ngini = 0.498\nsamples = 15\nvalue = [8, 7]"] ;
536 -> 537 ;
538 [label="gini = 0.0\nsamples = 4\nvalue = [4, 0]"] ;
537 -> 538 ;
539 [label="opponent_board_total_health <= 15.0\ngini = 0.463\nsamples = 11\nvalue = [4, 7]"] ;
537 -> 539 ;
540 [label="opponent_hand <= 6.5\ngini = 0.346\nsamples = 9\nvalue = [2, 7]"] ;
539 -> 540 ;
541 [label="opponent_health <= 21.0\ngini = 0.219\nsamples = 8\nvalue = [1, 7]"] ;
540 -> 541 ;
542 [label="my_board_total_attack <= 9.5\ngini = 0.444\nsamples = 3\nvalue = [1, 2]"] ;
541 -> 542 ;
543 [label="gini = 0.0\nsamples = 1\nvalue = [1, 0]"] ;
542 -> 543 ;
544 [label="gini = 0.0\nsamples = 2\nvalue = [0, 2]"] ;
542 -> 544 ;
545 [label="gini = 0.0\nsamples = 5\nvalue = [0, 5]"] ;
541 -> 545 ;
546 [label="gini = 0.0\nsamples = 1\nvalue = [1, 0]"] ;
540 -> 546 ;
547 [label="gini = 0.0\nsamples = 2\nvalue = [2, 0]"] ;
539 -> 547 ;
548 [label="my_health <= 13.0\ngini = 0.266\nsamples = 19\nvalue = [16, 3]"] ;
536 -> 548 ;
549 [label="gini = 0.0\nsamples = 2\nvalue = [0, 2]"] ;
548 -> 549 ;
550 [label="opponent_hand <= 8.0\ngini = 0.111\nsamples = 17\nvalue = [16, 1]"] ;
548 -> 550 ;
551 [label="gini = 0.0\nsamples = 16\nvalue = [16, 0]"] ;
550 -> 551 ;
552 [label="gini = 0.0\nsamples = 1\nvalue = [0, 1]"] ;
550 -> 552 ;
553 [label="gini = 0.0\nsamples = 2\nvalue = [0, 2]"] ;
535 -> 553 ;
554 [label="me_playing <= 0.5\ngini = 0.449\nsamples = 50\nvalue = [17, 33]"] ;
496 -> 554 ;
555 [label="opponent_board_total_attack <= 15.5\ngini = 0.227\nsamples = 23\nvalue = [3, 20]"] ;
554 -> 555 ;
556 [label="my_board_total_health <= 3.5\ngini = 0.091\nsamples = 21\nvalue = [1, 20]"] ;
555 -> 556 ;
557 [label="opponent_board_total_attack <= 9.5\ngini = 0.5\nsamples = 2\nvalue = [1, 1]"] ;
556 -> 557 ;
558 [label="gini = 0.0\nsamples = 1\nvalue = [1, 0]"] ;
557 -> 558 ;
559 [label="gini = 0.0\nsamples = 1\nvalue = [0, 1]"] ;
557 -> 559 ;
560 [label="gini = 0.0\nsamples = 19\nvalue = [0, 19]"] ;
556 -> 560 ;
561 [label="gini = 0.0\nsamples = 2\nvalue = [2, 0]"] ;
555 -> 561 ;
562 [label="opponent_board_total_attack <= 10.5\ngini = 0.499\nsamples = 27\nvalue = [14, 13]"] ;
554 -> 562 ;
563 [label="my_hand <= 1.5\ngini = 0.408\nsamples = 14\nvalue = [4, 10]"] ;
562 -> 563 ;
564 [label="gini = 0.0\nsamples = 2\nvalue = [2, 0]"] ;
563 -> 564 ;
565 [label="my_board_total_attack <= 14.0\ngini = 0.278\nsamples = 12\nvalue = [2, 10]"] ;
563 -> 565 ;
566 [label="my_health <= 26.5\ngini = 0.165\nsamples = 11\nvalue = [1, 10]"] ;
565 -> 566 ;
567 [label="opponent_hand <= 3.5\ngini = 0.5\nsamples = 2\nvalue = [1, 1]"] ;
566 -> 567 ;
568 [label="gini = 0.0\nsamples = 1\nvalue = [0, 1]"] ;
567 -> 568 ;
569 [label="gini = 0.0\nsamples = 1\nvalue = [1, 0]"] ;
567 -> 569 ;
570 [label="gini = 0.0\nsamples = 9\nvalue = [0, 9]"] ;
566 -> 570 ;
571 [label="gini = 0.0\nsamples = 1\nvalue = [1, 0]"] ;
565 -> 571 ;
572 [label="my_hand <= 3.5\ngini = 0.355\nsamples = 13\nvalue = [10, 3]"] ;
562 -> 572 ;
573 [label="gini = 0.0\nsamples = 8\nvalue = [8, 0]"] ;
572 -> 573 ;
574 [label="my_board_total_health <= 7.5\ngini = 0.48\nsamples = 5\nvalue = [2, 3]"] ;
572 -> 574 ;
575 [label="opponent_board_total_health <= 7.5\ngini = 0.444\nsamples = 3\nvalue = [2, 1]"] ;
574 -> 575 ;
576 [label="gini = 0.0\nsamples = 1\nvalue = [0, 1]"] ;
575 -> 576 ;
577 [label="gini = 0.0\nsamples = 2\nvalue = [2, 0]"] ;
575 -> 577 ;
578 [label="gini = 0.0\nsamples = 2\nvalue = [0, 2]"] ;
574 -> 578 ;
}