digraph Tree {
node [shape=box] ;
0 [label="my_board_nb_creatures <= 1.5\ngini = 0.495\nsamples = 1434\nvalue = [644, 790]"] ;
1 [label="opponent_board_total_attack <= 4.5\ngini = 0.43\nsamples = 621\nvalue = [427, 194]"] ;
0 -> 1 [labeldistance=2.5, labelangle=45, headlabel="True"] ;
2 [label="my_board_total_health <= 1.5\ngini = 0.5\nsamples = 239\nvalue = [120, 119]"] ;
1 -> 2 ;
3 [label="my_health <= 20.5\ngini = 0.448\nsamples = 112\nvalue = [74, 38]"] ;
2 -> 3 ;
4 [label="opponent_health <= 5.5\ngini = 0.285\nsamples = 58\nvalue = [48, 10]"] ;
3 -> 4 ;
5 [label="opponent_board_total_health <= 0.5\ngini = 0.375\nsamples = 4\nvalue = [1, 3]"] ;
4 -> 5 ;
6 [label="gini = 0.0\nsamples = 1\nvalue = [1, 0]"] ;
5 -> 6 ;
7 [label="gini = 0.0\nsamples = 3\nvalue = [0, 3]"] ;
5 -> 7 ;
8 [label="opponent_hand <= 0.5\ngini = 0.226\nsamples = 54\nvalue = [47, 7]"] ;
4 -> 8 ;
9 [label="gini = 0.0\nsamples = 1\nvalue = [0, 1]"] ;
8 -> 9 ;
10 [label="opponent_health <= 20.5\ngini = 0.201\nsamples = 53\nvalue = [47, 6]"] ;
8 -> 10 ;
11 [label="opponent_hand <= 3.5\ngini = 0.375\nsamples = 24\nvalue = [18, 6]"] ;
10 -> 11 ;
12 [label="my_hand <= 3.5\ngini = 0.49\nsamples = 14\nvalue = [8, 6]"] ;
11 -> 12 ;
13 [label="opponent_board_total_health <= 2.5\ngini = 0.219\nsamples = 8\nvalue = [7, 1]"] ;
12 -> 13 ;
14 [label="gini = 0.0\nsamples = 7\nvalue = [7, 0]"] ;
13 -> 14 ;
15 [label="gini = 0.0\nsamples = 1\nvalue = [0, 1]"] ;
13 -> 15 ;
16 [label="my_health <= 14.0\ngini = 0.278\nsamples = 6\nvalue = [1, 5]"] ;
12 -> 16 ;
17 [label="my_health <= 11.0\ngini = 0.444\nsamples = 3\nvalue = [1, 2]"] ;
16 -> 17 ;
18 [label="gini = 0.0\nsamples = 2\nvalue = [0, 2]"] ;
17 -> 18 ;
19 [label="gini = 0.0\nsamples = 1\nvalue = [1, 0]"] ;
17 -> 19 ;
20 [label="gini = 0.0\nsamples = 3\nvalue = [0, 3]"] ;
16 -> 20 ;
21 [label="gini = 0.0\nsamples = 10\nvalue = [10, 0]"] ;
11 -> 21 ;
22 [label="gini = 0.0\nsamples = 29\nvalue = [29, 0]"] ;
10 -> 22 ;
23 [label="opponent_hand <= 3.5\ngini = 0.499\nsamples = 54\nvalue = [26, 28]"] ;
3 -> 23 ;
24 [label="opponent_health <= 27.0\ngini = 0.133\nsamples = 14\nvalue = [1, 13]"] ;
23 -> 24 ;
25 [label="gini = 0.0\nsamples = 11\nvalue = [0, 11]"] ;
24 -> 25 ;
26 [label="opponent_health <= 29.0\ngini = 0.444\nsamples = 3\nvalue = [1, 2]"] ;
24 -> 26 ;
27 [label="gini = 0.0\nsamples = 1\nvalue = [1, 0]"] ;
26 -> 27 ;
28 [label="gini = 0.0\nsamples = 2\nvalue = [0, 2]"] ;
26 -> 28 ;
29 [label="opponent_hand <= 6.5\ngini = 0.469\nsamples = 40\nvalue = [25, 15]"] ;
23 -> 29 ;
30 [label="me_playing <= 0.5\ngini = 0.5\nsamples = 28\nvalue = [14, 14]"] ;
29 -> 30 ;
31 [label="my_health <= 24.5\ngini = 0.355\nsamples = 13\nvalue = [3, 10]"] ;
30 -> 31 ;
32 [label="opponent_hand <= 4.5\ngini = 0.444\nsamples = 3\nvalue = [2, 1]"] ;
31 -> 32 ;
33 [label="gini = 0.0\nsamples = 1\nvalue = [0, 1]"] ;
32 -> 33 ;
34 [label="gini = 0.0\nsamples = 2\nvalue = [2, 0]"] ;
32 -> 34 ;
35 [label="opponent_health <= 14.5\ngini = 0.18\nsamples = 10\nvalue = [1, 9]"] ;
31 -> 35 ;
36 [label="my_hand <= 4.5\ngini = 0.5\nsamples = 2\nvalue = [1, 1]"] ;
35 -> 36 ;
37 [label="gini = 0.0\nsamples = 1\nvalue = [1, 0]"] ;
36 -> 37 ;
38 [label="gini = 0.0\nsamples = 1\nvalue = [0, 1]"] ;
36 -> 38 ;
39 [label="gini = 0.0\nsamples = 8\nvalue = [0, 8]"] ;
35 -> 39 ;
40 [label="opponent_health <= 20.5\ngini = 0.391\nsamples = 15\nvalue = [11, 4]"] ;
30 -> 40 ;
41 [label="opponent_health <= 9.5\ngini = 0.444\nsamples = 6\nvalue = [2, 4]"] ;
40 -> 41 ;
42 [label="gini = 0.0\nsamples = 1\nvalue = [1, 0]"] ;
41 -> 42 ;
43 [label="opponent_health <= 17.5\ngini = 0.32\nsamples = 5\nvalue = [1, 4]"] ;
41 -> 43 ;
44 [label="gini = 0.0\nsamples = 3\nvalue = [0, 3]"] ;
43 -> 44 ;
45 [label="opponent_health <= 18.5\ngini = 0.5\nsamples = 2\nvalue = [1, 1]"] ;
43 -> 45 ;
46 [label="gini = 0.0\nsamples = 1\nvalue = [1, 0]"] ;
45 -> 46 ;
47 [label="gini = 0.0\nsamples = 1\nvalue = [0, 1]"] ;
45 -> 47 ;
48 [label="gini = 0.0\nsamples = 9\nvalue = [9, 0]"] ;
40 -> 48 ;
49 [label="opponent_health <= 9.5\ngini = 0.153\nsamples = 12\nvalue = [11, 1]"] ;
29 -> 49 ;
50 [label="gini = 0.0\nsamples = 1\nvalue = [0, 1]"] ;
49 -> 50 ;
51 [label="gini = 0.0\nsamples = 11\nvalue = [11, 0]"] ;
49 -> 51 ;
52 [label="me_playing <= 0.5\ngini = 0.462\nsamples = 127\nvalue = [46, 81]"] ;
2 -> 52 ;
53 [label="my_health <= 11.0\ngini = 0.287\nsamples = 46\nvalue = [8, 38]"] ;
52 -> 53 ;
54 [label="my_hand <= 4.0\ngini = 0.444\nsamples = 6\nvalue = [4, 2]"] ;
53 -> 54 ;
55 [label="gini = 0.0\nsamples = 4\nvalue = [4, 0]"] ;
54 -> 55 ;
56 [label="gini = 0.0\nsamples = 2\nvalue = [0, 2]"] ;
54 -> 56 ;
57 [label="my_board_total_attack <= 2.5\ngini = 0.18\nsamples = 40\nvalue = [4, 36]"] ;
53 -> 57 ;
58 [label="my_health <= 20.5\ngini = 0.36\nsamples = 17\nvalue = [4, 13]"] ;
57 -> 58 ;
59 [label="opponent_hand <= 2.5\ngini = 0.444\nsamples = 3\nvalue = [2, 1]"] ;
58 -> 59 ;
60 [label="gini = 0.0\nsamples = 1\nvalue = [0, 1]"] ;
59 -> 60 ;
61 [label="gini = 0.0\nsamples = 2\nvalue = [2, 0]"] ;
59 -> 61 ;
62 [label="opponent_health <= 28.5\ngini = 0.245\nsamples = 14\nvalue = [2, 12]"] ;
58 -> 62 ;
63 [label="gini = 0.0\nsamples = 9\nvalue = [0, 9]"] ;
62 -> 63 ;
64 [label="my_health <= 28.5\ngini = 0.48\nsamples = 5\nvalue = [2, 3]"] ;
62 -> 64 ;
65 [label="my_hand <= 6.0\ngini = 0.444\nsamples = 3\nvalue = [2, 1]"] ;
64 -> 65 ;
66 [label="gini = 0.0\nsamples = 2\nvalue = [2, 0]"] ;
65 -> 66 ;
67 [label="gini = 0.0\nsamples = 1\nvalue = [0, 1]"] ;
65 -> 67 ;
68 [label="gini = 0.0\nsamples = 2\nvalue = [0, 2]"] ;
64 -> 68 ;
69 [label="gini = 0.0\nsamples = 23\nvalue = [0, 23]"] ;
57 -> 69 ;
70 [label="opponent_health <= 20.5\ngini = 0.498\nsamples = 81\nvalue = [38, 43]"] ;
52 -> 70 ;
71 [label="opponent_hand <= 6.5\ngini = 0.391\nsamples = 30\nvalue = [8, 22]"] ;
70 -> 71 ;
72 [label="opponent_health <= 19.5\ngini = 0.32\nsamples = 25\nvalue = [5, 20]"] ;
71 -> 72 ;
73 [label="opponent_health <= 18.5\ngini = 0.388\nsamples = 19\nvalue = [5, 14]"] ;
72 -> 73 ;
74 [label="my_health <= 22.5\ngini = 0.305\nsamples = 16\nvalue = [3, 13]"] ;
73 -> 74 ;
75 [label="my_hand <= 2.5\ngini = 0.42\nsamples = 10\nvalue = [3, 7]"] ;
74 -> 75 ;
76 [label="opponent_board_nb_creatures <= 0.5\ngini = 0.444\nsamples = 3\nvalue = [2, 1]"] ;
75 -> 76 ;
77 [label="my_board_total_health <= 3.5\ngini = 0.5\nsamples = 2\nvalue = [1, 1]"] ;
76 -> 77 ;
78 [label="gini = 0.0\nsamples = 1\nvalue = [0, 1]"] ;
77 -> 78 ;
79 [label="gini = 0.0\nsamples = 1\nvalue = [1, 0]"] ;
77 -> 79 ;
80 [label="gini = 0.0\nsamples = 1\nvalue = [1, 0]"] ;
76 -> 80 ;
81 [label="opponent_board_nb_creatures <= 1.5\ngini = 0.245\nsamples = 7\nvalue = [1, 6]"] ;
75 -> 81 ;
82 [label="gini = 0.0\nsamples = 6\nvalue = [0, 6]"] ;
81 -> 82 ;
83 [label="gini = 0.0\nsamples = 1\nvalue = [1, 0]"] ;
81 -> 83 ;
84 [label="gini = 0.0\nsamples = 6\nvalue = [0, 6]"] ;
74 -> 84 ;
85 [label="my_health <= 24.5\ngini = 0.444\nsamples = 3\nvalue = [2, 1]"] ;
73 -> 85 ;
86 [label="gini = 0.0\nsamples = 1\nvalue = [0, 1]"] ;
85 -> 86 ;
87 [label="gini = 0.0\nsamples = 2\nvalue = [2, 0]"] ;
85 -> 87 ;
88 [label="gini = 0.0\nsamples = 6\nvalue = [0, 6]"] ;
72 -> 88 ;
89 [label="opponent_board_nb_creatures <= 0.5\ngini = 0.48\nsamples = 5\nvalue = [3, 2]"] ;
71 -> 89 ;
90 [label="gini = 0.0\nsamples = 2\nvalue = [0, 2]"] ;
89 -> 90 ;
91 [label="gini = 0.0\nsamples = 3\nvalue = [3, 0]"] ;
89 -> 91 ;
92 [label="my_health <= 19.5\ngini = 0.484\nsamples = 51\nvalue = [30, 21]"] ;
70 -> 92 ;
93 [label="my_hand <= 5.5\ngini = 0.332\nsamples = 19\nvalue = [15, 4]"] ;
92 -> 93 ;
94 [label="gini = 0.0\nsamples = 13\nvalue = [13, 0]"] ;
93 -> 94 ;
95 [label="my_health <= 12.0\ngini = 0.444\nsamples = 6\nvalue = [2, 4]"] ;
93 -> 95 ;
96 [label="my_health <= 5.0\ngini = 0.444\nsamples = 3\nvalue = [2, 1]"] ;
95 -> 96 ;
97 [label="gini = 0.0\nsamples = 1\nvalue = [0, 1]"] ;
96 -> 97 ;
98 [label="gini = 0.0\nsamples = 2\nvalue = [2, 0]"] ;
96 -> 98 ;
99 [label="gini = 0.0\nsamples = 3\nvalue = [0, 3]"] ;
95 -> 99 ;
100 [label="my_health <= 21.5\ngini = 0.498\nsamples = 32\nvalue = [15, 17]"] ;
92 -> 100 ;
101 [label="gini = 0.0\nsamples = 5\nvalue = [0, 5]"] ;
100 -> 101 ;
102 [label="opponent_board_total_attack <= 2.5\ngini = 0.494\nsamples = 27\nvalue = [15, 12]"] ;
100 -> 102 ;
103 [label="my_hand <= 2.5\ngini = 0.484\nsamples = 17\nvalue = [7, 10]"] ;
102 -> 103 ;
104 [label="gini = 0.0\nsamples = 2\nvalue = [2, 0]"] ;
103 -> 104 ;
105 [label="opponent_board_nb_creatures <= 1.5\ngini = 0.444\nsamples = 15\nvalue = [5, 10]"] ;
103 -> 105 ;
106 [label="opponent_health <= 24.5\ngini = 0.408\nsamples = 14\nvalue = [4, 10]"] ;
105 -> 106 ;
107 [label="gini = 0.0\nsamples = 3\nvalue = [0, 3]"] ;
106 -> 107 ;
108 [label="opponent_hand <= 5.5\ngini = 0.463\nsamples = 11\nvalue = [4, 7]"] ;
106 -> 108 ;
109 [label="opponent_health <= 25.5\ngini = 0.5\nsamples = 8\nvalue = [4, 4]"] ;
108 -> 109 ;
110 [label="gini = 0.0\nsamples = 2\nvalue = [2, 0]"] ;
109 -> 110 ;
111 [label="my_board_total_health <= 3.5\ngini = 0.444\nsamples = 6\nvalue = [2, 4]"] ;
109 -> 111 ;
112 [label="opponent_health <= 28.0\ngini = 0.444\nsamples = 3\nvalue = [2, 1]"] ;
111 -> 112 ;
113 [label="gini = 0.0\nsamples = 1\nvalue = [0, 1]"] ;
112 -> 113 ;
114 [label="gini = 0.0\nsamples = 2\nvalue = [2, 0]"] ;
112 -> 114 ;
115 [label="gini = 0.0\nsamples = 3\nvalue = [0, 3]"] ;
111 -> 115 ;
116 [label="gini = 0.0\nsamples = 3\nvalue = [0, 3]"] ;
108 -> 116 ;
117 [label="gini = 0.0\nsamples = 1\nvalue = [1, 0]"] ;
105 -> 117 ;
118 [label="opponent_health <= 24.5\ngini = 0.32\nsamples = 10\nvalue = [8, 2]"] ;
102 -> 118 ;
119 [label="gini = 0.0\nsamples = 2\nvalue = [0, 2]"] ;
118 -> 119 ;
120 [label="gini = 0.0\nsamples = 8\nvalue = [8, 0]"] ;
118 -> 120 ;
121 [label="opponent_health <= 16.5\ngini = 0.316\nsamples = 382\nvalue = [307, 75]"] ;
1 -> 121 ;
122 [label="opponent_board_total_health <= 5.5\ngini = 0.451\nsamples = 102\nvalue = [67, 35]"] ;
121 -> 122 ;
123 [label="my_health <= 18.5\ngini = 0.42\nsamples = 20\nvalue = [6, 14]"] ;
122 -> 123 ;
124 [label="my_hand <= 0.5\ngini = 0.278\nsamples = 6\nvalue = [5, 1]"] ;
123 -> 124 ;
125 [label="gini = 0.0\nsamples = 1\nvalue = [0, 1]"] ;
124 -> 125 ;
126 [label="gini = 0.0\nsamples = 5\nvalue = [5, 0]"] ;
124 -> 126 ;
127 [label="my_board_total_health <= 5.5\ngini = 0.133\nsamples = 14\nvalue = [1, 13]"] ;
123 -> 127 ;
128 [label="gini = 0.0\nsamples = 13\nvalue = [0, 13]"] ;
127 -> 128 ;
129 [label="gini = 0.0\nsamples = 1\nvalue = [1, 0]"] ;
127 -> 129 ;
130 [label="my_board_total_health <= 2.5\ngini = 0.381\nsamples = 82\nvalue = [61, 21]"] ;
122 -> 130 ;
131 [label="opponent_health <= 5.5\ngini = 0.278\nsamples = 54\nvalue = [45, 9]"] ;
130 -> 131 ;
132 [label="my_hand <= 2.5\ngini = 0.444\nsamples = 6\nvalue = [2, 4]"] ;
131 -> 132 ;
133 [label="opponent_health <= 1.5\ngini = 0.444\nsamples = 3\nvalue = [2, 1]"] ;
132 -> 133 ;
134 [label="gini = 0.0\nsamples = 1\nvalue = [0, 1]"] ;
133 -> 134 ;
135 [label="gini = 0.0\nsamples = 2\nvalue = [2, 0]"] ;
133 -> 135 ;
136 [label="gini = 0.0\nsamples = 3\nvalue = [0, 3]"] ;
132 -> 136 ;
137 [label="opponent_hand <= 1.5\ngini = 0.187\nsamples = 48\nvalue = [43, 5]"] ;
131 -> 137 ;
138 [label="opponent_board_total_health <= 9.5\ngini = 0.49\nsamples = 7\nvalue = [4, 3]"] ;
137 -> 138 ;
139 [label="opponent_board_total_attack <= 7.0\ngini = 0.375\nsamples = 4\nvalue = [1, 3]"] ;
138 -> 139 ;
140 [label="gini = 0.0\nsamples = 1\nvalue = [1, 0]"] ;
139 -> 140 ;
141 [label="gini = 0.0\nsamples = 3\nvalue = [0, 3]"] ;
139 -> 141 ;
142 [label="gini = 0.0\nsamples = 3\nvalue = [3, 0]"] ;
138 -> 142 ;
143 [label="opponent_board_nb_creatures <= 1.5\ngini = 0.093\nsamples = 41\nvalue = [39, 2]"] ;
137 -> 143 ;
144 [label="me_playing <= 0.5\ngini = 0.5\nsamples = 2\nvalue = [1, 1]"] ;
143 -> 144 ;
145 [label="gini = 0.0\nsamples = 1\nvalue = [0, 1]"] ;
144 -> 145 ;
146 [label="gini = 0.0\nsamples = 1\nvalue = [1, 0]"] ;
144 -> 146 ;
147 [label="me_playing <= 0.5\ngini = 0.05\nsamples = 39\nvalue = [38, 1]"] ;
143 -> 147 ;
148 [label="gini = 0.0\nsamples = 36\nvalue = [36, 0]"] ;
147 -> 148 ;
149 [label="opponent_health <= 12.0\ngini = 0.444\nsamples = 3\nvalue = [2, 1]"] ;
147 -> 149 ;
150 [label="gini = 0.0\nsamples = 2\nvalue = [2, 0]"] ;
149 -> 150 ;
151 [label="gini = 0.0\nsamples = 1\nvalue = [0, 1]"] ;
149 -> 151 ;
152 [label="opponent_health <= 12.5\ngini = 0.49\nsamples = 28\nvalue = [16, 12]"] ;
130 -> 152 ;
153 [label="my_board_total_health <= 7.5\ngini = 0.375\nsamples = 16\nvalue = [12, 4]"] ;
152 -> 153 ;
154 [label="my_hand <= 1.5\ngini = 0.26\nsamples = 13\nvalue = [11, 2]"] ;
153 -> 154 ;
155 [label="gini = 0.0\nsamples = 1\nvalue = [0, 1]"] ;
154 -> 155 ;
156 [label="my_hand <= 6.5\ngini = 0.153\nsamples = 12\nvalue = [11, 1]"] ;
154 -> 156 ;
157 [label="gini = 0.0\nsamples = 11\nvalue = [11, 0]"] ;
156 -> 157 ;
158 [label="gini = 0.0\nsamples = 1\nvalue = [0, 1]"] ;
156 -> 158 ;
159 [label="my_board_total_attack <= 1.5\ngini = 0.444\nsamples = 3\nvalue = [1, 2]"] ;
153 -> 159 ;
160 [label="gini = 0.0\nsamples = 1\nvalue = [1, 0]"] ;
159 -> 160 ;
161 [label="gini = 0.0\nsamples = 2\nvalue = [0, 2]"] ;
159 -> 161 ;
162 [label="my_board_total_health <= 7.0\ngini = 0.444\nsamples = 12\nvalue = [4, 8]"] ;
152 -> 162 ;
163 [label="my_health <= 20.0\ngini = 0.32\nsamples = 10\nvalue = [2, 8]"] ;
162 -> 163 ;
164 [label="opponent_board_total_health <= 12.0\ngini = 0.48\nsamples = 5\nvalue = [2, 3]"] ;
163 -> 164 ;
165 [label="me_playing <= 0.5\ngini = 0.444\nsamples = 3\nvalue = [2, 1]"] ;
164 -> 165 ;
166 [label="gini = 0.0\nsamples = 2\nvalue = [2, 0]"] ;
165 -> 166 ;
167 [label="gini = 0.0\nsamples = 1\nvalue = [0, 1]"] ;
165 -> 167 ;
168 [label="gini = 0.0\nsamples = 2\nvalue = [0, 2]"] ;
164 -> 168 ;
169 [label="gini = 0.0\nsamples = 5\nvalue = [0, 5]"] ;
163 -> 169 ;
170 [label="gini = 0.0\nsamples = 2\nvalue = [2, 0]"] ;
162 -> 170 ;
171 [label="my_health <= 18.5\ngini = 0.245\nsamples = 280\nvalue = [240, 40]"] ;
121 -> 171 ;
172 [label="my_hand <= 8.5\ngini = 0.14\nsamples = 132\nvalue = [122, 10]"] ;
171 -> 172 ;
173 [label="my_board_total_health <= 6.5\ngini = 0.128\nsamples = 131\nvalue = [122, 9]"] ;
172 -> 173 ;
174 [label="my_board_total_attack <= 3.5\ngini = 0.094\nsamples = 122\nvalue = [116, 6]"] ;
173 -> 174 ;
175 [label="opponent_board_total_health <= 5.5\ngini = 0.059\nsamples = 99\nvalue = [96, 3]"] ;
174 -> 175 ;
176 [label="opponent_board_nb_creatures <= 4.5\ngini = 0.266\nsamples = 19\nvalue = [16, 3]"] ;
175 -> 176 ;
177 [label="my_board_nb_creatures <= 0.5\ngini = 0.198\nsamples = 18\nvalue = [16, 2]"] ;
176 -> 177 ;
178 [label="my_health <= 14.0\ngini = 0.375\nsamples = 8\nvalue = [6, 2]"] ;
177 -> 178 ;
179 [label="gini = 0.0\nsamples = 3\nvalue = [3, 0]"] ;
178 -> 179 ;
180 [label="opponent_board_total_attack <= 8.0\ngini = 0.48\nsamples = 5\nvalue = [3, 2]"] ;
178 -> 180 ;
181 [label="opponent_board_total_attack <= 5.5\ngini = 0.444\nsamples = 3\nvalue = [1, 2]"] ;
180 -> 181 ;
182 [label="gini = 0.0\nsamples = 1\nvalue = [1, 0]"] ;
181 -> 182 ;
183 [label="gini = 0.0\nsamples = 2\nvalue = [0, 2]"] ;
181 -> 183 ;
184 [label="gini = 0.0\nsamples = 2\nvalue = [2, 0]"] ;
180 -> 184 ;
185 [label="gini = 0.0\nsamples = 10\nvalue = [10, 0]"] ;
177 -> 185 ;
186 [label="gini = 0.0\nsamples = 1\nvalue = [0, 1]"] ;
176 -> 186 ;
187 [label="gini = 0.0\nsamples = 80\nvalue = [80, 0]"] ;
175 -> 187 ;
188 [label="my_hand <= 6.5\ngini = 0.227\nsamples = 23\nvalue = [20, 3]"] ;
174 -> 188 ;
189 [label="opponent_health <= 23.5\ngini = 0.165\nsamples = 22\nvalue = [20, 2]"] ;
188 -> 189 ;
190 [label="opponent_board_total_attack <= 10.5\ngini = 0.346\nsamples = 9\nvalue = [7, 2]"] ;
189 -> 190 ;
191 [label="my_board_total_health <= 4.5\ngini = 0.48\nsamples = 5\nvalue = [3, 2]"] ;
190 -> 191 ;
192 [label="gini = 0.0\nsamples = 3\nvalue = [3, 0]"] ;
191 -> 192 ;
193 [label="gini = 0.0\nsamples = 2\nvalue = [0, 2]"] ;
191 -> 193 ;
194 [label="gini = 0.0\nsamples = 4\nvalue = [4, 0]"] ;
190 -> 194 ;
195 [label="gini = 0.0\nsamples = 13\nvalue = [13, 0]"] ;
189 -> 195 ;
196 [label="gini = 0.0\nsamples = 1\nvalue = [0, 1]"] ;
188 -> 196 ;
197 [label="my_hand <= 5.5\ngini = 0.444\nsamples = 9\nvalue = [6, 3]"] ;
173 -> 197 ;
198 [label="gini = 0.0\nsamples = 6\nvalue = [6, 0]"] ;
197 -> 198 ;
199 [label="gini = 0.0\nsamples = 3\nvalue = [0, 3]"] ;
197 -> 199 ;
200 [label="gini = 0.0\nsamples = 1\nvalue = [0, 1]"] ;
172 -> 200 ;
201 [label="opponent_board_nb_creatures <= 1.5\ngini = 0.323\nsamples = 148\nvalue = [118, 30]"] ;
171 -> 201 ;
202 [label="my_hand <= 4.5\ngini = 0.49\nsamples = 21\nvalue = [12, 9]"] ;
201 -> 202 ;
203 [label="my_board_total_health <= 4.5\ngini = 0.375\nsamples = 16\nvalue = [12, 4]"] ;
202 -> 203 ;
204 [label="my_health <= 28.5\ngini = 0.165\nsamples = 11\nvalue = [10, 1]"] ;
203 -> 204 ;
205 [label="gini = 0.0\nsamples = 10\nvalue = [10, 0]"] ;
204 -> 205 ;
206 [label="gini = 0.0\nsamples = 1\nvalue = [0, 1]"] ;
204 -> 206 ;
207 [label="opponent_board_total_health <= 4.5\ngini = 0.48\nsamples = 5\nvalue = [2, 3]"] ;
203 -> 207 ;
208 [label="gini = 0.0\nsamples = 2\nvalue = [2, 0]"] ;
207 -> 208 ;
209 [label="gini = 0.0\nsamples = 3\nvalue = [0, 3]"] ;
207 -> 209 ;
210 [label="gini = 0.0\nsamples = 5\nvalue = [0, 5]"] ;
202 -> 210 ;
211 [label="my_board_total_attack <= 2.5\ngini = 0.276\nsamples = 127\nvalue = [106, 21]"] ;
201 -> 211 ;
212 [label="opponent_health <= 19.5\ngini = 0.207\nsamples = 94\nvalue = [83, 11]"] ;
211 -> 212 ;
213 [label="opponent_board_total_attack <= 8.0\ngini = 0.444\nsamples = 15\nvalue = [10, 5]"] ;
212 -> 213 ;
214 [label="opponent_board_total_health <= 6.5\ngini = 0.444\nsamples = 6\nvalue = [2, 4]"] ;
213 -> 214 ;
215 [label="gini = 0.0\nsamples = 3\nvalue = [0, 3]"] ;
214 -> 215 ;
216 [label="opponent_health <= 18.0\ngini = 0.444\nsamples = 3\nvalue = [2, 1]"] ;
214 -> 216 ;
217 [label="gini = 0.0\nsamples = 2\nvalue = [2, 0]"] ;
216 -> 217 ;
218 [label="gini = 0.0\nsamples = 1\nvalue = [0, 1]"] ;
216 -> 218 ;
219 [label="my_hand <= 6.5\ngini = 0.198\nsamples = 9\nvalue = [8, 1]"] ;
213 -> 219 ;
220 [label="gini = 0.0\nsamples = 8\nvalue = [8, 0]"] ;
219 -> 220 ;
221 [label="gini = 0.0\nsamples = 1\nvalue = [0, 1]"] ;
219 -> 221 ;
222 [label="opponent_board_total_attack <= 9.5\ngini = 0.14\nsamples = 79\nvalue = [73, 6]"] ;
212 -> 222 ;
223 [label="opponent_board_nb_creatures <= 2.5\ngini = 0.204\nsamples = 52\nvalue = [46, 6]"] ;
222 -> 223 ;
224 [label="gini = 0.0\nsamples = 21\nvalue = [21, 0]"] ;
223 -> 224 ;
225 [label="my_board_total_health <= 0.5\ngini = 0.312\nsamples = 31\nvalue = [25, 6]"] ;
223 -> 225 ;
226 [label="my_hand <= 3.0\ngini = 0.397\nsamples = 22\nvalue = [16, 6]"] ;
225 -> 226 ;
227 [label="gini = 0.0\nsamples = 1\nvalue = [0, 1]"] ;
226 -> 227 ;
228 [label="opponent_board_total_attack <= 6.5\ngini = 0.363\nsamples = 21\nvalue = [16, 5]"] ;
226 -> 228 ;
229 [label="opponent_health <= 28.5\ngini = 0.18\nsamples = 10\nvalue = [9, 1]"] ;
228 -> 229 ;
230 [label="gini = 0.0\nsamples = 8\nvalue = [8, 0]"] ;
229 -> 230 ;
231 [label="opponent_health <= 29.5\ngini = 0.5\nsamples = 2\nvalue = [1, 1]"] ;
229 -> 231 ;
232 [label="gini = 0.0\nsamples = 1\nvalue = [0, 1]"] ;
231 -> 232 ;
233 [label="gini = 0.0\nsamples = 1\nvalue = [1, 0]"] ;
231 -> 233 ;
234 [label="opponent_board_total_health <= 5.5\ngini = 0.463\nsamples = 11\nvalue = [7, 4]"] ;
228 -> 234 ;
235 [label="gini = 0.0\nsamples = 2\nvalue = [0, 2]"] ;
234 -> 235 ;
236 [label="my_hand <= 6.5\ngini = 0.346\nsamples = 9\nvalue = [7, 2]"] ;
234 -> 236 ;
237 [label="opponent_health <= 26.0\ngini = 0.219\nsamples = 8\nvalue = [7, 1]"] ;
236 -> 237 ;
238 [label="my_health <= 21.5\ngini = 0.444\nsamples = 3\nvalue = [2, 1]"] ;
237 -> 238 ;
239 [label="gini = 0.0\nsamples = 1\nvalue = [0, 1]"] ;
238 -> 239 ;
240 [label="gini = 0.0\nsamples = 2\nvalue = [2, 0]"] ;
238 -> 240 ;
241 [label="gini = 0.0\nsamples = 5\nvalue = [5, 0]"] ;
237 -> 241 ;
242 [label="gini = 0.0\nsamples = 1\nvalue = [0, 1]"] ;
236 -> 242 ;
243 [label="gini = 0.0\nsamples = 9\nvalue = [9, 0]"] ;
225 -> 243 ;
244 [label="gini = 0.0\nsamples = 27\nvalue = [27, 0]"] ;
222 -> 244 ;
245 [label="opponent_hand <= 1.5\ngini = 0.422\nsamples = 33\nvalue = [23, 10]"] ;
211 -> 245 ;
246 [label="gini = 0.0\nsamples = 2\nvalue = [0, 2]"] ;
245 -> 246 ;
247 [label="opponent_health <= 25.5\ngini = 0.383\nsamples = 31\nvalue = [23, 8]"] ;
245 -> 247 ;
248 [label="my_board_total_attack <= 3.5\ngini = 0.497\nsamples = 13\nvalue = [7, 6]"] ;
247 -> 248 ;
249 [label="gini = 0.0\nsamples = 3\nvalue = [0, 3]"] ;
248 -> 249 ;
250 [label="my_health <= 23.5\ngini = 0.42\nsamples = 10\nvalue = [7, 3]"] ;
248 -> 250 ;
251 [label="gini = 0.0\nsamples = 4\nvalue = [4, 0]"] ;
250 -> 251 ;
252 [label="opponent_board_nb_creatures <= 4.0\ngini = 0.5\nsamples = 6\nvalue = [3, 3]"] ;
250 -> 252 ;
253 [label="opponent_board_total_attack <= 7.5\ngini = 0.375\nsamples = 4\nvalue = [1, 3]"] ;
252 -> 253 ;
254 [label="gini = 0.0\nsamples = 1\nvalue = [1, 0]"] ;
253 -> 254 ;
255 [label="gini = 0.0\nsamples = 3\nvalue = [0, 3]"] ;
253 -> 255 ;
256 [label="gini = 0.0\nsamples = 2\nvalue = [2, 0]"] ;
252 -> 256 ;
257 [label="my_board_total_attack <= 7.0\ngini = 0.198\nsamples = 18\nvalue = [16, 2]"] ;
247 -> 257 ;
258 [label="opponent_board_total_attack <= 13.5\ngini = 0.111\nsamples = 17\nvalue = [16, 1]"] ;
257 -> 258 ;
259 [label="gini = 0.0\nsamples = 14\nvalue = [14, 0]"] ;
258 -> 259 ;
260 [label="opponent_health <= 28.5\ngini = 0.444\nsamples = 3\nvalue = [2, 1]"] ;
258 -> 260 ;
261 [label="gini = 0.0\nsamples = 2\nvalue = [2, 0]"] ;
260 -> 261 ;
262 [label="gini = 0.0\nsamples = 1\nvalue = [0, 1]"] ;
260 -> 262 ;
263 [label="gini = 0.0\nsamples = 1\nvalue = [0, 1]"] ;
257 -> 263 ;
264 [label="opponent_board_nb_creatures <= 1.5\ngini = 0.391\nsamples = 813\nvalue = [217, 596]"] ;
0 -> 264 [labeldistance=2.5, labelangle=-45, headlabel="False"] ;
265 [label="my_board_total_attack <= 3.5\ngini = 0.26\nsamples = 520\nvalue = [80, 440]"] ;
264 -> 265 ;
266 [label="my_health <= 18.5\ngini = 0.5\nsamples = 33\nvalue = [17, 16]"] ;
265 -> 266 ;
267 [label="opponent_board_total_health <= 0.5\ngini = 0.298\nsamples = 11\nvalue = [9, 2]"] ;
266 -> 267 ;
268 [label="opponent_health <= 7.5\ngini = 0.5\nsamples = 4\nvalue = [2, 2]"] ;
267 -> 268 ;
269 [label="gini = 0.0\nsamples = 2\nvalue = [2, 0]"] ;
268 -> 269 ;
270 [label="gini = 0.0\nsamples = 2\nvalue = [0, 2]"] ;
268 -> 270 ;
271 [label="gini = 0.0\nsamples = 7\nvalue = [7, 0]"] ;
267 -> 271 ;
272 [label="my_board_total_health <= 2.5\ngini = 0.463\nsamples = 22\nvalue = [8, 14]"] ;
266 -> 272 ;
273 [label="gini = 0.0\nsamples = 5\nvalue = [0, 5]"] ;
272 -> 273 ;
274 [label="my_hand <= 2.0\ngini = 0.498\nsamples = 17\nvalue = [8, 9]"] ;
272 -> 274 ;
275 [label="gini = 0.0\nsamples = 3\nvalue = [3, 0]"] ;
274 -> 275 ;
276 [label="opponent_board_total_health <= 3.5\ngini = 0.459\nsamples = 14\nvalue = [5, 9]"] ;
274 -> 276 ;
277 [label="opponent_board_total_attack <= 2.5\ngini = 0.426\nsamples = 13\nvalue = [4, 9]"] ;
276 -> 277 ;
278 [label="my_health <= 27.0\ngini = 0.463\nsamples = 11\nvalue = [4, 7]"] ;
277 -> 278 ;
279 [label="opponent_hand <= 3.5\ngini = 0.48\nsamples = 5\nvalue = [3, 2]"] ;
278 -> 279 ;
280 [label="my_board_total_health <= 5.0\ngini = 0.444\nsamples = 3\nvalue = [1, 2]"] ;
279 -> 280 ;
281 [label="gini = 0.0\nsamples = 2\nvalue = [0, 2]"] ;
280 -> 281 ;
282 [label="gini = 0.0\nsamples = 1\nvalue = [1, 0]"] ;
280 -> 282 ;
283 [label="gini = 0.0\nsamples = 2\nvalue = [2, 0]"] ;
279 -> 283 ;
284 [label="opponent_hand <= 3.5\ngini = 0.278\nsamples = 6\nvalue = [1, 5]"] ;
278 -> 284 ;
285 [label="gini = 0.0\nsamples = 1\nvalue = [1, 0]"] ;
284 -> 285 ;
286 [label="gini = 0.0\nsamples = 5\nvalue = [0, 5]"] ;
284 -> 286 ;
287 [label="gini = 0.0\nsamples = 2\nvalue = [0, 2]"] ;
277 -> 287 ;
288 [label="gini = 0.0\nsamples = 1\nvalue = [1, 0]"] ;
276 -> 288 ;
289 [label="opponent_board_total_health <= 4.5\ngini = 0.225\nsamples = 487\nvalue = [63, 424]"] ;
265 -> 289 ;
290 [label="my_hand <= 0.5\ngini = 0.17\nsamples = 406\nvalue = [38, 368]"] ;
289 -> 290 ;
291 [label="my_board_total_health <= 8.5\ngini = 0.469\nsamples = 8\nvalue = [5, 3]"] ;
290 -> 291 ;
292 [label="opponent_hand <= 4.5\ngini = 0.375\nsamples = 4\nvalue = [1, 3]"] ;
291 -> 292 ;
293 [label="gini = 0.0\nsamples = 3\nvalue = [0, 3]"] ;
292 -> 293 ;
294 [label="gini = 0.0\nsamples = 1\nvalue = [1, 0]"] ;
292 -> 294 ;
295 [label="gini = 0.0\nsamples = 4\nvalue = [4, 0]"] ;
291 -> 295 ;
296 [label="my_health <= 14.5\ngini = 0.152\nsamples = 398\nvalue = [33, 365]"] ;
290 -> 296 ;
297 [label="my_board_total_attack <= 6.5\ngini = 0.352\nsamples = 57\nvalue = [13, 44]"] ;
296 -> 297 ;
298 [label="opponent_hand <= 2.5\ngini = 0.494\nsamples = 18\nvalue = [10, 8]"] ;
297 -> 298 ;
299 [label="my_hand <= 5.5\ngini = 0.463\nsamples = 11\nvalue = [4, 7]"] ;
298 -> 299 ;
300 [label="my_board_total_attack <= 4.5\ngini = 0.346\nsamples = 9\nvalue = [2, 7]"] ;
299 -> 300 ;
301 [label="gini = 0.0\nsamples = 1\nvalue = [1, 0]"] ;
300 -> 301 ;
302 [label="opponent_board_total_health <= 3.5\ngini = 0.219\nsamples = 8\nvalue = [1, 7]"] ;
300 -> 302 ;
303 [label="gini = 0.0\nsamples = 7\nvalue = [0, 7]"] ;
302 -> 303 ;
304 [label="gini = 0.0\nsamples = 1\nvalue = [1, 0]"] ;
302 -> 304 ;
305 [label="gini = 0.0\nsamples = 2\nvalue = [2, 0]"] ;
299 -> 305 ;
306 [label="my_hand <= 6.0\ngini = 0.245\nsamples = 7\nvalue = [6, 1]"] ;
298 -> 306 ;
307 [label="gini = 0.0\nsamples = 6\nvalue = [6, 0]"] ;
306 -> 307 ;
308 [label="gini = 0.0\nsamples = 1\nvalue = [0, 1]"] ;
306 -> 308 ;
309 [label="my_board_total_health <= 3.5\ngini = 0.142\nsamples = 39\nvalue = [3, 36]"] ;
297 -> 309 ;
310 [label="gini = 0.0\nsamples = 1\nvalue = [1, 0]"] ;
309 -> 310 ;
311 [label="opponent_health <= 4.5\ngini = 0.1\nsamples = 38\nvalue = [2, 36]"] ;
309 -> 311 ;
312 [label="gini = 0.0\nsamples = 1\nvalue = [1, 0]"] ;
311 -> 312 ;
313 [label="opponent_health <= 26.5\ngini = 0.053\nsamples = 37\nvalue = [1, 36]"] ;
311 -> 313 ;
314 [label="gini = 0.0\nsamples = 31\nvalue = [0, 31]"] ;
313 -> 314 ;
315 [label="my_health <= 12.0\ngini = 0.278\nsamples = 6\nvalue = [1, 5]"] ;
313 -> 315 ;
316 [label="gini = 0.0\nsamples = 4\nvalue = [0, 4]"] ;
315 -> 316 ;
317 [label="opponent_board_total_health <= 2.0\ngini = 0.5\nsamples = 2\nvalue = [1, 1]"] ;
315 -> 317 ;
318 [label="gini = 0.0\nsamples = 1\nvalue = [1, 0]"] ;
317 -> 318 ;
319 [label="gini = 0.0\nsamples = 1\nvalue = [0, 1]"] ;
317 -> 319 ;
320 [label="opponent_board_total_attack <= 9.0\ngini = 0.11\nsamples = 341\nvalue = [20, 321]"] ;
296 -> 320 ;
321 [label="opponent_health <= 28.5\ngini = 0.106\nsamples = 340\nvalue = [19, 321]"] ;
320 -> 321 ;
322 [label="my_board_total_attack <= 18.5\ngini = 0.088\nsamples = 325\nvalue = [15, 310]"] ;
321 -> 322 ;
323 [label="opponent_board_total_health <= 3.5\ngini = 0.078\nsamples = 319\nvalue = [13, 306]"] ;
322 -> 323 ;
324 [label="my_board_total_health <= 7.5\ngini = 0.054\nsamples = 289\nvalue = [8, 281]"] ;
323 -> 324 ;
325 [label="my_health <= 15.5\ngini = 0.116\nsamples = 130\nvalue = [8, 122]"] ;
324 -> 325 ;
326 [label="my_board_total_health <= 6.5\ngini = 0.408\nsamples = 7\nvalue = [2, 5]"] ;
325 -> 326 ;
327 [label="my_hand <= 2.5\ngini = 0.278\nsamples = 6\nvalue = [1, 5]"] ;
326 -> 327 ;
328 [label="gini = 0.0\nsamples = 1\nvalue = [1, 0]"] ;
327 -> 328 ;
329 [label="gini = 0.0\nsamples = 5\nvalue = [0, 5]"] ;
327 -> 329 ;
330 [label="gini = 0.0\nsamples = 1\nvalue = [1, 0]"] ;
326 -> 330 ;
331 [label="opponent_health <= 20.5\ngini = 0.093\nsamples = 123\nvalue = [6, 117]"] ;
325 -> 331 ;
332 [label="opponent_health <= 5.0\ngini = 0.026\nsamples = 77\nvalue = [1, 76]"] ;
331 -> 332 ;
333 [label="opponent_hand <= 3.5\ngini = 0.444\nsamples = 3\nvalue = [1, 2]"] ;
332 -> 333 ;
334 [label="gini = 0.0\nsamples = 1\nvalue = [1, 0]"] ;
333 -> 334 ;
335 [label="gini = 0.0\nsamples = 2\nvalue = [0, 2]"] ;
333 -> 335 ;
336 [label="gini = 0.0\nsamples = 74\nvalue = [0, 74]"] ;
332 -> 336 ;
337 [label="my_board_total_attack <= 11.5\ngini = 0.194\nsamples = 46\nvalue = [5, 41]"] ;
331 -> 337 ;
338 [label="my_board_total_attack <= 5.5\ngini = 0.162\nsamples = 45\nvalue = [4, 41]"] ;
337 -> 338 ;
339 [label="gini = 0.0\nsamples = 18\nvalue = [0, 18]"] ;
338 -> 339 ;
340 [label="opponent_board_total_health <= 1.5\ngini = 0.252\nsamples = 27\nvalue = [4, 23]"] ;
338 -> 340 ;
341 [label="my_board_total_health <= 5.5\ngini = 0.165\nsamples = 22\nvalue = [2, 20]"] ;
340 -> 341 ;
342 [label="gini = 0.0\nsamples = 11\nvalue = [0, 11]"] ;
341 -> 342 ;
343 [label="my_health <= 25.0\ngini = 0.298\nsamples = 11\nvalue = [2, 9]"] ;
341 -> 343 ;
344 [label="gini = 0.0\nsamples = 5\nvalue = [0, 5]"] ;
343 -> 344 ;
345 [label="opponent_health <= 23.5\ngini = 0.444\nsamples = 6\nvalue = [2, 4]"] ;
343 -> 345 ;
346 [label="my_board_total_attack <= 8.5\ngini = 0.32\nsamples = 5\nvalue = [1, 4]"] ;
345 -> 346 ;
347 [label="gini = 0.0\nsamples = 3\nvalue = [0, 3]"] ;
346 -> 347 ;
348 [label="opponent_hand <= 5.5\ngini = 0.5\nsamples = 2\nvalue = [1, 1]"] ;
346 -> 348 ;
349 [label="gini = 0.0\nsamples = 1\nvalue = [0, 1]"] ;
348 -> 349 ;
350 [label="gini = 0.0\nsamples = 1\nvalue = [1, 0]"] ;
348 -> 350 ;
351 [label="gini = 0.0\nsamples = 1\nvalue = [1, 0]"] ;
345 -> 351 ;
352 [label="opponent_board_total_health <= 2.5\ngini = 0.48\nsamples = 5\nvalue = [2, 3]"] ;
340 -> 352 ;
353 [label="opponent_health <= 23.5\ngini = 0.444\nsamples = 3\nvalue = [2, 1]"] ;
352 -> 353 ;
354 [label="gini = 0.0\nsamples = 2\nvalue = [2, 0]"] ;
353 -> 354 ;
355 [label="gini = 0.0\nsamples = 1\nvalue = [0, 1]"] ;
353 -> 355 ;
356 [label="gini = 0.0\nsamples = 2\nvalue = [0, 2]"] ;
352 -> 356 ;
357 [label="gini = 0.0\nsamples = 1\nvalue = [1, 0]"] ;
337 -> 357 ;
358 [label="gini = 0.0\nsamples = 159\nvalue = [0, 159]"] ;
324 -> 358 ;
359 [label="my_health <= 22.5\ngini = 0.278\nsamples = 30\nvalue = [5, 25]"] ;
323 -> 359 ;
360 [label="opponent_hand <= 5.5\ngini = 0.486\nsamples = 12\nvalue = [5, 7]"] ;
359 -> 360 ;
361 [label="my_hand <= 2.5\ngini = 0.346\nsamples = 9\nvalue = [2, 7]"] ;
360 -> 361 ;
362 [label="gini = 0.0\nsamples = 1\nvalue = [1, 0]"] ;
361 -> 362 ;
363 [label="opponent_hand <= 2.0\ngini = 0.219\nsamples = 8\nvalue = [1, 7]"] ;
361 -> 363 ;
364 [label="gini = 0.0\nsamples = 1\nvalue = [1, 0]"] ;
363 -> 364 ;
365 [label="gini = 0.0\nsamples = 7\nvalue = [0, 7]"] ;
363 -> 365 ;
366 [label="gini = 0.0\nsamples = 3\nvalue = [3, 0]"] ;
360 -> 366 ;
367 [label="gini = 0.0\nsamples = 18\nvalue = [0, 18]"] ;
359 -> 367 ;
368 [label="my_board_total_health <= 16.0\ngini = 0.444\nsamples = 6\nvalue = [2, 4]"] ;
322 -> 368 ;
369 [label="gini = 0.0\nsamples = 2\nvalue = [2, 0]"] ;
368 -> 369 ;
370 [label="gini = 0.0\nsamples = 4\nvalue = [0, 4]"] ;
368 -> 370 ;
371 [label="opponent_health <= 29.5\ngini = 0.391\nsamples = 15\nvalue = [4, 11]"] ;
321 -> 371 ;
372 [label="gini = 0.0\nsamples = 2\nvalue = [2, 0]"] ;
371 -> 372 ;
373 [label="my_hand <= 7.5\ngini = 0.26\nsamples = 13\nvalue = [2, 11]"] ;
371 -> 373 ;
374 [label="opponent_board_total_attack <= 2.5\ngini = 0.153\nsamples = 12\nvalue = [1, 11]"] ;
373 -> 374 ;
375 [label="gini = 0.0\nsamples = 9\nvalue = [0, 9]"] ;
374 -> 375 ;
376 [label="my_health <= 28.5\ngini = 0.444\nsamples = 3\nvalue = [1, 2]"] ;
374 -> 376 ;
377 [label="gini = 0.0\nsamples = 1\nvalue = [1, 0]"] ;
376 -> 377 ;
378 [label="gini = 0.0\nsamples = 2\nvalue = [0, 2]"] ;
376 -> 378 ;
379 [label="gini = 0.0\nsamples = 1\nvalue = [1, 0]"] ;
373 -> 379 ;
380 [label="gini = 0.0\nsamples = 1\nvalue = [1, 0]"] ;
320 -> 380 ;
381 [label="my_board_total_health <= 21.0\ngini = 0.427\nsamples = 81\nvalue = [25, 56]"] ;
289 -> 381 ;
382 [label="my_health <= 16.5\ngini = 0.405\nsamples = 78\nvalue = [22, 56]"] ;
381 -> 382 ;
383 [label="opponent_hand <= 3.5\ngini = 0.486\nsamples = 12\nvalue = [7, 5]"] ;
382 -> 383 ;
384 [label="my_hand <= 2.5\ngini = 0.469\nsamples = 8\nvalue = [3, 5]"] ;
383 -> 384 ;
385 [label="my_health <= 14.0\ngini = 0.375\nsamples = 4\nvalue = [3, 1]"] ;
384 -> 385 ;
386 [label="gini = 0.0\nsamples = 1\nvalue = [0, 1]"] ;
385 -> 386 ;
387 [label="gini = 0.0\nsamples = 3\nvalue = [3, 0]"] ;
385 -> 387 ;
388 [label="gini = 0.0\nsamples = 4\nvalue = [0, 4]"] ;
384 -> 388 ;
389 [label="gini = 0.0\nsamples = 4\nvalue = [4, 0]"] ;
383 -> 389 ;
390 [label="my_hand <= 2.5\ngini = 0.351\nsamples = 66\nvalue = [15, 51]"] ;
382 -> 390 ;
391 [label="gini = 0.0\nsamples = 15\nvalue = [0, 15]"] ;
390 -> 391 ;
392 [label="my_board_total_attack <= 8.5\ngini = 0.415\nsamples = 51\nvalue = [15, 36]"] ;
390 -> 392 ;
393 [label="opponent_hand <= 6.5\ngini = 0.497\nsamples = 24\nvalue = [11, 13]"] ;
392 -> 393 ;
394 [label="me_playing <= 0.5\ngini = 0.415\nsamples = 17\nvalue = [5, 12]"] ;
393 -> 394 ;
395 [label="gini = 0.0\nsamples = 9\nvalue = [0, 9]"] ;
394 -> 395 ;
396 [label="opponent_health <= 19.5\ngini = 0.469\nsamples = 8\nvalue = [5, 3]"] ;
394 -> 396 ;
397 [label="opponent_board_total_health <= 6.0\ngini = 0.375\nsamples = 4\nvalue = [1, 3]"] ;
396 -> 397 ;
398 [label="gini = 0.0\nsamples = 1\nvalue = [1, 0]"] ;
397 -> 398 ;
399 [label="gini = 0.0\nsamples = 3\nvalue = [0, 3]"] ;
397 -> 399 ;
400 [label="gini = 0.0\nsamples = 4\nvalue = [4, 0]"] ;
396 -> 400 ;
401 [label="my_board_total_attack <= 7.5\ngini = 0.245\nsamples = 7\nvalue = [6, 1]"] ;
393 -> 401 ;
402 [label="gini = 0.0\nsamples = 5\nvalue = [5, 0]"] ;
401 -> 402 ;
403 [label="my_health <= 25.5\ngini = 0.5\nsamples = 2\nvalue = [1, 1]"] ;
401 -> 403 ;
404 [label="gini = 0.0\nsamples = 1\nvalue = [1, 0]"] ;
403 -> 404 ;
405 [label="gini = 0.0\nsamples = 1\nvalue = [0, 1]"] ;
403 -> 405 ;
406 [label="my_health <= 24.5\ngini = 0.252\nsamples = 27\nvalue = [4, 23]"] ;
392 -> 406 ;
407 [label="opponent_board_total_health <= 7.5\ngini = 0.444\nsamples = 9\nvalue = [3, 6]"] ;
406 -> 407 ;
408 [label="my_health <= 21.5\ngini = 0.48\nsamples = 5\nvalue = [3, 2]"] ;
407 -> 408 ;
409 [label="gini = 0.0\nsamples = 2\nvalue = [2, 0]"] ;
408 -> 409 ;
410 [label="my_board_nb_creatures <= 2.5\ngini = 0.444\nsamples = 3\nvalue = [1, 2]"] ;
408 -> 410 ;
411 [label="gini = 0.0\nsamples = 1\nvalue = [1, 0]"] ;
410 -> 411 ;
412 [label="gini = 0.0\nsamples = 2\nvalue = [0, 2]"] ;
410 -> 412 ;
413 [label="gini = 0.0\nsamples = 4\nvalue = [0, 4]"] ;
407 -> 413 ;
414 [label="opponent_health <= 12.0\ngini = 0.105\nsamples = 18\nvalue = [1, 17]"] ;
406 -> 414 ;
415 [label="me_playing <= 0.5\ngini = 0.444\nsamples = 3\nvalue = [1, 2]"] ;
414 -> 415 ;
416 [label="gini = 0.0\nsamples = 1\nvalue = [1, 0]"] ;
415 -> 416 ;
417 [label="gini = 0.0\nsamples = 2\nvalue = [0, 2]"] ;
415 -> 417 ;
418 [label="gini = 0.0\nsamples = 15\nvalue = [0, 15]"] ;
414 -> 418 ;
419 [label="gini = 0.0\nsamples = 3\nvalue = [3, 0]"] ;
381 -> 419 ;
420 [label="my_health <= 20.5\ngini = 0.498\nsamples = 293\nvalue = [137, 156]"] ;
264 -> 420 ;
421 [label="my_board_nb_creatures <= 2.5\ngini = 0.462\nsamples = 138\nvalue = [88, 50]"] ;
420 -> 421 ;
422 [label="opponent_hand <= 0.5\ngini = 0.327\nsamples = 68\nvalue = [54, 14]"] ;
421 -> 422 ;
423 [label="opponent_board_nb_creatures <= 2.5\ngini = 0.5\nsamples = 8\nvalue = [4, 4]"] ;
422 -> 423 ;
424 [label="my_hand <= 1.5\ngini = 0.32\nsamples = 5\nvalue = [1, 4]"] ;
423 -> 424 ;
425 [label="gini = 0.0\nsamples = 1\nvalue = [1, 0]"] ;
424 -> 425 ;
426 [label="gini = 0.0\nsamples = 4\nvalue = [0, 4]"] ;
424 -> 426 ;
427 [label="gini = 0.0\nsamples = 3\nvalue = [3, 0]"] ;
423 -> 427 ;
428 [label="opponent_board_total_attack <= 15.0\ngini = 0.278\nsamples = 60\nvalue = [50, 10]"] ;
422 -> 428 ;
429 [label="my_hand <= 6.5\ngini = 0.208\nsamples = 51\nvalue = [45, 6]"] ;
428 -> 429 ;
430 [label="my_board_total_attack <= 6.5\ngini = 0.13\nsamples = 43\nvalue = [40, 3]"] ;
429 -> 430 ;
431 [label="opponent_board_total_attack <= 13.5\ngini = 0.245\nsamples = 21\nvalue = [18, 3]"] ;
430 -> 431 ;
432 [label="opponent_hand <= 2.5\ngini = 0.18\nsamples = 20\nvalue = [18, 2]"] ;
431 -> 432 ;
433 [label="opponent_board_total_attack <= 3.5\ngini = 0.408\nsamples = 7\nvalue = [5, 2]"] ;
432 -> 433 ;
434 [label="gini = 0.0\nsamples = 1\nvalue = [0, 1]"] ;
433 -> 434 ;
435 [label="opponent_health <= 27.5\ngini = 0.278\nsamples = 6\nvalue = [5, 1]"] ;
433 -> 435 ;
436 [label="gini = 0.0\nsamples = 4\nvalue = [4, 0]"] ;
435 -> 436 ;
437 [label="me_playing <= 0.5\ngini = 0.5\nsamples = 2\nvalue = [1, 1]"] ;
435 -> 437 ;
438 [label="gini = 0.0\nsamples = 1\nvalue = [1, 0]"] ;
437 -> 438 ;
439 [label="gini = 0.0\nsamples = 1\nvalue = [0, 1]"] ;
437 -> 439 ;
440 [label="gini = 0.0\nsamples = 13\nvalue = [13, 0]"] ;
432 -> 440 ;
441 [label="gini = 0.0\nsamples = 1\nvalue = [0, 1]"] ;
431 -> 441 ;
442 [label="gini = 0.0\nsamples = 22\nvalue = [22, 0]"] ;
430 -> 442 ;
443 [label="opponent_health <= 22.5\ngini = 0.469\nsamples = 8\nvalue = [5, 3]"] ;
429 -> 443 ;
444 [label="gini = 0.0\nsamples = 2\nvalue = [0, 2]"] ;
443 -> 444 ;
445 [label="my_board_total_health <= 10.5\ngini = 0.278\nsamples = 6\nvalue = [5, 1]"] ;
443 -> 445 ;
446 [label="gini = 0.0\nsamples = 5\nvalue = [5, 0]"] ;
445 -> 446 ;
447 [label="gini = 0.0\nsamples = 1\nvalue = [0, 1]"] ;
445 -> 447 ;
448 [label="my_board_total_health <= 7.5\ngini = 0.494\nsamples = 9\nvalue = [5, 4]"] ;
428 -> 448 ;
449 [label="gini = 0.0\nsamples = 4\nvalue = [4, 0]"] ;
448 -> 449 ;
450 [label="my_board_total_health <= 12.5\ngini = 0.32\nsamples = 5\nvalue = [1, 4]"] ;
448 -> 450 ;
451 [label="gini = 0.0\nsamples = 4\nvalue = [0, 4]"] ;
450 -> 451 ;
452 [label="gini = 0.0\nsamples = 1\nvalue = [1, 0]"] ;
450 -> 452 ;
453 [label="opponent_hand <= 1.5\ngini = 0.5\nsamples = 70\nvalue = [34, 36]"] ;
421 -> 453 ;
454 [label="my_board_total_attack <= 2.5\ngini = 0.355\nsamples = 26\nvalue = [6, 20]"] ;
453 -> 454 ;
455 [label="gini = 0.0\nsamples = 2\nvalue = [2, 0]"] ;
454 -> 455 ;
456 [label="my_board_total_health <= 12.5\ngini = 0.278\nsamples = 24\nvalue = [4, 20]"] ;
454 -> 456 ;
457 [label="my_health <= 10.5\ngini = 0.095\nsamples = 20\nvalue = [1, 19]"] ;
456 -> 457 ;
458 [label="opponent_board_nb_creatures <= 2.5\ngini = 0.375\nsamples = 4\nvalue = [1, 3]"] ;
457 -> 458 ;
459 [label="gini = 0.0\nsamples = 1\nvalue = [1, 0]"] ;
458 -> 459 ;
460 [label="gini = 0.0\nsamples = 3\nvalue = [0, 3]"] ;
458 -> 460 ;
461 [label="gini = 0.0\nsamples = 16\nvalue = [0, 16]"] ;
457 -> 461 ;
462 [label="my_board_total_attack <= 13.5\ngini = 0.375\nsamples = 4\nvalue = [3, 1]"] ;
456 -> 462 ;
463 [label="gini = 0.0\nsamples = 3\nvalue = [3, 0]"] ;
462 -> 463 ;
464 [label="gini = 0.0\nsamples = 1\nvalue = [0, 1]"] ;
462 -> 464 ;
465 [label="my_hand <= 3.5\ngini = 0.463\nsamples = 44\nvalue = [28, 16]"] ;
453 -> 465 ;
466 [label="my_board_total_health <= 6.5\ngini = 0.484\nsamples = 17\nvalue = [7, 10]"] ;
465 -> 466 ;
467 [label="gini = 0.0\nsamples = 4\nvalue = [4, 0]"] ;
466 -> 467 ;
468 [label="my_board_total_attack <= 11.0\ngini = 0.355\nsamples = 13\nvalue = [3, 10]"] ;
466 -> 468 ;
469 [label="gini = 0.0\nsamples = 8\nvalue = [0, 8]"] ;
468 -> 469 ;
470 [label="opponent_board_total_health <= 7.5\ngini = 0.48\nsamples = 5\nvalue = [3, 2]"] ;
468 -> 470 ;
471 [label="gini = 0.0\nsamples = 2\nvalue = [0, 2]"] ;
470 -> 471 ;
472 [label="gini = 0.0\nsamples = 3\nvalue = [3, 0]"] ;
470 -> 472 ;
473 [label="me_playing <= 0.5\ngini = 0.346\nsamples = 27\nvalue = [21, 6]"] ;
465 -> 473 ;
474 [label="my_board_total_attack <= 10.0\ngini = 0.111\nsamples = 17\nvalue = [16, 1]"] ;
473 -> 474 ;
475 [label="gini = 0.0\nsamples = 16\nvalue = [16, 0]"] ;
474 -> 475 ;
476 [label="gini = 0.0\nsamples = 1\nvalue = [0, 1]"] ;
474 -> 476 ;
477 [label="my_health <= 15.0\ngini = 0.5\nsamples = 10\nvalue = [5, 5]"] ;
473 -> 477 ;
478 [label="gini = 0.0\nsamples = 4\nvalue = [0, 4]"] ;
477 -> 478 ;
479 [label="opponent_board_total_attack <= 5.0\ngini = 0.278\nsamples = 6\nvalue = [5, 1]"] ;
477 -> 479 ;
480 [label="my_health <= 17.0\ngini = 0.5\nsamples = 2\nvalue = [1, 1]"] ;
479 -> 480 ;
481 [label="gini = 0.0\nsamples = 1\nvalue = [1, 0]"] ;
480 -> 481 ;
482 [label="gini = 0.0\nsamples = 1\nvalue = [0, 1]"] ;
480 -> 482 ;
483 [label="gini = 0.0\nsamples = 4\nvalue = [4, 0]"] ;
479 -> 483 ;
484 [label="me_playing <= 0.5\ngini = 0.432\nsamples = 155\nvalue = [49, 106]"] ;
420 -> 484 ;
485 [label="opponent_board_total_health <= 15.5\ngini = 0.259\nsamples = 72\nvalue = [11, 61]"] ;
484 -> 485 ;
486 [label="opponent_hand <= 5.5\ngini = 0.185\nsamples = 68\nvalue = [7, 61]"] ;
485 -> 486 ;
487 [label="opponent_board_total_attack <= 15.5\ngini = 0.095\nsamples = 60\nvalue = [3, 57]"] ;
486 -> 487 ;
488 [label="my_board_total_attack <= 5.5\ngini = 0.065\nsamples = 59\nvalue = [2, 57]"] ;
487 -> 488 ;
489 [label="opponent_board_total_attack <= 8.5\ngini = 0.165\nsamples = 22\nvalue = [2, 20]"] ;
488 -> 489 ;
490 [label="gini = 0.0\nsamples = 16\nvalue = [0, 16]"] ;
489 -> 490 ;
491 [label="opponent_hand <= 3.5\ngini = 0.444\nsamples = 6\nvalue = [2, 4]"] ;
489 -> 491 ;
492 [label="gini = 0.0\nsamples = 4\nvalue = [0, 4]"] ;
491 -> 492 ;
493 [label="gini = 0.0\nsamples = 2\nvalue = [2, 0]"] ;
491 -> 493 ;
494 [label="gini = 0.0\nsamples = 37\nvalue = [0, 37]"] ;
488 -> 494 ;
495 [label="gini = 0.0\nsamples = 1\nvalue = [1, 0]"] ;
487 -> 495 ;
496 [label="opponent_health <= 23.5\ngini = 0.5\nsamples = 8\nvalue = [4, 4]"] ;
486 -> 496 ;
497 [label="opponent_board_nb_creatures <= 2.5\ngini = 0.444\nsamples = 6\nvalue = [4, 2]"] ;
496 -> 497 ;
498 [label="opponent_board_total_health <= 3.5\ngini = 0.32\nsamples = 5\nvalue = [4, 1]"] ;
497 -> 498 ;
499 [label="gini = 0.0\nsamples = 1\nvalue = [0, 1]"] ;
498 -> 499 ;
500 [label="gini = 0.0\nsamples = 4\nvalue = [4, 0]"] ;
498 -> 500 ;
501 [label="gini = 0.0\nsamples = 1\nvalue = [0, 1]"] ;
497 -> 501 ;
502 [label="gini = 0.0\nsamples = 2\nvalue = [0, 2]"] ;
496 -> 502 ;
503 [label="gini = 0.0\nsamples = 4\nvalue = [4, 0]"] ;
485 -> 503 ;
504 [label="opponent_board_total_attack <= 10.5\ngini = 0.496\nsamples = 83\nvalue = [38, 45]"] ;
484 -> 504 ;
505 [label="opponent_health <= 20.5\ngini = 0.468\nsamples = 67\nvalue = [25, 42]"] ;
504 -> 505 ;
506 [label="my_board_total_attack <= 14.5\ngini = 0.314\nsamples = 41\nvalue = [8, 33]"] ;
505 -> 506 ;
507 [label="opponent_board_nb_creatures <= 4.5\ngini = 0.289\nsamples = 40\nvalue = [7, 33]"] ;
506 -> 507 ;
508 [label="opponent_health <= 16.5\ngini = 0.26\nsamples = 39\nvalue = [6, 33]"] ;
507 -> 508 ;
509 [label="opponent_hand <= 5.5\ngini = 0.133\nsamples = 28\nvalue = [2, 26]"] ;
508 -> 509 ;
510 [label="gini = 0.0\nsamples = 24\nvalue = [0, 24]"] ;
509 -> 510 ;
511 [label="my_health <= 27.0\ngini = 0.5\nsamples = 4\nvalue = [2, 2]"] ;
509 -> 511 ;
512 [label="gini = 0.0\nsamples = 2\nvalue = [2, 0]"] ;
511 -> 512 ;
513 [label="gini = 0.0\nsamples = 2\nvalue = [0, 2]"] ;
511 -> 513 ;
514 [label="my_board_total_attack <= 9.5\ngini = 0.463\nsamples = 11\nvalue = [4, 7]"] ;
508 -> 514 ;
515 [label="opponent_hand <= 1.5\ngini = 0.49\nsamples = 7\nvalue = [4, 3]"] ;
514 -> 515 ;
516 [label="gini = 0.0\nsamples = 2\nvalue = [0, 2]"] ;
515 -> 516 ;
517 [label="my_board_total_attack <= 3.5\ngini = 0.32\nsamples = 5\nvalue = [4, 1]"] ;
515 -> 517 ;
518 [label="gini = 0.0\nsamples = 1\nvalue = [0, 1]"] ;
517 -> 518 ;
519 [label="gini = 0.0\nsamples = 4\nvalue = [4, 0]"] ;
517 -> 519 ;
520 [label="gini = 0.0\nsamples = 4\nvalue = [0, 4]"] ;
514 -> 520 ;
521 [label="gini = 0.0\nsamples = 1\nvalue = [1, 0]"] ;
507 -> 521 ;
522 [label="gini = 0.0\nsamples = 1\nvalue = [1, 0]"] ;
506 -> 522 ;
523 [label="my_board_nb_creatures <= 4.5\ngini = 0.453\nsamples = 26\nvalue = [17, 9]"] ;
505 -> 523 ;
524 [label="my_hand <= 5.5\ngini = 0.386\nsamples = 23\nvalue = [17, 6]"] ;
523 -> 524 ;
525 [label="opponent_board_total_attack <= 2.5\ngini = 0.308\nsamples = 21\nvalue = [17, 4]"] ;
524 -> 525 ;
526 [label="my_health <= 25.0\ngini = 0.444\nsamples = 3\nvalue = [1, 2]"] ;
525 -> 526 ;
527 [label="gini = 0.0\nsamples = 1\nvalue = [1, 0]"] ;
526 -> 527 ;
528 [label="gini = 0.0\nsamples = 2\nvalue = [0, 2]"] ;
526 -> 528 ;
529 [label="opponent_board_total_attack <= 5.5\ngini = 0.198\nsamples = 18\nvalue = [16, 2]"] ;
525 -> 529 ;
530 [label="my_board_total_health <= 5.0\ngini = 0.32\nsamples = 10\nvalue = [8, 2]"] ;
529 -> 530 ;
531 [label="gini = 0.0\nsamples = 4\nvalue = [4, 0]"] ;
530 -> 531 ;
532 [label="my_board_total_health <= 6.5\ngini = 0.444\nsamples = 6\nvalue = [4, 2]"] ;
530 -> 532 ;
533 [label="gini = 0.0\nsamples = 1\nvalue = [0, 1]"] ;
532 -> 533 ;
534 [label="opponent_health <= 27.0\ngini = 0.32\nsamples = 5\nvalue = [4, 1]"] ;
532 -> 534 ;
535 [label="opponent_board_total_health <= 3.0\ngini = 0.5\nsamples = 2\nvalue = [1, 1]"] ;
534 -> 535 ;
536 [label="gini = 0.0\nsamples = 1\nvalue = [1, 0]"] ;
535 -> 536 ;
537 [label="gini = 0.0\nsamples = 1\nvalue = [0, 1]"] ;
535 -> 537 ;
538 [label="gini = 0.0\nsamples = 3\nvalue = [3, 0]"] ;
534 -> 538 ;
539 [label="gini = 0.0\nsamples = 8\nvalue = [8, 0]"] ;
529 -> 539 ;
540 [label="gini = 0.0\nsamples = 2\nvalue = [0, 2]"] ;
524 -> 540 ;
541 [label="gini = 0.0\nsamples = 3\nvalue = [0, 3]"] ;
523 -> 541 ;
542 [label="opponent_health <= 8.0\ngini = 0.305\nsamples = 16\nvalue = [13, 3]"] ;
504 -> 542 ;
543 [label="opponent_health <= 5.5\ngini = 0.444\nsamples = 3\nvalue = [1, 2]"] ;
542 -> 543 ;
544 [label="gini = 0.0\nsamples = 1\nvalue = [1, 0]"] ;
543 -> 544 ;
545 [label="gini = 0.0\nsamples = 2\nvalue = [0, 2]"] ;
543 -> 545 ;
546 [label="my_hand <= 5.0\ngini = 0.142\nsamples = 13\nvalue = [12, 1]"] ;
542 -> 546 ;
547 [label="gini = 0.0\nsamples = 11\nvalue = [11, 0]"] ;
546 -> 547 ;
548 [label="my_hand <= 6.5\ngini = 0.5\nsamples = 2\nvalue = [1, 1]"] ;
546 -> 548 ;
549 [label="gini = 0.0\nsamples = 1\nvalue = [0, 1]"] ;
548 -> 549 ;
550 [label="gini = 0.0\nsamples = 1\nvalue = [1, 0]"] ;
548 -> 550 ;
}