digraph Tree {
node [shape=box] ;
0 [label="my_board_nb_creatures <= 1.5\ngini = 0.494\nsamples = 1434\nvalue = [639, 795]"] ;
1 [label="opponent_board_total_attack <= 4.5\ngini = 0.433\nsamples = 605\nvalue = [413, 192]"] ;
0 -> 1 [labeldistance=2.5, labelangle=45, headlabel="True"] ;
2 [label="gini = 0.5\nsamples = 247\nvalue = [121, 126]"] ;
1 -> 2 ;
3 [label="gini = 0.301\nsamples = 358\nvalue = [292, 66]"] ;
1 -> 3 ;
4 [label="opponent_board_total_health <= 1.5\ngini = 0.397\nsamples = 829\nvalue = [226, 603]"] ;
0 -> 4 [labeldistance=2.5, labelangle=-45, headlabel="False"] ;
5 [label="gini = 0.159\nsamples = 321\nvalue = [28, 293]"] ;
4 -> 5 ;
6 [label="gini = 0.476\nsamples = 508\nvalue = [198, 310]"] ;
4 -> 6 ;
}