digraph Tree {
node [shape=box] ;
0 [label="X[4] <= 1.5\ngini = 0.495\nsamples = 2049\nvalue = [920, 1129]"] ;
1 [label="X[9] <= 4.5\ngini = 0.432\nsamples = 876\nvalue = [600, 276]"] ;
0 -> 1 [labeldistance=2.5, labelangle=45, headlabel="True"] ;
2 [label="X[6] <= 1.5\ngini = 0.499\nsamples = 351\nvalue = [169, 182]"] ;
1 -> 2 ;
3 [label="X[1] <= 20.5\ngini = 0.472\nsamples = 165\nvalue = [102, 63]"] ;
2 -> 3 ;
4 [label="X[3] <= 6.5\ngini = 0.497\nsamples = 67\nvalue = [31, 36]"] ;
3 -> 4 ;
5 [label="X[0] <= 20.0\ngini = 0.469\nsamples = 56\nvalue = [21, 35]"] ;
4 -> 5 ;
6 [label="X[1] <= 10.5\ngini = 0.496\nsamples = 33\nvalue = [18, 15]"] ;
5 -> 6 ;
7 [label="X[9] <= 0.5\ngini = 0.346\nsamples = 9\nvalue = [2, 7]"] ;
6 -> 7 ;
8 [label="gini = 0.0\nsamples = 1\nvalue = [1, 0]"] ;
7 -> 8 ;
9 [label="X[3] <= 2.5\ngini = 0.219\nsamples = 8\nvalue = [1, 7]"] ;
7 -> 9 ;
10 [label="gini = 0.0\nsamples = 6\nvalue = [0, 6]"] ;
9 -> 10 ;
11 [label="X[1] <= 6.5\ngini = 0.5\nsamples = 2\nvalue = [1, 1]"] ;
9 -> 11 ;
12 [label="gini = 0.0\nsamples = 1\nvalue = [0, 1]"] ;
11 -> 12 ;
13 [label="gini = 0.0\nsamples = 1\nvalue = [1, 0]"] ;
11 -> 13 ;
14 [label="X[9] <= 3.5\ngini = 0.444\nsamples = 24\nvalue = [16, 8]"] ;
6 -> 14 ;
15 [label="X[0] <= 13.5\ngini = 0.48\nsamples = 20\nvalue = [12, 8]"] ;
14 -> 15 ;
16 [label="X[8] <= 1.5\ngini = 0.32\nsamples = 10\nvalue = [8, 2]"] ;
15 -> 16 ;
17 [label="X[10] <= 0.5\ngini = 0.198\nsamples = 9\nvalue = [8, 1]"] ;
16 -> 17 ;
18 [label="gini = 0.0\nsamples = 7\nvalue = [7, 0]"] ;
17 -> 18 ;
19 [label="X[2] <= 3.5\ngini = 0.5\nsamples = 2\nvalue = [1, 1]"] ;
17 -> 19 ;
20 [label="gini = 0.0\nsamples = 1\nvalue = [1, 0]"] ;
19 -> 20 ;
21 [label="gini = 0.0\nsamples = 1\nvalue = [0, 1]"] ;
19 -> 21 ;
22 [label="gini = 0.0\nsamples = 1\nvalue = [0, 1]"] ;
16 -> 22 ;
23 [label="X[3] <= 5.0\ngini = 0.48\nsamples = 10\nvalue = [4, 6]"] ;
15 -> 23 ;
24 [label="X[2] <= 2.5\ngini = 0.375\nsamples = 8\nvalue = [2, 6]"] ;
23 -> 24 ;
25 [label="X[1] <= 14.0\ngini = 0.444\nsamples = 3\nvalue = [2, 1]"] ;
24 -> 25 ;
26 [label="gini = 0.0\nsamples = 1\nvalue = [0, 1]"] ;
25 -> 26 ;
27 [label="gini = 0.0\nsamples = 2\nvalue = [2, 0]"] ;
25 -> 27 ;
28 [label="gini = 0.0\nsamples = 5\nvalue = [0, 5]"] ;
24 -> 28 ;
29 [label="gini = 0.0\nsamples = 2\nvalue = [2, 0]"] ;
23 -> 29 ;
30 [label="gini = 0.0\nsamples = 4\nvalue = [4, 0]"] ;
14 -> 30 ;
31 [label="X[3] <= 3.5\ngini = 0.227\nsamples = 23\nvalue = [3, 20]"] ;
5 -> 31 ;
32 [label="gini = 0.0\nsamples = 13\nvalue = [0, 13]"] ;
31 -> 32 ;
33 [label="X[0] <= 24.0\ngini = 0.42\nsamples = 10\nvalue = [3, 7]"] ;
31 -> 33 ;
34 [label="gini = 0.0\nsamples = 1\nvalue = [1, 0]"] ;
33 -> 34 ;
35 [label="X[3] <= 4.5\ngini = 0.346\nsamples = 9\nvalue = [2, 7]"] ;
33 -> 35 ;
36 [label="X[2] <= 2.5\ngini = 0.48\nsamples = 5\nvalue = [2, 3]"] ;
35 -> 36 ;
37 [label="gini = 0.0\nsamples = 1\nvalue = [0, 1]"] ;
36 -> 37 ;
38 [label="X[2] <= 3.5\ngini = 0.5\nsamples = 4\nvalue = [2, 2]"] ;
36 -> 38 ;
39 [label="gini = 0.0\nsamples = 1\nvalue = [1, 0]"] ;
38 -> 39 ;
40 [label="X[1] <= 17.5\ngini = 0.444\nsamples = 3\nvalue = [1, 2]"] ;
38 -> 40 ;
41 [label="gini = 0.0\nsamples = 2\nvalue = [0, 2]"] ;
40 -> 41 ;
42 [label="gini = 0.0\nsamples = 1\nvalue = [1, 0]"] ;
40 -> 42 ;
43 [label="gini = 0.0\nsamples = 4\nvalue = [0, 4]"] ;
35 -> 43 ;
44 [label="X[1] <= 6.5\ngini = 0.165\nsamples = 11\nvalue = [10, 1]"] ;
4 -> 44 ;
45 [label="X[3] <= 7.5\ngini = 0.5\nsamples = 2\nvalue = [1, 1]"] ;
44 -> 45 ;
46 [label="gini = 0.0\nsamples = 1\nvalue = [0, 1]"] ;
45 -> 46 ;
47 [label="gini = 0.0\nsamples = 1\nvalue = [1, 0]"] ;
45 -> 47 ;
48 [label="gini = 0.0\nsamples = 9\nvalue = [9, 0]"] ;
44 -> 48 ;
49 [label="X[2] <= 7.5\ngini = 0.399\nsamples = 98\nvalue = [71, 27]"] ;
3 -> 49 ;
50 [label="X[0] <= 20.5\ngini = 0.364\nsamples = 92\nvalue = [70, 22]"] ;
49 -> 50 ;
51 [label="X[3] <= 0.5\ngini = 0.136\nsamples = 41\nvalue = [38, 3]"] ;
50 -> 51 ;
52 [label="gini = 0.0\nsamples = 1\nvalue = [0, 1]"] ;
51 -> 52 ;
53 [label="X[0] <= 5.5\ngini = 0.095\nsamples = 40\nvalue = [38, 2]"] ;
51 -> 53 ;
54 [label="X[0] <= 4.5\ngini = 0.375\nsamples = 4\nvalue = [3, 1]"] ;
53 -> 54 ;
55 [label="gini = 0.0\nsamples = 3\nvalue = [3, 0]"] ;
54 -> 55 ;
56 [label="gini = 0.0\nsamples = 1\nvalue = [0, 1]"] ;
54 -> 56 ;
57 [label="X[3] <= 4.5\ngini = 0.054\nsamples = 36\nvalue = [35, 1]"] ;
53 -> 57 ;
58 [label="gini = 0.0\nsamples = 30\nvalue = [30, 0]"] ;
57 -> 58 ;
59 [label="X[8] <= 0.5\ngini = 0.278\nsamples = 6\nvalue = [5, 1]"] ;
57 -> 59 ;
60 [label="gini = 0.0\nsamples = 1\nvalue = [0, 1]"] ;
59 -> 60 ;
61 [label="gini = 0.0\nsamples = 5\nvalue = [5, 0]"] ;
59 -> 61 ;
62 [label="X[3] <= 2.5\ngini = 0.468\nsamples = 51\nvalue = [32, 19]"] ;
50 -> 62 ;
63 [label="gini = 0.0\nsamples = 7\nvalue = [0, 7]"] ;
62 -> 63 ;
64 [label="X[10] <= 0.5\ngini = 0.397\nsamples = 44\nvalue = [32, 12]"] ;
62 -> 64 ;
65 [label="X[0] <= 28.5\ngini = 0.497\nsamples = 24\nvalue = [13, 11]"] ;
64 -> 65 ;
66 [label="X[9] <= 1.5\ngini = 0.415\nsamples = 17\nvalue = [12, 5]"] ;
65 -> 66 ;
67 [label="gini = 0.0\nsamples = 5\nvalue = [5, 0]"] ;
66 -> 67 ;
68 [label="X[3] <= 3.5\ngini = 0.486\nsamples = 12\nvalue = [7, 5]"] ;
66 -> 68 ;
69 [label="gini = 0.0\nsamples = 2\nvalue = [0, 2]"] ;
68 -> 69 ;
70 [label="X[8] <= 3.5\ngini = 0.42\nsamples = 10\nvalue = [7, 3]"] ;
68 -> 70 ;
71 [label="X[0] <= 26.0\ngini = 0.5\nsamples = 6\nvalue = [3, 3]"] ;
70 -> 71 ;
72 [label="X[8] <= 2.5\ngini = 0.375\nsamples = 4\nvalue = [3, 1]"] ;
71 -> 72 ;
73 [label="gini = 0.0\nsamples = 3\nvalue = [3, 0]"] ;
72 -> 73 ;
74 [label="gini = 0.0\nsamples = 1\nvalue = [0, 1]"] ;
72 -> 74 ;
75 [label="gini = 0.0\nsamples = 2\nvalue = [0, 2]"] ;
71 -> 75 ;
76 [label="gini = 0.0\nsamples = 4\nvalue = [4, 0]"] ;
70 -> 76 ;
77 [label="X[3] <= 5.5\ngini = 0.245\nsamples = 7\nvalue = [1, 6]"] ;
65 -> 77 ;
78 [label="gini = 0.0\nsamples = 5\nvalue = [0, 5]"] ;
77 -> 78 ;
79 [label="X[6] <= 0.5\ngini = 0.5\nsamples = 2\nvalue = [1, 1]"] ;
77 -> 79 ;
80 [label="gini = 0.0\nsamples = 1\nvalue = [1, 0]"] ;
79 -> 80 ;
81 [label="gini = 0.0\nsamples = 1\nvalue = [0, 1]"] ;
79 -> 81 ;
82 [label="X[3] <= 3.5\ngini = 0.095\nsamples = 20\nvalue = [19, 1]"] ;
64 -> 82 ;
83 [label="X[9] <= 0.5\ngini = 0.32\nsamples = 5\nvalue = [4, 1]"] ;
82 -> 83 ;
84 [label="gini = 0.0\nsamples = 1\nvalue = [0, 1]"] ;
83 -> 84 ;
85 [label="gini = 0.0\nsamples = 4\nvalue = [4, 0]"] ;
83 -> 85 ;
86 [label="gini = 0.0\nsamples = 15\nvalue = [15, 0]"] ;
82 -> 86 ;
87 [label="X[0] <= 25.0\ngini = 0.278\nsamples = 6\nvalue = [1, 5]"] ;
49 -> 87 ;
88 [label="gini = 0.0\nsamples = 5\nvalue = [0, 5]"] ;
87 -> 88 ;
89 [label="gini = 0.0\nsamples = 1\nvalue = [1, 0]"] ;
87 -> 89 ;
90 [label="X[1] <= 21.5\ngini = 0.461\nsamples = 186\nvalue = [67, 119]"] ;
2 -> 90 ;
91 [label="X[2] <= 2.5\ngini = 0.344\nsamples = 86\nvalue = [19, 67]"] ;
90 -> 91 ;
92 [label="X[0] <= 28.5\ngini = 0.495\nsamples = 20\nvalue = [11, 9]"] ;
91 -> 92 ;
93 [label="X[1] <= 14.0\ngini = 0.43\nsamples = 16\nvalue = [11, 5]"] ;
92 -> 93 ;
94 [label="X[5] <= 1.5\ngini = 0.5\nsamples = 10\nvalue = [5, 5]"] ;
93 -> 94 ;
95 [label="gini = 0.0\nsamples = 2\nvalue = [2, 0]"] ;
94 -> 95 ;
96 [label="X[8] <= 5.5\ngini = 0.469\nsamples = 8\nvalue = [3, 5]"] ;
94 -> 96 ;
97 [label="X[0] <= 9.5\ngini = 0.408\nsamples = 7\nvalue = [2, 5]"] ;
96 -> 97 ;
98 [label="gini = 0.0\nsamples = 1\nvalue = [1, 0]"] ;
97 -> 98 ;
99 [label="X[3] <= 4.0\ngini = 0.278\nsamples = 6\nvalue = [1, 5]"] ;
97 -> 99 ;
100 [label="gini = 0.0\nsamples = 4\nvalue = [0, 4]"] ;
99 -> 100 ;
101 [label="X[0] <= 21.5\ngini = 0.5\nsamples = 2\nvalue = [1, 1]"] ;
99 -> 101 ;
102 [label="gini = 0.0\nsamples = 1\nvalue = [1, 0]"] ;
101 -> 102 ;
103 [label="gini = 0.0\nsamples = 1\nvalue = [0, 1]"] ;
101 -> 103 ;
104 [label="gini = 0.0\nsamples = 1\nvalue = [1, 0]"] ;
96 -> 104 ;
105 [label="gini = 0.0\nsamples = 6\nvalue = [6, 0]"] ;
93 -> 105 ;
106 [label="gini = 0.0\nsamples = 4\nvalue = [0, 4]"] ;
92 -> 106 ;
107 [label="X[8] <= 9.0\ngini = 0.213\nsamples = 66\nvalue = [8, 58]"] ;
91 -> 107 ;
108 [label="X[0] <= 11.5\ngini = 0.172\nsamples = 63\nvalue = [6, 57]"] ;
107 -> 108 ;
109 [label="X[1] <= 15.5\ngini = 0.48\nsamples = 5\nvalue = [2, 3]"] ;
108 -> 109 ;
110 [label="gini = 0.0\nsamples = 3\nvalue = [0, 3]"] ;
109 -> 110 ;
111 [label="gini = 0.0\nsamples = 2\nvalue = [2, 0]"] ;
109 -> 111 ;
112 [label="X[2] <= 5.5\ngini = 0.128\nsamples = 58\nvalue = [4, 54]"] ;
108 -> 112 ;
113 [label="X[0] <= 29.5\ngini = 0.041\nsamples = 48\nvalue = [1, 47]"] ;
112 -> 113 ;
114 [label="gini = 0.0\nsamples = 38\nvalue = [0, 38]"] ;
113 -> 114 ;
115 [label="X[1] <= 18.5\ngini = 0.18\nsamples = 10\nvalue = [1, 9]"] ;
113 -> 115 ;
116 [label="gini = 0.0\nsamples = 6\nvalue = [0, 6]"] ;
115 -> 116 ;
117 [label="X[9] <= 3.5\ngini = 0.375\nsamples = 4\nvalue = [1, 3]"] ;
115 -> 117 ;
118 [label="gini = 0.0\nsamples = 3\nvalue = [0, 3]"] ;
117 -> 118 ;
119 [label="gini = 0.0\nsamples = 1\nvalue = [1, 0]"] ;
117 -> 119 ;
120 [label="X[5] <= 1.5\ngini = 0.42\nsamples = 10\nvalue = [3, 7]"] ;
112 -> 120 ;
121 [label="gini = 0.0\nsamples = 1\nvalue = [1, 0]"] ;
120 -> 121 ;
122 [label="X[1] <= 19.5\ngini = 0.346\nsamples = 9\nvalue = [2, 7]"] ;
120 -> 122 ;
123 [label="X[9] <= 3.0\ngini = 0.48\nsamples = 5\nvalue = [2, 3]"] ;
122 -> 123 ;
124 [label="X[0] <= 20.0\ngini = 0.444\nsamples = 3\nvalue = [2, 1]"] ;
123 -> 124 ;
125 [label="gini = 0.0\nsamples = 1\nvalue = [0, 1]"] ;
124 -> 125 ;
126 [label="gini = 0.0\nsamples = 2\nvalue = [2, 0]"] ;
124 -> 126 ;
127 [label="gini = 0.0\nsamples = 2\nvalue = [0, 2]"] ;
123 -> 127 ;
128 [label="gini = 0.0\nsamples = 4\nvalue = [0, 4]"] ;
122 -> 128 ;
129 [label="X[1] <= 15.0\ngini = 0.444\nsamples = 3\nvalue = [2, 1]"] ;
107 -> 129 ;
130 [label="gini = 0.0\nsamples = 2\nvalue = [2, 0]"] ;
129 -> 130 ;
131 [label="gini = 0.0\nsamples = 1\nvalue = [0, 1]"] ;
129 -> 131 ;
132 [label="X[0] <= 19.5\ngini = 0.499\nsamples = 100\nvalue = [48, 52]"] ;
90 -> 132 ;
133 [label="X[2] <= 5.5\ngini = 0.422\nsamples = 33\nvalue = [23, 10]"] ;
132 -> 133 ;
134 [label="X[1] <= 29.5\ngini = 0.227\nsamples = 23\nvalue = [20, 3]"] ;
133 -> 134 ;
135 [label="X[9] <= 3.5\ngini = 0.095\nsamples = 20\nvalue = [19, 1]"] ;
134 -> 135 ;
136 [label="gini = 0.0\nsamples = 16\nvalue = [16, 0]"] ;
135 -> 136 ;
137 [label="X[1] <= 25.5\ngini = 0.375\nsamples = 4\nvalue = [3, 1]"] ;
135 -> 137 ;
138 [label="gini = 0.0\nsamples = 1\nvalue = [0, 1]"] ;
137 -> 138 ;
139 [label="gini = 0.0\nsamples = 3\nvalue = [3, 0]"] ;
137 -> 139 ;
140 [label="X[10] <= 0.5\ngini = 0.444\nsamples = 3\nvalue = [1, 2]"] ;
134 -> 140 ;
141 [label="gini = 0.0\nsamples = 2\nvalue = [0, 2]"] ;
140 -> 141 ;
142 [label="gini = 0.0\nsamples = 1\nvalue = [1, 0]"] ;
140 -> 142 ;
143 [label="X[9] <= 3.0\ngini = 0.42\nsamples = 10\nvalue = [3, 7]"] ;
133 -> 143 ;
144 [label="X[5] <= 2.0\ngini = 0.219\nsamples = 8\nvalue = [1, 7]"] ;
143 -> 144 ;
145 [label="gini = 0.0\nsamples = 1\nvalue = [1, 0]"] ;
144 -> 145 ;
146 [label="gini = 0.0\nsamples = 7\nvalue = [0, 7]"] ;
144 -> 146 ;
147 [label="gini = 0.0\nsamples = 2\nvalue = [2, 0]"] ;
143 -> 147 ;
148 [label="X[1] <= 24.5\ngini = 0.468\nsamples = 67\nvalue = [25, 42]"] ;
132 -> 148 ;
149 [label="X[0] <= 22.5\ngini = 0.231\nsamples = 15\nvalue = [2, 13]"] ;
148 -> 149 ;
150 [label="gini = 0.0\nsamples = 1\nvalue = [1, 0]"] ;
149 -> 150 ;
151 [label="X[6] <= 5.5\ngini = 0.133\nsamples = 14\nvalue = [1, 13]"] ;
149 -> 151 ;
152 [label="gini = 0.0\nsamples = 12\nvalue = [0, 12]"] ;
151 -> 152 ;
153 [label="X[6] <= 6.5\ngini = 0.5\nsamples = 2\nvalue = [1, 1]"] ;
151 -> 153 ;
154 [label="gini = 0.0\nsamples = 1\nvalue = [1, 0]"] ;
153 -> 154 ;
155 [label="gini = 0.0\nsamples = 1\nvalue = [0, 1]"] ;
153 -> 155 ;
156 [label="X[5] <= 3.5\ngini = 0.493\nsamples = 52\nvalue = [23, 29]"] ;
148 -> 156 ;
157 [label="X[9] <= 3.5\ngini = 0.469\nsamples = 24\nvalue = [15, 9]"] ;
156 -> 157 ;
158 [label="X[2] <= 7.0\ngini = 0.408\nsamples = 21\nvalue = [15, 6]"] ;
157 -> 158 ;
159 [label="X[0] <= 29.5\ngini = 0.332\nsamples = 19\nvalue = [15, 4]"] ;
158 -> 159 ;
160 [label="gini = 0.0\nsamples = 12\nvalue = [12, 0]"] ;
159 -> 160 ;
161 [label="X[6] <= 3.5\ngini = 0.49\nsamples = 7\nvalue = [3, 4]"] ;
159 -> 161 ;
162 [label="X[8] <= 2.5\ngini = 0.32\nsamples = 5\nvalue = [1, 4]"] ;
161 -> 162 ;
163 [label="gini = 0.0\nsamples = 4\nvalue = [0, 4]"] ;
162 -> 163 ;
164 [label="gini = 0.0\nsamples = 1\nvalue = [1, 0]"] ;
162 -> 164 ;
165 [label="gini = 0.0\nsamples = 2\nvalue = [2, 0]"] ;
161 -> 165 ;
166 [label="gini = 0.0\nsamples = 2\nvalue = [0, 2]"] ;
158 -> 166 ;
167 [label="gini = 0.0\nsamples = 3\nvalue = [0, 3]"] ;
157 -> 167 ;
168 [label="X[6] <= 3.5\ngini = 0.408\nsamples = 28\nvalue = [8, 20]"] ;
156 -> 168 ;
169 [label="X[2] <= 4.0\ngini = 0.469\nsamples = 8\nvalue = [5, 3]"] ;
168 -> 169 ;
170 [label="gini = 0.0\nsamples = 2\nvalue = [0, 2]"] ;
169 -> 170 ;
171 [label="X[0] <= 27.5\ngini = 0.278\nsamples = 6\nvalue = [5, 1]"] ;
169 -> 171 ;
172 [label="gini = 0.0\nsamples = 3\nvalue = [3, 0]"] ;
171 -> 172 ;
173 [label="X[1] <= 27.5\ngini = 0.444\nsamples = 3\nvalue = [2, 1]"] ;
171 -> 173 ;
174 [label="gini = 0.0\nsamples = 1\nvalue = [1, 0]"] ;
173 -> 174 ;
175 [label="X[8] <= 2.5\ngini = 0.5\nsamples = 2\nvalue = [1, 1]"] ;
173 -> 175 ;
176 [label="gini = 0.0\nsamples = 1\nvalue = [0, 1]"] ;
175 -> 176 ;
177 [label="gini = 0.0\nsamples = 1\nvalue = [1, 0]"] ;
175 -> 177 ;
178 [label="X[5] <= 6.5\ngini = 0.255\nsamples = 20\nvalue = [3, 17]"] ;
168 -> 178 ;
179 [label="X[7] <= 1.5\ngini = 0.124\nsamples = 15\nvalue = [1, 14]"] ;
178 -> 179 ;
180 [label="gini = 0.0\nsamples = 11\nvalue = [0, 11]"] ;
179 -> 180 ;
181 [label="X[5] <= 4.5\ngini = 0.375\nsamples = 4\nvalue = [1, 3]"] ;
179 -> 181 ;
182 [label="X[8] <= 6.0\ngini = 0.5\nsamples = 2\nvalue = [1, 1]"] ;
181 -> 182 ;
183 [label="gini = 0.0\nsamples = 1\nvalue = [1, 0]"] ;
182 -> 183 ;
184 [label="gini = 0.0\nsamples = 1\nvalue = [0, 1]"] ;
182 -> 184 ;
185 [label="gini = 0.0\nsamples = 2\nvalue = [0, 2]"] ;
181 -> 185 ;
186 [label="X[3] <= 4.5\ngini = 0.48\nsamples = 5\nvalue = [2, 3]"] ;
178 -> 186 ;
187 [label="gini = 0.0\nsamples = 3\nvalue = [0, 3]"] ;
186 -> 187 ;
188 [label="gini = 0.0\nsamples = 2\nvalue = [2, 0]"] ;
186 -> 188 ;
189 [label="X[8] <= 7.5\ngini = 0.294\nsamples = 525\nvalue = [431, 94]"] ;
1 -> 189 ;
190 [label="X[1] <= 15.5\ngini = 0.391\nsamples = 225\nvalue = [165, 60]"] ;
189 -> 190 ;
191 [label="X[5] <= 1.5\ngini = 0.496\nsamples = 53\nvalue = [29, 24]"] ;
190 -> 191 ;
192 [label="X[3] <= 1.5\ngini = 0.365\nsamples = 25\nvalue = [19, 6]"] ;
191 -> 192 ;
193 [label="gini = 0.0\nsamples = 3\nvalue = [0, 3]"] ;
192 -> 193 ;
194 [label="X[2] <= 4.5\ngini = 0.236\nsamples = 22\nvalue = [19, 3]"] ;
192 -> 194 ;
195 [label="X[0] <= 16.5\ngini = 0.1\nsamples = 19\nvalue = [18, 1]"] ;
194 -> 195 ;
196 [label="X[8] <= 6.0\ngini = 0.444\nsamples = 3\nvalue = [2, 1]"] ;
195 -> 196 ;
197 [label="gini = 0.0\nsamples = 2\nvalue = [2, 0]"] ;
196 -> 197 ;
198 [label="gini = 0.0\nsamples = 1\nvalue = [0, 1]"] ;
196 -> 198 ;
199 [label="gini = 0.0\nsamples = 16\nvalue = [16, 0]"] ;
195 -> 199 ;
200 [label="X[0] <= 17.0\ngini = 0.444\nsamples = 3\nvalue = [1, 2]"] ;
194 -> 200 ;
201 [label="gini = 0.0\nsamples = 1\nvalue = [1, 0]"] ;
200 -> 201 ;
202 [label="gini = 0.0\nsamples = 2\nvalue = [0, 2]"] ;
200 -> 202 ;
203 [label="X[0] <= 17.5\ngini = 0.459\nsamples = 28\nvalue = [10, 18]"] ;
191 -> 203 ;
204 [label="gini = 0.0\nsamples = 6\nvalue = [6, 0]"] ;
203 -> 204 ;
205 [label="X[3] <= 5.0\ngini = 0.298\nsamples = 22\nvalue = [4, 18]"] ;
203 -> 205 ;
206 [label="X[8] <= 2.5\ngini = 0.105\nsamples = 18\nvalue = [1, 17]"] ;
205 -> 206 ;
207 [label="gini = 0.0\nsamples = 1\nvalue = [1, 0]"] ;
206 -> 207 ;
208 [label="gini = 0.0\nsamples = 17\nvalue = [0, 17]"] ;
206 -> 208 ;
209 [label="X[8] <= 4.0\ngini = 0.375\nsamples = 4\nvalue = [3, 1]"] ;
205 -> 209 ;
210 [label="gini = 0.0\nsamples = 1\nvalue = [0, 1]"] ;
209 -> 210 ;
211 [label="gini = 0.0\nsamples = 3\nvalue = [3, 0]"] ;
209 -> 211 ;
212 [label="X[2] <= 6.5\ngini = 0.331\nsamples = 172\nvalue = [136, 36]"] ;
190 -> 212 ;
213 [label="X[0] <= 18.5\ngini = 0.282\nsamples = 147\nvalue = [122, 25]"] ;
212 -> 213 ;
214 [label="X[8] <= 2.5\ngini = 0.1\nsamples = 57\nvalue = [54, 3]"] ;
213 -> 214 ;
215 [label="X[0] <= 13.0\ngini = 0.444\nsamples = 3\nvalue = [2, 1]"] ;
214 -> 215 ;
216 [label="gini = 0.0\nsamples = 2\nvalue = [2, 0]"] ;
215 -> 216 ;
217 [label="gini = 0.0\nsamples = 1\nvalue = [0, 1]"] ;
215 -> 217 ;
218 [label="X[7] <= 4.5\ngini = 0.071\nsamples = 54\nvalue = [52, 2]"] ;
214 -> 218 ;
219 [label="X[3] <= 1.5\ngini = 0.039\nsamples = 50\nvalue = [49, 1]"] ;
218 -> 219 ;
220 [label="X[0] <= 14.5\ngini = 0.153\nsamples = 12\nvalue = [11, 1]"] ;
219 -> 220 ;
221 [label="gini = 0.0\nsamples = 7\nvalue = [7, 0]"] ;
220 -> 221 ;
222 [label="X[1] <= 21.0\ngini = 0.32\nsamples = 5\nvalue = [4, 1]"] ;
220 -> 222 ;
223 [label="gini = 0.0\nsamples = 3\nvalue = [3, 0]"] ;
222 -> 223 ;
224 [label="X[2] <= 5.0\ngini = 0.5\nsamples = 2\nvalue = [1, 1]"] ;
222 -> 224 ;
225 [label="gini = 0.0\nsamples = 1\nvalue = [0, 1]"] ;
224 -> 225 ;
226 [label="gini = 0.0\nsamples = 1\nvalue = [1, 0]"] ;
224 -> 226 ;
227 [label="gini = 0.0\nsamples = 38\nvalue = [38, 0]"] ;
219 -> 227 ;
228 [label="X[2] <= 4.0\ngini = 0.375\nsamples = 4\nvalue = [3, 1]"] ;
218 -> 228 ;
229 [label="gini = 0.0\nsamples = 1\nvalue = [0, 1]"] ;
228 -> 229 ;
230 [label="gini = 0.0\nsamples = 3\nvalue = [3, 0]"] ;
228 -> 230 ;
231 [label="X[1] <= 29.5\ngini = 0.369\nsamples = 90\nvalue = [68, 22]"] ;
213 -> 231 ;
232 [label="X[3] <= 2.5\ngini = 0.417\nsamples = 71\nvalue = [50, 21]"] ;
231 -> 232 ;
233 [label="X[2] <= 2.5\ngini = 0.498\nsamples = 17\nvalue = [8, 9]"] ;
232 -> 233 ;
234 [label="X[5] <= 4.5\ngini = 0.278\nsamples = 6\nvalue = [5, 1]"] ;
233 -> 234 ;
235 [label="gini = 0.0\nsamples = 5\nvalue = [5, 0]"] ;
234 -> 235 ;
236 [label="gini = 0.0\nsamples = 1\nvalue = [0, 1]"] ;
234 -> 236 ;
237 [label="X[7] <= 2.5\ngini = 0.397\nsamples = 11\nvalue = [3, 8]"] ;
233 -> 237 ;
238 [label="gini = 0.0\nsamples = 6\nvalue = [0, 6]"] ;
237 -> 238 ;
239 [label="X[4] <= 0.5\ngini = 0.48\nsamples = 5\nvalue = [3, 2]"] ;
237 -> 239 ;
240 [label="X[8] <= 5.5\ngini = 0.444\nsamples = 3\nvalue = [1, 2]"] ;
239 -> 240 ;
241 [label="gini = 0.0\nsamples = 1\nvalue = [1, 0]"] ;
240 -> 241 ;
242 [label="gini = 0.0\nsamples = 2\nvalue = [0, 2]"] ;
240 -> 242 ;
243 [label="gini = 0.0\nsamples = 2\nvalue = [2, 0]"] ;
239 -> 243 ;
244 [label="X[0] <= 22.5\ngini = 0.346\nsamples = 54\nvalue = [42, 12]"] ;
232 -> 244 ;
245 [label="X[3] <= 5.5\ngini = 0.444\nsamples = 27\nvalue = [18, 9]"] ;
244 -> 245 ;
246 [label="X[2] <= 2.0\ngini = 0.483\nsamples = 22\nvalue = [13, 9]"] ;
245 -> 246 ;
247 [label="gini = 0.0\nsamples = 4\nvalue = [4, 0]"] ;
246 -> 247 ;
248 [label="X[7] <= 2.5\ngini = 0.5\nsamples = 18\nvalue = [9, 9]"] ;
246 -> 248 ;
249 [label="X[5] <= 1.0\ngini = 0.444\nsamples = 12\nvalue = [4, 8]"] ;
248 -> 249 ;
250 [label="X[10] <= 0.5\ngini = 0.48\nsamples = 5\nvalue = [3, 2]"] ;
249 -> 250 ;
251 [label="X[1] <= 19.0\ngini = 0.375\nsamples = 4\nvalue = [3, 1]"] ;
250 -> 251 ;
252 [label="gini = 0.0\nsamples = 1\nvalue = [0, 1]"] ;
251 -> 252 ;
253 [label="gini = 0.0\nsamples = 3\nvalue = [3, 0]"] ;
251 -> 253 ;
254 [label="gini = 0.0\nsamples = 1\nvalue = [0, 1]"] ;
250 -> 254 ;
255 [label="X[8] <= 3.5\ngini = 0.245\nsamples = 7\nvalue = [1, 6]"] ;
249 -> 255 ;
256 [label="gini = 0.0\nsamples = 1\nvalue = [1, 0]"] ;
255 -> 256 ;
257 [label="gini = 0.0\nsamples = 6\nvalue = [0, 6]"] ;
255 -> 257 ;
258 [label="X[3] <= 4.5\ngini = 0.278\nsamples = 6\nvalue = [5, 1]"] ;
248 -> 258 ;
259 [label="gini = 0.0\nsamples = 5\nvalue = [5, 0]"] ;
258 -> 259 ;
260 [label="gini = 0.0\nsamples = 1\nvalue = [0, 1]"] ;
258 -> 260 ;
261 [label="gini = 0.0\nsamples = 5\nvalue = [5, 0]"] ;
245 -> 261 ;
262 [label="X[1] <= 28.5\ngini = 0.198\nsamples = 27\nvalue = [24, 3]"] ;
244 -> 262 ;
263 [label="X[2] <= 5.5\ngini = 0.147\nsamples = 25\nvalue = [23, 2]"] ;
262 -> 263 ;
264 [label="X[5] <= 4.5\ngini = 0.083\nsamples = 23\nvalue = [22, 1]"] ;
263 -> 264 ;
265 [label="gini = 0.0\nsamples = 17\nvalue = [17, 0]"] ;
264 -> 265 ;
266 [label="X[6] <= 3.0\ngini = 0.278\nsamples = 6\nvalue = [5, 1]"] ;
264 -> 266 ;
267 [label="X[1] <= 26.5\ngini = 0.5\nsamples = 2\nvalue = [1, 1]"] ;
266 -> 267 ;
268 [label="gini = 0.0\nsamples = 1\nvalue = [0, 1]"] ;
267 -> 268 ;
269 [label="gini = 0.0\nsamples = 1\nvalue = [1, 0]"] ;
267 -> 269 ;
270 [label="gini = 0.0\nsamples = 4\nvalue = [4, 0]"] ;
266 -> 270 ;
271 [label="X[8] <= 6.0\ngini = 0.5\nsamples = 2\nvalue = [1, 1]"] ;
263 -> 271 ;
272 [label="gini = 0.0\nsamples = 1\nvalue = [0, 1]"] ;
271 -> 272 ;
273 [label="gini = 0.0\nsamples = 1\nvalue = [1, 0]"] ;
271 -> 273 ;
274 [label="X[8] <= 6.0\ngini = 0.5\nsamples = 2\nvalue = [1, 1]"] ;
262 -> 274 ;
275 [label="gini = 0.0\nsamples = 1\nvalue = [0, 1]"] ;
274 -> 275 ;
276 [label="gini = 0.0\nsamples = 1\nvalue = [1, 0]"] ;
274 -> 276 ;
277 [label="X[7] <= 1.5\ngini = 0.1\nsamples = 19\nvalue = [18, 1]"] ;
231 -> 277 ;
278 [label="X[3] <= 4.5\ngini = 0.375\nsamples = 4\nvalue = [3, 1]"] ;
277 -> 278 ;
279 [label="gini = 0.0\nsamples = 1\nvalue = [0, 1]"] ;
278 -> 279 ;
280 [label="gini = 0.0\nsamples = 3\nvalue = [3, 0]"] ;
278 -> 280 ;
281 [label="gini = 0.0\nsamples = 15\nvalue = [15, 0]"] ;
277 -> 281 ;
282 [label="X[5] <= 3.5\ngini = 0.493\nsamples = 25\nvalue = [14, 11]"] ;
212 -> 282 ;
283 [label="X[3] <= 7.5\ngini = 0.444\nsamples = 21\nvalue = [14, 7]"] ;
282 -> 283 ;
284 [label="X[0] <= 10.0\ngini = 0.388\nsamples = 19\nvalue = [14, 5]"] ;
283 -> 284 ;
285 [label="gini = 0.0\nsamples = 1\nvalue = [0, 1]"] ;
284 -> 285 ;
286 [label="X[3] <= 1.5\ngini = 0.346\nsamples = 18\nvalue = [14, 4]"] ;
284 -> 286 ;
287 [label="gini = 0.0\nsamples = 1\nvalue = [0, 1]"] ;
286 -> 287 ;
288 [label="X[9] <= 6.5\ngini = 0.291\nsamples = 17\nvalue = [14, 3]"] ;
286 -> 288 ;
289 [label="gini = 0.0\nsamples = 10\nvalue = [10, 0]"] ;
288 -> 289 ;
290 [label="X[1] <= 28.5\ngini = 0.49\nsamples = 7\nvalue = [4, 3]"] ;
288 -> 290 ;
291 [label="gini = 0.0\nsamples = 3\nvalue = [3, 0]"] ;
290 -> 291 ;
292 [label="X[7] <= 2.5\ngini = 0.375\nsamples = 4\nvalue = [1, 3]"] ;
290 -> 292 ;
293 [label="gini = 0.0\nsamples = 3\nvalue = [0, 3]"] ;
292 -> 293 ;
294 [label="gini = 0.0\nsamples = 1\nvalue = [1, 0]"] ;
292 -> 294 ;
295 [label="gini = 0.0\nsamples = 2\nvalue = [0, 2]"] ;
283 -> 295 ;
296 [label="gini = 0.0\nsamples = 4\nvalue = [0, 4]"] ;
282 -> 296 ;
297 [label="X[10] <= 0.5\ngini = 0.201\nsamples = 300\nvalue = [266, 34]"] ;
189 -> 297 ;
298 [label="X[1] <= 3.0\ngini = 0.133\nsamples = 251\nvalue = [233, 18]"] ;
297 -> 298 ;
299 [label="gini = 0.0\nsamples = 1\nvalue = [0, 1]"] ;
298 -> 299 ;
300 [label="X[5] <= 4.5\ngini = 0.127\nsamples = 250\nvalue = [233, 17]"] ;
298 -> 300 ;
301 [label="X[6] <= 5.5\ngini = 0.089\nsamples = 214\nvalue = [204, 10]"] ;
300 -> 301 ;
302 [label="X[1] <= 6.5\ngini = 0.081\nsamples = 212\nvalue = [203, 9]"] ;
301 -> 302 ;
303 [label="X[3] <= 2.5\ngini = 0.408\nsamples = 7\nvalue = [5, 2]"] ;
302 -> 303 ;
304 [label="gini = 0.0\nsamples = 2\nvalue = [0, 2]"] ;
303 -> 304 ;
305 [label="gini = 0.0\nsamples = 5\nvalue = [5, 0]"] ;
303 -> 305 ;
306 [label="X[2] <= 6.5\ngini = 0.066\nsamples = 205\nvalue = [198, 7]"] ;
302 -> 306 ;
307 [label="X[9] <= 5.5\ngini = 0.023\nsamples = 169\nvalue = [167, 2]"] ;
306 -> 307 ;
308 [label="X[2] <= 3.0\ngini = 0.278\nsamples = 6\nvalue = [5, 1]"] ;
307 -> 308 ;
309 [label="gini = 0.0\nsamples = 1\nvalue = [0, 1]"] ;
308 -> 309 ;
310 [label="gini = 0.0\nsamples = 5\nvalue = [5, 0]"] ;
308 -> 310 ;
311 [label="X[9] <= 9.5\ngini = 0.012\nsamples = 163\nvalue = [162, 1]"] ;
307 -> 311 ;
312 [label="X[0] <= 19.5\ngini = 0.035\nsamples = 56\nvalue = [55, 1]"] ;
311 -> 312 ;
313 [label="gini = 0.0\nsamples = 34\nvalue = [34, 0]"] ;
312 -> 313 ;
314 [label="X[0] <= 20.5\ngini = 0.087\nsamples = 22\nvalue = [21, 1]"] ;
312 -> 314 ;
315 [label="X[2] <= 4.0\ngini = 0.375\nsamples = 4\nvalue = [3, 1]"] ;
314 -> 315 ;
316 [label="gini = 0.0\nsamples = 3\nvalue = [3, 0]"] ;
315 -> 316 ;
317 [label="gini = 0.0\nsamples = 1\nvalue = [0, 1]"] ;
315 -> 317 ;
318 [label="gini = 0.0\nsamples = 18\nvalue = [18, 0]"] ;
314 -> 318 ;
319 [label="gini = 0.0\nsamples = 107\nvalue = [107, 0]"] ;
311 -> 319 ;
320 [label="X[6] <= 3.5\ngini = 0.239\nsamples = 36\nvalue = [31, 5]"] ;
306 -> 320 ;
321 [label="X[3] <= 1.5\ngini = 0.202\nsamples = 35\nvalue = [31, 4]"] ;
320 -> 321 ;
322 [label="X[1] <= 19.5\ngini = 0.5\nsamples = 2\nvalue = [1, 1]"] ;
321 -> 322 ;
323 [label="gini = 0.0\nsamples = 1\nvalue = [1, 0]"] ;
322 -> 323 ;
324 [label="gini = 0.0\nsamples = 1\nvalue = [0, 1]"] ;
322 -> 324 ;
325 [label="X[1] <= 23.0\ngini = 0.165\nsamples = 33\nvalue = [30, 3]"] ;
321 -> 325 ;
326 [label="X[1] <= 21.5\ngini = 0.375\nsamples = 8\nvalue = [6, 2]"] ;
325 -> 326 ;
327 [label="X[0] <= 20.0\ngini = 0.245\nsamples = 7\nvalue = [6, 1]"] ;
326 -> 327 ;
328 [label="gini = 0.0\nsamples = 6\nvalue = [6, 0]"] ;
327 -> 328 ;
329 [label="gini = 0.0\nsamples = 1\nvalue = [0, 1]"] ;
327 -> 329 ;
330 [label="gini = 0.0\nsamples = 1\nvalue = [0, 1]"] ;
326 -> 330 ;
331 [label="X[0] <= 24.5\ngini = 0.077\nsamples = 25\nvalue = [24, 1]"] ;
325 -> 331 ;
332 [label="gini = 0.0\nsamples = 20\nvalue = [20, 0]"] ;
331 -> 332 ;
333 [label="X[0] <= 25.5\ngini = 0.32\nsamples = 5\nvalue = [4, 1]"] ;
331 -> 333 ;
334 [label="gini = 0.0\nsamples = 1\nvalue = [0, 1]"] ;
333 -> 334 ;
335 [label="gini = 0.0\nsamples = 4\nvalue = [4, 0]"] ;
333 -> 335 ;
336 [label="gini = 0.0\nsamples = 1\nvalue = [0, 1]"] ;
320 -> 336 ;
337 [label="X[2] <= 3.5\ngini = 0.5\nsamples = 2\nvalue = [1, 1]"] ;
301 -> 337 ;
338 [label="gini = 0.0\nsamples = 1\nvalue = [0, 1]"] ;
337 -> 338 ;
339 [label="gini = 0.0\nsamples = 1\nvalue = [1, 0]"] ;
337 -> 339 ;
340 [label="X[7] <= 2.5\ngini = 0.313\nsamples = 36\nvalue = [29, 7]"] ;
300 -> 340 ;
341 [label="X[1] <= 25.0\ngini = 0.49\nsamples = 7\nvalue = [3, 4]"] ;
340 -> 341 ;
342 [label="X[8] <= 16.5\ngini = 0.32\nsamples = 5\nvalue = [1, 4]"] ;
341 -> 342 ;
343 [label="gini = 0.0\nsamples = 4\nvalue = [0, 4]"] ;
342 -> 343 ;
344 [label="gini = 0.0\nsamples = 1\nvalue = [1, 0]"] ;
342 -> 344 ;
345 [label="gini = 0.0\nsamples = 2\nvalue = [2, 0]"] ;
341 -> 345 ;
346 [label="X[3] <= 2.5\ngini = 0.185\nsamples = 29\nvalue = [26, 3]"] ;
340 -> 346 ;
347 [label="X[5] <= 5.5\ngini = 0.375\nsamples = 12\nvalue = [9, 3]"] ;
346 -> 347 ;
348 [label="X[0] <= 8.5\ngini = 0.5\nsamples = 6\nvalue = [3, 3]"] ;
347 -> 348 ;
349 [label="gini = 0.0\nsamples = 2\nvalue = [2, 0]"] ;
348 -> 349 ;
350 [label="X[6] <= 4.5\ngini = 0.375\nsamples = 4\nvalue = [1, 3]"] ;
348 -> 350 ;
351 [label="gini = 0.0\nsamples = 3\nvalue = [0, 3]"] ;
350 -> 351 ;
352 [label="gini = 0.0\nsamples = 1\nvalue = [1, 0]"] ;
350 -> 352 ;
353 [label="gini = 0.0\nsamples = 6\nvalue = [6, 0]"] ;
347 -> 353 ;
354 [label="gini = 0.0\nsamples = 17\nvalue = [17, 0]"] ;
346 -> 354 ;
355 [label="X[1] <= 16.5\ngini = 0.44\nsamples = 49\nvalue = [33, 16]"] ;
297 -> 355 ;
356 [label="X[1] <= 12.5\ngini = 0.498\nsamples = 17\nvalue = [8, 9]"] ;
355 -> 356 ;
357 [label="X[7] <= 2.5\ngini = 0.463\nsamples = 11\nvalue = [7, 4]"] ;
356 -> 357 ;
358 [label="X[1] <= 11.0\ngini = 0.375\nsamples = 4\nvalue = [1, 3]"] ;
357 -> 358 ;
359 [label="gini = 0.0\nsamples = 3\nvalue = [0, 3]"] ;
358 -> 359 ;
360 [label="gini = 0.0\nsamples = 1\nvalue = [1, 0]"] ;
358 -> 360 ;
361 [label="X[0] <= 7.0\ngini = 0.245\nsamples = 7\nvalue = [6, 1]"] ;
357 -> 361 ;
362 [label="gini = 0.0\nsamples = 1\nvalue = [0, 1]"] ;
361 -> 362 ;
363 [label="gini = 0.0\nsamples = 6\nvalue = [6, 0]"] ;
361 -> 363 ;
364 [label="X[0] <= 4.5\ngini = 0.278\nsamples = 6\nvalue = [1, 5]"] ;
356 -> 364 ;
365 [label="gini = 0.0\nsamples = 1\nvalue = [1, 0]"] ;
364 -> 365 ;
366 [label="gini = 0.0\nsamples = 5\nvalue = [0, 5]"] ;
364 -> 366 ;
367 [label="X[6] <= 4.5\ngini = 0.342\nsamples = 32\nvalue = [25, 7]"] ;
355 -> 367 ;
368 [label="X[8] <= 21.0\ngini = 0.18\nsamples = 20\nvalue = [18, 2]"] ;
367 -> 368 ;
369 [label="X[9] <= 14.0\ngini = 0.1\nsamples = 19\nvalue = [18, 1]"] ;
368 -> 369 ;
370 [label="gini = 0.0\nsamples = 17\nvalue = [17, 0]"] ;
369 -> 370 ;
371 [label="X[4] <= 0.5\ngini = 0.5\nsamples = 2\nvalue = [1, 1]"] ;
369 -> 371 ;
372 [label="gini = 0.0\nsamples = 1\nvalue = [1, 0]"] ;
371 -> 372 ;
373 [label="gini = 0.0\nsamples = 1\nvalue = [0, 1]"] ;
371 -> 373 ;
374 [label="gini = 0.0\nsamples = 1\nvalue = [0, 1]"] ;
368 -> 374 ;
375 [label="X[0] <= 25.0\ngini = 0.486\nsamples = 12\nvalue = [7, 5]"] ;
367 -> 375 ;
376 [label="X[2] <= 8.5\ngini = 0.42\nsamples = 10\nvalue = [7, 3]"] ;
375 -> 376 ;
377 [label="X[2] <= 4.5\ngini = 0.346\nsamples = 9\nvalue = [7, 2]"] ;
376 -> 377 ;
378 [label="X[6] <= 5.5\ngini = 0.5\nsamples = 4\nvalue = [2, 2]"] ;
377 -> 378 ;
379 [label="gini = 0.0\nsamples = 2\nvalue = [0, 2]"] ;
378 -> 379 ;
380 [label="gini = 0.0\nsamples = 2\nvalue = [2, 0]"] ;
378 -> 380 ;
381 [label="gini = 0.0\nsamples = 5\nvalue = [5, 0]"] ;
377 -> 381 ;
382 [label="gini = 0.0\nsamples = 1\nvalue = [0, 1]"] ;
376 -> 382 ;
383 [label="gini = 0.0\nsamples = 2\nvalue = [0, 2]"] ;
375 -> 383 ;
384 [label="X[7] <= 1.5\ngini = 0.397\nsamples = 1173\nvalue = [320, 853]"] ;
0 -> 384 [labeldistance=2.5, labelangle=-45, headlabel="False"] ;
385 [label="X[2] <= 0.5\ngini = 0.273\nsamples = 737\nvalue = [120, 617]"] ;
384 -> 385 ;
386 [label="X[5] <= 8.5\ngini = 0.266\nsamples = 19\nvalue = [16, 3]"] ;
385 -> 386 ;
387 [label="X[3] <= 2.5\ngini = 0.375\nsamples = 12\nvalue = [9, 3]"] ;
386 -> 387 ;
388 [label="X[5] <= 5.0\ngini = 0.444\nsamples = 3\nvalue = [1, 2]"] ;
387 -> 388 ;
389 [label="gini = 0.0\nsamples = 1\nvalue = [1, 0]"] ;
388 -> 389 ;
390 [label="gini = 0.0\nsamples = 2\nvalue = [0, 2]"] ;
388 -> 390 ;
391 [label="X[10] <= 0.5\ngini = 0.198\nsamples = 9\nvalue = [8, 1]"] ;
387 -> 391 ;
392 [label="gini = 0.0\nsamples = 1\nvalue = [0, 1]"] ;
391 -> 392 ;
393 [label="gini = 0.0\nsamples = 8\nvalue = [8, 0]"] ;
391 -> 393 ;
394 [label="gini = 0.0\nsamples = 7\nvalue = [7, 0]"] ;
386 -> 394 ;
395 [label="X[6] <= 3.5\ngini = 0.248\nsamples = 718\nvalue = [104, 614]"] ;
385 -> 395 ;
396 [label="X[9] <= 0.5\ngini = 0.497\nsamples = 50\nvalue = [23, 27]"] ;
395 -> 396 ;
397 [label="X[1] <= 7.0\ngini = 0.34\nsamples = 23\nvalue = [5, 18]"] ;
396 -> 397 ;
398 [label="gini = 0.0\nsamples = 2\nvalue = [2, 0]"] ;
397 -> 398 ;
399 [label="X[0] <= 7.0\ngini = 0.245\nsamples = 21\nvalue = [3, 18]"] ;
397 -> 399 ;
400 [label="gini = 0.0\nsamples = 1\nvalue = [1, 0]"] ;
399 -> 400 ;
401 [label="X[3] <= 6.5\ngini = 0.18\nsamples = 20\nvalue = [2, 18]"] ;
399 -> 401 ;
402 [label="X[10] <= 0.5\ngini = 0.111\nsamples = 17\nvalue = [1, 16]"] ;
401 -> 402 ;
403 [label="X[3] <= 3.0\ngini = 0.375\nsamples = 4\nvalue = [1, 3]"] ;
402 -> 403 ;
404 [label="gini = 0.0\nsamples = 1\nvalue = [1, 0]"] ;
403 -> 404 ;
405 [label="gini = 0.0\nsamples = 3\nvalue = [0, 3]"] ;
403 -> 405 ;
406 [label="gini = 0.0\nsamples = 13\nvalue = [0, 13]"] ;
402 -> 406 ;
407 [label="X[0] <= 28.0\ngini = 0.444\nsamples = 3\nvalue = [1, 2]"] ;
401 -> 407 ;
408 [label="gini = 0.0\nsamples = 1\nvalue = [1, 0]"] ;
407 -> 408 ;
409 [label="gini = 0.0\nsamples = 2\nvalue = [0, 2]"] ;
407 -> 409 ;
410 [label="X[2] <= 3.5\ngini = 0.444\nsamples = 27\nvalue = [18, 9]"] ;
396 -> 410 ;
411 [label="X[0] <= 26.5\ngini = 0.26\nsamples = 13\nvalue = [11, 2]"] ;
410 -> 411 ;
412 [label="gini = 0.0\nsamples = 10\nvalue = [10, 0]"] ;
411 -> 412 ;
413 [label="X[9] <= 3.5\ngini = 0.444\nsamples = 3\nvalue = [1, 2]"] ;
411 -> 413 ;
414 [label="gini = 0.0\nsamples = 2\nvalue = [0, 2]"] ;
413 -> 414 ;
415 [label="gini = 0.0\nsamples = 1\nvalue = [1, 0]"] ;
413 -> 415 ;
416 [label="X[1] <= 24.5\ngini = 0.5\nsamples = 14\nvalue = [7, 7]"] ;
410 -> 416 ;
417 [label="X[2] <= 4.5\ngini = 0.245\nsamples = 7\nvalue = [1, 6]"] ;
416 -> 417 ;
418 [label="X[0] <= 16.5\ngini = 0.5\nsamples = 2\nvalue = [1, 1]"] ;
417 -> 418 ;
419 [label="gini = 0.0\nsamples = 1\nvalue = [0, 1]"] ;
418 -> 419 ;
420 [label="gini = 0.0\nsamples = 1\nvalue = [1, 0]"] ;
418 -> 420 ;
421 [label="gini = 0.0\nsamples = 5\nvalue = [0, 5]"] ;
417 -> 421 ;
422 [label="X[8] <= 1.5\ngini = 0.245\nsamples = 7\nvalue = [6, 1]"] ;
416 -> 422 ;
423 [label="gini = 0.0\nsamples = 1\nvalue = [0, 1]"] ;
422 -> 423 ;
424 [label="gini = 0.0\nsamples = 6\nvalue = [6, 0]"] ;
422 -> 424 ;
425 [label="X[8] <= 3.5\ngini = 0.213\nsamples = 668\nvalue = [81, 587]"] ;
395 -> 425 ;
426 [label="X[0] <= 15.5\ngini = 0.147\nsamples = 515\nvalue = [41, 474]"] ;
425 -> 426 ;
427 [label="X[6] <= 5.5\ngini = 0.313\nsamples = 98\nvalue = [19, 79]"] ;
426 -> 427 ;
428 [label="X[3] <= 0.5\ngini = 0.484\nsamples = 17\nvalue = [10, 7]"] ;
427 -> 428 ;
429 [label="gini = 0.0\nsamples = 2\nvalue = [0, 2]"] ;
428 -> 429 ;
430 [label="X[0] <= 14.5\ngini = 0.444\nsamples = 15\nvalue = [10, 5]"] ;
428 -> 430 ;
431 [label="X[8] <= 1.5\ngini = 0.32\nsamples = 10\nvalue = [8, 2]"] ;
430 -> 431 ;
432 [label="gini = 0.0\nsamples = 7\nvalue = [7, 0]"] ;
431 -> 432 ;
433 [label="X[2] <= 4.5\ngini = 0.444\nsamples = 3\nvalue = [1, 2]"] ;
431 -> 433 ;
434 [label="gini = 0.0\nsamples = 1\nvalue = [0, 1]"] ;
433 -> 434 ;
435 [label="X[3] <= 4.5\ngini = 0.5\nsamples = 2\nvalue = [1, 1]"] ;
433 -> 435 ;
436 [label="gini = 0.0\nsamples = 1\nvalue = [1, 0]"] ;
435 -> 436 ;
437 [label="gini = 0.0\nsamples = 1\nvalue = [0, 1]"] ;
435 -> 437 ;
438 [label="X[5] <= 4.0\ngini = 0.48\nsamples = 5\nvalue = [2, 3]"] ;
430 -> 438 ;
439 [label="gini = 0.0\nsamples = 2\nvalue = [0, 2]"] ;
438 -> 439 ;
440 [label="X[10] <= 0.5\ngini = 0.444\nsamples = 3\nvalue = [2, 1]"] ;
438 -> 440 ;
441 [label="gini = 0.0\nsamples = 1\nvalue = [0, 1]"] ;
440 -> 441 ;
442 [label="gini = 0.0\nsamples = 2\nvalue = [2, 0]"] ;
440 -> 442 ;
443 [label="X[3] <= 4.5\ngini = 0.198\nsamples = 81\nvalue = [9, 72]"] ;
427 -> 443 ;
444 [label="X[5] <= 4.5\ngini = 0.147\nsamples = 75\nvalue = [6, 69]"] ;
443 -> 444 ;
445 [label="X[1] <= 22.0\ngini = 0.444\nsamples = 3\nvalue = [2, 1]"] ;
444 -> 445 ;
446 [label="gini = 0.0\nsamples = 2\nvalue = [2, 0]"] ;
445 -> 446 ;
447 [label="gini = 0.0\nsamples = 1\nvalue = [0, 1]"] ;
445 -> 447 ;
448 [label="X[0] <= 5.0\ngini = 0.105\nsamples = 72\nvalue = [4, 68]"] ;
444 -> 448 ;
449 [label="X[5] <= 9.0\ngini = 0.49\nsamples = 7\nvalue = [3, 4]"] ;
448 -> 449 ;
450 [label="X[0] <= 3.5\ngini = 0.48\nsamples = 5\nvalue = [3, 2]"] ;
449 -> 450 ;
451 [label="X[5] <= 7.0\ngini = 0.444\nsamples = 3\nvalue = [1, 2]"] ;
450 -> 451 ;
452 [label="gini = 0.0\nsamples = 2\nvalue = [0, 2]"] ;
451 -> 452 ;
453 [label="gini = 0.0\nsamples = 1\nvalue = [1, 0]"] ;
451 -> 453 ;
454 [label="gini = 0.0\nsamples = 2\nvalue = [2, 0]"] ;
450 -> 454 ;
455 [label="gini = 0.0\nsamples = 2\nvalue = [0, 2]"] ;
449 -> 455 ;
456 [label="X[1] <= 26.5\ngini = 0.03\nsamples = 65\nvalue = [1, 64]"] ;
448 -> 456 ;
457 [label="gini = 0.0\nsamples = 55\nvalue = [0, 55]"] ;
456 -> 457 ;
458 [label="X[3] <= 3.5\ngini = 0.18\nsamples = 10\nvalue = [1, 9]"] ;
456 -> 458 ;
459 [label="gini = 0.0\nsamples = 7\nvalue = [0, 7]"] ;
458 -> 459 ;
460 [label="X[0] <= 11.5\ngini = 0.444\nsamples = 3\nvalue = [1, 2]"] ;
458 -> 460 ;
461 [label="gini = 0.0\nsamples = 2\nvalue = [0, 2]"] ;
460 -> 461 ;
462 [label="gini = 0.0\nsamples = 1\nvalue = [1, 0]"] ;
460 -> 462 ;
463 [label="X[1] <= 12.0\ngini = 0.5\nsamples = 6\nvalue = [3, 3]"] ;
443 -> 463 ;
464 [label="gini = 0.0\nsamples = 2\nvalue = [2, 0]"] ;
463 -> 464 ;
465 [label="X[2] <= 1.5\ngini = 0.375\nsamples = 4\nvalue = [1, 3]"] ;
463 -> 465 ;
466 [label="gini = 0.0\nsamples = 1\nvalue = [1, 0]"] ;
465 -> 466 ;
467 [label="gini = 0.0\nsamples = 3\nvalue = [0, 3]"] ;
465 -> 467 ;
468 [label="X[9] <= 9.0\ngini = 0.1\nsamples = 417\nvalue = [22, 395]"] ;
426 -> 468 ;
469 [label="X[6] <= 19.5\ngini = 0.096\nsamples = 416\nvalue = [21, 395]"] ;
468 -> 469 ;
470 [label="X[5] <= 6.5\ngini = 0.092\nsamples = 415\nvalue = [20, 395]"] ;
469 -> 470 ;
471 [label="X[1] <= 28.5\ngini = 0.181\nsamples = 139\nvalue = [14, 125]"] ;
470 -> 471 ;
472 [label="X[9] <= 5.5\ngini = 0.151\nsamples = 134\nvalue = [11, 123]"] ;
471 -> 472 ;
473 [label="X[1] <= 18.5\ngini = 0.139\nsamples = 133\nvalue = [10, 123]"] ;
472 -> 473 ;
474 [label="X[3] <= 3.5\ngini = 0.058\nsamples = 67\nvalue = [2, 65]"] ;
473 -> 474 ;
475 [label="X[1] <= 6.0\ngini = 0.208\nsamples = 17\nvalue = [2, 15]"] ;
474 -> 475 ;
476 [label="gini = 0.0\nsamples = 1\nvalue = [1, 0]"] ;
475 -> 476 ;
477 [label="X[0] <= 18.0\ngini = 0.117\nsamples = 16\nvalue = [1, 15]"] ;
475 -> 477 ;
478 [label="X[1] <= 15.5\ngini = 0.444\nsamples = 3\nvalue = [1, 2]"] ;
477 -> 478 ;
479 [label="gini = 0.0\nsamples = 2\nvalue = [0, 2]"] ;
478 -> 479 ;
480 [label="gini = 0.0\nsamples = 1\nvalue = [1, 0]"] ;
478 -> 480 ;
481 [label="gini = 0.0\nsamples = 13\nvalue = [0, 13]"] ;
477 -> 481 ;
482 [label="gini = 0.0\nsamples = 50\nvalue = [0, 50]"] ;
474 -> 482 ;
483 [label="X[3] <= 7.5\ngini = 0.213\nsamples = 66\nvalue = [8, 58]"] ;
473 -> 483 ;
484 [label="X[5] <= 5.5\ngini = 0.155\nsamples = 59\nvalue = [5, 54]"] ;
483 -> 484 ;
485 [label="X[1] <= 19.5\ngini = 0.048\nsamples = 41\nvalue = [1, 40]"] ;
484 -> 485 ;
486 [label="X[8] <= 0.5\ngini = 0.444\nsamples = 3\nvalue = [1, 2]"] ;
485 -> 486 ;
487 [label="gini = 0.0\nsamples = 2\nvalue = [0, 2]"] ;
486 -> 487 ;
488 [label="gini = 0.0\nsamples = 1\nvalue = [1, 0]"] ;
486 -> 488 ;
489 [label="gini = 0.0\nsamples = 38\nvalue = [0, 38]"] ;
485 -> 489 ;
490 [label="X[6] <= 7.5\ngini = 0.346\nsamples = 18\nvalue = [4, 14]"] ;
484 -> 490 ;
491 [label="X[1] <= 22.0\ngini = 0.48\nsamples = 10\nvalue = [4, 6]"] ;
490 -> 491 ;
492 [label="gini = 0.0\nsamples = 4\nvalue = [0, 4]"] ;
491 -> 492 ;
493 [label="X[2] <= 5.0\ngini = 0.444\nsamples = 6\nvalue = [4, 2]"] ;
491 -> 493 ;
494 [label="gini = 0.0\nsamples = 3\nvalue = [3, 0]"] ;
493 -> 494 ;
495 [label="X[4] <= 3.0\ngini = 0.444\nsamples = 3\nvalue = [1, 2]"] ;
493 -> 495 ;
496 [label="gini = 0.0\nsamples = 2\nvalue = [0, 2]"] ;
495 -> 496 ;
497 [label="gini = 0.0\nsamples = 1\nvalue = [1, 0]"] ;
495 -> 497 ;
498 [label="gini = 0.0\nsamples = 8\nvalue = [0, 8]"] ;
490 -> 498 ;
499 [label="X[2] <= 7.5\ngini = 0.49\nsamples = 7\nvalue = [3, 4]"] ;
483 -> 499 ;
500 [label="X[0] <= 28.5\ngini = 0.48\nsamples = 5\nvalue = [3, 2]"] ;
499 -> 500 ;
501 [label="gini = 0.0\nsamples = 2\nvalue = [2, 0]"] ;
500 -> 501 ;
502 [label="X[2] <= 4.5\ngini = 0.444\nsamples = 3\nvalue = [1, 2]"] ;
500 -> 502 ;
503 [label="gini = 0.0\nsamples = 1\nvalue = [1, 0]"] ;
502 -> 503 ;
504 [label="gini = 0.0\nsamples = 2\nvalue = [0, 2]"] ;
502 -> 504 ;
505 [label="gini = 0.0\nsamples = 2\nvalue = [0, 2]"] ;
499 -> 505 ;
506 [label="gini = 0.0\nsamples = 1\nvalue = [1, 0]"] ;
472 -> 506 ;
507 [label="X[10] <= 0.5\ngini = 0.48\nsamples = 5\nvalue = [3, 2]"] ;
471 -> 507 ;
508 [label="gini = 0.0\nsamples = 2\nvalue = [0, 2]"] ;
507 -> 508 ;
509 [label="gini = 0.0\nsamples = 3\nvalue = [3, 0]"] ;
507 -> 509 ;
510 [label="X[6] <= 18.5\ngini = 0.043\nsamples = 276\nvalue = [6, 270]"] ;
470 -> 510 ;
511 [label="X[1] <= 27.5\ngini = 0.036\nsamples = 273\nvalue = [5, 268]"] ;
510 -> 511 ;
512 [label="X[5] <= 7.5\ngini = 0.023\nsamples = 254\nvalue = [3, 251]"] ;
511 -> 512 ;
513 [label="X[1] <= 21.5\ngini = 0.081\nsamples = 47\nvalue = [2, 45]"] ;
512 -> 513 ;
514 [label="gini = 0.0\nsamples = 31\nvalue = [0, 31]"] ;
513 -> 514 ;
515 [label="X[4] <= 4.5\ngini = 0.219\nsamples = 16\nvalue = [2, 14]"] ;
513 -> 515 ;
516 [label="X[1] <= 22.5\ngini = 0.133\nsamples = 14\nvalue = [1, 13]"] ;
515 -> 516 ;
517 [label="X[3] <= 5.5\ngini = 0.444\nsamples = 3\nvalue = [1, 2]"] ;
516 -> 517 ;
518 [label="gini = 0.0\nsamples = 2\nvalue = [0, 2]"] ;
517 -> 518 ;
519 [label="gini = 0.0\nsamples = 1\nvalue = [1, 0]"] ;
517 -> 519 ;
520 [label="gini = 0.0\nsamples = 11\nvalue = [0, 11]"] ;
516 -> 520 ;
521 [label="X[3] <= 5.0\ngini = 0.5\nsamples = 2\nvalue = [1, 1]"] ;
515 -> 521 ;
522 [label="gini = 0.0\nsamples = 1\nvalue = [1, 0]"] ;
521 -> 522 ;
523 [label="gini = 0.0\nsamples = 1\nvalue = [0, 1]"] ;
521 -> 523 ;
524 [label="X[2] <= 2.5\ngini = 0.01\nsamples = 207\nvalue = [1, 206]"] ;
512 -> 524 ;
525 [label="X[3] <= 5.5\ngini = 0.056\nsamples = 35\nvalue = [1, 34]"] ;
524 -> 525 ;
526 [label="gini = 0.0\nsamples = 27\nvalue = [0, 27]"] ;
525 -> 526 ;
527 [label="X[4] <= 3.5\ngini = 0.219\nsamples = 8\nvalue = [1, 7]"] ;
525 -> 527 ;
528 [label="X[5] <= 8.5\ngini = 0.444\nsamples = 3\nvalue = [1, 2]"] ;
527 -> 528 ;
529 [label="gini = 0.0\nsamples = 2\nvalue = [0, 2]"] ;
528 -> 529 ;
530 [label="gini = 0.0\nsamples = 1\nvalue = [1, 0]"] ;
528 -> 530 ;
531 [label="gini = 0.0\nsamples = 5\nvalue = [0, 5]"] ;
527 -> 531 ;
532 [label="gini = 0.0\nsamples = 172\nvalue = [0, 172]"] ;
524 -> 532 ;
533 [label="X[2] <= 1.5\ngini = 0.188\nsamples = 19\nvalue = [2, 17]"] ;
511 -> 533 ;
534 [label="gini = 0.0\nsamples = 1\nvalue = [1, 0]"] ;
533 -> 534 ;
535 [label="X[3] <= 7.5\ngini = 0.105\nsamples = 18\nvalue = [1, 17]"] ;
533 -> 535 ;
536 [label="gini = 0.0\nsamples = 16\nvalue = [0, 16]"] ;
535 -> 536 ;
537 [label="X[6] <= 16.0\ngini = 0.5\nsamples = 2\nvalue = [1, 1]"] ;
535 -> 537 ;
538 [label="gini = 0.0\nsamples = 1\nvalue = [1, 0]"] ;
537 -> 538 ;
539 [label="gini = 0.0\nsamples = 1\nvalue = [0, 1]"] ;
537 -> 539 ;
540 [label="X[3] <= 5.5\ngini = 0.444\nsamples = 3\nvalue = [1, 2]"] ;
510 -> 540 ;
541 [label="gini = 0.0\nsamples = 2\nvalue = [0, 2]"] ;
540 -> 541 ;
542 [label="gini = 0.0\nsamples = 1\nvalue = [1, 0]"] ;
540 -> 542 ;
543 [label="gini = 0.0\nsamples = 1\nvalue = [1, 0]"] ;
469 -> 543 ;
544 [label="gini = 0.0\nsamples = 1\nvalue = [1, 0]"] ;
468 -> 544 ;
545 [label="X[0] <= 22.5\ngini = 0.386\nsamples = 153\nvalue = [40, 113]"] ;
425 -> 545 ;
546 [label="X[3] <= 5.5\ngini = 0.494\nsamples = 56\nvalue = [25, 31]"] ;
545 -> 546 ;
547 [label="X[2] <= 2.5\ngini = 0.426\nsamples = 39\nvalue = [12, 27]"] ;
546 -> 547 ;
548 [label="X[0] <= 14.0\ngini = 0.469\nsamples = 8\nvalue = [5, 3]"] ;
547 -> 548 ;
549 [label="gini = 0.0\nsamples = 2\nvalue = [0, 2]"] ;
548 -> 549 ;
550 [label="X[0] <= 21.5\ngini = 0.278\nsamples = 6\nvalue = [5, 1]"] ;
548 -> 550 ;
551 [label="gini = 0.0\nsamples = 5\nvalue = [5, 0]"] ;
550 -> 551 ;
552 [label="gini = 0.0\nsamples = 1\nvalue = [0, 1]"] ;
550 -> 552 ;
553 [label="X[10] <= 0.5\ngini = 0.35\nsamples = 31\nvalue = [7, 24]"] ;
547 -> 553 ;
554 [label="gini = 0.0\nsamples = 9\nvalue = [0, 9]"] ;
553 -> 554 ;
555 [label="X[5] <= 10.5\ngini = 0.434\nsamples = 22\nvalue = [7, 15]"] ;
553 -> 555 ;
556 [label="X[9] <= 3.5\ngini = 0.498\nsamples = 15\nvalue = [7, 8]"] ;
555 -> 556 ;
557 [label="X[2] <= 5.5\ngini = 0.32\nsamples = 5\nvalue = [4, 1]"] ;
556 -> 557 ;
558 [label="gini = 0.0\nsamples = 4\nvalue = [4, 0]"] ;
557 -> 558 ;
559 [label="gini = 0.0\nsamples = 1\nvalue = [0, 1]"] ;
557 -> 559 ;
560 [label="X[5] <= 7.5\ngini = 0.42\nsamples = 10\nvalue = [3, 7]"] ;
556 -> 560 ;
561 [label="gini = 0.0\nsamples = 4\nvalue = [0, 4]"] ;
560 -> 561 ;
562 [label="X[9] <= 5.5\ngini = 0.5\nsamples = 6\nvalue = [3, 3]"] ;
560 -> 562 ;
563 [label="X[6] <= 10.0\ngini = 0.375\nsamples = 4\nvalue = [1, 3]"] ;
562 -> 563 ;
564 [label="gini = 0.0\nsamples = 3\nvalue = [0, 3]"] ;
563 -> 564 ;
565 [label="gini = 0.0\nsamples = 1\nvalue = [1, 0]"] ;
563 -> 565 ;
566 [label="gini = 0.0\nsamples = 2\nvalue = [2, 0]"] ;
562 -> 566 ;
567 [label="gini = 0.0\nsamples = 7\nvalue = [0, 7]"] ;
555 -> 567 ;
568 [label="X[8] <= 7.5\ngini = 0.36\nsamples = 17\nvalue = [13, 4]"] ;
546 -> 568 ;
569 [label="X[2] <= 7.5\ngini = 0.231\nsamples = 15\nvalue = [13, 2]"] ;
568 -> 569 ;
570 [label="gini = 0.0\nsamples = 12\nvalue = [12, 0]"] ;
569 -> 570 ;
571 [label="X[5] <= 6.5\ngini = 0.444\nsamples = 3\nvalue = [1, 2]"] ;
569 -> 571 ;
572 [label="gini = 0.0\nsamples = 1\nvalue = [1, 0]"] ;
571 -> 572 ;
573 [label="gini = 0.0\nsamples = 2\nvalue = [0, 2]"] ;
571 -> 573 ;
574 [label="gini = 0.0\nsamples = 2\nvalue = [0, 2]"] ;
568 -> 574 ;
575 [label="X[3] <= 6.5\ngini = 0.261\nsamples = 97\nvalue = [15, 82]"] ;
545 -> 575 ;
576 [label="X[8] <= 5.5\ngini = 0.178\nsamples = 81\nvalue = [8, 73]"] ;
575 -> 576 ;
577 [label="X[6] <= 4.5\ngini = 0.036\nsamples = 55\nvalue = [1, 54]"] ;
576 -> 577 ;
578 [label="X[10] <= 0.5\ngini = 0.278\nsamples = 6\nvalue = [1, 5]"] ;
577 -> 578 ;
579 [label="gini = 0.0\nsamples = 5\nvalue = [0, 5]"] ;
578 -> 579 ;
580 [label="gini = 0.0\nsamples = 1\nvalue = [1, 0]"] ;
578 -> 580 ;
581 [label="gini = 0.0\nsamples = 49\nvalue = [0, 49]"] ;
577 -> 581 ;
582 [label="X[10] <= 0.5\ngini = 0.393\nsamples = 26\nvalue = [7, 19]"] ;
576 -> 582 ;
583 [label="gini = 0.0\nsamples = 10\nvalue = [0, 10]"] ;
582 -> 583 ;
584 [label="X[1] <= 13.5\ngini = 0.492\nsamples = 16\nvalue = [7, 9]"] ;
582 -> 584 ;
585 [label="gini = 0.0\nsamples = 4\nvalue = [0, 4]"] ;
584 -> 585 ;
586 [label="X[9] <= 2.5\ngini = 0.486\nsamples = 12\nvalue = [7, 5]"] ;
584 -> 586 ;
587 [label="gini = 0.0\nsamples = 2\nvalue = [0, 2]"] ;
586 -> 587 ;
588 [label="X[8] <= 6.5\ngini = 0.42\nsamples = 10\nvalue = [7, 3]"] ;
586 -> 588 ;
589 [label="gini = 0.0\nsamples = 4\nvalue = [4, 0]"] ;
588 -> 589 ;
590 [label="X[8] <= 7.5\ngini = 0.5\nsamples = 6\nvalue = [3, 3]"] ;
588 -> 590 ;
591 [label="X[1] <= 27.0\ngini = 0.375\nsamples = 4\nvalue = [1, 3]"] ;
590 -> 591 ;
592 [label="gini = 0.0\nsamples = 3\nvalue = [0, 3]"] ;
591 -> 592 ;
593 [label="gini = 0.0\nsamples = 1\nvalue = [1, 0]"] ;
591 -> 593 ;
594 [label="gini = 0.0\nsamples = 2\nvalue = [2, 0]"] ;
590 -> 594 ;
595 [label="X[2] <= 3.5\ngini = 0.492\nsamples = 16\nvalue = [7, 9]"] ;
575 -> 595 ;
596 [label="gini = 0.0\nsamples = 4\nvalue = [0, 4]"] ;
595 -> 596 ;
597 [label="X[4] <= 5.5\ngini = 0.486\nsamples = 12\nvalue = [7, 5]"] ;
595 -> 597 ;
598 [label="X[9] <= 1.0\ngini = 0.346\nsamples = 9\nvalue = [7, 2]"] ;
597 -> 598 ;
599 [label="gini = 0.0\nsamples = 1\nvalue = [0, 1]"] ;
598 -> 599 ;
600 [label="X[5] <= 7.5\ngini = 0.219\nsamples = 8\nvalue = [7, 1]"] ;
598 -> 600 ;
601 [label="X[5] <= 6.0\ngini = 0.5\nsamples = 2\nvalue = [1, 1]"] ;
600 -> 601 ;
602 [label="gini = 0.0\nsamples = 1\nvalue = [1, 0]"] ;
601 -> 602 ;
603 [label="gini = 0.0\nsamples = 1\nvalue = [0, 1]"] ;
601 -> 603 ;
604 [label="gini = 0.0\nsamples = 6\nvalue = [6, 0]"] ;
600 -> 604 ;
605 [label="gini = 0.0\nsamples = 3\nvalue = [0, 3]"] ;
597 -> 605 ;
606 [label="X[1] <= 16.5\ngini = 0.497\nsamples = 436\nvalue = [200, 236]"] ;
384 -> 606 ;
607 [label="X[8] <= 10.5\ngini = 0.409\nsamples = 136\nvalue = [39, 97]"] ;
606 -> 607 ;
608 [label="X[6] <= 2.5\ngini = 0.296\nsamples = 94\nvalue = [17, 77]"] ;
607 -> 608 ;
609 [label="X[0] <= 22.5\ngini = 0.48\nsamples = 10\nvalue = [6, 4]"] ;
608 -> 609 ;
610 [label="X[3] <= 1.0\ngini = 0.278\nsamples = 6\nvalue = [5, 1]"] ;
609 -> 610 ;
611 [label="gini = 0.0\nsamples = 1\nvalue = [0, 1]"] ;
610 -> 611 ;
612 [label="gini = 0.0\nsamples = 5\nvalue = [5, 0]"] ;
610 -> 612 ;
613 [label="X[0] <= 28.0\ngini = 0.375\nsamples = 4\nvalue = [1, 3]"] ;
609 -> 613 ;
614 [label="gini = 0.0\nsamples = 3\nvalue = [0, 3]"] ;
613 -> 614 ;
615 [label="gini = 0.0\nsamples = 1\nvalue = [1, 0]"] ;
613 -> 615 ;
616 [label="X[3] <= 7.5\ngini = 0.228\nsamples = 84\nvalue = [11, 73]"] ;
608 -> 616 ;
617 [label="X[9] <= 9.5\ngini = 0.212\nsamples = 83\nvalue = [10, 73]"] ;
616 -> 617 ;
618 [label="X[4] <= 2.5\ngini = 0.157\nsamples = 70\nvalue = [6, 64]"] ;
617 -> 618 ;
619 [label="gini = 0.0\nsamples = 25\nvalue = [0, 25]"] ;
618 -> 619 ;
620 [label="X[2] <= 2.5\ngini = 0.231\nsamples = 45\nvalue = [6, 39]"] ;
618 -> 620 ;
621 [label="X[8] <= 3.5\ngini = 0.08\nsamples = 24\nvalue = [1, 23]"] ;
620 -> 621 ;
622 [label="X[7] <= 2.5\ngini = 0.5\nsamples = 2\nvalue = [1, 1]"] ;
621 -> 622 ;
623 [label="gini = 0.0\nsamples = 1\nvalue = [0, 1]"] ;
622 -> 623 ;
624 [label="gini = 0.0\nsamples = 1\nvalue = [1, 0]"] ;
622 -> 624 ;
625 [label="gini = 0.0\nsamples = 22\nvalue = [0, 22]"] ;
621 -> 625 ;
626 [label="X[9] <= 5.5\ngini = 0.363\nsamples = 21\nvalue = [5, 16]"] ;
620 -> 626 ;
627 [label="X[6] <= 4.5\ngini = 0.153\nsamples = 12\nvalue = [1, 11]"] ;
626 -> 627 ;
628 [label="gini = 0.0\nsamples = 1\nvalue = [1, 0]"] ;
627 -> 628 ;
629 [label="gini = 0.0\nsamples = 11\nvalue = [0, 11]"] ;
627 -> 629 ;
630 [label="X[6] <= 7.5\ngini = 0.494\nsamples = 9\nvalue = [4, 5]"] ;
626 -> 630 ;
631 [label="gini = 0.0\nsamples = 3\nvalue = [0, 3]"] ;
630 -> 631 ;
632 [label="X[9] <= 8.5\ngini = 0.444\nsamples = 6\nvalue = [4, 2]"] ;
630 -> 632 ;
633 [label="gini = 0.0\nsamples = 4\nvalue = [4, 0]"] ;
632 -> 633 ;
634 [label="gini = 0.0\nsamples = 2\nvalue = [0, 2]"] ;
632 -> 634 ;
635 [label="X[6] <= 5.5\ngini = 0.426\nsamples = 13\nvalue = [4, 9]"] ;
617 -> 635 ;
636 [label="gini = 0.0\nsamples = 4\nvalue = [0, 4]"] ;
635 -> 636 ;
637 [label="X[5] <= 10.5\ngini = 0.494\nsamples = 9\nvalue = [4, 5]"] ;
635 -> 637 ;
638 [label="X[2] <= 4.5\ngini = 0.32\nsamples = 5\nvalue = [4, 1]"] ;
637 -> 638 ;
639 [label="gini = 0.0\nsamples = 4\nvalue = [4, 0]"] ;
638 -> 639 ;
640 [label="gini = 0.0\nsamples = 1\nvalue = [0, 1]"] ;
638 -> 640 ;
641 [label="gini = 0.0\nsamples = 4\nvalue = [0, 4]"] ;
637 -> 641 ;
642 [label="gini = 0.0\nsamples = 1\nvalue = [1, 0]"] ;
616 -> 642 ;
643 [label="X[3] <= 4.5\ngini = 0.499\nsamples = 42\nvalue = [22, 20]"] ;
607 -> 643 ;
644 [label="X[6] <= 3.5\ngini = 0.482\nsamples = 32\nvalue = [13, 19]"] ;
643 -> 644 ;
645 [label="gini = 0.0\nsamples = 5\nvalue = [5, 0]"] ;
644 -> 645 ;
646 [label="X[5] <= 9.5\ngini = 0.417\nsamples = 27\nvalue = [8, 19]"] ;
644 -> 646 ;
647 [label="X[7] <= 2.5\ngini = 0.498\nsamples = 15\nvalue = [7, 8]"] ;
646 -> 647 ;
648 [label="gini = 0.0\nsamples = 3\nvalue = [3, 0]"] ;
647 -> 648 ;
649 [label="X[5] <= 7.5\ngini = 0.444\nsamples = 12\nvalue = [4, 8]"] ;
647 -> 649 ;
650 [label="gini = 0.0\nsamples = 6\nvalue = [0, 6]"] ;
649 -> 650 ;
651 [label="X[7] <= 4.0\ngini = 0.444\nsamples = 6\nvalue = [4, 2]"] ;
649 -> 651 ;
652 [label="X[6] <= 9.0\ngini = 0.444\nsamples = 3\nvalue = [1, 2]"] ;
651 -> 652 ;
653 [label="gini = 0.0\nsamples = 2\nvalue = [0, 2]"] ;
652 -> 653 ;
654 [label="gini = 0.0\nsamples = 1\nvalue = [1, 0]"] ;
652 -> 654 ;
655 [label="gini = 0.0\nsamples = 3\nvalue = [3, 0]"] ;
651 -> 655 ;
656 [label="X[8] <= 31.0\ngini = 0.153\nsamples = 12\nvalue = [1, 11]"] ;
646 -> 656 ;
657 [label="gini = 0.0\nsamples = 11\nvalue = [0, 11]"] ;
656 -> 657 ;
658 [label="gini = 0.0\nsamples = 1\nvalue = [1, 0]"] ;
656 -> 658 ;
659 [label="X[6] <= 7.5\ngini = 0.18\nsamples = 10\nvalue = [9, 1]"] ;
643 -> 659 ;
660 [label="X[6] <= 6.5\ngini = 0.5\nsamples = 2\nvalue = [1, 1]"] ;
659 -> 660 ;
661 [label="gini = 0.0\nsamples = 1\nvalue = [1, 0]"] ;
660 -> 661 ;
662 [label="gini = 0.0\nsamples = 1\nvalue = [0, 1]"] ;
660 -> 662 ;
663 [label="gini = 0.0\nsamples = 8\nvalue = [8, 0]"] ;
659 -> 663 ;
664 [label="X[0] <= 20.5\ngini = 0.497\nsamples = 300\nvalue = [161, 139]"] ;
606 -> 664 ;
665 [label="X[5] <= 7.5\ngini = 0.45\nsamples = 161\nvalue = [106, 55]"] ;
664 -> 665 ;
666 [label="X[2] <= 8.5\ngini = 0.26\nsamples = 65\nvalue = [55, 10]"] ;
665 -> 666 ;
667 [label="X[9] <= 9.5\ngini = 0.225\nsamples = 62\nvalue = [54, 8]"] ;
666 -> 667 ;
668 [label="X[7] <= 3.5\ngini = 0.32\nsamples = 40\nvalue = [32, 8]"] ;
667 -> 668 ;
669 [label="X[3] <= 0.5\ngini = 0.272\nsamples = 37\nvalue = [31, 6]"] ;
668 -> 669 ;
670 [label="X[2] <= 1.5\ngini = 0.49\nsamples = 7\nvalue = [4, 3]"] ;
669 -> 670 ;
671 [label="gini = 0.0\nsamples = 4\nvalue = [4, 0]"] ;
670 -> 671 ;
672 [label="gini = 0.0\nsamples = 3\nvalue = [0, 3]"] ;
670 -> 672 ;
673 [label="X[6] <= 2.5\ngini = 0.18\nsamples = 30\nvalue = [27, 3]"] ;
669 -> 673 ;
674 [label="X[0] <= 17.0\ngini = 0.5\nsamples = 2\nvalue = [1, 1]"] ;
673 -> 674 ;
675 [label="gini = 0.0\nsamples = 1\nvalue = [0, 1]"] ;
674 -> 675 ;
676 [label="gini = 0.0\nsamples = 1\nvalue = [1, 0]"] ;
674 -> 676 ;
677 [label="X[6] <= 10.0\ngini = 0.133\nsamples = 28\nvalue = [26, 2]"] ;
673 -> 677 ;
678 [label="X[9] <= 3.5\ngini = 0.074\nsamples = 26\nvalue = [25, 1]"] ;
677 -> 678 ;
679 [label="X[0] <= 12.0\ngini = 0.375\nsamples = 4\nvalue = [3, 1]"] ;
678 -> 679 ;
680 [label="gini = 0.0\nsamples = 1\nvalue = [0, 1]"] ;
679 -> 680 ;
681 [label="gini = 0.0\nsamples = 3\nvalue = [3, 0]"] ;
679 -> 681 ;
682 [label="gini = 0.0\nsamples = 22\nvalue = [22, 0]"] ;
678 -> 682 ;
683 [label="X[2] <= 3.0\ngini = 0.5\nsamples = 2\nvalue = [1, 1]"] ;
677 -> 683 ;
684 [label="gini = 0.0\nsamples = 1\nvalue = [1, 0]"] ;
683 -> 684 ;
685 [label="gini = 0.0\nsamples = 1\nvalue = [0, 1]"] ;
683 -> 685 ;
686 [label="X[9] <= 8.0\ngini = 0.444\nsamples = 3\nvalue = [1, 2]"] ;
668 -> 686 ;
687 [label="gini = 0.0\nsamples = 1\nvalue = [1, 0]"] ;
686 -> 687 ;
688 [label="gini = 0.0\nsamples = 2\nvalue = [0, 2]"] ;
686 -> 688 ;
689 [label="gini = 0.0\nsamples = 22\nvalue = [22, 0]"] ;
667 -> 689 ;
690 [label="X[9] <= 10.5\ngini = 0.444\nsamples = 3\nvalue = [1, 2]"] ;
666 -> 690 ;
691 [label="gini = 0.0\nsamples = 1\nvalue = [1, 0]"] ;
690 -> 691 ;
692 [label="gini = 0.0\nsamples = 2\nvalue = [0, 2]"] ;
690 -> 692 ;
693 [label="X[3] <= 1.5\ngini = 0.498\nsamples = 96\nvalue = [51, 45]"] ;
665 -> 693 ;
694 [label="X[7] <= 4.5\ngini = 0.408\nsamples = 28\nvalue = [8, 20]"] ;
693 -> 694 ;
695 [label="X[2] <= 3.5\ngini = 0.287\nsamples = 23\nvalue = [4, 19]"] ;
694 -> 695 ;
696 [label="X[5] <= 13.0\ngini = 0.48\nsamples = 10\nvalue = [4, 6]"] ;
695 -> 696 ;
697 [label="X[8] <= 5.5\ngini = 0.375\nsamples = 8\nvalue = [2, 6]"] ;
696 -> 697 ;
698 [label="X[8] <= 3.5\ngini = 0.444\nsamples = 3\nvalue = [2, 1]"] ;
697 -> 698 ;
699 [label="gini = 0.0\nsamples = 1\nvalue = [0, 1]"] ;
698 -> 699 ;
700 [label="gini = 0.0\nsamples = 2\nvalue = [2, 0]"] ;
698 -> 700 ;
701 [label="gini = 0.0\nsamples = 5\nvalue = [0, 5]"] ;
697 -> 701 ;
702 [label="gini = 0.0\nsamples = 2\nvalue = [2, 0]"] ;
696 -> 702 ;
703 [label="gini = 0.0\nsamples = 13\nvalue = [0, 13]"] ;
695 -> 703 ;
704 [label="X[5] <= 9.0\ngini = 0.32\nsamples = 5\nvalue = [4, 1]"] ;
694 -> 704 ;
705 [label="gini = 0.0\nsamples = 1\nvalue = [0, 1]"] ;
704 -> 705 ;
706 [label="gini = 0.0\nsamples = 4\nvalue = [4, 0]"] ;
704 -> 706 ;
707 [label="X[2] <= 3.5\ngini = 0.465\nsamples = 68\nvalue = [43, 25]"] ;
693 -> 707 ;
708 [label="X[4] <= 2.5\ngini = 0.497\nsamples = 24\nvalue = [11, 13]"] ;
707 -> 708 ;
709 [label="X[9] <= 11.5\ngini = 0.346\nsamples = 9\nvalue = [7, 2]"] ;
708 -> 709 ;
710 [label="gini = 0.0\nsamples = 6\nvalue = [6, 0]"] ;
709 -> 710 ;
711 [label="X[6] <= 5.0\ngini = 0.444\nsamples = 3\nvalue = [1, 2]"] ;
709 -> 711 ;
712 [label="gini = 0.0\nsamples = 1\nvalue = [1, 0]"] ;
711 -> 712 ;
713 [label="gini = 0.0\nsamples = 2\nvalue = [0, 2]"] ;
711 -> 713 ;
714 [label="X[8] <= 7.5\ngini = 0.391\nsamples = 15\nvalue = [4, 11]"] ;
708 -> 714 ;
715 [label="gini = 0.0\nsamples = 6\nvalue = [0, 6]"] ;
714 -> 715 ;
716 [label="X[2] <= 1.5\ngini = 0.494\nsamples = 9\nvalue = [4, 5]"] ;
714 -> 716 ;
717 [label="gini = 0.0\nsamples = 2\nvalue = [2, 0]"] ;
716 -> 717 ;
718 [label="X[1] <= 23.0\ngini = 0.408\nsamples = 7\nvalue = [2, 5]"] ;
716 -> 718 ;
719 [label="X[9] <= 8.0\ngini = 0.444\nsamples = 3\nvalue = [2, 1]"] ;
718 -> 719 ;
720 [label="gini = 0.0\nsamples = 1\nvalue = [0, 1]"] ;
719 -> 720 ;
721 [label="gini = 0.0\nsamples = 2\nvalue = [2, 0]"] ;
719 -> 721 ;
722 [label="gini = 0.0\nsamples = 4\nvalue = [0, 4]"] ;
718 -> 722 ;
723 [label="X[0] <= 15.5\ngini = 0.397\nsamples = 44\nvalue = [32, 12]"] ;
707 -> 723 ;
724 [label="X[6] <= 6.5\ngini = 0.469\nsamples = 24\nvalue = [15, 9]"] ;
723 -> 724 ;
725 [label="gini = 0.0\nsamples = 3\nvalue = [0, 3]"] ;
724 -> 725 ;
726 [label="X[8] <= 4.5\ngini = 0.408\nsamples = 21\nvalue = [15, 6]"] ;
724 -> 726 ;
727 [label="X[9] <= 3.5\ngini = 0.48\nsamples = 5\nvalue = [2, 3]"] ;
726 -> 727 ;
728 [label="gini = 0.0\nsamples = 2\nvalue = [2, 0]"] ;
727 -> 728 ;
729 [label="gini = 0.0\nsamples = 3\nvalue = [0, 3]"] ;
727 -> 729 ;
730 [label="X[6] <= 11.5\ngini = 0.305\nsamples = 16\nvalue = [13, 3]"] ;
726 -> 730 ;
731 [label="X[8] <= 11.0\ngini = 0.142\nsamples = 13\nvalue = [12, 1]"] ;
730 -> 731 ;
732 [label="gini = 0.0\nsamples = 8\nvalue = [8, 0]"] ;
731 -> 732 ;
733 [label="X[8] <= 12.5\ngini = 0.32\nsamples = 5\nvalue = [4, 1]"] ;
731 -> 733 ;
734 [label="gini = 0.0\nsamples = 1\nvalue = [0, 1]"] ;
733 -> 734 ;
735 [label="gini = 0.0\nsamples = 4\nvalue = [4, 0]"] ;
733 -> 735 ;
736 [label="X[1] <= 24.5\ngini = 0.444\nsamples = 3\nvalue = [1, 2]"] ;
730 -> 736 ;
737 [label="gini = 0.0\nsamples = 1\nvalue = [1, 0]"] ;
736 -> 737 ;
738 [label="gini = 0.0\nsamples = 2\nvalue = [0, 2]"] ;
736 -> 738 ;
739 [label="X[2] <= 7.0\ngini = 0.255\nsamples = 20\nvalue = [17, 3]"] ;
723 -> 739 ;
740 [label="X[1] <= 20.5\ngini = 0.188\nsamples = 19\nvalue = [17, 2]"] ;
739 -> 740 ;
741 [label="gini = 0.0\nsamples = 1\nvalue = [0, 1]"] ;
740 -> 741 ;
742 [label="X[9] <= 3.5\ngini = 0.105\nsamples = 18\nvalue = [17, 1]"] ;
740 -> 742 ;
743 [label="X[4] <= 4.0\ngini = 0.5\nsamples = 2\nvalue = [1, 1]"] ;
742 -> 743 ;
744 [label="gini = 0.0\nsamples = 1\nvalue = [0, 1]"] ;
743 -> 744 ;
745 [label="gini = 0.0\nsamples = 1\nvalue = [1, 0]"] ;
743 -> 745 ;
746 [label="gini = 0.0\nsamples = 16\nvalue = [16, 0]"] ;
742 -> 746 ;
747 [label="gini = 0.0\nsamples = 1\nvalue = [0, 1]"] ;
739 -> 747 ;
748 [label="X[10] <= 0.5\ngini = 0.478\nsamples = 139\nvalue = [55, 84]"] ;
664 -> 748 ;
749 [label="X[9] <= 14.5\ngini = 0.332\nsamples = 76\nvalue = [16, 60]"] ;
748 -> 749 ;
750 [label="X[6] <= 6.5\ngini = 0.293\nsamples = 73\nvalue = [13, 60]"] ;
749 -> 750 ;
751 [label="X[8] <= 6.5\ngini = 0.431\nsamples = 35\nvalue = [11, 24]"] ;
750 -> 751 ;
752 [label="X[3] <= 6.0\ngini = 0.117\nsamples = 16\nvalue = [1, 15]"] ;
751 -> 752 ;
753 [label="gini = 0.0\nsamples = 14\nvalue = [0, 14]"] ;
752 -> 753 ;
754 [label="X[1] <= 23.5\ngini = 0.5\nsamples = 2\nvalue = [1, 1]"] ;
752 -> 754 ;
755 [label="gini = 0.0\nsamples = 1\nvalue = [1, 0]"] ;
754 -> 755 ;
756 [label="gini = 0.0\nsamples = 1\nvalue = [0, 1]"] ;
754 -> 756 ;
757 [label="X[7] <= 3.5\ngini = 0.499\nsamples = 19\nvalue = [10, 9]"] ;
751 -> 757 ;
758 [label="X[9] <= 7.5\ngini = 0.408\nsamples = 14\nvalue = [10, 4]"] ;
757 -> 758 ;
759 [label="X[2] <= 2.0\ngini = 0.375\nsamples = 4\nvalue = [1, 3]"] ;
758 -> 759 ;
760 [label="gini = 0.0\nsamples = 1\nvalue = [1, 0]"] ;
759 -> 760 ;
761 [label="gini = 0.0\nsamples = 3\nvalue = [0, 3]"] ;
759 -> 761 ;
762 [label="X[6] <= 5.5\ngini = 0.18\nsamples = 10\nvalue = [9, 1]"] ;
758 -> 762 ;
763 [label="gini = 0.0\nsamples = 7\nvalue = [7, 0]"] ;
762 -> 763 ;
764 [label="X[1] <= 20.5\ngini = 0.444\nsamples = 3\nvalue = [2, 1]"] ;
762 -> 764 ;
765 [label="gini = 0.0\nsamples = 1\nvalue = [0, 1]"] ;
764 -> 765 ;
766 [label="gini = 0.0\nsamples = 2\nvalue = [2, 0]"] ;
764 -> 766 ;
767 [label="gini = 0.0\nsamples = 5\nvalue = [0, 5]"] ;
757 -> 767 ;
768 [label="X[8] <= 5.5\ngini = 0.1\nsamples = 38\nvalue = [2, 36]"] ;
750 -> 768 ;
769 [label="X[6] <= 7.5\ngini = 0.32\nsamples = 10\nvalue = [2, 8]"] ;
768 -> 769 ;
770 [label="gini = 0.0\nsamples = 1\nvalue = [1, 0]"] ;
769 -> 770 ;
771 [label="X[2] <= 6.0\ngini = 0.198\nsamples = 9\nvalue = [1, 8]"] ;
769 -> 771 ;
772 [label="gini = 0.0\nsamples = 8\nvalue = [0, 8]"] ;
771 -> 772 ;
773 [label="gini = 0.0\nsamples = 1\nvalue = [1, 0]"] ;
771 -> 773 ;
774 [label="gini = 0.0\nsamples = 28\nvalue = [0, 28]"] ;
768 -> 774 ;
775 [label="gini = 0.0\nsamples = 3\nvalue = [3, 0]"] ;
749 -> 775 ;
776 [label="X[5] <= 11.5\ngini = 0.472\nsamples = 63\nvalue = [39, 24]"] ;
748 -> 776 ;
777 [label="X[9] <= 2.5\ngini = 0.411\nsamples = 52\nvalue = [37, 15]"] ;
776 -> 777 ;
778 [label="X[5] <= 5.0\ngini = 0.278\nsamples = 6\nvalue = [1, 5]"] ;
777 -> 778 ;
779 [label="gini = 0.0\nsamples = 1\nvalue = [1, 0]"] ;
778 -> 779 ;
780 [label="gini = 0.0\nsamples = 5\nvalue = [0, 5]"] ;
778 -> 780 ;
781 [label="X[2] <= 5.5\ngini = 0.34\nsamples = 46\nvalue = [36, 10]"] ;
777 -> 781 ;
782 [label="X[3] <= 7.5\ngini = 0.219\nsamples = 40\nvalue = [35, 5]"] ;
781 -> 782 ;
783 [label="X[9] <= 5.5\ngini = 0.184\nsamples = 39\nvalue = [35, 4]"] ;
782 -> 783 ;
784 [label="X[9] <= 4.5\ngini = 0.375\nsamples = 16\nvalue = [12, 4]"] ;
783 -> 784 ;
785 [label="X[8] <= 5.5\ngini = 0.165\nsamples = 11\nvalue = [10, 1]"] ;
784 -> 785 ;
786 [label="gini = 0.0\nsamples = 8\nvalue = [8, 0]"] ;
785 -> 786 ;
787 [label="X[9] <= 3.5\ngini = 0.444\nsamples = 3\nvalue = [2, 1]"] ;
785 -> 787 ;
788 [label="gini = 0.0\nsamples = 1\nvalue = [0, 1]"] ;
787 -> 788 ;
789 [label="gini = 0.0\nsamples = 2\nvalue = [2, 0]"] ;
787 -> 789 ;
790 [label="X[1] <= 27.5\ngini = 0.48\nsamples = 5\nvalue = [2, 3]"] ;
784 -> 790 ;
791 [label="gini = 0.0\nsamples = 3\nvalue = [0, 3]"] ;
790 -> 791 ;
792 [label="gini = 0.0\nsamples = 2\nvalue = [2, 0]"] ;
790 -> 792 ;
793 [label="gini = 0.0\nsamples = 23\nvalue = [23, 0]"] ;
783 -> 793 ;
794 [label="gini = 0.0\nsamples = 1\nvalue = [0, 1]"] ;
782 -> 794 ;
795 [label="X[5] <= 3.5\ngini = 0.278\nsamples = 6\nvalue = [1, 5]"] ;
781 -> 795 ;
796 [label="gini = 0.0\nsamples = 1\nvalue = [1, 0]"] ;
795 -> 796 ;
797 [label="gini = 0.0\nsamples = 5\nvalue = [0, 5]"] ;
795 -> 797 ;
798 [label="X[9] <= 12.0\ngini = 0.298\nsamples = 11\nvalue = [2, 9]"] ;
776 -> 798 ;
799 [label="X[1] <= 27.0\ngini = 0.18\nsamples = 10\nvalue = [1, 9]"] ;
798 -> 799 ;
800 [label="gini = 0.0\nsamples = 8\nvalue = [0, 8]"] ;
799 -> 800 ;
801 [label="X[9] <= 7.0\ngini = 0.5\nsamples = 2\nvalue = [1, 1]"] ;
799 -> 801 ;
802 [label="gini = 0.0\nsamples = 1\nvalue = [0, 1]"] ;
801 -> 802 ;
803 [label="gini = 0.0\nsamples = 1\nvalue = [1, 0]"] ;
801 -> 803 ;
804 [label="gini = 0.0\nsamples = 1\nvalue = [1, 0]"] ;
798 -> 804 ;
}