digraph Tree {
node [shape=box] ;
0 [label="my_board_nb_creatures <= 1.5\ngini = 0.495\nsamples = 2049\nvalue = [920, 1129]"] ;
1 [label="opponent_board_total_attack <= 4.5\ngini = 0.432\nsamples = 876\nvalue = [600, 276]"] ;
0 -> 1 [labeldistance=2.5, labelangle=45, headlabel="True"] ;
3 [label="gini = 0.499\nsamples = 351\nvalue = [169, 182]"] ;
1 -> 3 ;
4 [label="gini = 0.294\nsamples = 525\nvalue = [431, 94]"] ;
1 -> 4 ;
2 [label="opponent_board_nb_creatures <= 1.5\ngini = 0.397\nsamples = 1173\nvalue = [320, 853]"] ;
0 -> 2 [labeldistance=2.5, labelangle=-45, headlabel="False"] ;
5 [label="my_hand <= 0.5\ngini = 0.273\nsamples = 737\nvalue = [120, 617]"] ;
2 -> 5 ;
7 [label="gini = 0.266\nsamples = 19\nvalue = [16, 3]"] ;
5 -> 7 ;
8 [label="gini = 0.248\nsamples = 718\nvalue = [104, 614]"] ;
5 -> 8 ;
6 [label="gini = 0.497\nsamples = 436\nvalue = [200, 236]"] ;
2 -> 6 ;
}